 (0.000000000000000000e+00+0.000000000000000000e+00j)  (0.000000000000000000e+00+0.000000000000000000e+00j)  (0.000000000000000000e+00+0.000000000000000000e+00j)  (1.000000000000000000e+00+0.000000000000000000e+00j)  (4.500000000000000111e-01+0.000000000000000000e+00j)  (2.544690049407732690e+00+0.000000000000000000e+00j)  (3.817035074111598814e-01+0.000000000000000000e+00j)  (0.000000000000000000e+00+0.000000000000000000e+00j)  (0.000000000000000000e+00+0.000000000000000000e+00j)
 (1.999599999999999642e-02+0.000000000000000000e+00j)  (0.000000000000000000e+00+0.000000000000000000e+00j)  (0.000000000000000000e+00+0.000000000000000000e+00j)  (9.994673396633205753e-01+0.000000000000000000e+00j)  (4.497603028484942755e-01+0.000000000000000000e+00j)  (2.543334593949270417e+00+0.000000000000000000e+00j)  (3.815815108490596685e-01+0.000000000000000000e+00j)  (-0.000000000000000000e+00-8.477893212153772215e-03j)  (-0.000000000000000000e+00-4.794135665979792210e-02j)
 (3.999199999999999283e-02+0.000000000000000000e+00j)  (0.000000000000000000e+00+0.000000000000000000e+00j)  (0.000000000000000000e+00+0.000000000000000000e+00j)  (9.978703800084182118e-01+0.000000000000000000e+00j)  (4.490416710037881676e-01+0.000000000000000000e+00j)  (2.539270826606134346e+00+0.000000000000000000e+00j)  (3.812156882576260841e-01+0.000000000000000000e+00j)  (-0.000000000000000000e+00-1.693953089422114283e-02j)  (-0.000000000000000000e+00-9.579079046257647778e-02j)
 (5.998799999999998578e-02+0.000000000000000000e+00j)  (0.000000000000000000e+00+0.000000000000000000e+00j)  (0.000000000000000000e+00+0.000000000000000000e+00j)  (9.952121827693092282e-01+0.000000000000000000e+00j)  (4.478454822461891971e-01+0.000000000000000000e+00j)  (2.532506538542410812e+00+0.000000000000000000e+00j)  (3.806065406244485416e-01+0.000000000000000000e+00j)  (-0.000000000000000000e+00-2.536869462108852155e-02j)  (-0.000000000000000000e+00-1.434565883749942816e-01j)
 (7.998399999999998566e-02+0.000000000000000000e+00j)  (0.000000000000000000e+00+0.000000000000000000e+00j)  (0.000000000000000000e+00+0.000000000000000000e+00j)  (9.914978430705136958e-01+0.000000000000000000e+00j)  (4.461740293817311742e-01+0.000000000000000000e+00j)  (2.523054695270765535e+00+0.000000000000000000e+00j)  (3.797549019406929460e-01+0.000000000000000000e+00j)  (-0.000000000000000000e+00-3.374924008536048931e-02j)  (-0.000000000000000000e+00-1.908474564895319969e-01j)
 (9.997999999999998555e-02+0.000000000000000000e+00j)  (0.000000000000000000e+00+0.000000000000000000e+00j)  (0.000000000000000000e+00+0.000000000000000000e+00j)  (9.867344777990573190e-01+0.000000000000000000e+00j)  (4.440305150095757991e-01+0.000000000000000000e+00j)  (2.510933407062796441e+00+0.000000000000000000e+00j)  (3.786619377206630332e-01+0.000000000000000000e+00j)  (-0.000000000000000000e+00-4.206513392590222750e-02j)  (-0.000000000000000000e+00-2.378727282849933677e-01j)
 (1.199759999999999716e-01+0.000000000000000000e+00j)  (0.000000000000000000e+00+0.000000000000000000e+00j)  (0.000000000000000000e+00+0.000000000000000000e+00j)  (9.809312093657580611e-01+0.000000000000000000e+00j)  (4.414190442145911608e-01+0.000000000000000000e+00j)  (2.496165887626537572e+00+0.000000000000000000e+00j)  (3.773291429336058656e-01+0.000000000000000000e+00j)  (-0.000000000000000000e+00-5.030049028066901212e-02j)  (-0.000000000000000000e+00-2.844425713278861956e-01j)
 (1.399719999999999853e-01+0.000000000000000000e+00j)  (0.000000000000000000e+00+0.000000000000000000e+00j)  (0.000000000000000000e+00+0.000000000000000000e+00j)  (9.740991448961389132e-01+0.000000000000000000e+00j)  (4.383446152032624554e-01+0.000000000000000000e+00j)  (2.478780401153785728e+00+0.000000000000000000e+00j)  (3.757583393517540671e-01+0.000000000000000000e+00j)  (-0.000000000000000000e+00-5.843960697304860508e-02j)  (-0.000000000000000000e+00-3.304681919013678359e-01j)
 (1.599679999999999713e-01+0.000000000000000000e+00j)  (0.000000000000000000e+00+0.000000000000000000e+00j)  (0.000000000000000000e+00+0.000000000000000000e+00j)  (9.662513509026744440e-01+0.000000000000000000e+00j)  (4.348131079062035331e-01+0.000000000000000000e+00j)  (2.458810197868814829e+00+0.000000000000000000e+00j)  (3.739516723200893011e-01+0.000000000000000000e+00j)  (-0.000000000000000000e+00-6.646700124188900660e-02j)  (-0.000000000000000000e+00-3.758620370537918420e-01j)
 (1.799639999999999573e-01+0.000000000000000000e+00j)  (0.000000000000000000e+00+0.000000000000000000e+00j)  (0.000000000000000000e+00+0.000000000000000000e+00j)  (9.574028235012785881e-01+0.000000000000000000e+00j)  (4.308312705755754091e-01+0.000000000000000000e+00j)  (2.436293438238571252e+00+0.000000000000000000e+00j)  (3.719116069543222380e-01+0.000000000000000000e+00j)  (-0.000000000000000000e+00-7.436744492658629857e-02j)  (-0.000000000000000000e+00-4.205379935656926582e-01j)
 (1.999599999999999711e-01+0.000000000000000000e+00j)  (0.000000000000000000e+00+0.000000000000000000e+00j)  (0.000000000000000000e+00+0.000000000000000000e+00j)  (9.475704542459936208e-01+0.000000000000000000e+00j)  (4.264067044106971127e-01+0.000000000000000000e+00j)  (2.411273106032544966e+00+0.000000000000000000e+00j)  (3.696409237748490284e-01+0.000000000000000000e+00j)  (-0.000000000000000000e+00-8.212599902002080954e-02j)  (-0.000000000000000000e+00-4.644115833420358608e-01j)
 (2.199559999999999571e-01+0.000000000000000000e+00j)  (0.000000000000000000e+00+0.000000000000000000e+00j)  (0.000000000000000000e+00+0.000000000000000000e+00j)  (9.367729916666979184e-01+0.000000000000000000e+00j)  (4.215478462500140133e-01+0.000000000000000000e+00j)  (2.383796910448158890e+00+0.000000000000000000e+00j)  (3.671427137855443057e-01+0.000000000000000000e+00j)  (-0.000000000000000000e+00-8.972804750379238803e-02j)  (-0.000000000000000000e+00-5.074001547459662254e-01j)
 (2.399519999999999431e-01+0.000000000000000000e+00j)  (0.000000000000000000e+00+0.000000000000000000e+00j)  (0.000000000000000000e+00+0.000000000000000000e+00j)  (9.250309986052791533e-01+0.000000000000000000e+00j)  (4.162639493723756523e-01+0.000000000000000000e+00j)  (2.353917177544551986e+00+0.000000000000000000e+00j)  (3.644203730073729552e-01+0.000000000000000000e+00j)  (-0.000000000000000000e+00-9.715933038207247296e-02j)  (-0.000000000000000000e+00-5.494230694008405136e-01j)
 (2.599479999999999569e-01+0.000000000000000000e+00j)  (0.000000000000000000e+00+0.000000000000000000e+00j)  (0.000000000000000000e+00+0.000000000000000000e+00j)  (9.123668054561064888e-01+0.000000000000000000e+00j)  (4.105650624552479311e-01+0.000000000000000000e+00j)  (2.321690731254074436e+00+0.000000000000000000e+00j)  (3.614775964778986772e-01+0.000000000000000000e+00j)  (-0.000000000000000000e+00-1.044059758324854398e-01j)  (-0.000000000000000000e+00-5.904018839991775902e-01j)
 (2.799439999999999706e-01+0.000000000000000000e+00j)  (0.000000000000000000e+00+0.000000000000000000e+00j)  (0.000000000000000000e+00+0.000000000000000000e+00j)  (8.988044594267431409e-01+0.000000000000000000e+00j)  (4.044620067420343634e-01+0.000000000000000000e+00j)  (2.287178764266529107e+00+0.000000000000000000e+00j)  (3.583183717288678238e-01+0.000000000000000000e+00j)  (-0.000000000000000000e+00-1.114545313947402499e-01j)  (-0.000000000000000000e+00-6.302605266702160369e-01j)
 (2.999399999999999289e-01+0.000000000000000000e+00j)  (0.000000000000000000e+00+0.000000000000000000e+00j)  (0.000000000000000000e+00+0.000000000000000000e+00j)  (8.843696699446428333e-01+0.000000000000000000e+00j)  (3.979663514750892972e-01+0.000000000000000000e+00j)  (2.250446699106133153e+00+0.000000000000000000e+00j)  (3.549469717550670644e-01+0.000000000000000000e+00j)  (-0.000000000000000000e+00-1.182919941202386638e-01j)  (-0.000000000000000000e+00-6.689254674719318228e-01j)
 (3.199359999999999427e-01+0.000000000000000000e+00j)  (0.000000000000000000e+00+0.000000000000000000e+00j)  (0.000000000000000000e+00+0.000000000000000000e+00j)  (8.690897503450573103e-01+0.000000000000000000e+00j)  (3.910903876552758174e-01+0.000000000000000000e+00j)  (2.211564039745318233e+00+0.000000000000000000e+00j)  (3.513679474886935994e-01+0.000000000000000000e+00j)  (-0.000000000000000000e+00-1.249058396086029366e-01j)  (-0.000000000000000000e+00-7.063258825887336334e-01j)
 (3.399319999999999564e-01+0.000000000000000000e+00j)  (0.000000000000000000e+00+0.000000000000000000e+00j)  (0.000000000000000000e+00+0.000000000000000000e+00j)  (8.529935559844972204e-01+0.000000000000000000e+00j)  (3.838471001930237603e-01+0.000000000000000000e+00j)  (2.170604214122668019e+00+0.000000000000000000e+00j)  (3.475861197944508652e-01+0.000000000000000000e+00j)  (-0.000000000000000000e+00-1.312840498599636974e-01j)  (-0.000000000000000000e+00-7.423938118324405755e-01j)
 (3.599279999999999147e-01+0.000000000000000000e+00j)  (0.000000000000000000e+00+0.000000000000000000e+00j)  (0.000000000000000000e+00+0.000000000000000000e+00j)  (8.361114189328462398e-01+0.000000000000000000e+00j)  (3.762501385197808412e-01+0.000000000000000000e+00j)  (2.127644407954593753e+00+0.000000000000000000e+00j)  (3.436065710015480112e-01+0.000000000000000000e+00j)  (-0.000000000000000000e+00-1.374151398749391129e-01j)  (-0.000000000000000000e+00-7.770643090616206061e-01j)
 (3.799239999999999284e-01+0.000000000000000000e+00j)  (0.000000000000000000e+00+0.000000000000000000e+00j)  (0.000000000000000000e+00+0.000000000000000000e+00j)  (8.184750794055711820e-01+0.000000000000000000e+00j)  (3.683137857325070597e-01+0.000000000000000000e+00j)  (2.082765390251560600e+00+0.000000000000000000e+00j)  (3.394346359896965870e-01+0.000000000000000000e+00j)  (-0.000000000000000000e+00-1.432881829374993976e-01j)  (-0.000000000000000000e+00-8.102755851528212760e-01j)
 (3.999199999999999422e-01+0.000000000000000000e+00j)  (0.000000000000000000e+00+0.000000000000000000e+00j)  (0.000000000000000000e+00+0.000000000000000000e+00j)  (8.001176141053992774e-01+0.000000000000000000e+00j)  (3.600529263474296915e-01+0.000000000000000000e+00j)  (2.036051330969865347e+00+0.000000000000000000e+00j)  (3.350758928470726206e-01+0.000000000000000000e+00j)  (-0.000000000000000000e+00-1.488928345193347158e-01j)  (-0.000000000000000000e+00-8.419691431765848888e-01j)
 (4.199159999999999004e-01+0.000000000000000000e+00j)  (0.000000000000000000e+00+0.000000000000000000e+00j)  (0.000000000000000000e+00+0.000000000000000000e+00j)  (7.810733616503277021e-01+0.000000000000000000e+00j)  (3.514830127426475381e-01+0.000000000000000000e+00j)  (1.987589611249036325e+00+0.000000000000000000e+00j)  (3.305361531190734170e-01+0.000000000000000000e+00j)  (-0.000000000000000000e+00-1.542193547479431270e-01j)  (-0.000000000000000000e+00-8.720899054514933413e-01j)
 (4.399119999999999142e-01+0.000000000000000000e+00j)  (0.000000000000000000e+00+0.000000000000000000e+00j)  (0.000000000000000000e+00+0.000000000000000000e+00j)  (7.613778452718482637e-01+0.000000000000000000e+00j)  (3.426200303723317409e-01+0.000000000000000000e+00j)  (1.937470626702772591e+00+0.000000000000000000e+00j)  (3.258214516674739492e-01+0.000000000000000000e+00j)  (-0.000000000000000000e+00-1.592586293843797629e-01j)  (-0.000000000000000000e+00-9.005863321705446234e-01j)
 (4.599079999999999280e-01+0.000000000000000000e+00j)  (0.000000000000000000e+00+0.000000000000000000e+00j)  (0.000000000000000000e+00+0.000000000000000000e+00j)  (7.410676929738285734e-01+0.000000000000000000e+00j)  (3.334804618382228303e-01+0.000000000000000000e+00j)  (1.885787584248046045e+00+0.000000000000000000e+00j)  (3.209380361603646481e-01+0.000000000000000000e+00j)  (-0.000000000000000000e+00-1.640021892604899556e-01j)  (-0.000000000000000000e+00-9.274105313161166153e-01j)
 (4.799039999999998862e-01+0.000000000000000000e+00j)  (0.000000000000000000e+00+0.000000000000000000e+00j)  (0.000000000000000000e+00+0.000000000000000000e+00j)  (7.201805553485391975e-01+0.000000000000000000e+00j)  (3.240812499068426722e-01+0.000000000000000000e+00j)  (1.832636292972362524e+00+0.000000000000000000e+00j)  (3.158923562139601682e-01+0.000000000000000000e+00j)  (-0.000000000000000000e+00-1.684422281294492008e-01j)  (-0.000000000000000000e+00-9.525183596023926169e-01j)
 (4.998999999999999000e-01+0.000000000000000000e+00j)  (0.000000000000000000e+00+0.000000000000000000e+00j)  (0.000000000000000000e+00+0.000000000000000000e+00j)  (6.987550212518637283e-01+0.000000000000000000e+00j)  (3.144397595633386944e-01+0.000000000000000000e+00j)  (1.778114949553306401e+00+0.000000000000000000e+00j)  (3.106910522080305048e-01+0.000000000000000000e+00j)  (-0.000000000000000000e+00-1.725716188875493495e-01j)  (-0.000000000000000000e+00-9.758695142074007567e-01j)
 (5.198959999999999138e-01+0.000000000000000000e+00j)  (0.000000000000000000e+00+0.000000000000000000e+00j)  (0.000000000000000000e+00+0.000000000000000000e+00j)  (6.768305315447461501e-01+0.000000000000000000e+00j)  (3.045737391951358064e-01+0.000000000000000000e+00j)  (1.722323918757262096e+00+0.000000000000000000e+00j)  (3.053409437973299001e-01+0.000000000000000000e+00j)  (-0.000000000000000000e+00-1.763839281293962113e-01j)  (-0.000000000000000000e+00-9.974276150807181995e-01j)
 (5.398919999999999275e-01+0.000000000000000000e+00j)  (0.000000000000000000e+00+0.000000000000000000e+00j)  (0.000000000000000000e+00+0.000000000000000000e+00j)  (6.544472911124155079e-01+0.000000000000000000e+00j)  (2.945012810005870341e-01+0.000000000000000000e+00j)  (1.665365509555609469e+00+0.000000000000000000e+00j)  (2.998490181419707912e-01+0.000000000000000000e+00j)  (-0.000000000000000000e+00-1.798734290030054306e-01j)  (-0.000000000000000000e+00-1.017160277637324750e+00j)
 (5.598879999999999413e-01+0.000000000000000000e+00j)  (0.000000000000000000e+00+0.000000000000000000e+00j)  (0.000000000000000000e+00+0.000000000000000000e+00j)  (6.316461793768619604e-01+0.000000000000000000e+00j)  (2.842407807195878600e-01+0.000000000000000000e+00j)  (1.607343747406712264e+00+0.000000000000000000e+00j)  (2.942224178802029244e-01+0.000000000000000000e+00j)  (-0.000000000000000000e+00-1.830351123356789289e-01j)  (-0.000000000000000000e+00-1.035039175672952672e+00j)
 (5.798839999999998440e-01+0.000000000000000000e+00j)  (0.000000000000000000e+00+0.000000000000000000e+00j)  (0.000000000000000000e+00+0.000000000000000000e+00j)  (6.084686595214141569e-01+0.000000000000000000e+00j)  (2.738108967846363817e-01+0.000000000000000000e+00j)  (1.548364143260604120e+00+0.000000000000000000e+00j)  (2.884684288675370967e-01+0.000000000000000000e+00j)  (-0.000000000000000000e+00-1.858646960060253983e-01j)  (-0.000000000000000000e+00-1.051040094361613164e+00j)
 (5.998799999999998578e-01+0.000000000000000000e+00j)  (0.000000000000000000e+00+0.000000000000000000e+00j)  (0.000000000000000000e+00+0.000000000000000000e+00j)  (5.849566866490829575e-01+0.000000000000000000e+00j)  (2.632305089920873309e-01+0.000000000000000000e+00j)  (1.488533459850438501e+00+0.000000000000000000e+00j)  (2.825944677065593824e-01+0.000000000000000000e+00j)  (-0.000000000000000000e+00-1.883586325420120167e-01j)  (-0.000000000000000000e+00-1.065142973221567813e+00j)
 (6.198759999999998715e-01+0.000000000000000000e+00j)  (0.000000000000000000e+00+0.000000000000000000e+00j)  (0.000000000000000000e+00+0.000000000000000000e+00j)  (5.611526150985729489e-01+0.000000000000000000e+00j)  (2.525186767943578547e-01+0.000000000000000000e+00j)  (1.427959475840466341e+00+0.000000000000000000e+00j)  (2.766080690921540186e-01+0.000000000000000000e+00j)  (-0.000000000000000000e+00-1.905141149295200287e-01j)  (-0.000000000000000000e+00-1.077331938961934910e+00j)
 (6.398719999999998853e-01+0.000000000000000000e+00j)  (0.000000000000000000e+00+0.000000000000000000e+00j)  (0.000000000000000000e+00+0.000000000000000000e+00j)  (5.370991051435265451e-01+0.000000000000000000e+00j)  (2.416945973145869231e-01+0.000000000000000000e+00j)  (1.366750748404529370e+00+0.000000000000000000e+00j)  (2.705168729971586528e-01+0.000000000000000000e+00j)  (-0.000000000000000000e+00-1.923290806204865366e-01j)  (-0.000000000000000000e+00-1.087595328148199147e+00j)
 (6.598679999999998991e-01+0.000000000000000000e+00j)  (0.000000000000000000e+00+0.000000000000000000e+00j)  (0.000000000000000000e+00+0.000000000000000000e+00j)  (5.128390293016424906e-01+0.000000000000000000e+00j)  (2.307775631857390819e-01+0.000000000000000000e+00j)  (1.305016374811809987e+00+0.000000000000000000e+00j)  (2.643286117237343968e-01+0.000000000000000000e+00j)  (-0.000000000000000000e+00-1.938022137343523577e-01j)  (-0.000000000000000000e+00-1.095925699651104646e+00j)
 (6.798639999999999128e-01+0.000000000000000000e+00j)  (0.000000000000000000e+00+0.000000000000000000e+00j)  (0.000000000000000000e+00+0.000000000000000000e+00j)  (4.884153784808158427e-01+0.000000000000000000e+00j)  (2.197869203163671237e-01+0.000000000000000000e+00j)  (1.242865753597843570e+00+0.000000000000000000e+00j)  (2.580510968459316379e-01+0.000000000000000000e+00j)  (-0.000000000000000000e+00-1.949329454511805337e-01j)  (-0.000000000000000000e+00-1.102319836869687597e+00j)
 (6.998599999999999266e-01+0.000000000000000000e+00j)  (0.000000000000000000e+00+0.000000000000000000e+00j)  (0.000000000000000000e+00+0.000000000000000000e+00j)  (4.638711681893499250e-01+0.000000000000000000e+00j)  (2.087420256852074718e-01+0.000000000000000000e+00j)  (1.180408345898579459e+00+0.000000000000000000e+00j)  (2.516922060690836016e-01+0.000000000000000000e+00j)  (-0.000000000000000000e+00-1.957214525994541987e-01j)  (-0.000000000000000000e+00-1.106778739745462925e+00j)
 (7.198559999999998293e-01+0.000000000000000000e+00j)  (0.000000000000000000e+00+0.000000000000000000e+00j)  (0.000000000000000000e+00+0.000000000000000000e+00j)  (4.392493450366283803e-01+0.000000000000000000e+00j)  (1.976622052664827878e-01+0.000000000000000000e+00j)  (1.117753437523572035e+00+0.000000000000000000e+00j)  (2.452598700317454028e-01+0.000000000000000000e+00j)  (-0.000000000000000000e+00-1.961686544461911930e-01j)  (-0.000000000000000000e+00-1.109307606610948183e+00j)
 (7.398519999999998431e-01+0.000000000000000000e+00j)  (0.000000000000000000e+00+0.000000000000000000e+00j)  (0.000000000000000000e+00+0.000000000000000000e+00j)  (4.145926937493862874e-01+0.000000000000000000e+00j)  (1.865667121872238432e-01+0.000000000000000000e+00j)  (1.055009902341210726e+00+0.000000000000000000e+00j)  (2.387620590759366446e-01+0.000000000000000000e+00j)  (-0.000000000000000000e+00-1.962762077016109719e-01j)  (-0.000000000000000000e+00-1.109915805941721789e+00j)
 (7.598479999999998569e-01+0.000000000000000000e+00j)  (0.000000000000000000e+00+0.000000000000000000e+00j)  (0.000000000000000000e+00+0.000000000000000000e+00j)  (3.899437449268926548e-01+0.000000000000000000e+00j)  (1.754746852171016891e-01+0.000000000000000000e+00j)  (9.922859675442508021e-01+0.000000000000000000e+00j)  (2.322067700114240352e-01+0.000000000000000000e+00j)  (-0.000000000000000000e+00-1.960464997551561173e-01j)  (-0.000000000000000000e+00-1.108616838107024938e+00j)
 (7.798439999999998706e-01+0.000000000000000000e+00j)  (0.000000000000000000e+00+0.000000000000000000e+00j)  (0.000000000000000000e+00+0.000000000000000000e+00j)  (3.653446837559611304e-01+0.000000000000000000e+00j)  (1.644051076901825170e-01+0.000000000000000000e+00j)  (9.296889813578091966e-01+0.000000000000000000e+00j)  (2.256020128997060781e-01+0.000000000000000000e+00j)  (-0.000000000000000000e+00-1.954826401641759637e-01j)  (-0.000000000000000000e+00-1.105428287239401897e+00j)
 (7.998399999999998844e-01+0.000000000000000000e+00j)  (0.000000000000000000e+00+0.000000000000000000e+00j)  (0.000000000000000000e+00+0.000000000000000000e+00j)  (3.408372599037529094e-01+0.000000000000000000e+00j)  (1.533767669566887815e-01+0.000000000000000000e+00j)  (8.673251837444770906e-01+0.000000000000000000e+00j)  (2.189557978832345764e-01+0.000000000000000000e+00j)  (-0.000000000000000000e+00-1.945884504210292354e-01j)  (-0.000000000000000000e+00-1.100371763369028866e+00j)
 (8.198359999999998982e-01+0.000000000000000000e+00j)  (0.000000000000000000e+00+0.000000000000000000e+00j)  (0.000000000000000000e+00+0.000000000000000000e+00j)  (3.164626988028194088e-01+0.000000000000000000e+00j)  (1.424082144612687506e-01+0.000000000000000000e+00j)  (8.052994806522508764e-01+0.000000000000000000e+00j)  (2.122761220852205644e-01+0.000000000000000000e+00j)  (-0.000000000000000000e+00-1.933684520287320407e-01j)  (-0.000000000000000000e+00-1.093472834993090892e+00j)
 (8.398319999999998009e-01+0.000000000000000000e+00j)  (0.000000000000000000e+00+0.000000000000000000e+00j)  (0.000000000000000000e+00+0.000000000000000000e+00j)  (2.922616145387808562e-01+0.000000000000000000e+00j)  (1.315177265424513908e-01+0.000000000000000000e+00j)  (7.437152223406739981e-01+0.000000000000000000e+00j)  (2.055709566051392434e-01+0.000000000000000000e+00j)  (-0.000000000000000000e+00-1.918278529195635851e-01j)  (-0.000000000000000000e+00-1.084760952274807844e+00j)
 (8.598279999999998147e-01+0.000000000000000000e+00j)  (0.000000000000000000e+00+0.000000000000000000e+00j)  (0.000000000000000000e+00+0.000000000000000000e+00j)  (2.682739245464463851e-01+0.000000000000000000e+00j)  (1.207232660459008899e-01+0.000000000000000000e+00j)  (6.826739863089030802e-01+0.000000000000000000e+00j)  (1.988482336347532076e-01+0.000000000000000000e+00j)  (-0.000000000000000000e+00-1.899725322552250628e-01j)  (-0.000000000000000000e+00-1.074269361090357089e+00j)
 (8.798239999999998284e-01+0.000000000000000000e+00j)  (0.000000000000000000e+00+0.000000000000000000e+00j)  (0.000000000000000000e+00+0.000000000000000000e+00j)  (2.445387663150783430e-01+0.000000000000000000e+00j)  (1.100424448417852558e-01+0.000000000000000000e+00j)  (6.222753653364226922e-01+0.000000000000000000e+00j)  (1.921158337191362087e-01+0.000000000000000000e+00j)  (-0.000000000000000000e+00-1.878090236512280631e-01j)  (-0.000000000000000000e+00-1.062035008165025607e+00j)
 (8.998199999999998422e-01+0.000000000000000000e+00j)  (0.000000000000000000e+00+0.000000000000000000e+00j)  (0.000000000000000000e+00+0.000000000000000000e+00j)  (2.210944162978867311e-01+0.000000000000000000e+00j)  (9.949248733404902900e-02+0.000000000000000000e+00j)  (5.626167611328432017e-01+0.000000000000000000e+00j)  (1.853815731867781980e-01+0.000000000000000000e+00j)  (-0.000000000000000000e+00-1.853444968721408292e-01j)  (-0.000000000000000000e+00-1.048098437562265062e+00j)
 (9.198159999999998560e-01+0.000000000000000000e+00j)  (0.000000000000000000e+00+0.000000000000000000e+00j)  (0.000000000000000000e+00+0.000000000000000000e+00j)  (1.979782112147462636e-01+0.000000000000000000e+00j)  (8.909019504663580336e-02+0.000000000000000000e+00j)  (5.037931840777071235e-01+0.000000000000000000e+00j)  (1.786531917724150376e-01+0.000000000000000000e+00j)  (-0.000000000000000000e+00-1.825867380481507596e-01j)  (-0.000000000000000000e+00-1.032503678810990033e+00j)
 (9.398119999999998697e-01+0.000000000000000000e+00j)  (0.000000000000000000e+00+0.000000000000000000e+00j)  (0.000000000000000000e+00+0.000000000000000000e+00j)  (1.752264719305496599e-01+0.000000000000000000e+00j)  (7.885191236874734833e-02+0.000000000000000000e+00j)  (4.458970595144929883e-01+0.000000000000000000e+00j)  (1.719383404557260075e-01+0.000000000000000000e+00j)  (-0.000000000000000000e+00-1.795441284670852566e-01j)  (-0.000000000000000000e+00-1.015298126977278725e+00j)
 (9.598079999999997725e-01+0.000000000000000000e+00j)  (0.000000000000000000e+00+0.000000000000000000e+00j)  (0.000000000000000000e+00+0.000000000000000000e+00j)  (1.528744300845885640e-01+0.000000000000000000e+00j)  (6.879349353806485379e-02+0.000000000000000000e+00j)  (3.890180410451306026e-01+0.000000000000000000e+00j)  (1.652445695385048041e-01+0.000000000000000000e+00j)  (-0.000000000000000000e+00-1.762256219995701756e-01j)  (-0.000000000000000000e+00-9.965324150066547926e-01j)
 (9.798039999999997862e-01+0.000000000000000000e+00j)  (0.000000000000000000e+00+0.000000000000000000e+00j)  (0.000000000000000000e+00+0.000000000000000000e+00j)  (1.309561576388915960e-01+0.000000000000000000e+00j)  (5.893027093750122236e-02+0.000000000000000000e+00j)  (3.332428312523578740e-01+0.000000000000000000e+00j)  (1.585793169823178639e-01+0.000000000000000000e+00j)  (-0.000000000000000000e+00-1.726407212183810325e-01j)  (-0.000000000000000000e+00-9.762602786821967804e-01j)
 (9.997999999999998000e-01+0.000000000000000000e+00j)  (0.000000000000000000e+00+0.000000000000000000e+00j)  (0.000000000000000000e+00+0.000000000000000000e+00j)  (1.095044995055757392e-01+0.000000000000000000e+00j)  (4.927702477750908749e-02+0.000000000000000000e+00j)  (2.786550102572125653e-01+0.000000000000000000e+00j)  (1.519498970280321049e-01+0.000000000000000000e+00j)  (-0.000000000000000000e+00-1.687994522762516769e-01j)  (-0.000000000000000000e+00-9.545384145618955873e-01j)
 (1.019795999999999925e+00+0.000000000000000000e+00j)  (0.000000000000000000e+00+0.000000000000000000e+00j)  (0.000000000000000000e+00+0.000000000000000000e+00j)  (8.855100940499774365e-02+0.000000000000000000e+00j)  (3.984795423224898880e-02+0.000000000000000000e+00j)  (2.253348724979082895e-01+0.000000000000000000e+00j)  (1.453634891179151067e-01+0.000000000000000000e+00j)  (-0.000000000000000000e+00-1.647123386094370423e-01j)  (-0.000000000000000000e+00-9.314263312758034319e-01j)
 (1.039791999999999828e+00+0.000000000000000000e+00j)  (0.000000000000000000e+00+0.000000000000000000e+00j)  (0.000000000000000000e+00+0.000000000000000000e+00j)  (6.812588909786089497e-02+0.000000000000000000e+00j)  (3.065665009403740343e-02+0.000000000000000000e+00j)  (1.733592720943813448e-01+0.000000000000000000e+00j)  (1.388271271402918006e-01+0.000000000000000000e+00j)  (-0.000000000000000000e+00-1.603903735371758343e-01j)  (-0.000000000000000000e+00-9.069861945796459102e-01j)
 (1.059787999999999730e+00+0.000000000000000000e+00j)  (0.000000000000000000e+00+0.000000000000000000e+00j)  (0.000000000000000000e+00+0.000000000000000000e+00j)  (4.825793112544642799e-02+0.000000000000000000e+00j)  (2.171606900645089294e-02+0.000000000000000000e+00j)  (1.228014771399272287e-01+0.000000000000000000e+00j)  (1.323476890159820119e-01+0.000000000000000000e+00j)  (-0.000000000000000000e+00-1.558449918298550063e-01j)  (-0.000000000000000000e+00-8.812826665765809420e-01j)
 (1.079783999999999855e+00+0.000000000000000000e+00j)  (0.000000000000000000e+00+0.000000000000000000e+00j)  (0.000000000000000000e+00+0.000000000000000000e+00j)  (2.897446518283832567e-02+0.000000000000000000e+00j)  (1.303850933227724759e-02+0.000000000000000000e+00j)  (7.373103323767948858e-02+0.000000000000000000e+00j)  (1.259318866449445073e-01+0.000000000000000000e+00j)  (-0.000000000000000000e+00-1.510880403211386225e-01j)  (-0.000000000000000000e+00-8.543827395327016072e-01j)
 (1.099779999999999758e+00+0.000000000000000000e+00j)  (0.000000000000000000e+00+0.000000000000000000e+00j)  (0.000000000000000000e+00+0.000000000000000000e+00j)  (1.030130824040988505e-02+0.000000000000000000e+00j)  (4.635588708184448965e-03+0.000000000000000000e+00j)  (2.621363657525291671e-02+0.000000000000000000e+00j)  (1.195862562307194871e-01+0.000000000000000000e+00j)  (-0.000000000000000000e+00-1.461317476415784911e-01j)  (-0.000000000000000000e+00-8.263555647246371150e-01j)
 (1.119775999999999883e+00+0.000000000000000000e+00j)  (0.000000000000000000e+00+0.000000000000000000e+00j)  (0.000000000000000000e+00+0.000000000000000000e+00j)  (-7.737281481033805169e-03+0.000000000000000000e+00j)  (-3.481776666465212240e-03+0.000000000000000000e+00j)  (-1.968898319425344684e-02+0.000000000000000000e+00j)  (1.133171489993893416e-01+0.000000000000000000e+00j)  (-0.000000000000000000e+00-1.409886931532668697e-01j)  (-0.000000000000000000e+00-7.972722767691517998e-01j)
 (1.139771999999999785e+00+0.000000000000000000e+00j)  (0.000000000000000000e+00+0.000000000000000000e+00j)  (0.000000000000000000e+00+0.000000000000000000e+00j)  (-2.511864658616584992e-02+0.000000000000000000e+00j)  (-1.130339096377463125e-02+0.000000000000000000e+00j)  (-6.391917002240574130e-02+0.000000000000000000e+00j)  (1.071307223288807814e-01+0.000000000000000000e+00j)  (-0.000000000000000000e+00-1.356717751669256622e-01j)  (-0.000000000000000000e+00-7.672058138950197392e-01j)
 (1.159767999999999688e+00+0.000000000000000000e+00j)  (0.000000000000000000e+00+0.000000000000000000e+00j)  (0.000000000000000000e+00+0.000000000000000000e+00j)  (-4.182176854715144443e-02+0.000000000000000000e+00j)  (-1.881979584621815138e-02+0.000000000000000000e+00j)  (-1.064234382705695758e-01+0.000000000000000000e+00j)  (1.010329313034936116e-01+0.000000000000000000e+00j)  (-0.000000000000000000e+00-1.301941785244335181e-01j)  (-0.000000000000000000e+00-7.362307346265329899e-01j)
 (1.179763999999999813e+00+0.000000000000000000e+00j)  (0.000000000000000000e+00+0.000000000000000000e+00j)  (0.000000000000000000e+00+0.000000000000000000e+00j)  (-5.782730163732374001e-02+0.000000000000000000e+00j)  (-2.602228573679568613e-02+0.000000000000000000e+00j)  (-1.471525590605972100e-01+0.000000000000000000e+00j)  (9.502952070758581560e-02+0.000000000000000000e+00j)  (-0.000000000000000000e+00-1.245693416311824953e-01j)  (-0.000000000000000000e+00-7.044230313558722534e-01j)
 (1.199759999999999716e+00+0.000000000000000000e+00j)  (0.000000000000000000e+00+0.000000000000000000e+00j)  (0.000000000000000000e+00+0.000000000000000000e+00j)  (-7.311760269276411373e-02+0.000000000000000000e+00j)  (-3.290292121174385326e-02+0.000000000000000000e+00j)  (-1.860616360088248600e-01+0.000000000000000000e+00j)  (8.912601747135663610e-02+0.000000000000000000e+00j)  (-0.000000000000000000e+00-1.188109230238164477e-01j)  (-0.000000000000000000e+00-6.718599412881195443e-01j)
 (1.219755999999999840e+00+0.000000000000000000e+00j)  (0.000000000000000000e+00+0.000000000000000000e+00j)  (0.000000000000000000e+00+0.000000000000000000e+00j)  (-8.767675664883824160e-02+0.000000000000000000e+00j)  (-3.945454049197721219e-02+0.000000000000000000e+00j)  (-2.231101702086419336e-01+0.000000000000000000e+00j)  (8.332772358065954066e-02+0.000000000000000000e+00j)  (-0.000000000000000000e+00-1.129327675598344044e-01j)  (-0.000000000000000000e+00-6.386197552479709882e-01j)
 (1.239751999999999743e+00+0.000000000000000000e+00j)  (0.000000000000000000e+00+0.000000000000000000e+00j)  (0.000000000000000000e+00+0.000000000000000000e+00j)  (-1.014905978096470179e-01+0.000000000000000000e+00j)  (-4.567076901434116015e-02+0.000000000000000000e+00j)  (-2.582621143546510178e-01+0.000000000000000000e+00j)  (7.763970946174790499e-02+0.000000000000000000e+00j)  (-0.000000000000000000e+00-1.069488723162454191e-01j)  (-0.000000000000000000e+00-6.047816248411729267e-01j)
 (1.259747999999999868e+00+0.000000000000000000e+00j)  (0.000000000000000000e+00+0.000000000000000000e+00j)  (0.000000000000000000e+00+0.000000000000000000e+00j)  (-1.145467268193457733e-01+0.000000000000000000e+00j)  (-5.154602706870559797e-02+0.000000000000000000e+00j)  (-2.914859159294150293e-01+0.000000000000000000e+00j)  (7.206680785080411822e-02+0.000000000000000000e+00j)  (-0.000000000000000000e+00-1.008733522849275116e-01j)  (-0.000000000000000000e+00-5.704253684663462831e-01j)
 (1.279743999999999771e+00+0.000000000000000000e+00j)  (0.000000000000000000e+00+0.000000000000000000e+00j)  (0.000000000000000000e+00+0.000000000000000000e+00j)  (-1.268345233153040652e-01+0.000000000000000000e+00j)  (-5.707553549188683351e-02+0.000000000000000000e+00j)  (-3.227545494018272954e-01+0.000000000000000000e+00j)  (6.661360815704062133e-02+0.000000000000000000e+00j)  (-0.000000000000000000e+00-9.472040595258196527e-02j)  (-0.000000000000000000e+00-5.356312766742139519e-01j)
 (1.299739999999999673e+00+0.000000000000000000e+00j)  (0.000000000000000000e+00+0.000000000000000000e+00j)  (0.000000000000000000e+00+0.000000000000000000e+00j)  (-1.383451542541343504e-01+0.000000000000000000e+00j)  (-6.225531941436046601e-02+0.000000000000000000e+00j)  (-3.520455374142735239e-01+0.000000000000000000e+00j)  (6.128445132707747295e-02+0.000000000000000000e+00j)  (-0.000000000000000000e+00-8.850428085317293969e-02j)  (-0.000000000000000000e+00-5.004799173712366489e-01j)
 (1.319735999999999798e+00+0.000000000000000000e+00j)  (0.000000000000000000e+00+0.000000000000000000e+00j)  (0.000000000000000000e+00+0.000000000000000000e+00j)  (-1.490715779126399465e-01+0.000000000000000000e+00j)  (-6.708221006068797176e-02+0.000000000000000000e+00j)  (-3.793409609638043745e-01+0.000000000000000000e+00j)  (5.608342521721358664e-02+0.000000000000000000e+00j)  (-0.000000000000000000e+00-8.223923918051620485e-02j)  (-0.000000000000000000e+00-4.650519413633824595e-01j)
 (1.339731999999999701e+00+0.000000000000000000e+00j)  (0.000000000000000000e+00+0.000000000000000000e+00j)  (0.000000000000000000e+00+0.000000000000000000e+00j)  (-1.590085435767236155e-01+0.000000000000000000e+00j)  (-7.155384460952561587e-02+0.000000000000000000e+00j)  (-4.046274586105043647e-01+0.000000000000000000e+00j)  (5.101436047910635346e-02+0.000000000000000000e+00j)  (-0.000000000000000000e+00-7.593952354821566220e-02j)  (-0.000000000000000000e+00-4.294278887331301475e-01j)
 (1.359727999999999826e+00+0.000000000000000000e+00j)  (0.000000000000000000e+00+0.000000000000000000e+00j)  (0.000000000000000000e+00+0.000000000000000000e+00j)  (-1.681525869422149377e-01+0.000000000000000000e+00j)  (-7.566866412399672615e-02+0.000000000000000000e+00j)  (-4.278962147740229538e-01+0.000000000000000000e+00j)  (4.608082696326831068e-02+0.000000000000000000e+00j)  (-0.000000000000000000e+00-6.961932298345654968e-02j)  (-0.000000000000000000e+00-3.936879965388998537e-01j)
 (1.379723999999999728e+00+0.000000000000000000e+00j)  (0.000000000000000000e+00+0.000000000000000000e+00j)  (0.000000000000000000e+00+0.000000000000000000e+00j)  (-1.765020212623805151e-01+0.000000000000000000e+00j)  (-7.942590956807123181e-02+0.000000000000000000e+00j)  (-4.491429372067317072e-01+0.000000000000000000e+00j)  (4.128613064368080732e-02+0.000000000000000000e+00j)  (-0.000000000000000000e+00-6.329273924024651776e-02j)  (-0.000000000000000000e+00-3.579120083209192393e-01j)
 (1.399719999999999853e+00+0.000000000000000000e+00j)  (0.000000000000000000e+00+0.000000000000000000e+00j)  (0.000000000000000000e+00+0.000000000000000000e+00j)  (-1.840569242875750300e-01+0.000000000000000000e+00j)  (-8.282561592940876349e-02+0.000000000000000000e+00j)  (-4.683678237591845095e-01+0.000000000000000000e+00j)  (3.663331106570987677e-02+0.000000000000000000e+00j)  (-0.000000000000000000e+00-5.697375351655046410e-02j)  (-0.000000000000000000e+00-3.221789858910550919e-01j)
 (1.419715999999999756e+00+0.000000000000000000e+00j)  (0.000000000000000000e+00+0.000000000000000000e+00j)  (0.000000000000000000e+00+0.000000000000000000e+00j)  (-1.908191210530091053e-01+0.000000000000000000e+00j)  (-8.586860447385409600e-02+0.000000000000000000e+00j)  (-4.855755185803217744e-01+0.000000000000000000e+00j)  (3.212513931840223907e-02+0.000000000000000000e+00j)  (-0.000000000000000000e+00-5.067619365840525525e-02j)  (-0.000000000000000000e+00-2.865671238764512796e-01j)
 (1.439711999999999659e+00+0.000000000000000000e+00j)  (0.000000000000000000e+00+0.000000000000000000e+00j)  (0.000000000000000000e+00+0.000000000000000000e+00j)  (-1.967921625809562758e-01+0.000000000000000000e+00j)  (-8.855647316143033798e-02+0.000000000000000000e+00j)  (-5.007750579211881492e-01+0.000000000000000000e+00j)  (2.776411653112981562e-02+0.000000000000000000e+00j)  (-0.000000000000000000e+00-4.441370193251771570e-02j)  (-0.000000000000000000e+00-2.511535674778640481e-01j)
 (1.459707999999999783e+00+0.000000000000000000e+00j)  (0.000000000000000000e+00+0.000000000000000000e+00j)  (0.000000000000000000e+00+0.000000000000000000e+00j)  (-2.019813005738506917e-01+0.000000000000000000e+00j)  (-9.089158525823282098e-02+0.000000000000000000e+00j)  (-5.139798057367102047e-01+0.000000000000000000e+00j)  (2.355247289345202555e-02+0.000000000000000000e+00j)  (-0.000000000000000000e+00-3.819970344706118126e-02j)  (-0.000000000000000000e+00-2.160142338934729900e-01j)
 (1.479703999999999686e+00+0.000000000000000000e+00j)  (0.000000000000000000e+00+0.000000000000000000e+00j)  (0.000000000000000000e+00+0.000000000000000000e+00j)  (-2.063934581846166016e-01+0.000000000000000000e+00j)  (-9.287705618307746935e-02+0.000000000000000000e+00j)  (-5.252073793052448591e-01+0.000000000000000000e+00j)  (1.949216719597206271e-02+0.000000000000000000e+00j)  (-0.000000000000000000e+00-3.204737529838737331e-02j)  (-0.000000000000000000e+00-1.812236378476478060e-01j)
 (1.499699999999999811e+00+0.000000000000000000e+00j)  (0.000000000000000000e+00+0.000000000000000000e+00j)  (0.000000000000000000e+00+0.000000000000000000e+00j)  (-2.100371969602032041e-01+0.000000000000000000e+00j)  (-9.451673863209145154e-02+0.000000000000000000e+00j)  (-5.344795651101211797e-01+0.000000000000000000e+00j)  (1.558488688888180068e-02+0.000000000000000000e+00j)  (-0.000000000000000000e+00-2.596961651917337882e-02j)  (-0.000000000000000000e+00-1.468547216517225862e-01j)
 (1.519695999999999714e+00+0.000000000000000000e+00j)  (0.000000000000000000e+00+0.000000000000000000e+00j)  (0.000000000000000000e+00+0.000000000000000000e+00j)  (-2.129226800636330463e-01+0.000000000000000000e+00j)  (-9.581520602863488612e-02+0.000000000000000000e+00j)  (-5.418222252511533110e-01+0.000000000000000000e+00j)  (1.183204865382406386e-02+0.000000000000000000e+00j)  (-0.000000000000000000e+00-1.997901890113534806e-02j)  (-0.000000000000000000e+00-1.129786902103291774e-01j)
 (1.539691999999999616e+00+0.000000000000000000e+00j)  (0.000000000000000000e+00+0.000000000000000000e+00j)  (0.000000000000000000e+00+0.000000000000000000e+00j)  (-2.150616318889063405e-01+0.000000000000000000e+00j)  (-9.677773435000786018e-02+0.000000000000000000e+00j)  (-5.472651946770886733e-01+0.000000000000000000e+00j)  (8.234799483645693918e-03+0.000000000000000000e+00j)  (-0.000000000000000000e+00-1.408783876285933483e-02j)  (-0.000000000000000000e+00-7.966485137224152413e-02j)
 (1.559687999999999741e+00+0.000000000000000000e+00j)  (0.000000000000000000e+00+0.000000000000000000e+00j)  (0.000000000000000000e+00+0.000000000000000000e+00j)  (-2.164672941917905324e-01+0.000000000000000000e+00j)  (-9.741028238630572433e-02+0.000000000000000000e+00j)  (-5.508421695520655526e-01+0.000000000000000000e+00j)  (4.794018263584184578e-03+0.000000000000000000e+00j)  (-0.000000000000000000e+00-8.307969730547880988e-03j)  (-0.000000000000000000e+00-4.698046200912407017e-02j)
 (1.579683999999999644e+00+0.000000000000000000e+00j)  (0.000000000000000000e+00+0.000000000000000000e+00j)  (0.000000000000000000e+00+0.000000000000000000e+00j)  (-2.171543788678642894e-01+0.000000000000000000e+00j)  (-9.771947049053893164e-02+0.000000000000000000e+00j)  (-5.525905870903710104e-01+0.000000000000000000e+00j)  (1.510317846414636900e-03+0.000000000000000000e+00j)  (-0.000000000000000000e+00-2.650916596550732113e-03j)  (-0.000000000000000000e+00-1.499058018900546740e-02j)
 (1.599679999999999769e+00+0.000000000000000000e+00j)  (0.000000000000000000e+00+0.000000000000000000e+00j)  (0.000000000000000000e+00+0.000000000000000000e+00j)  (-2.171390175171416248e-01+0.000000000000000000e+00j)  (-9.771255788271372700e-02+0.000000000000000000e+00j)  (-5.525514972140416203e-01+0.000000000000000000e+00j)  (-1.615952386907289554e-03+0.000000000000000000e+00j)  (0.000000000000000000e+00+2.872229682542061513e-03j)  (0.000000000000000000e+00+1.624207620617403383e-02j)
 (1.619675999999999672e+00+0.000000000000000000e+00j)  (0.000000000000000000e+00+0.000000000000000000e+00j)  (0.000000000000000000e+00+0.000000000000000000e+00j)  (-2.164387079421595528e-01+0.000000000000000000e+00j)  (-9.739741857397178626e-02+0.000000000000000000e+00j)  (-5.507694264070798207e-01+0.000000000000000000e+00j)  (-4.584703490535908636e-03+0.000000000000000000e+00j)  (0.000000000000000000e+00+8.250815789708040165e-03j)  (0.000000000000000000e+00+4.665726408792500446e-02j)
 (1.639671999999999796e+00+0.000000000000000000e+00j)  (0.000000000000000000e+00+0.000000000000000000e+00j)  (0.000000000000000000e+00+0.000000000000000000e+00j)  (-2.150722577335583419e-01+0.000000000000000000e+00j)  (-9.678251598010126355e-02+0.000000000000000000e+00j)  (-5.472922341582411310e-01+0.000000000000000000e+00j)  (-7.396103451330866135e-03+0.000000000000000000e+00j)  (0.000000000000000000e+00+1.347464859805620231e-02j)  (0.000000000000000000e+00+7.619734268164327085e-02j)
 (1.659667999999999699e+00+0.000000000000000000e+00j)  (0.000000000000000000e+00+0.000000000000000000e+00j)  (0.000000000000000000e+00+0.000000000000000000e+00j)  (-2.130597251038905682e-01+0.000000000000000000e+00j)  (-9.587687629675077650e-02+0.000000000000000000e+00j)  (-5.421709624014172668e-01+0.000000000000000000e+00j)  (-1.005057323203891601e-02+0.000000000000000000e+00j)  (0.000000000000000000e+00+1.853401641652396153e-02j)  (0.000000000000000000e+00+1.048073936681957335e-01j)
 (1.679663999999999602e+00+0.000000000000000000e+00j)  (0.000000000000000000e+00+0.000000000000000000e+00j)  (0.000000000000000000e+00+0.000000000000000000e+00j)  (-2.104223571366523049e-01+0.000000000000000000e+00j)  (-9.469006071149353720e-02+0.000000000000000000e+00j)  (-5.354596783785593450e-01+0.000000000000000000e+00j)  (-1.254878237222468995e-02+0.000000000000000000e+00j)  (0.000000000000000000e+00+2.341970888273377932e-02j)  (0.000000000000000000e+00+1.324353336753745225e-01j)
 (1.699659999999999727e+00+0.000000000000000000e+00j)  (0.000000000000000000e+00+0.000000000000000000e+00j)  (0.000000000000000000e+00+0.000000000000000000e+00j)  (-2.071825256233232604e-01+0.000000000000000000e+00j)  (-9.323213653049547411e-02+0.000000000000000000e+00j)  (-5.272153113648332390e-01+0.000000000000000000e+00j)  (-1.489164415996151528e-02+0.000000000000000000e+00j)  (0.000000000000000000e+00+2.812303545880020725e-02j)  (0.000000000000000000e+00+1.590320188692215808e-01j)
 (1.719655999999999629e+00+0.000000000000000000e+00j)  (0.000000000000000000e+00+0.000000000000000000e+00j)  (0.000000000000000000e+00+0.000000000000000000e+00j)  (-2.033636606665145952e-01+0.000000000000000000e+00j)  (-9.151364729993158309e-02+0.000000000000000000e+00j)  (-5.174974837092104485e-01+0.000000000000000000e+00j)  (-1.708031038810714150e-02+0.000000000000000000e+00j)  (0.000000000000000000e+00+3.263584248974529117e-02j)  (0.000000000000000000e+00+1.845513414170953936e-01j)
 (1.739651999999999754e+00+0.000000000000000000e+00j)  (0.000000000000000000e+00+0.000000000000000000e+00j)  (0.000000000000000000e+00+0.000000000000000000e+00j)  (-1.989901822321422653e-01+0.000000000000000000e+00j)  (-8.954558200446401106e-02+0.000000000000000000e+00j)  (-5.063683366559637022e-01+0.000000000000000000e+00j)  (-1.911616570976836654e-02+0.000000000000000000e+00j)  (0.000000000000000000e+00+3.695052878814440028e-02j)  (0.000000000000000000e+00+2.089503176167666898e-01j)
 (1.759647999999999657e+00+0.000000000000000000e+00j)  (0.000000000000000000e+00+0.000000000000000000e+00j)  (0.000000000000000000e+00+0.000000000000000000e+00j)  (-1.940874298378637564e-01+0.000000000000000000e+00j)  (-8.733934342703868203e-02+0.000000000000000000e+00j)  (-4.938923514235332712e-01+0.000000000000000000e+00j)  (-2.100082160829802591e-02+0.000000000000000000e+00j)  (0.000000000000000000e+00+4.106005971266488835e-02j)  (0.000000000000000000e+00+2.321891675086792395e-01j)
 (1.779643999999999782e+00+0.000000000000000000e+00j)  (0.000000000000000000e+00+0.000000000000000000e+00j)  (0.000000000000000000e+00+0.000000000000000000e+00j)  (-1.886815905688185857e-01+0.000000000000000000e+00j)  (-8.490671575596836496e-02+0.000000000000000000e+00j)  (-4.801361660268965159e-01+0.000000000000000000e+00j)  (-2.273610999787176179e-02+0.000000000000000000e+00j)  (0.000000000000000000e+00+4.495797971228055606e-02j)  (0.000000000000000000e+00+2.542313858118112058e-01j)
 (1.799639999999999684e+00+0.000000000000000000e+00j)  (0.000000000000000000e+00+0.000000000000000000e+00j)  (0.000000000000000000e+00+0.000000000000000000e+00j)  (-1.827996256149977128e-01+0.000000000000000000e+00j)  (-8.225983152674896937e-02+0.000000000000000000e+00j)  (-4.651683883379435502e-01+0.000000000000000000e+00j)  (-2.432407647135178749e-02+0.000000000000000000e+00j)  (0.000000000000000000e+00+4.863842331211502834e-02j)  (0.000000000000000000e+00+2.750438040471559487e-01j)
 (1.819635999999999587e+00+0.000000000000000000e+00j)  (0.000000000000000000e+00+0.000000000000000000e+00j)  (0.000000000000000000e+00+0.000000000000000000e+00j)  (-1.764691955273224033e-01+0.000000000000000000e+00j)  (-7.941113798729508566e-02+0.000000000000000000e+00j)  (-4.490594058853648596e-01+0.000000000000000000e+00j)  (-2.576697321276695540e-02+0.000000000000000000e+00j)  (0.000000000000000000e+00+5.209612452109600722e-02j)  (0.000000000000000000e+00+2.945966437367537050e-01j)
 (1.839631999999999712e+00+0.000000000000000000e+00j)  (0.000000000000000000e+00+0.000000000000000000e+00j)  (0.000000000000000000e+00+0.000000000000000000e+00j)  (-1.697185843917368986e-01+0.000000000000000000e+00j)  (-7.637336297628159743e-02+0.000000000000000000e+00j)  (-4.318811929012193462e-01+0.000000000000000000e+00j)  (-2.706725159231445840e-02+0.000000000000000000e+00j)  (0.000000000000000000e+00+5.532642464585846992e-02j)  (0.000000000000000000e+00+3.128635605902728711e-01j)
 (1.859627999999999615e+00+0.000000000000000000e+00j)  (0.000000000000000000e+00+0.000000000000000000e+00j)  (0.000000000000000000e+00+0.000000000000000000e+00j)  (-1.625766231223046143e-01+0.000000000000000000e+00j)  (-7.315948040503707228e-02+0.000000000000000000e+00j)  (-4.137071151256396795e-01+0.000000000000000000e+00j)  (-2.822755446232315044e-02+0.000000000000000000e+00j)  (0.000000000000000000e+00+5.832527849962340638e-02j)  (0.000000000000000000e+00+3.298216796153921049e-01j)
 (1.879623999999999739e+00+0.000000000000000000e+00j)  (0.000000000000000000e+00+0.000000000000000000e+00j)  (0.000000000000000000e+00+0.000000000000000000e+00j)  (-1.550726120754431225e-01+0.000000000000000000e+00j)  (-6.978267543394940653e-02+0.000000000000000000e+00j)  (-3.946117328840454408e-01+0.000000000000000000e+00j)  (-2.925070817310753551e-02+0.000000000000000000e+00j)  (0.000000000000000000e+00+6.108925899907673845e-02j)  (0.000000000000000000e+00+3.454516211125385206e-01j)
 (1.899619999999999642e+00+0.000000000000000000e+00j)  (0.000000000000000000e+00+0.000000000000000000e+00j)  (0.000000000000000000e+00+0.000000000000000000e+00j)  (-1.472362431880417377e-01+0.000000000000000000e+00j)  (-6.625630943461877087e-02+0.000000000000000000e+00j)  (-3.746706029527868131e-01+0.000000000000000000e+00j)  (-3.013971432808415854e-02+0.000000000000000000e+00j)  (0.000000000000000000e+00+6.361556014657246405e-02j)  (0.000000000000000000e+00+3.597375175388490276e-01j)
 (1.919615999999999545e+00+0.000000000000000000e+00j)  (0.000000000000000000e+00+0.000000000000000000e+00j)  (0.000000000000000000e+00+0.000000000000000000e+00j)  (-1.390975218422695892e-01+0.000000000000000000e+00j)  (-6.259388482902131234e-02+0.000000000000000000e+00j)  (-3.539600797292981604e-01+0.000000000000000000e+00j)  (-3.089774129792016710e-02+0.000000000000000000e+00j)  (0.000000000000000000e+00+6.590199839927589343e-02j)  (0.000000000000000000e+00+3.726670212504926138e-01j)
 (1.939611999999999670e+00+0.000000000000000000e+00j)  (0.000000000000000000e+00+0.000000000000000000e+00j)  (0.000000000000000000e+00+0.000000000000000000e+00j)  (-1.306866886594122146e-01+0.000000000000000000e+00j)  (-5.880900989673549378e-02+0.000000000000000000e+00j)  (-3.325571162216525711e-01+0.000000000000000000e+00j)  (-3.152811551383345734e-02+0.000000000000000000e+00j)  (0.000000000000000000e+00+6.794701243113059064e-02j)  (0.000000000000000000e+00+3.842313031566255699e-01j)
 (1.959607999999999572e+00+0.000000000000000000e+00j)  (0.000000000000000000e+00+0.000000000000000000e+00j)  (0.000000000000000000e+00+0.000000000000000000e+00j)  (-1.220341414240684180e-01+0.000000000000000000e+00j)  (-5.491536364083078603e-02+0.000000000000000000e+00j)  (-3.105390653698428816e-01+0.000000000000000000e+00j)  (-3.203431256046662678e-02+0.000000000000000000e+00j)  (0.000000000000000000e+00+6.974966129776763446e-02j)  (0.000000000000000000e+00+3.944250423421976626e-01j)
 (1.979603999999999697e+00+0.000000000000000000e+00j)  (0.000000000000000000e+00+0.000000000000000000e+00j)  (0.000000000000000000e+00+0.000000000000000000e+00j)  (-1.131703573385030581e-01+0.000000000000000000e+00j)  (-5.092666080232637754e-02+0.000000000000000000e+00j)  (-2.879834822072060985e-01+0.000000000000000000e+00j)  (-3.241994808901216968e-02+0.000000000000000000e+00j)  (0.000000000000000000e+00+7.130962101866759884e-02j)  (0.000000000000000000e+00+4.032464067405332475e-01j)
 (1.999599999999999600e+00+0.000000000000000000e+00j)  (0.000000000000000000e+00+0.000000000000000000e+00j)  (0.000000000000000000e+00+0.000000000000000000e+00j)  (-1.041258158048967430e-01+0.000000000000000000e+00j)  (-4.685661711220353437e-02+0.000000000000000000e+00j)  (-2.649679273651831535e-01+0.000000000000000000e+00j)  (-3.268876857147236942e-02+0.000000000000000000e+00j)  (0.000000000000000000e+00+7.262717959501792386e-02j)  (0.000000000000000000e+00+4.106970249599786738e-01j)
 (2.019595999999999503e+00+0.000000000000000000e+00j)  (0.000000000000000000e+00+0.000000000000000000e+00j)  (0.000000000000000000e+00+0.000000000000000000e+00j)  (-9.493092193065402751e-02+0.000000000000000000e+00j)  (-4.271891486879431793e-02+0.000000000000000000e+00j)  (-2.415697724180376205e-01+0.000000000000000000e+00j)  (-3.284464191709671188e-02+0.000000000000000000e+00j)  (0.000000000000000000e+00+7.370323048577870351e-02j)  (0.000000000000000000e+00+4.167819493919238116e-01j)
 (2.039591999999999850e+00+0.000000000000000000e+00j)  (0.000000000000000000e+00+0.000000000000000000e+00j)  (0.000000000000000000e+00+0.000000000000000000e+00j)  (-8.561593094885830424e-02+0.000000000000000000e+00j)  (-3.852716892698623830e-02+0.000000000000000000e+00j)  (-2.178660075563392251e-01+0.000000000000000000e+00j)  (-3.289154797214892401e-02+0.000000000000000000e+00j)  (0.000000000000000000e+00+7.453926456845684501e-02j)  (0.000000000000000000e+00+4.215096107500500566e-01j)
 (2.059587999999999752e+00+0.000000000000000000e+00j)  (0.000000000000000000e+00+0.000000000000000000e+00j)  (0.000000000000000000e+00+0.000000000000000000e+00j)  (-7.621087374238150192e-02+0.000000000000000000e+00j)  (-3.429489318407167447e-02+0.000000000000000000e+00j)  (-1.939330520689072357e-01+0.000000000000000000e+00j)  (-3.283356892421792489e-02+0.000000000000000000e+00j)  (0.000000000000000000e+00+7.513736061499125263e-02j)  (0.000000000000000000e+00+4.248917642127304495e-01j)
 (2.079583999999999655e+00+0.000000000000000000e+00j)  (0.000000000000000000e+00+0.000000000000000000e+00j)  (0.000000000000000000e+00+0.000000000000000000e+00j)  (-6.674548365609762890e-02+0.000000000000000000e+00j)  (-3.003546764524393439e-02+0.000000000000000000e+00j)  (-1.698465681025780605e-01+0.000000000000000000e+00j)  (-3.267487963230061854e-02+0.000000000000000000e+00j)  (0.000000000000000000e+00+7.550017431695359160e-02j)  (0.000000000000000000e+00+4.269434273620023590e-01j)
 (2.099579999999999558e+00+0.000000000000000000e+00j)  (0.000000000000000000e+00+0.000000000000000000e+00j)  (0.000000000000000000e+00+0.000000000000000000e+00j)  (-5.724912477712158776e-02+0.000000000000000000e+00j)  (-2.576210614970471727e-02+0.000000000000000000e+00j)  (-1.456812781576429794e-01+0.000000000000000000e+00j)  (-3.241973790385028337e-02+0.000000000000000000e+00j)  (0.000000000000000000e+00+7.563092589796216458e-02j)  (0.000000000000000000e+00+4.276828101334176346e-01j)
 (2.119575999999999460e+00+0.000000000000000000e+00j)  (0.000000000000000000e+00+0.000000000000000000e+00j)  (0.000000000000000000e+00+0.000000000000000000e+00j)  (-4.775072185800355307e-02+0.000000000000000000e+00j)  (-2.148782483610160027e-02+0.000000000000000000e+00j)  (-1.215107867640979333e-01+0.000000000000000000e+00j)  (-3.207247473990251091e-02+0.000000000000000000e+00j)  (0.000000000000000000e+00+7.553338635478176744e-02j)  (0.000000000000000000e+00+4.271312370112955170e-01j)
 (2.139571999999999807e+00+0.000000000000000000e+00j)  (0.000000000000000000e+00+0.000000000000000000e+00j)  (0.000000000000000000e+00+0.000000000000000000e+00j)  (-3.827869205238276090e-02+0.000000000000000000e+00j)  (-1.722541142357224622e-02+0.000000000000000000e+00j)  (-9.740740677004126880e-02+0.000000000000000000e+00j)  (-3.163748456926254726e-02+0.000000000000000000e+00j)  (0.000000000000000000e+00+7.521186237202913405e-02j)  (0.000000000000000000e+00+4.253130617233918942e-01j)
 (2.159567999999999710e+00+0.000000000000000000e+00j)  (0.000000000000000000e+00+0.000000000000000000e+00j)  (0.000000000000000000e+00+0.000000000000000000e+00j)  (-2.886087862675297544e-02+0.000000000000000000e+00j)  (-1.298739538203884034e-02+0.000000000000000000e+00j)  (-7.344199065866260923e-02+0.000000000000000000e+00j)  (-3.111921549256266642e-02+0.000000000000000000e+00j)  (0.000000000000000000e+00+7.467117995871397351e-02j)  (0.000000000000000000e+00+4.222555747077189614e-01j)
 (2.179563999999999613e+00+0.000000000000000000e+00j)  (0.000000000000000000e+00+0.000000000000000000e+00j)  (0.000000000000000000e+00+0.000000000000000000e+00j)  (-1.952448680572540021e-02+0.000000000000000000e+00j)  (-8.786019062576430963e-03+0.000000000000000000e+00j)  (-4.968376729432199407e-02+0.000000000000000000e+00j)  (-3.052215955677799880e-02+0.000000000000000000e+00j)  (0.000000000000000000e+00+7.391666685801029368e-02j)  (0.000000000000000000e+00+4.179889036421446935e-01j)
 (2.199559999999999516e+00+0.000000000000000000e+00j)  (0.000000000000000000e+00+0.000000000000000000e+00j)  (0.000000000000000000e+00+0.000000000000000000e+00j)  (-1.029602190153790925e-02+0.000000000000000000e+00j)  (-4.633209855692059856e-03+0.000000000000000000e+00j)  (-2.620018448132760067e-02+0.000000000000000000e+00j)  (-2.985084308052418992e-02+0.000000000000000000e+00j)  (0.000000000000000000e+00+7.295413378466418519e-02j)  (0.000000000000000000e+00+4.125459073444343594e-01j)
 (2.219555999999999418e+00+0.000000000000000000e+00j)  (0.000000000000000000e+00+0.000000000000000000e+00j)  (0.000000000000000000e+00+0.000000000000000000e+00j)  (-1.201229871532049709e-03+0.000000000000000000e+00j)  (-5.405534421894223800e-04+0.000000000000000000e+00j)  (-3.056757701138935763e-03+0.000000000000000000e+00j)  (-2.910981705015094206e-02+0.000000000000000000e+00j)  (0.000000000000000000e+00+7.178985454729423787e-02j)  (0.000000000000000000e+00+4.059620633665069200e-01j)
 (2.239551999999999765e+00+0.000000000000000000e+00j)  (0.000000000000000000e+00+0.000000000000000000e+00j)  (0.000000000000000000e+00+0.000000000000000000e+00j)  (7.734959560037986057e-03+0.000000000000000000e+00j)  (3.480731802017093725e-03+0.000000000000000000e+00j)  (1.968307462499987309e-02+0.000000000000000000e+00j)  (-2.830364760629417928e-02+0.000000000000000000e+00j)  (0.000000000000000000e+00+7.043054511552369890e-02j)  (0.000000000000000000e+00+3.982753496218567335e-01j)
 (2.259547999999999668e+00+0.000000000000000000e+00j)  (0.000000000000000000e+00+0.000000000000000000e+00j)  (0.000000000000000000e+00+0.000000000000000000e+00j)  (1.648848708719154177e-02+0.000000000000000000e+00j)  (7.419819189236193796e-03+0.000000000000000000e+00j)  (4.195808902056420708e-02+0.000000000000000000e+00j)  (-2.743690664015562344e-02+0.000000000000000000e+00j)  (0.000000000000000000e+00+6.888334169438926902e-02j)  (0.000000000000000000e+00+3.895261203992558818e-01j)
 (2.279543999999999571e+00+0.000000000000000000e+00j)  (0.000000000000000000e+00+0.000000000000000000e+00j)  (0.000000000000000000e+00+0.000000000000000000e+00j)  (2.503621519372610169e-02+0.000000000000000000e+00j)  (1.126629683717674663e-02+0.000000000000000000e+00j)  (6.370940767830550466e-02+0.000000000000000000e+00j)  (-2.651416251834498236e-02+0.000000000000000000e+00j)  (0.000000000000000000e+00+6.715577787079797523e-02j)  (0.000000000000000000e+00+3.797569771290124629e-01j)
 (2.299539999999999473e+00+0.000000000000000000e+00j)  (0.000000000000000000e+00+0.000000000000000000e+00j)  (0.000000000000000000e+00+0.000000000000000000e+00j)  (3.335597659863281939e-02+0.000000000000000000e+00j)  (1.501018946938476734e-02+0.000000000000000000e+00j)  (8.488062173881810724e-02+0.000000000000000000e+00j)  (-2.553997095464678041e-02+0.000000000000000000e+00j)  (0.000000000000000000e+00+6.525576089894270793e-02j)  (0.000000000000000000e+00+3.690126342801549053e-01j)
 (2.319535999999999376e+00+0.000000000000000000e+00j)  (0.000000000000000000e+00+0.000000000000000000e+00j)  (0.000000000000000000e+00+0.000000000000000000e+00j)  (4.142661967155128466e-02+0.000000000000000000e+00j)  (1.864197885219807602e-02+0.000000000000000000e+00j)  (1.054179068587951795e-01+0.000000000000000000e+00j)  (-2.451886604656297597e-02+0.000000000000000000e+00j)  (0.000000000000000000e+00+6.319154719353388405e-02j)  (0.000000000000000000e+00+3.573397807779217228e-01j)
 (2.339531999999999723e+00+0.000000000000000000e+00j)  (0.000000000000000000e+00+0.000000000000000000e+00j)  (0.000000000000000000e+00+0.000000000000000000e+00j)  (4.922805072315216551e-02+0.000000000000000000e+00j)  (2.215262282541847691e-02+0.000000000000000000e+00j)  (1.252701308269444647e-01+0.000000000000000000e+00j)  (-2.345535149393518370e-02+0.000000000000000000e+00j)  (0.000000000000000000e+00+6.097171710145461720e-02j)  (0.000000000000000000e+00+3.447869373408329330e-01j)
 (2.359527999999999626e+00+0.000000000000000000e+00j)  (0.000000000000000000e+00+0.000000000000000000e+00j)  (0.000000000000000000e+00+0.000000000000000000e+00j)  (5.674127308430721578e-02+0.000000000000000000e+00j)  (2.553357288793824814e-02+0.000000000000000000e+00j)  (1.443889530083633799e-01+0.000000000000000000e+00j)  (-2.235389201636877807e-02+0.000000000000000000e+00j)  (0.000000000000000000e+00+5.860514902399841658e-02j)  (0.000000000000000000e+00+3.314043101453912343e-01j)
 (2.379523999999999528e+00+0.000000000000000000e+00j)  (0.000000000000000000e+00+0.000000000000000000e+00j)  (0.000000000000000000e+00+0.000000000000000000e+00j)  (6.394842289706063887e-02+0.000000000000000000e+00j)  (2.877679030367729165e-02+0.000000000000000000e+00j)  (1.627289154214678346e-01+0.000000000000000000e+00j)  (-2.121890498556549404e-02+0.000000000000000000e+00j)  (0.000000000000000000e+00+5.610099296319193130e-02j)  (0.000000000000000000e+00+3.172436412340615686e-01j)
 (2.399519999999999431e+00+0.000000000000000000e+00j)  (0.000000000000000000e+00+0.000000000000000000e+00j)  (0.000000000000000000e+00+0.000000000000000000e+00j)  (7.083280154972100562e-02+0.000000000000000000e+00j)  (3.187476069737445877e-02+0.000000000000000000e+00j)  (1.802475252752477053e-01+0.000000000000000000e+00j)  (-2.005475228802527585e-02+0.000000000000000000e+00j)  (0.000000000000000000e+00+5.346864356684710023e-02j)  (0.000000000000000000e+00+3.023580560886324209e-01j)
 (2.419515999999999778e+00+0.000000000000000000e+00j)  (0.000000000000000000e+00+0.000000000000000000e+00j)  (0.000000000000000000e+00+0.000000000000000000e+00j)  (7.737890469783506586e-02+0.000000000000000000e+00j)  (3.482050711402578935e-02+0.000000000000000000e+00j)  (1.969053288186501660e-01+0.000000000000000000e+00j)  (-1.886573243290121452e-02+0.000000000000000000e+00j)  (0.000000000000000000e+00+5.071771274791490175e-02j)  (0.000000000000000000e+00+2.868019087963083469e-01j)
 (2.439511999999999681e+00+0.000000000000000000e+00j)  (0.000000000000000000e+00+0.000000000000000000e+00j)  (0.000000000000000000e+00+0.000000000000000000e+00j)  (8.357244782234397873e-02+0.000000000000000000e+00j)  (3.760760152005479529e-02+0.000000000000000000e+00j)  (2.126659763781656720e-01+0.000000000000000000e+00j)  (-1.765607291908794646e-02+0.000000000000000000e+00j)  (0.000000000000000000e+00+4.785800195443341148e-02j)  (0.000000000000000000e+00+2.706306252399611201e-01j)
 (2.459507999999999583e+00+0.000000000000000000e+00j)  (0.000000000000000000e+00+0.000000000000000000e+00j)  (0.000000000000000000e+00+0.000000000000000000e+00j)  (8.940038828584634389e-02+0.000000000000000000e+00j)  (4.023017472863086447e-02+0.000000000000000000e+00j)  (2.274962784841808583e-01+0.000000000000000000e+00j)  (-1.642992287489280362e-02+0.000000000000000000e+00j)  (0.000000000000000000e+00+4.489947416686870807e-02j)  (0.000000000000000000e+00+2.539005447468229981e-01j)
 (2.479503999999999486e+00+0.000000000000000000e+00j)  (0.000000000000000000e+00+0.000000000000000000e+00j)  (0.000000000000000000e+00+0.000000000000000000e+00j)  (9.485094385755520052e-02+0.000000000000000000e+00j)  (4.268292473589984509e-02+0.000000000000000000e+00j)  (2.413662530112522242e-01+0.000000000000000000e+00j)  (-1.519134598288587878e-02+0.000000000000000000e+00j)  (0.000000000000000000e+00+4.185222569994384578e-02j)  (0.000000000000000000e+00+2.366687606315859560e-01j)
 (2.499499999999999389e+00+0.000000000000000000e+00j)  (0.000000000000000000e+00+0.000000000000000000e+00j)  (0.000000000000000000e+00+0.000000000000000000e+00j)  (9.991360768723629715e-02+0.000000000000000000e+00j)  (4.496112345925633996e-02+0.000000000000000000e+00j)  (2.542491632821381464e-01+0.000000000000000000e+00j)  (-1.394431370174773963e-02+0.000000000000000000e+00j)  (0.000000000000000000e+00+3.872645788613163220e-02j)  (0.000000000000000000e+00+2.189929600703261481e-01j)
 (2.519495999999999736e+00+0.000000000000000000e+00j)  (0.000000000000000000e+00+0.000000000000000000e+00j)  (0.000000000000000000e+00+0.000000000000000000e+00j)  (1.045791597181020133e-01+0.000000000000000000e+00j)  (4.706062187314590667e-02+0.000000000000000000e+00j)  (2.661215471100761842e-01+0.000000000000000000e+00j)  (-1.269269879613740479e-02+0.000000000000000000e+00j)  (0.000000000000000000e+00+3.553244871785888465e-02j)  (0.000000000000000000e+00+2.009312637409468028e-01j)
 (2.539491999999999639e+00+0.000000000000000000e+00j)  (0.000000000000000000e+00+0.000000000000000000e+00j)  (0.000000000000000000e+00+0.000000000000000000e+00j)  (1.088396745382958497e-01+0.000000000000000000e+00j)  (4.897785354223313514e-02+0.000000000000000000e+00j)  (2.769632367783775861e-01+0.000000000000000000e+00j)  (-1.144026918478843746e-02+0.000000000000000000e+00j)  (0.000000000000000000e+00+3.228052452512972931e-02j)  (0.000000000000000000e+00+1.825420656639108463e-01j)
 (2.559487999999999541e+00+0.000000000000000000e+00j)  (0.000000000000000000e+00+0.000000000000000000e+00j)  (0.000000000000000000e+00+0.000000000000000000e+00j)  (1.126885256802103996e-01+0.000000000000000000e+00j)  (5.070983655609467844e-02+0.000000000000000000e+00j)  (2.867573699808591003e-01+0.000000000000000000e+00j)  (-1.019068211621000988e-02+0.000000000000000000e+00j)  (0.000000000000000000e+00+2.898103176472680356e-02j)  (0.000000000000000000e+00+1.638838736739327007e-01j)
 (2.579483999999999444e+00+0.000000000000000000e+00j)  (0.000000000000000000e+00+0.000000000000000000e+00j)  (0.000000000000000000e+00+0.000000000000000000e+00j)  (1.161203863864012087e-01+0.000000000000000000e+00j)  (5.225417387388054530e-02+0.000000000000000000e+00j)  (2.954903917708562866e-01+0.000000000000000000e+00j)  (-8.947478680525462399e-03+0.000000000000000000e+00j)  (0.000000000000000000e+00+2.564430899639615069e-02j)  (0.000000000000000000e+00+1.450151509490366086e-01j)
 (2.599479999999999347e+00+0.000000000000000000e+00j)  (0.000000000000000000e+00+0.000000000000000000e+00j)  (0.000000000000000000e+00+0.000000000000000000e+00j)  (1.191312268702780369e-01+0.000000000000000000e+00j)  (5.360905209162512147e-02+0.000000000000000000e+00j)  (3.031520475905316037e-01+0.000000000000000000e+00j)  (-7.714078665123866654e-03+0.000000000000000000e+00j)  (0.000000000000000000e+00+2.228065912046241909e-02j)  (0.000000000000000000e+00+1.259941590179697035e-01j)
 (2.619475999999999694e+00+0.000000000000000000e+00j)  (0.000000000000000000e+00+0.000000000000000000e+00j)  (0.000000000000000000e+00+0.000000000000000000e+00j)  (1.217183081090359581e-01+0.000000000000000000e+00j)  (5.477323864906617767e-02+0.000000000000000000e+00j)  (3.097353674758082653e-01+0.000000000000000000e+00j)  (-6.493775760933989671e-03+0.000000000000000000e+00j)  (0.000000000000000000e+00+1.890032195016479871e-02j)  (0.000000000000000000e+00+1.068788026604153701e-01j)
 (2.639471999999999596e+00+0.000000000000000000e+00j)  (0.000000000000000000e+00+0.000000000000000000e+00j)  (0.000000000000000000e+00+0.000000000000000000e+00j)  (1.238801722154139057e-01+0.000000000000000000e+00j)  (5.574607749693625408e-02+0.000000000000000000e+00j)  (3.152366415554799794e-01+0.000000000000000000e+00j)  (-5.289733125256249405e-03+0.000000000000000000e+00j)  (0.000000000000000000e+00+1.551344719065151333e-02j)  (0.000000000000000000e+00+8.772647710680721300e-02j)
 (2.659467999999999499e+00+0.000000000000000000e+00j)  (0.000000000000000000e+00+0.000000000000000000e+00j)  (0.000000000000000000e+00+0.000000000000000000e+00j)  (1.256166294438133824e-01+0.000000000000000000e+00j)  (5.652748324971602206e-02+0.000000000000000000e+00j)  (3.196553869858103081e-01+0.000000000000000000e+00j)  (-4.104979306208107401e-03+0.000000000000000000e+00j)  (0.000000000000000000e+00+1.213006789502518203e-02j)  (0.000000000000000000e+00+6.859391793580173202e-02j)
 (2.679463999999999402e+00+0.000000000000000000e+00j)  (0.000000000000000000e+00+0.000000000000000000e+00j)  (0.000000000000000000e+00+0.000000000000000000e+00j)  (1.269287418950439394e-01+0.000000000000000000e+00j)  (5.711793385276976720e-02+0.000000000000000000e+00j)  (3.229943064841606648e-01+0.000000000000000000e+00j)  (-2.942404532956862696e-03+0.000000000000000000e+00j)  (0.000000000000000000e+00+8.760074466105252991e-03j)  (0.000000000000000000e+00+4.953705405770842535e-02j)
 (2.699459999999999305e+00+0.000000000000000000e+00j)  (0.000000000000000000e+00+0.000000000000000000e+00j)  (0.000000000000000000e+00+0.000000000000000000e+00j)  (1.278188039924739450e-01+0.000000000000000000e+00j)  (5.751846179661327524e-02+0.000000000000000000e+00j)  (3.252592386468458052e-01+0.000000000000000000e+00j)  (-1.804757375028529214e-03+0.000000000000000000e+00j)  (0.000000000000000000e+00+5.413189270660571754e-03j)  (0.000000000000000000e+00+3.061086416135701260e-02j)
 (2.719455999999999651e+00+0.000000000000000000e+00j)  (0.000000000000000000e+00+0.000000000000000000e+00j)  (0.000000000000000000e+00+0.000000000000000000e+00j)  (1.282903198106221665e-01+0.000000000000000000e+00j)  (5.773064391477997215e-02+0.000000000000000000e+00j)  (3.264591002574259715e-01+0.000000000000000000e+00j)  (-6.946417730991512850e-04+0.000000000000000000e+00j)  (0.000000000000000000e+00+2.098941930783472434e-03j)  (0.000000000000000000e+00+1.186923699010968003e-02j)
 (2.739451999999999554e+00+0.000000000000000000e+00j)  (0.000000000000000000e+00+0.000000000000000000e+00j)  (0.000000000000000000e+00+0.000000000000000000e+00j)  (1.283479773452096961e-01+0.000000000000000000e+00j)  (5.775658980534436465e-02+0.000000000000000000e+00j)  (3.266058208119642092e-01+0.000000000000000000e+00j)  (3.854855572052577097e-04+0.000000000000000000e+00j)  (-0.000000000000000000e+00-1.173354645174507502e-03j)  (-0.000000000000000000e+00-6.635164200004244756e-03j)
 (2.759447999999999457e+00+0.000000000000000000e+00j)  (0.000000000000000000e+00+0.000000000000000000e+00j)  (0.000000000000000000e+00+0.000000000000000000e+00j)  (1.279976198213865768e-01+0.000000000000000000e+00j)  (5.759892891962395400e-02+0.000000000000000000e+00j)  (3.257142695073563798e-01+0.000000000000000000e+00j)  (1.433317347849630535e-03+0.000000000000000000e+00j)  (-0.000000000000000000e+00-4.394627432098850532e-03j)  (-0.000000000000000000e+00-2.485103266070266825e-02j)
 (2.779443999999999360e+00+0.000000000000000000e+00j)  (0.000000000000000000e+00+0.000000000000000000e+00j)  (0.000000000000000000e+00+0.000000000000000000e+00j)  (1.272462141442249894e-01+0.000000000000000000e+00j)  (5.726079636490123692e-02+0.000000000000000000e+00j)  (3.238021749576147634e-01+0.000000000000000000e+00j)  (2.446697627487887019e-03+0.000000000000000000e+00j)  (-0.000000000000000000e+00-7.556065600594934727e-03j)  (-0.000000000000000000e+00-4.272854432556887072e-02j)
 (2.799439999999999706e+00+0.000000000000000000e+00j)  (0.000000000000000000e+00+0.000000000000000000e+00j)  (0.000000000000000000e+00+0.000000000000000000e+00j)  (1.261018166026210141e-01+0.000000000000000000e+00j)  (5.674581747117946051e-02+0.000000000000000000e+00j)  (3.208900379209284615e-01+0.000000000000000000e+00j)  (3.423623198194379082e-03+0.000000000000000000e+00j)  (-0.000000000000000000e+00-1.064914191772585624e-02j)  (-0.000000000000000000e+00-6.021947882837280774e-02j)
 (2.819435999999999609e+00+0.000000000000000000e+00j)  (0.000000000000000000e+00+0.000000000000000000e+00j)  (0.000000000000000000e+00+0.000000000000000000e+00j)  (1.245735359444448409e-01+0.000000000000000000e+00j)  (5.605809117500018535e-02+0.000000000000000000e+00j)  (3.170010373373652879e-01+0.000000000000000000e+00j)  (4.362244741752041230e-03+0.000000000000000000e+00j)  (-0.000000000000000000e+00-1.366563318411822929e-02j)  (-0.000000000000000000e+00-7.727733507218169373e-02j)
 (2.839431999999999512e+00+0.000000000000000000e+00j)  (0.000000000000000000e+00+0.000000000000000000e+00j)  (0.000000000000000000e+00+0.000000000000000000e+00j)  (1.226714939471132970e-01+0.000000000000000000e+00j)  (5.520217227620099337e-02+0.000000000000000000e+00j)  (3.121609299932001091e-01+0.000000000000000000e+00j)  (5.260867558255501522e-03+0.000000000000000000e+00j)  (-0.000000000000000000e+00-1.659763965852503742e-02j)  (-0.000000000000000000e+00-9.385744107267514347e-02j)
 (2.859427999999999415e+00+0.000000000000000000e+00j)  (0.000000000000000000e+00+0.000000000000000000e+00j)  (0.000000000000000000e+00+0.000000000000000000e+00j)  (1.204067836137101832e-01+0.000000000000000000e+00j)  (5.418305262616958384e-02+0.000000000000000000e+00j)  (3.063979441429983130e-01+0.000000000000000000e+00j)  (6.117951940607196243e-03+0.000000000000000000e+00j)  (-0.000000000000000000e+00-1.943760342402950023e-02j)  (-0.000000000000000000e+00-1.099170578165812040e-01j)
 (2.879423999999999317e+00+0.000000000000000000e+00j)  (0.000000000000000000e+00+0.000000000000000000e+00j)  (0.000000000000000000e+00+0.000000000000000000e+00j)  (1.177914251303362747e-01+0.000000000000000000e+00j)  (5.300614130865132639e-02+0.000000000000000000e+00j)  (2.997426674347226094e-01+0.000000000000000000e+00j)  (6.932113189287590106e-03+0.000000000000000000e+00j)  (-0.000000000000000000e+00-2.217832565327913785e-02j)  (-0.000000000000000000e+00-1.254154768942748188e-01j)
 (2.899419999999999664e+00+0.000000000000000000e+00j)  (0.000000000000000000e+00+0.000000000000000000e+00j)  (0.000000000000000000e+00+0.000000000000000000e+00j)  (1.148383197255169880e-01+0.000000000000000000e+00j)  (5.167724387648264806e-02+0.000000000000000000e+00j)  (2.922279294962268348e-01+0.000000000000000000e+00j)  (7.702121272565152013e-03+0.000000000000000000e+00j)  (-0.000000000000000000e+00-2.481298273344539201e-02j)  (-0.000000000000000000e+00-1.403141116842763769e-01j)
 (2.919415999999999567e+00+0.000000000000000000e+00j)  (0.000000000000000000e+00+0.000000000000000000e+00j)  (0.000000000000000000e+00+0.000000000000000000e+00j)  (1.115612015772227822e-01+0.000000000000000000e+00j)  (5.020254070975025545e-02+0.000000000000000000e+00j)  (2.838886795535290886e-01+0.000000000000000000e+00j)  (8.426900138075886851e-03+0.000000000000000000e+00j)  (-0.000000000000000000e+00-2.733514121500105545e-02j)  (-0.000000000000000000e+00-1.545765818865963981e-01j)
 (2.939411999999999470e+00+0.000000000000000000e+00j)  (0.000000000000000000e+00+0.000000000000000000e+00j)  (0.000000000000000000e+00+0.000000000000000000e+00j)  (1.079745879173483469e-01+0.000000000000000000e+00j)  (4.858856456280676028e-02+0.000000000000000000e+00j)  (2.747618594621767385e-01+0.000000000000000000e+00j)  (9.105526682445085757e-03+0.000000000000000000e+00j)  (-0.000000000000000000e+00-2.973877155188808102e-02j)  (-0.000000000000000000e+00-1.681687912215540925e-01j)
 (2.959407999999999372e+00+0.000000000000000000e+00j)  (0.000000000000000000e+00+0.000000000000000000e+00j)  (0.000000000000000000e+00+0.000000000000000000e+00j)  (1.040937274873524887e-01+0.000000000000000000e+00j)  (4.684217736930862408e-02+0.000000000000000000e+00j)  (2.648862725428260401e-01+0.000000000000000000e+00j)  (9.737229386342020898e-03+0.000000000000000000e+00j)  (-0.000000000000000000e+00-3.201826060419517977e-02j)  (-0.000000000000000000e+00-1.810589981307535179e-01j)
 (2.979403999999999275e+00+0.000000000000000000e+00j)  (0.000000000000000000e+00+0.000000000000000000e+00j)  (0.000000000000000000e+00+0.000000000000000000e+00j)  (9.993454750215881310e-02+0.000000000000000000e+00j)  (4.497054637597146937e-02+0.000000000000000000e+00j)  (2.543024486208079193e-01+0.000000000000000000e+00j)  (1.032138662305296523e-02+0.000000000000000000e+00j)  (-0.000000000000000000e+00-3.416842287807832224e-02j)  (-0.000000000000000000e+00-1.932178793373364734e-01j)
 (2.999399999999999622e+00+0.000000000000000000e+00j)  (0.000000000000000000e+00+0.000000000000000000e+00j)  (0.000000000000000000e+00+0.000000000000000000e+00j)  (9.551359928236492769e-02+0.000000000000000000e+00j)  (4.298111967706422232e-02+0.000000000000000000e+00j)  (2.430525056769516079e-01+0.000000000000000000e+00j)  (1.085752464932487199e-02+0.000000000000000000e+00j)  (-0.000000000000000000e+00-3.618451048131668402e-02j)  (-0.000000000000000000e+00-2.046185861433252595e-01j)
 (3.019395999999999525e+00+0.000000000000000000e+00j)  (0.000000000000000000e+00+0.000000000000000000e+00j)  (0.000000000000000000e+00+0.000000000000000000e+00j)  (9.084800271729007171e-02+0.000000000000000000e+00j)  (4.088160122278053366e-02+0.000000000000000000e+00j)  (2.311800085232546820e-01+0.000000000000000000e+00j)  (1.134531528787152688e-02+0.000000000000000000e+00j)  (-0.000000000000000000e+00-3.806222177659793204e-02j)  (-0.000000000000000000e+00-2.152367933627979124e-01j)
 (3.039391999999999427e+00+0.000000000000000000e+00j)  (0.000000000000000000e+00+0.000000000000000000e+00j)  (0.000000000000000000e+00+0.000000000000000000e+00j)  (8.595538972340428796e-02+0.000000000000000000e+00j)  (3.867992537553192889e-02+0.000000000000000000e+00j)  (2.187298249221105717e-01+0.000000000000000000e+00j)  (1.178457331154486760e-02+0.000000000000000000e+00j)  (-0.000000000000000000e+00-3.979770871835885959e-02j)  (-0.000000000000000000e+00-2.250507408107447760e-01j)
 (3.059387999999999330e+00+0.000000000000000000e+00j)  (0.000000000000000000e+00+0.000000000000000000e+00j)  (0.000000000000000000e+00+0.000000000000000000e+00j)  (8.085384686423251199e-02+0.000000000000000000e+00j)  (3.638423108890462970e-02+0.000000000000000000e+00j)  (2.057479795717490623e-01+0.000000000000000000e+00j)  (1.217525353975335012e-02+0.000000000000000000e+00j)  (-0.000000000000000000e+00-4.138758286275435322e-02j)  (-0.000000000000000000e+00-2.340412672886422185e-01j)
 (3.079383999999999233e+00+0.000000000000000000e+00j)  (0.000000000000000000e+00+0.000000000000000000e+00j)  (0.000000000000000000e+00+0.000000000000000000e+00j)  (7.556185729889568214e-02+0.000000000000000000e+00j)  (3.400283578450306182e-02+0.000000000000000000e+00j)  (1.922815063832669091e-01+0.000000000000000000e+00j)  (1.251744765825864303e-02+0.000000000000000000e+00j)  (-0.000000000000000000e+00-4.282892004408791337e-02j)  (-0.000000000000000000e+00-2.421918370290442324e-01j)
 (3.099379999999999580e+00+0.000000000000000000e+00j)  (0.000000000000000000e+00+0.000000000000000000e+00j)  (0.000000000000000000e+00+0.000000000000000000e+00j)  (7.009824222705596242e-02+0.000000000000000000e+00j)  (3.154420900217518031e-02+0.000000000000000000e+00j)  (1.783782994761622664e-01+0.000000000000000000e+00j)  (1.281138077399735647e-02+0.000000000000000000e+00j)  (-0.000000000000000000e+00-4.411926371479102382e-02j)  (-0.000000000000000000e+00-2.494885585827207874e-01j)
 (3.119375999999999483e+00+0.000000000000000000e+00j)  (0.000000000000000000e+00+0.000000000000000000e+00j)  (0.000000000000000000e+00+0.000000000000000000e+00j)  (6.448210199816346855e-02+0.000000000000000000e+00j)  (2.901694589917355738e-02+0.000000000000000000e+00j)  (1.640869633196210264e-01+0.000000000000000000e+00j)  (1.305740771705723828e-02+0.000000000000000000e+00j)  (-0.000000000000000000e+00-4.525662694978126177e-02j)  (-0.000000000000000000e+00-2.559201961530359615e-01j)
 (3.139371999999999385e+00+0.000000000000000000e+00j)  (0.000000000000000000e+00+0.000000000000000000e+00j)  (0.000000000000000000e+00+0.000000000000000000e+00j)  (5.873275705256051499e-02+0.000000000000000000e+00j)  (2.642974067365223140e-02+0.000000000000000000e+00j)  (1.494566624459325588e-01+0.000000000000000000e+00j)  (1.325600910238558007e-02+0.000000000000000000e+00j)  (-0.000000000000000000e+00-4.623949311974935583e-02j)  (-0.000000000000000000e+00-2.614781734032966543e-01j)
 (3.159367999999999288e+00+0.000000000000000000e+00j)  (0.000000000000000000e+00+0.000000000000000000e+00j)  (0.000000000000000000e+00+0.000000000000000000e+00j)  (5.286968886120189948e-02+0.000000000000000000e+00j)  (2.379135998754085268e-02+0.000000000000000000e+00j)  (1.345369711603832952e-01+0.000000000000000000e+00j)  (1.340778716422023030e-02+0.000000000000000000e+00j)  (-0.000000000000000000e+00-4.706681524160904323e-02j)  (-0.000000000000000000e+00-2.661565697836327238e-01j)
 (3.179363999999999635e+00+0.000000000000000000e+00j)  (0.000000000000000000e+00+0.000000000000000000e+00j)  (0.000000000000000000e+00+0.000000000000000000e+00j)  (4.691248102947962600e-02+0.000000000000000000e+00j)  (2.111061646326583066e-02+0.000000000000000000e+00j)  (1.193777236687458276e-01+0.000000000000000000e+00j)  (1.351346137661130209e-02+0.000000000000000000e+00j)  (-0.000000000000000000e+00-4.773801401798712096e-02j)  (-0.000000000000000000e+00-2.699521094445748726e-01j)
 (3.199359999999999538e+00+0.000000000000000000e+00j)  (0.000000000000000000e+00+0.000000000000000000e+00j)  (0.000000000000000000e+00+0.000000000000000000e+00j)  (4.088076072892607438e-02+0.000000000000000000e+00j)  (1.839634232801673139e-02+0.000000000000000000e+00j)  (1.040288650391165831e-01+0.000000000000000000e+00j)  (1.357386387374230792e-02+0.000000000000000000e+00j)  (-0.000000000000000000e+00-4.825297458121798055e-02j)  (-0.000000000000000000e+00-2.728641428247770007e-01j)
 (3.219355999999999440e+00+0.000000000000000000e+00j)  (0.000000000000000000e+00+0.000000000000000000e+00j)  (0.000000000000000000e+00+0.000000000000000000e+00j)  (3.479414061840332972e-02+0.000000000000000000e+00j)  (1.565736327828149907e-02+0.000000000000000000e+00j)  (8.854030340934437859e-02+0.000000000000000000e+00j)  (1.358993468406338549e-02+0.000000000000000000e+00j)  (-0.000000000000000000e+00-4.861204196083062506e-02j)  (-0.000000000000000000e+00-2.748946210202596330e-01j)
 (3.239351999999999343e+00+0.000000000000000000e+00j)  (0.000000000000000000e+00+0.000000000000000000e+00j)  (0.000000000000000000e+00+0.000000000000000000e+00j)  (2.867216141378346045e-02+0.000000000000000000e+00j)  (1.290247263620255581e-02+0.000000000000000000e+00j)  (7.296176384466711295e-02+0.000000000000000000e+00j)  (1.356271679251624604e-02+0.000000000000000000e+00j)  (-0.000000000000000000e+00-4.881601529696786429e-02j)  (-0.000000000000000000e+00-2.760480630620661957e-01j)
 (3.259347999999999246e+00+0.000000000000000000e+00j)  (0.000000000000000000e+00+0.000000000000000000e+00j)  (0.000000000000000000e+00+0.000000000000000000e+00j)  (2.253423526209243771e-02+0.000000000000000000e+00j)  (1.014040586794159697e-02+0.000000000000000000e+00j)  (5.734264424245947428e-02+0.000000000000000000e+00j)  (1.349335104535932285e-02+0.000000000000000000e+00j)  (-0.000000000000000000e+00-4.886614082554423949e-02j)  (-0.000000000000000000e+00-2.763315162482652965e-01j)
 (3.279343999999999593e+00+0.000000000000000000e+00j)  (0.000000000000000000e+00+0.000000000000000000e+00j)  (0.000000000000000000e+00+0.000000000000000000e+00j)  (1.639959007264174887e-02+0.000000000000000000e+00j)  (7.379815532688788551e-03+0.000000000000000000e+00j)  (4.173187367221729838e-02+0.000000000000000000e+00j)  (1.338307091229329684e-02+0.000000000000000000e+00j)  (-0.000000000000000000e+00-4.876410366422614245e-02j)  (-0.000000000000000000e+00-2.757545096947631169e-01j)
 (3.299339999999999495e+00+0.000000000000000000e+00j)  (0.000000000000000000e+00+0.000000000000000000e+00j)  (0.000000000000000000e+00+0.000000000000000000e+00j)  (1.028721495381675413e-02+0.000000000000000000e+00j)  (4.629246729217539706e-03+0.000000000000000000e+00j)  (2.617777352909592126e-02+0.000000000000000000e+00j)  (1.323319712074037813e-02+0.000000000000000000e+00j)  (-0.000000000000000000e+00-4.851201843149283155e-02j)  (-0.000000000000000000e+00-2.743290012873429440e-01j)
 (3.319335999999999398e+00+0.000000000000000000e+00j)  (0.000000000000000000e+00+0.000000000000000000e+00j)  (0.000000000000000000e+00+0.000000000000000000e+00j)  (4.215806899944234479e-03+0.000000000000000000e+00j)  (1.897113104974905689e-03+0.000000000000000000e+00j)  (1.072792186851255318e-02+0.000000000000000000e+00j)  (1.304513217724657427e-02+0.000000000000000000e+00j)  (-0.000000000000000000e+00-4.811241873410324749e-02j)  (-0.000000000000000000e+00-2.720693182346904382e-01j)
 (3.339331999999999301e+00+0.000000000000000000e+00j)  (0.000000000000000000e+00+0.000000000000000000e+00j)  (0.000000000000000000e+00+0.000000000000000000e+00j)  (-1.796281131963010447e-03+0.000000000000000000e+00j)  (-8.083265093833547771e-04+0.000000000000000000e+00j)  (-4.570978722445130475e-03+0.000000000000000000e+00j)  (1.282035479105380661e-02+0.000000000000000000e+00j)  (-0.000000000000000000e+00-4.756824556124363695e-02j)  (-0.000000000000000000e+00-2.689920914388448936e-01j)
 (3.359327999999999204e+00+0.000000000000000000e+00j)  (0.000000000000000000e+00+0.000000000000000000e+00j)  (0.000000000000000000e+00+0.000000000000000000e+00j)  (-7.731090620774454768e-03+0.000000000000000000e+00j)  (-3.478990779348505383e-03+0.000000000000000000e+00j)  (-1.967322937375420855e-02+0.000000000000000000e+00j)  (1.256041421492899539e-02+0.000000000000000000e+00j)  (-0.000000000000000000e+00-4.688283462645442129e-02j)  (-0.000000000000000000e+00-2.651161839154818622e-01j)
 (3.379323999999999550e+00+0.000000000000000000e+00j)  (0.000000000000000000e+00+0.000000000000000000e+00j)  (0.000000000000000000e+00+0.000000000000000000e+00j)  (-1.357110622564711155e-02+0.000000000000000000e+00j)  (-6.106997801541200893e-03+0.000000000000000000e+00j)  (-3.453425897185953553e-02+0.000000000000000000e+00j)  (1.226692451833993891e-02+0.000000000000000000e+00j)  (-0.000000000000000000e+00-4.605990270112731572e-02j)  (-0.000000000000000000e+00-2.604626135116600572e-01j)
 (3.399319999999999453e+00+0.000000000000000000e+00j)  (0.000000000000000000e+00+0.000000000000000000e+00j)  (0.000000000000000000e+00+0.000000000000000000e+00j)  (-1.929930275245431148e-02+0.000000000000000000e+00j)  (-8.684686238604442249e-03+0.000000000000000000e+00j)  (-4.911074367467776342e-02+0.000000000000000000e+00j)  (1.194155880803368999e-02+0.000000000000000000e+00j)  (-0.000000000000000000e+00-4.510353298591674581e-02j)  (-0.000000000000000000e+00-2.550544701831017336e-01j)
 (3.419315999999999356e+00+0.000000000000000000e+00j)  (0.000000000000000000e+00+0.000000000000000000e+00j)  (0.000000000000000000e+00+0.000000000000000000e+00j)  (-2.489919022440373678e-02+0.000000000000000000e+00j)  (-1.120463560098168207e-02+0.000000000000000000e+00j)  (-6.336072160235048378e-02+0.000000000000000000e+00j)  (1.158604341100218094e-02+0.000000000000000000e+00j)  (-0.000000000000000000e+00-4.401815956881591912e-02j)  (-0.000000000000000000e+00-2.489168281066836408e-01j)
 (3.439311999999999259e+00+0.000000000000000000e+00j)  (0.000000000000000000e+00+0.000000000000000000e+00j)  (0.000000000000000000e+00+0.000000000000000000e+00j)  (-3.035485694527223152e-02+0.000000000000000000e+00j)  (-1.365968562537250505e-02+0.000000000000000000e+00j)  (-7.724370241982946028e-02+0.000000000000000000e+00j)  (1.120215203471325131e-02+0.000000000000000000e+00j)  (-0.000000000000000000e+00-4.280855102090409814e-02j)  (-0.000000000000000000e+00-2.420766529165730430e-01j)
 (3.459307999999999161e+00+0.000000000000000000e+00j)  (0.000000000000000000e+00+0.000000000000000000e+00j)  (0.000000000000000000e+00+0.000000000000000000e+00j)  (-3.565101045023329196e-02+0.000000000000000000e+00j)  (-1.604295470260498277e-02+0.000000000000000000e+00j)  (-9.072077154403974941e-02+0.000000000000000000e+00j)  (1.079169991934276346e-02+0.000000000000000000e+00j)  (-0.000000000000000000e+00-4.147979318286863087e-02j)  (-0.000000000000000000e+00-2.345627043643033760e-01j)
 (3.479303999999999508e+00+0.000000000000000000e+00j)  (0.000000000000000000e+00+0.000000000000000000e+00j)  (0.000000000000000000e+00+0.000000000000000000e+00j)  (-4.077301624604438846e-02+0.000000000000000000e+00j)  (-1.834785731071997272e-02+0.000000000000000000e+00j)  (-1.037546887256489692e-01+0.000000000000000000e+00j)  (1.035653799656675519e-02+0.000000000000000000e+00j)  (-0.000000000000000000e+00-4.003727119734076106e-02j)  (-0.000000000000000000e+00-2.264054347140263268e-01j)
 (3.499299999999999411e+00+0.000000000000000000e+00j)  (0.000000000000000000e+00+0.000000000000000000e+00j)  (0.000000000000000000e+00+0.000000000000000000e+00j)  (-4.570693424938949978e-02+0.000000000000000000e+00j)  (-2.056812041222527351e-02+0.000000000000000000e+00j)  (-1.163099807733549429e-01+0.000000000000000000e+00j)  (9.898547069261626544e-03+0.000000000000000000e+00j)  (-0.000000000000000000e+00-3.848665084385244350e-02j)  (-0.000000000000000000e+00-2.176368831941800364e-01j)
 (3.519295999999999314e+00+0.000000000000000000e+00j)  (0.000000000000000000e+00+0.000000000000000000e+00j)  (0.000000000000000000e+00+0.000000000000000000e+00j)  (-5.043955283941461976e-02+0.000000000000000000e+00j)  (-2.269779877773657820e-02+0.000000000000000000e+00j)  (-1.283530282070339257e-01+0.000000000000000000e+00j)  (9.419632026216344031e-03+0.000000000000000000e+00j)  (-0.000000000000000000e+00-3.683385923481674595e-02j)  (-0.000000000000000000e+00-2.082905668358295270e-01j)
 (3.539291999999999216e+00+0.000000000000000000e+00j)  (0.000000000000000000e+00+0.000000000000000000e+00j)  (0.000000000000000000e+00+0.000000000000000000e+00j)  (-5.495842044791700298e-02+0.000000000000000000e+00j)  (-2.473128920156265204e-02+0.000000000000000000e+00j)  (-1.398521456449808575e-01+0.000000000000000000e+00j)  (8.921716105684927497e-03+0.000000000000000000e+00j)  (-0.000000000000000000e+00-3.508506493235756529e-02j)  (-0.000000000000000000e+00-1.984013680359877074e-01j)
 (3.559287999999999563e+00+0.000000000000000000e+00j)  (0.000000000000000000e+00+0.000000000000000000e+00j)  (0.000000000000000000e+00+0.000000000000000000e+00j)  (-5.925187461825142526e-02+0.000000000000000000e+00j)  (-2.666334357821313963e-02+0.000000000000000000e+00j)  (-1.507776557498189673e-01+0.000000000000000000e+00j)  (8.406735221299956040e-03+0.000000000000000000e+00j)  (-0.000000000000000000e+00-3.324665754705585785e-02j)  (-0.000000000000000000e+00-1.880054191912434169e-01j)
 (3.579283999999999466e+00+0.000000000000000000e+00j)  (0.000000000000000000e+00+0.000000000000000000e+00j)  (0.000000000000000000e+00+0.000000000000000000e+00j)  (-6.330906847175296615e-02+0.000000000000000000e+00j)  (-2.848908081228883338e-02+0.000000000000000000e+00j)  (-1.611019565773425810e-01+0.000000000000000000e+00j)  (7.876632363531015785e-03+0.000000000000000000e+00j)  (-0.000000000000000000e+00-3.132522688074305256e-02j)  (-0.000000000000000000e+00-1.771399847530366056e-01j)
 (3.599279999999999369e+00+0.000000000000000000e+00j)  (0.000000000000000000e+00+0.000000000000000000e+00j)  (0.000000000000000000e+00+0.000000000000000000e+00j)  (-6.711999452834344071e-02+0.000000000000000000e+00j)  (-3.020399753775454901e-02+0.000000000000000000e+00j)  (-1.707995821925770152e-01+0.000000000000000000e+00j)  (7.333352089505565732e-03+0.000000000000000000e+00j)  (-0.000000000000000000e+00-2.932754167635065468e-02j)  (-0.000000000000000000e+00-1.658433410608890768e-01j)
 (3.619275999999999271e+00+0.000000000000000000e+00j)  (0.000000000000000000e+00+0.000000000000000000e+00j)  (0.000000000000000000e+00+0.000000000000000000e+00j)  (-7.067550583594528479e-02+0.000000000000000000e+00j)  (-3.180397762617537954e-02+0.000000000000000000e+00j)  (-1.798472564375880878e-01+0.000000000000000000e+00j)  (6.778835113616475151e-03+0.000000000000000000e+00j)  (-0.000000000000000000e+00-2.726052803852153233e-02j)  (-0.000000000000000000e+00-1.541546543138360703e-01j)
 (3.639271999999999174e+00+0.000000000000000000e+00j)  (0.000000000000000000e+00+0.000000000000000000e+00j)  (0.000000000000000000e+00+0.000000000000000000e+00j)  (-7.396733437136952805e-02+0.000000000000000000e+00j)  (-3.328530046711628693e-02+0.000000000000000000e+00j)  (-1.882239397560386274e-01+0.000000000000000000e+00j)  (6.215013010919907474e-03+0.000000000000000000e+00j)  (-0.000000000000000000e+00-2.513124758919612137e-02j)  (-0.000000000000000000e+00-1.421138570431765280e-01j)
 (3.659267999999999521e+00+0.000000000000000000e+00j)  (0.000000000000000000e+00+0.000000000000000000e+00j)  (0.000000000000000000e+00+0.000000000000000000e+00j)  (-7.698810668343142316e-02+0.000000000000000000e+00j)  (-3.464464800754413210e-02+0.000000000000000000e+00j)  (-1.959108690000688491e-01+0.000000000000000000e+00j)  (5.643803044882268229e-03+0.000000000000000000e+00j)  (-0.000000000000000000e+00-2.294687542271138525e-02j)  (-0.000000000000000000e+00-1.297615234514944982e-01j)
 (3.679263999999999424e+00+0.000000000000000000e+00j)  (0.000000000000000000e+00+0.000000000000000000e+00j)  (0.000000000000000000e+00+0.000000000000000000e+00j)  (-7.973135675716686022e-02+0.000000000000000000e+00j)  (-3.587911054072508155e-02+0.000000000000000000e+00j)  (-2.028915901657404597e-01+0.000000000000000000e+00j)  (5.067103130566052646e-03+0.000000000000000000e+00j)  (-0.000000000000000000e+00-2.071467792508774677e-02j)  (-0.000000000000000000e+00-1.171387439836817923e-01j)
 (3.699259999999999327e+00+0.000000000000000000e+00j)  (0.000000000000000000e+00+0.000000000000000000e+00j)  (0.000000000000000000e+00+0.000000000000000000e+00j)  (-8.219153608614902795e-02+0.000000000000000000e+00j)  (-3.698619123876705633e-02+0.000000000000000000e+00j)  (-2.091519840239599859e-01+0.000000000000000000e+00j)  (4.486786943852886025e-03+0.000000000000000000e+00j)  (-0.000000000000000000e+00-1.844199052213025408e-02j)  (-0.000000000000000000e+00-1.042869994954145896e-01j)
 (3.719255999999999229e+00+0.000000000000000000e+00j)  (0.000000000000000000e+00+0.000000000000000000e+00j)  (0.000000000000000000e+00+0.000000000000000000e+00j)  (-8.436402094800829476e-02+0.000000000000000000e+00j)  (-3.796380942660372571e-02+0.000000000000000000e+00j)  (-2.146802846344221805e-01+0.000000000000000000e+00j)  (3.904699186790695949e-03+0.000000000000000000e+00j)  (-0.000000000000000000e+00-1.613619542074046231e-02j)  (-0.000000000000000000e+00-9.124803538323750240e-02j)
 (3.739251999999999132e+00+0.000000000000000000e+00j)  (0.000000000000000000e+00+0.000000000000000000e+00j)  (0.000000000000000000e+00+0.000000000000000000e+00j)  (-8.624511688632841011e-02+0.000000000000000000e+00j)  (-3.881030259884778177e-02+0.000000000000000000e+00j)  (-2.194670907506466873e-01+0.000000000000000000e+00j)  (3.322651018619955654e-03+0.000000000000000000e+00j)  (-0.000000000000000000e+00-1.380469940741855910e-02j)  (-0.000000000000000000e+00-7.806373603805072392e-02j)
 (3.759247999999999479e+00+0.000000000000000000e+00j)  (0.000000000000000000e+00+0.000000000000000000e+00j)  (0.000000000000000000e+00+0.000000000000000000e+00j)  (-8.783206041009254672e-02+0.000000000000000000e+00j)  (-3.952442718454164672e-02+0.000000000000000000e+00j)  (-2.235053701445413321e-01+0.000000000000000000e+00j)  (2.742415661485297744e-03+0.000000000000000000e+00j)  (-0.000000000000000000e+00-1.145491176734142122e-02j)  (-0.000000000000000000e+00-6.477599998043834240e-02j)
 (3.779243999999999382e+00+0.000000000000000000e+00j)  (0.000000000000000000e+00+0.000000000000000000e+00j)  (0.000000000000000000e+00+0.000000000000000000e+00j)  (-8.912301792977078696e-02+0.000000000000000000e+00j)  (-4.010535806839685830e-02+0.000000000000000000e+00j)  (-2.267904568990746494e-01+0.000000000000000000e+00j)  (2.165724189273363857e-03+0.000000000000000000e+00j)  (-0.000000000000000000e+00-9.094222386629137456e-03j)  (-0.000000000000000000e+00-5.142661603190268327e-02j)
 (3.799239999999999284e+00+0.000000000000000000e+00j)  (0.000000000000000000e+00+0.000000000000000000e+00j)  (0.000000000000000000e+00+0.000000000000000000e+00j)  (-9.011708195694892454e-02+0.000000000000000000e+00j)  (-4.055268688062701327e-02+0.000000000000000000e+00j)  (-2.293200417375090006e-01+0.000000000000000000e+00j)  (1.594261507437904225e-03+0.000000000000000000e+00j)  (-0.000000000000000000e+00-6.729980099464868623e-03j)  (-0.000000000000000000e+00-3.805714087071181140e-02j)
 (3.819235999999999187e+00+0.000000000000000000e+00j)  (0.000000000000000000e+00+0.000000000000000000e+00j)  (0.000000000000000000e+00+0.000000000000000000e+00j)  (-9.081426460207780993e-02+0.000000000000000000e+00j)  (-4.086641907093501586e-02+0.000000000000000000e+00j)  (-2.310941554771882567e-01+0.000000000000000000e+00j)  (1.029662531080308184e-03+0.000000000000000000e+00j)  (-0.000000000000000000e+00-4.369471340614478234e-03j)  (-0.000000000000000000e+00-2.470877831474205949e-02j)
 (3.839231999999999090e+00+0.000000000000000000e+00j)  (0.000000000000000000e+00+0.000000000000000000e+00j)  (0.000000000000000000e+00+0.000000000000000000e+00j)  (-9.121548841245032124e-02+0.000000000000000000e+00j)  (-4.104696978560264803e-02+0.000000000000000000e+00j)  (-2.321151457150286701e-01+0.000000000000000000e+00j)  (4.735085679495635528e-04+0.000000000000000000e+00j)  (-0.000000000000000000e+00-2.019899162606818982e-03j)  (-0.000000000000000000e+00-1.142226066642796321e-02j)
 (3.859227999999999437e+00+0.000000000000000000e+00j)  (0.000000000000000000e+00+0.000000000000000000e+00j)  (0.000000000000000000e+00+0.000000000000000000e+00j)  (-9.132257459986910242e-02+0.000000000000000000e+00j)  (-4.109515856994110095e-02+0.000000000000000000e+00j)  (-2.323876468705822484e-01+0.000000000000000000e+00j)  (-7.267608758822045618e-05+0.000000000000000000e+00j)  (0.000000000000000000e+00+3.116373246121250198e-04j)  (0.000000000000000000e+00+1.762267553254493304e-03j)
 (3.879223999999999339e+00+0.000000000000000000e+00j)  (0.000000000000000000e+00+0.000000000000000000e+00j)  (0.000000000000000000e+00+0.000000000000000000e+00j)  (-9.113822871463254927e-02+0.000000000000000000e+00j)  (-4.101220292158464648e-02+0.000000000000000000e+00j)  (-2.319185437307715314e-01+0.000000000000000000e+00j)  (-6.074273441823555865e-04+0.000000000000000000e+00j)  (0.000000000000000000e+00+2.618163035342726749e-03j)  (0.000000000000000000e+00+1.480536316391951532e-02j)
 (3.899219999999999242e+00+0.000000000000000000e+00j)  (0.000000000000000000e+00+0.000000000000000000e+00j)  (0.000000000000000000e+00+0.000000000000000000e+00j)  (-9.066602382942000327e-02+0.000000000000000000e+00j)  (-4.079971072323899939e-02+0.000000000000000000e+00j)  (-2.307169286580894318e-01+0.000000000000000000e+00j)  (-1.129344281932381528e-03+0.000000000000000000e+00j)  (0.000000000000000000e+00+4.892846456662643638e-03j)  (0.000000000000000000e+00+2.766839487010958054e-02j)
 (3.919215999999999145e+00+0.000000000000000000e+00j)  (0.000000000000000000e+00+0.000000000000000000e+00j)  (0.000000000000000000e+00+0.000000000000000000e+00j)  (-8.991038130337979106e-02+0.000000000000000000e+00j)  (-4.045967158652090390e-02+0.000000000000000000e+00j)  (-2.287940526411655628e-01+0.000000000000000000e+00j)  (-1.637091895457626258e-03+0.000000000000000000e+00j)  (0.000000000000000000e+00+7.129018611275395739e-03j)  (0.000000000000000000e+00+4.031365049367784115e-02j)
 (3.939211999999999492e+00+0.000000000000000000e+00j)  (0.000000000000000000e+00+0.000000000000000000e+00j)  (0.000000000000000000e+00+0.000000000000000000e+00j)  (-8.887654920319902618e-02+0.000000000000000000e+00j)  (-3.999444714143956386e-02+0.000000000000000000e+00j)  (-2.261632703830772917e-01+0.000000000000000000e+00j)  (-2.129403608070542901e-03+0.000000000000000000e+00j)  (0.000000000000000000e+00+9.320191384171977456e-03j)  (0.000000000000000000e+00+5.270444060861801533e-02j)
 (3.959207999999999394e+00+0.000000000000000000e+00j)  (0.000000000000000000e+00+0.000000000000000000e+00j)  (0.000000000000000000e+00+0.000000000000000000e+00j)  (-8.757057846414480207e-02+0.000000000000000000e+00j)  (-3.940676030886516162e-02+0.000000000000000000e+00j)  (-2.228399796385883702e-01+0.000000000000000000e+00j)  (-2.605083554159625531e-03+0.000000000000000000e+00j)  (0.000000000000000000e+00+1.146007516477468881e-02j)  (0.000000000000000000e+00+6.480519830503740641e-02j)
 (3.979203999999999297e+00+0.000000000000000000e+00j)  (0.000000000000000000e+00+0.000000000000000000e+00j)  (0.000000000000000000e+00+0.000000000000000000e+00j)  (-8.599929687999412209e-02+0.000000000000000000e+00j)  (-3.869968359599736119e-02+0.000000000000000000e+00j)  (-2.188415550265825071e-01+0.000000000000000000e+00j)  (-3.063008627525135030e-03+0.000000000000000000e+00j)  (0.000000000000000000e+00+1.354259575853614117e-02j)  (0.000000000000000000e+00+7.658157482199619281e-02j)
 (3.999199999999999200e+00+0.000000000000000000e+00j)  (0.000000000000000000e+00+0.000000000000000000e+00j)  (0.000000000000000000e+00+0.000000000000000000e+00j)  (-8.417028101640314230e-02+0.000000000000000000e+00j)  (-3.787662645738141404e-02+0.000000000000000000e+00j)  (-2.141872765582936433e-01+0.000000000000000000e+00j)  (-3.502130294045339293e-03+0.000000000000000000e+00j)  (0.000000000000000000e+00+1.556191052438457567e-02j)  (0.000000000000000000e+00+8.800053080261087401e-02j)
 (4.019195999999999103e+00+0.000000000000000000e+00j)  (0.000000000000000000e+00+0.000000000000000000e+00j)  (0.000000000000000000e+00+0.000000000000000000e+00j)  (-8.209182614758631091e-02+0.000000000000000000e+00j)  (-3.694132176641384130e-02+0.000000000000000000e+00j)  (-2.088982531354724170e-01+0.000000000000000000e+00j)  (-3.921476167683032518e-03+0.000000000000000000e+00j)  (0.000000000000000000e+00+1.751242369694108042e-02j)  (0.000000000000000000e+00+9.903042293915143013e-02j)
 (4.039191999999999005e+00+0.000000000000000000e+00j)  (0.000000000000000000e+00+0.000000000000000000e+00j)  (0.000000000000000000e+00+0.000000000000000000e+00j)  (-7.977291432117263048e-02+0.000000000000000000e+00j)  (-3.589781144452768719e-02+0.000000000000000000e+00j)  (-2.029973412853436077e-01+0.000000000000000000e+00j)  (-4.320151349468190002e-03+0.000000000000000000e+00j)  (0.000000000000000000e+00+1.938880085506790307e-02j)  (0.000000000000000000e+00+1.096410857907542807e-01j)
 (4.059187999999998908e+00+0.000000000000000000e+00j)  (0.000000000000000000e+00+0.000000000000000000e+00j)  (0.000000000000000000e+00+0.000000000000000000e+00j)  (-7.722318066076480636e-02+0.000000000000000000e+00j)  (-3.475043129734416841e-02+0.000000000000000000e+00j)  (-1.965090594110638633e-01+0.000000000000000000e+00j)  (-4.697339529712412851e-03+0.000000000000000000e+00j)  (0.000000000000000000e+00+2.118598250103807118e-02j)  (0.000000000000000000e+00+1.198039085718176078e-01j)
