 (0.000000000000000000e+00+0.000000000000000000e+00j)  (0.000000000000000000e+00+0.000000000000000000e+00j)  (0.000000000000000000e+00+0.000000000000000000e+00j)  (1.000000000000000000e+00+0.000000000000000000e+00j)  (1.000000000000000000e+00+0.000000000000000000e+00j)  (1.256637061435917246e+01+0.000000000000000000e+00j)  (4.188790204786390525e+00+0.000000000000000000e+00j)  (0.000000000000000000e+00+0.000000000000000000e+00j)  (0.000000000000000000e+00+0.000000000000000000e+00j)
 (1.999599999999999642e-02+0.000000000000000000e+00j)  (0.000000000000000000e+00+0.000000000000000000e+00j)  (0.000000000000000000e+00+0.000000000000000000e+00j)  (9.973712337640173731e-01+0.000000000000000000e+00j)  (9.973712337640173731e-01+0.000000000000000000e+00j)  (1.253333656357930082e+01+0.000000000000000000e+00j)  (4.182181904484878032e+00+0.000000000000000000e+00j)  (-0.000000000000000000e+00-4.181345468104041146e-02j)  (-0.000000000000000000e+00-5.254433681886652163e-01j)
 (3.999199999999999283e-02+0.000000000000000000e+00j)  (0.000000000000000000e+00+0.000000000000000000e+00j)  (0.000000000000000000e+00+0.000000000000000000e+00j)  (9.895098050601245365e-01+0.000000000000000000e+00j)  (9.895098050601245365e-01+0.000000000000000000e+00j)  (1.243454693692782165e+01+0.000000000000000000e+00j)  (4.162401668758832329e+00+0.000000000000000000e+00j)  (-0.000000000000000000e+00-8.323138376850178211e-02j)  (-0.000000000000000000e+00-1.045916415180951908e+00j)
 (5.998799999999998578e-02+0.000000000000000000e+00j)  (0.000000000000000000e+00+0.000000000000000000e+00j)  (0.000000000000000000e+00+0.000000000000000000e+00j)  (9.764900438238253155e-01+0.000000000000000000e+00j)  (9.764900438238253155e-01+0.000000000000000000e+00j)  (1.227093579192201922e+01+0.000000000000000000e+00j)  (4.129583101862507988e+00+0.000000000000000000e+00j)  (-0.000000000000000000e+00-1.238627155572639277e-01j)  (-0.000000000000000000e+00-1.556504788993530175e+00j)
 (7.998399999999998566e-02+0.000000000000000000e+00j)  (0.000000000000000000e+00+0.000000000000000000e+00j)  (0.000000000000000000e+00+0.000000000000000000e+00j)  (9.584349031264203234e-01+0.000000000000000000e+00j)  (9.584349031264203234e-01+0.000000000000000000e+00j)  (1.204404820242402785e+01+0.000000000000000000e+00j)  (4.083947577216044067e+00+0.000000000000000000e+00j)  (-0.000000000000000000e+00-1.633252315080241102e-01j)  (-0.000000000000000000e+00-2.052405389805842972e+00j)
 (9.997999999999998555e-02+0.000000000000000000e+00j)  (0.000000000000000000e+00+0.000000000000000000e+00j)  (0.000000000000000000e+00+0.000000000000000000e+00j)  (9.355145759190465204e-01+0.000000000000000000e+00j)  (9.355145759190465204e-01+0.000000000000000000e+00j)  (1.175602287613378927e+01+0.000000000000000000e+00j)  (4.025802300596009076e+00+0.000000000000000000e+00j)  (-0.000000000000000000e+00-2.012498570067943193e-01j)  (-0.000000000000000000e+00-2.528980289234165735e+00j)
 (1.199759999999999716e-01+0.000000000000000000e+00j)  (0.000000000000000000e+00+0.000000000000000000e+00j)  (0.000000000000000000e+00+0.000000000000000000e+00j)  (9.079445822671454724e-01+0.000000000000000000e+00j)  (9.079445822671454724e-01+0.000000000000000000e+00j)  (1.140956811806847071e+01+0.000000000000000000e+00j)  (3.955537625845629179e+00+0.000000000000000000e+00j)  (-0.000000000000000000e+00-2.372847910992275655e-01j)  (-0.000000000000000000e+00-2.981808626103688464e+00j)
 (1.399719999999999853e-01+0.000000000000000000e+00j)  (0.000000000000000000e+00+0.000000000000000000e+00j)  (0.000000000000000000e+00+0.000000000000000000e+00j)  (8.759833504996056286e-01+0.000000000000000000e+00j)  (8.759833504996056286e-01+0.000000000000000000e+00j)  (1.100793143438613697e+01+0.000000000000000000e+00j)  (3.873623649989061946e+00+0.000000000000000000e+00j)  (-0.000000000000000000e+00-2.710994247681345337e-01j)  (-0.000000000000000000e+00-3.406735844975961047e+00j)
 (1.599679999999999713e-01+0.000000000000000000e+00j)  (0.000000000000000000e+00+0.000000000000000000e+00j)  (0.000000000000000000e+00+0.000000000000000000e+00j)  (8.399293218684502627e-01+0.000000000000000000e+00j)  (8.399293218684502627e-01+0.000000000000000000e+00j)  (1.055486314846631934e+01+0.000000000000000000e+00j)  (3.780606121811073805e+00+0.000000000000000000e+00j)  (-0.000000000000000000e+00-3.023880000469369445e-01j)  (-0.000000000000000000e+00-3.799919677924668893e+00j)
 (1.799639999999999573e-01+0.000000000000000000e+00j)  (0.000000000000000000e+00+0.000000000000000000e+00j)  (0.000000000000000000e+00+0.000000000000000000e+00j)  (8.001176141053994995e-01+0.000000000000000000e+00j)  (8.001176141053994995e-01+0.000000000000000000e+00j)  (1.005457447392526404e+01+0.000000000000000000e+00j)  (3.677101704768971580e+00+0.000000000000000000e+00j)  (-0.000000000000000000e+00-3.308729655985215290e-01j)  (-0.000000000000000000e+00-4.157872311983134672e+00j)
 (1.999599999999999711e-01+0.000000000000000000e+00j)  (0.000000000000000000e+00+0.000000000000000000e+00j)  (0.000000000000000000e+00+0.000000000000000000e+00j)  (7.569162845966947994e-01+0.000000000000000000e+00j)  (7.569162845966947994e-01+0.000000000000000000e+00j)  (9.511690556285829601e+00+0.000000000000000000e+00j)  (3.563792641463881861e+00+0.000000000000000000e+00j)  (-0.000000000000000000e+00-3.563079882935588638e-01j)  (-0.000000000000000000e+00-4.477498233753610002e+00j)
 (2.199559999999999571e-01+0.000000000000000000e+00j)  (0.000000000000000000e+00+0.000000000000000000e+00j)  (0.000000000000000000e+00+0.000000000000000000e+00j)  (7.107222387090592619e-01+0.000000000000000000e+00j)  (7.107222387090592619e-01+0.000000000000000000e+00j)  (8.931199055485087968e+00+0.000000000000000000e+00j)  (3.441420872746148163e+00+0.000000000000000000e+00j)  (-0.000000000000000000e+00-3.784805847428757697e-01j)  (-0.000000000000000000e+00-4.756127298218350674e+00j)
 (2.399519999999999431e-01+0.000000000000000000e+00j)  (0.000000000000000000e+00+0.000000000000000000e+00j)  (0.000000000000000000e+00+0.000000000000000000e+00j)  (6.619568330264133937e-01+0.000000000000000000e+00j)  (6.619568330264133937e-01+0.000000000000000000e+00j)  (8.318394894517382454e+00+0.000000000000000000e+00j)  (3.310781669801428073e+00+0.000000000000000000e+00j)  (-0.000000000000000000e+00-3.972143416160959783e-01j)  (-0.000000000000000000e+00-4.991542630086534871e+00j)
 (2.599479999999999569e-01+0.000000000000000000e+00j)  (0.000000000000000000e+00+0.000000000000000000e+00j)  (0.000000000000000000e+00+0.000000000000000000e+00j)  (6.110612268455449803e-01+0.000000000000000000e+00j)  (6.110612268455449803e-01+0.000000000000000000e+00j)  (7.678821844606121161e+00+0.000000000000000000e+00j)  (3.172716842204327037e+00+0.000000000000000000e+00j)  (-0.000000000000000000e+00-4.123706988486651182e-01j)  (-0.000000000000000000e+00-5.182003032234621998e+00j)
 (2.799439999999999706e-01+0.000000000000000000e+00j)  (0.000000000000000000e+00+0.000000000000000000e+00j)  (0.000000000000000000e+00+0.000000000000000000e+00j)  (5.584915381843912341e-01+0.000000000000000000e+00j)  (5.584915381843912341e-01+0.000000000000000000e+00j)  (7.018211653808587691e+00+0.000000000000000000e+00j)  (3.028107588886365775e+00+0.000000000000000000e+00j)  (-0.000000000000000000e+00-4.238502754316023635e-01j)  (-0.000000000000000000e+00-5.326259646071728859e+00j)
 (2.999399999999999289e-01+0.000000000000000000e+00j)  (0.000000000000000000e+00+0.000000000000000000e+00j)  (0.000000000000000000e+00+0.000000000000000000e+00j)  (5.047138627430790558e-01+0.000000000000000000e+00j)  (5.047138627430790558e-01+0.000000000000000000e+00j)  (6.342421453434337053e+00+0.000000000000000000e+00j)  (2.877867062203817383e+00+0.000000000000000000e+00j)  (-0.000000000000000000e+00-4.315937233187063793e-01j)  (-0.000000000000000000e+00-5.423566682054055121e+00j)
 (3.199359999999999427e-01+0.000000000000000000e+00j)  (0.000000000000000000e+00+0.000000000000000000e+00j)  (0.000000000000000000e+00+0.000000000000000000e+00j)  (4.501992156990186622e-01+0.000000000000000000e+00j)  (4.501992156990186622e-01+0.000000000000000000e+00j)  (5.657370194767694649e+00+0.000000000000000000e+00j)  (2.722932717775864209e+00+0.000000000000000000e+00j)  (-0.000000000000000000e+00-4.355821009971693747e-01j)  (-0.000000000000000000e+00-5.473686114111658618e+00j)
 (3.399319999999999564e-01+0.000000000000000000e+00j)  (0.000000000000000000e+00+0.000000000000000000e+00j)  (0.000000000000000000e+00+0.000000000000000000e+00j)  (3.954184568966804814e-01+0.000000000000000000e+00j)  (3.954184568966804814e-01+0.000000000000000000e+00j)  (4.968974877121694611e+00+0.000000000000000000e+00j)  (2.564258524470515610e+00+0.000000000000000000e+00j)  (-0.000000000000000000e+00-4.358367643701556160e-01j)  (-0.000000000000000000e+00-5.476886308438506212e+00j)
 (3.599279999999999147e-01+0.000000000000000000e+00j)  (0.000000000000000000e+00+0.000000000000000000e+00j)  (0.000000000000000000e+00+0.000000000000000000e+00j)  (3.408372599037530759e-01+0.000000000000000000e+00j)  (3.408372599037530759e-01+0.000000000000000000e+00j)  (4.283087327133222821e+00+0.000000000000000000e+00j)  (2.402807109829734333e+00+0.000000000000000000e+00j)  (-0.000000000000000000e+00-4.324187787133981775e-01j)  (-0.000000000000000000e+00-5.433934633921128743e+00j)
 (3.799239999999999284e-01+0.000000000000000000e+00j)  (0.000000000000000000e+00+0.000000000000000000e+00j)  (0.000000000000000000e+00+0.000000000000000000e+00j)  (2.869111845519083936e-01+0.000000000000000000e+00j)  (2.869111845519083936e-01+0.000000000000000000e+00j)  (3.605432278484083319e+00+0.000000000000000000e+00j)  (2.239541916339963024e+00+0.000000000000000000e+00j)  (-0.000000000000000000e+00-4.254278615117720319e-01j)  (-0.000000000000000000e+00-5.346084177431195350e+00j)
 (3.999199999999999422e-01+0.000000000000000000e+00j)  (0.000000000000000000e+00+0.000000000000000000e+00j)  (0.000000000000000000e+00+0.000000000000000000e+00j)  (2.340809109761078366e-01+0.000000000000000000e+00j)  (2.340809109761078366e-01+0.000000000000000000e+00j)  (2.941547481072587011e+00+0.000000000000000000e+00j)  (2.075419443272628062e+00+0.000000000000000000e+00j)  (-0.000000000000000000e+00-4.150008718767946858e-01j)  (-0.000000000000000000e+00-5.215054761285988327e+00j)
 (4.199159999999999004e-01+0.000000000000000000e+00j)  (0.000000000000000000e+00+0.000000000000000000e+00j)  (0.000000000000000000e+00+0.000000000000000000e+00j)  (1.827676908348466467e-01+0.000000000000000000e+00j)  (1.827676908348466467e-01+0.000000000000000000e+00j)  (2.296726539361299224e+00+0.000000000000000000e+00j)  (1.911381647353134872e+00+0.000000000000000000e+00j)  (-0.000000000000000000e+00-4.013098679149694203e-01j)  (-0.000000000000000000e+00-5.043008531419031826e+00j)
 (4.399119999999999142e-01+0.000000000000000000e+00j)  (0.000000000000000000e+00+0.000000000000000000e+00j)  (0.000000000000000000e+00+0.000000000000000000e+00j)  (1.333690683680668621e-01+0.000000000000000000e+00j)  (1.333690683680668621e-01+0.000000000000000000e+00j)  (1.675965141604934816e+00+0.000000000000000000e+00j)  (1.748348573286897301e+00+0.000000000000000000e+00j)  (-0.000000000000000000e+00-3.845597587858927136e-01j)  (-0.000000000000000000e+00-4.832520452272093259e+00j)
 (4.599079999999999280e-01+0.000000000000000000e+00j)  (0.000000000000000000e+00+0.000000000000000000e+00j)  (0.000000000000000000e+00+0.000000000000000000e+00j)  (8.625492027175052367e-02+0.000000000000000000e+00j)  (8.625492027175052367e-02+0.000000000000000000e+00j)  (1.083911295446819079e+00+0.000000000000000000e+00j)  (1.587211282206330676e+00+0.000000000000000000e+00j)  (-0.000000000000000000e+00-3.649855831884745161e-01j)  (-0.000000000000000000e+00-4.586544107244391100e+00j)
 (4.799039999999998862e-01+0.000000000000000000e+00j)  (0.000000000000000000e+00+0.000000000000000000e+00j)  (0.000000000000000000e+00+0.000000000000000000e+00j)  (4.176385908898088556e-02+0.000000000000000000e+00j)  (4.176385908898088556e-02+0.000000000000000000e+00j)  (5.248201315980065562e-01+0.000000000000000000e+00j)  (1.428825142440741658e+00+0.000000000000000000e+00j)  (-0.000000000000000000e+00-3.428494505789407287e-01j)  (-0.000000000000000000e+00-4.308373260904388324e+00j)
 (4.998999999999999000e-01+0.000000000000000000e+00j)  (0.000000000000000000e+00+0.000000000000000000e+00j)  (0.000000000000000000e+00+0.000000000000000000e+00j)  (2.000399948397201520e-04+0.000000000000000000e+00j)  (2.000399948397201520e-04+0.000000000000000000e+00j)  (2.513776712850419870e-03+0.000000000000000000e+00j)  (1.274003542696654501e+00+0.000000000000000000e+00j)  (-0.000000000000000000e+00-3.184371854970287630e-01j)  (-0.000000000000000000e+00-4.001599690349102900e+00j)
 (5.198959999999999138e-01+0.000000000000000000e+00j)  (0.000000000000000000e+00+0.000000000000000000e+00j)  (0.000000000000000000e+00+0.000000000000000000e+00j)  (-3.816959444792797362e-02+0.000000000000000000e+00j)  (-3.816959444792797362e-02+0.000000000000000000e+00j)  (-4.796532700324490639e-01+0.000000000000000000e+00j)  (1.123512082821448432e+00+0.000000000000000000e+00j)  (-0.000000000000000000e+00-2.920547189052697945e-01j)  (-0.000000000000000000e+00-3.670067837436111091e+00j)
 (5.398919999999999275e-01+0.000000000000000000e+00j)  (0.000000000000000000e+00+0.000000000000000000e+00j)  (0.000000000000000000e+00+0.000000000000000000e+00j)  (-7.311760269276423863e-02+0.000000000000000000e+00j)  (-7.311760269276423863e-02+0.000000000000000000e+00j)  (-9.188228938707416749e-01+0.000000000000000000e+00j)  (9.780632918667389042e-01+0.000000000000000000e+00j)  (-0.000000000000000000e+00-2.640242733862587232e-01j)  (-0.000000000000000000e+00-3.317826870558614250e+00j)
 (5.598879999999999413e-01+0.000000000000000000e+00j)  (0.000000000000000000e+00+0.000000000000000000e+00j)  (0.000000000000000000e+00+0.000000000000000000e+00j)  (-1.044578429406096548e-01+0.000000000000000000e+00j)  (-1.044578429406096548e-01+0.000000000000000000e+00j)  (-1.312655967968223036e+00+0.000000000000000000e+00j)  (8.383119172341058079e-01+0.000000000000000000e+00j)  (-0.000000000000000000e+00-2.346803913581844980e-01j)  (-0.000000000000000000e+00-2.949080773729800153e+00j)
 (5.798839999999998440e-01+0.000000000000000000e+00j)  (0.000000000000000000e+00+0.000000000000000000e+00j)  (0.000000000000000000e+00+0.000000000000000000e+00j)  (-1.320467656544793700e-01+0.000000000000000000e+00j)  (-1.320467656544793700e-01+0.000000000000000000e+00j)  (-1.659348595641621626e+00+0.000000000000000000e+00j)  (7.048508223437131015e-01+0.000000000000000000e+00j)  (-0.000000000000000000e+00-2.043658571319808548e-01j)  (-0.000000000000000000e+00-2.568137101641648989e+00j)
 (5.998799999999998578e-01+0.000000000000000000e+00j)  (0.000000000000000000e+00+0.000000000000000000e+00j)  (0.000000000000000000e+00+0.000000000000000000e+00j)  (-1.557841897678869658e-01+0.000000000000000000e+00j)  (-1.557841897678869658e-01+0.000000000000000000e+00j)  (-1.957641864480927696e+00+0.000000000000000000e+00j)  (5.782075235895978160e-01+0.000000000000000000e+00j)  (-0.000000000000000000e+00-1.734275646254639092e-01j)  (-0.000000000000000000e+00-2.179355051829305889e+00j)
 (6.198759999999998715e-01+0.000000000000000000e+00j)  (0.000000000000000000e+00+0.000000000000000000e+00j)  (0.000000000000000000e+00+0.000000000000000000e+00j)  (-1.756135590344075070e-01+0.000000000000000000e+00j)  (-1.756135590344075070e-01+0.000000000000000000e+00j)  (-2.206825067733008350e+00+0.000000000000000000e+00j)  (4.588413904104769458e-01+0.000000000000000000e+00j)  (-0.000000000000000000e+00-1.422123828610423746e-01j)  (-0.000000000000000000e+00-1.787093508982998902e+00j)
 (6.398719999999998853e-01+0.000000000000000000e+00j)  (0.000000000000000000e+00+0.000000000000000000e+00j)  (0.000000000000000000e+00+0.000000000000000000e+00j)  (-1.915216814986390459e-01+0.000000000000000000e+00j)  (-1.915216814986390459e-01+0.000000000000000000e+00j)  (-2.406732430397154232e+00+0.000000000000000000e+00j)  (3.471415251908810395e-01+0.000000000000000000e+00j)  (-0.000000000000000000e+00-1.110630710034696683e-01j)  (-0.000000000000000000e+00-1.395659711798487690e+00j)
 (6.598679999999998991e-01+0.000000000000000000e+00j)  (0.000000000000000000e+00+0.000000000000000000e+00j)  (0.000000000000000000e+00+0.000000000000000000e+00j)  (-2.035379615128872222e-01+0.000000000000000000e+00j)  (-2.035379615128872222e-01+0.000000000000000000e+00j)  (-2.557733458462114307e+00+0.000000000000000000e+00j)  (2.434253324946050456e-01+0.000000000000000000e+00j)  (-0.000000000000000000e+00-8.031429365127501496e-02j)  (-0.000000000000000000e+00-1.009259179652395977e+00j)
 (6.798639999999999128e-01+0.000000000000000000e+00j)  (0.000000000000000000e+00+0.000000000000000000e+00j)  (0.000000000000000000e+00+0.000000000000000000e+00j)  (-2.117331399955596494e-01+0.000000000000000000e+00j)  (-2.117331399955596494e-01+0.000000000000000000e+00j)  (-2.660717108526197805e+00+0.000000000000000000e+00j)  (1.479377799017697614e-01+0.000000000000000000e+00j)  (-0.000000000000000000e+00-5.028878539756839738e-02j)  (-0.000000000000000000e+00-6.319475150518181206e-01j)
 (6.998599999999999266e-01+0.000000000000000000e+00j)  (0.000000000000000000e+00+0.000000000000000000e+00j)  (0.000000000000000000e+00+0.000000000000000000e+00j)  (-2.162175646457741018e-01+0.000000000000000000e+00j)  (-2.162175646457741018e-01+0.000000000000000000e+00j)  (-2.717070050672960146e+00+0.000000000000000000e+00j)  (6.085134555245416688e-02+0.000000000000000000e+00j)  (-0.000000000000000000e+00-2.129371134917028979e-02j)  (-0.000000000000000000e+00-2.675846685688599291e-01j)
 (7.198559999999998293e-01+0.000000000000000000e+00j)  (0.000000000000000000e+00+0.000000000000000000e+00j)  (0.000000000000000000e+00+0.000000000000000000e+00j)  (-2.171390175171416526e-01+0.000000000000000000e+00j)  (-2.171390175171416526e-01+0.000000000000000000e+00j)  (-2.728649368958230070e+00+0.000000000000000000e+00j)  (-1.773335952710278218e-02+0.000000000000000000e+00j)  (0.000000000000000000e+00+6.382732627871053228e-03j)  (0.000000000000000000e+00+8.020778373419031049e-02j)
 (7.398519999999998431e-01+0.000000000000000000e+00j)  (0.000000000000000000e+00+0.000000000000000000e+00j)  (0.000000000000000000e+00+0.000000000000000000e+00j)  (-2.146801326400255006e-01+0.000000000000000000e+00j)  (-2.146801326400255006e-01+0.000000000000000000e+00j)  (-2.697750110294345749e+00+0.000000000000000000e+00j)  (-8.778631304882000830e-02+0.000000000000000000e+00j)  (0.000000000000000000e+00+3.247443964089778701e-02j)  (0.000000000000000000e+00+4.080858440211586058e-01j)
 (7.598479999999998569e-01+0.000000000000000000e+00j)  (0.000000000000000000e+00+0.000000000000000000e+00j)  (0.000000000000000000e+00+0.000000000000000000e+00j)  (-2.090554411995361739e-01+0.000000000000000000e+00j)  (-2.090554411995361739e-01+0.000000000000000000e+00j)  (-2.627068153061743239e+00+0.000000000000000000e+00j)  (-1.493461722885423837e-01+0.000000000000000000e+00j)  (0.000000000000000000e+00+5.674019516055216900e-02j)  (0.000000000000000000e+00+7.130183211185672221e-01j)
 (7.798439999999998706e-01+0.000000000000000000e+00j)  (0.000000000000000000e+00+0.000000000000000000e+00j)  (0.000000000000000000e+00+0.000000000000000000e+00j)  (-2.005080860664795739e-01+0.000000000000000000e+00j)  (-2.005080860664795739e-01+0.000000000000000000e+00j)  (-2.519658920687208870e+00+0.000000000000000000e+00j)  (-2.025177655214806804e-01+0.000000000000000000e+00j)  (0.000000000000000000e+00+7.896613216766679155e-02j)  (0.000000000000000000e+00+9.923176828013704487e-01j)
 (7.998399999999998844e-01+0.000000000000000000e+00j)  (0.000000000000000000e+00+0.000000000000000000e+00j)  (0.000000000000000000e+00+0.000000000000000000e+00j)  (-1.893062511882454835e-01+0.000000000000000000e+00j)  (-1.893062511882454835e-01+0.000000000000000000e+00j)  (-2.378892512046464347e+00+0.000000000000000000e+00j)  (-2.474690212077960416e-01+0.000000000000000000e+00j)  (0.000000000000000000e+00+9.896781096142177880e-02j)  (0.000000000000000000e+00+1.243666191433064228e+00j)
 (8.198359999999998982e-01+0.000000000000000000e+00j)  (0.000000000000000000e+00+0.000000000000000000e+00j)  (0.000000000000000000e+00+0.000000000000000000e+00j)  (-1.757393544320895729e-01+0.000000000000000000e+00j)  (-1.757393544320895729e-01+0.000000000000000000e+00j)  (-2.208405859321861620e+00+0.000000000000000000e+00j)  (-2.844273773171006603e-01+0.000000000000000000e+00j)  (0.000000000000000000e+00+1.165919016550712589e-01j)  (0.000000000000000000e+00+1.465137046830542022e+00j)
 (8.398319999999998009e-01+0.000000000000000000e+00j)  (0.000000000000000000e+00+0.000000000000000000e+00j)  (0.000000000000000000e+00+0.000000000000000000e+00j)  (-1.601140548989400947e-01+0.000000000000000000e+00j)  (-1.601140548989400947e-01+0.000000000000000000e+00j)  (-2.012052554427931739e+00+0.000000000000000000e+00j)  (-3.136757178922062739e-01+0.000000000000000000e+00j)  (0.000000000000000000e+00+1.317174527544236473e-01j)  (0.000000000000000000e+00+1.655210327691432060e+00j)
 (8.598279999999998147e-01+0.000000000000000000e+00j)  (0.000000000000000000e+00+0.000000000000000000e+00j)  (0.000000000000000000e+00+0.000000000000000000e+00j)  (-1.427501274653285024e-01+0.000000000000000000e+00j)  (-1.427501274653285024e-01+0.000000000000000000e+00j)  (-1.793851006976330043e+00+0.000000000000000000e+00j)  (-3.355478880812551856e-01+0.000000000000000000e+00j)  (0.000000000000000000e+00+1.442567347565647251e-01j)  (0.000000000000000000e+00+1.812783592568300239e+00j)
 (8.798239999999998284e-01+0.000000000000000000e+00j)  (0.000000000000000000e+00+0.000000000000000000e+00j)  (0.000000000000000000e+00+0.000000000000000000e+00j)  (-1.239762583472227564e-01+0.000000000000000000e+00j)  (-1.239762583472227564e-01+0.000000000000000000e+00j)  (-1.557931609772741144e+00+0.000000000000000000e+00j)  (-3.504238423746328657e-01+0.000000000000000000e+00j)  (0.000000000000000000e+00+1.541556533467094425e-01j)  (0.000000000000000000e+00+1.937177072253428944e+00j)
 (8.998199999999998422e-01+0.000000000000000000e+00j)  (0.000000000000000000e+00+0.000000000000000000e+00j)  (0.000000000000000000e+00+0.000000000000000000e+00j)  (-1.041258158048967430e-01+0.000000000000000000e+00j)  (-1.041258158048967430e-01+0.000000000000000000e+00j)  (-1.308483591926830281e+00+0.000000000000000000e+00j)  (-3.587244836375567680e-01+0.000000000000000000e+00j)  (0.000000000000000000e+00+1.613937324333731271e-01j)  (0.000000000000000000e+00+2.028133456592486894e+00j)
 (9.198159999999998560e-01+0.000000000000000000e+00j)  (0.000000000000000000e+00+0.000000000000000000e+00j)  (0.000000000000000000e+00+0.000000000000000000e+00j)  (-8.353264972452784098e-02+0.000000000000000000e+00j)  (-8.353264972452784098e-02+0.000000000000000000e+00j)  (-1.049702234837864623e+00+0.000000000000000000e+00j)  (-3.609062527076773996e-01+0.000000000000000000e+00j)  (0.000000000000000000e+00+1.659836728702824837e-01j)  (0.000000000000000000e+00+2.085812349220523387e+00j)
 (9.398119999999998697e-01+0.000000000000000000e+00j)  (0.000000000000000000e+00+0.000000000000000000e+00j)  (0.000000000000000000e+00+0.000000000000000000e+00j)  (-6.252697273147984902e-02+0.000000000000000000e+00j)  (-6.252697273147984902e-02+0.000000000000000000e+00j)  (-7.857371127377055231e-01+0.000000000000000000e+00j)  (-3.574555298141910975e-01+0.000000000000000000e+00j)  (0.000000000000000000e+00+1.679704981928672458e-01j)  (0.000000000000000000e+00+2.110779532570117745e+00j)
 (9.598079999999997725e-01+0.000000000000000000e+00j)  (0.000000000000000000e+00+0.000000000000000000e+00j)  (0.000000000000000000e+00+0.000000000000000000e+00j)  (-4.143137373296927606e-02+0.000000000000000000e+00j)  (-4.143137373296927606e-02+0.000000000000000000e+00j)  (-5.206419973905175302e-01+0.000000000000000000e+00j)  (-3.488829098638153159e-01+0.000000000000000000e+00j)  (0.000000000000000000e+00+1.674303039752843558e-01j)  (0.000000000000000000e+00+2.103991251828237097e+00j)
 (9.798039999999997862e-01+0.000000000000000000e+00j)  (0.000000000000000000e+00+0.000000000000000000e+00j)  (0.000000000000000000e+00+0.000000000000000000e+00j)  (-2.055701238371466719e-02+0.000000000000000000e+00j)  (-2.055701238371466719e-02+0.000000000000000000e+00j)  (-2.583270363377296319e-01+0.000000000000000000e+00j)  (-3.357174137306458417e-01+0.000000000000000000e+00j)  (0.000000000000000000e+00+1.644686324214708062e-01j)  (0.000000000000000000e+00+2.066773789445011111e+00j)
 (9.997999999999998000e-01+0.000000000000000000e+00j)  (0.000000000000000000e+00+0.000000000000000000e+00j)  (0.000000000000000000e+00+0.000000000000000000e+00j)  (-2.000399553534091754e-04+0.000000000000000000e+00j)  (-2.000399553534091754e-04+0.000000000000000000e+00j)  (-2.513776216650802017e-03+0.000000000000000000e+00j)  (-3.185006970906407164e-01+0.000000000000000000e+00j)  (0.000000000000000000e+00+1.592184984756112587e-01j)  (0.000000000000000000e+00+2.000798660506311943e+00j)
 (1.019795999999999925e+00+0.000000000000000000e+00j)  (0.000000000000000000e+00+0.000000000000000000e+00j)  (0.000000000000000000e+00+0.000000000000000000e+00j)  (1.936171148511186754e-02+0.000000000000000000e+00j)  (1.936171148511186754e-02+0.000000000000000000e+00j)  (2.433064422502102531e-01+0.000000000000000000e+00j)  (-2.977813170743156546e-01+0.000000000000000000e+00j)  (0.000000000000000000e+00+1.518380980135593250e-01j)  (0.000000000000000000e+00+1.908053813017779987e+00j)
 (1.039791999999999828e+00+0.000000000000000000e+00j)  (0.000000000000000000e+00+0.000000000000000000e+00j)  (0.000000000000000000e+00+0.000000000000000000e+00j)  (3.787173376761313048e-02+0.000000000000000000e+00j)  (3.787173376761313048e-02+0.000000000000000000e+00j)  (4.759102423321675546e-01+0.000000000000000000e+00j)  (-2.741091150978888780e-01+0.000000000000000000e+00j)  (0.000000000000000000e+00+1.425082325029319585e-01j)  (0.000000000000000000e+00+1.790811265229109273e+00j)
 (1.059787999999999730e+00+0.000000000000000000e+00j)  (0.000000000000000000e+00+0.000000000000000000e+00j)  (0.000000000000000000e+00+0.000000000000000000e+00j)  (5.509750789679610655e-02+0.000000000000000000e+00j)  (5.509750789679610655e-02+0.000000000000000000e+00j)  (6.923757041587209615e-01+0.000000000000000000e+00j)  (-2.480297717054304185e-01+0.000000000000000000e+00j)  (0.000000000000000000e+00+1.314294878480772866e-01j)  (0.000000000000000000e+00+1.651591653954354477e+00j)
 (1.079783999999999855e+00+0.000000000000000000e+00j)  (0.000000000000000000e+00+0.000000000000000000e+00j)  (0.000000000000000000e+00+0.000000000000000000e+00j)  (7.083280154972113052e-02+0.000000000000000000e+00j)  (7.083280154972113052e-02+0.000000000000000000e+00j)  (8.901112359271503571e-01+0.000000000000000000e+00j)  (-2.200795861511687934e-01+0.000000000000000000e+00j)  (0.000000000000000000e+00+1.188192079263268169e-01j)  (0.000000000000000000e+00+1.493126202906825739e+00j)
 (1.099779999999999758e+00+0.000000000000000000e+00j)  (0.000000000000000000e+00+0.000000000000000000e+00j)  (0.000000000000000000e+00+0.000000000000000000e+00j)  (8.489957566261925603e-02+0.000000000000000000e+00j)  (8.489957566261925603e-02+0.000000000000000000e+00j)  (1.066879532778301831e+00+0.000000000000000000e+00j)  (-1.907805298167794539e-01+0.000000000000000000e+00j)  (0.000000000000000000e+00+1.049083055409488208e-01j)  (0.000000000000000000e+00+1.318316647951992771e+00j)
 (1.119775999999999883e+00+0.000000000000000000e+00j)  (0.000000000000000000e+00+0.000000000000000000e+00j)  (0.000000000000000000e+00+0.000000000000000000e+00j)  (9.714948245209621691e-02+0.000000000000000000e+00j)  (9.714948245209621691e-02+0.000000000000000000e+00j)  (1.220816401486224168e+00+0.000000000000000000e+00j)  (-1.606356184436024681e-01+0.000000000000000000e+00j)  (0.000000000000000000e+00+8.993795513915169015e-02j)  (0.000000000000000000e+00+1.130193676576189299e+00j)
 (1.139771999999999785e+00+0.000000000000000000e+00j)  (0.000000000000000000e+00+0.000000000000000000e+00j)  (0.000000000000000000e+00+0.000000000000000000e+00j)  (1.074649428579720345e-01+0.000000000000000000e+00j)  (1.074649428579720345e-01+0.000000000000000000e+00j)  (1.350444300004207454e+00+0.000000000000000000e+00j)  (-1.301246436196375478e-01+0.000000000000000000e+00j)  (0.000000000000000000e+00+7.415621265382074667e-02j)  (0.000000000000000000e+00+9.318744515651429250e-01j)
 (1.159767999999999688e+00+0.000000000000000000e+00j)  (0.000000000000000000e+00+0.000000000000000000e+00j)  (0.000000000000000000e+00+0.000000000000000000e+00j)  (1.157597971247474045e-01+0.000000000000000000e+00j)  (1.157597971247474045e-01+0.000000000000000000e+00j)  (1.454680512912605250e+00+0.000000000000000000e+00j)  (-9.970029905526135716e-02+0.000000000000000000e+00j)  (0.000000000000000000e+00+5.781460821736117417e-02j)  (0.000000000000000000e+00+7.265197937833357544e-01j)
 (1.179763999999999813e+00+0.000000000000000000e+00j)  (0.000000000000000000e+00+0.000000000000000000e+00j)  (0.000000000000000000e+00+0.000000000000000000e+00j)  (1.219795279784268438e-01+0.000000000000000000e+00j)  (1.219795279784268438e-01+0.000000000000000000e+00j)  (1.532839955941505572e+00+0.000000000000000000e+00j)  (-6.978473197289926377e-02+0.000000000000000000e+00j)  (0.000000000000000000e+00+4.116475726563775805e-02j)  (0.000000000000000000e+00+5.172915960501385246e-01j)
 (1.199759999999999716e+00+0.000000000000000000e+00j)  (0.000000000000000000e+00+0.000000000000000000e+00j)  (0.000000000000000000e+00+0.000000000000000000e+00j)  (1.261010615277129709e-01+0.000000000000000000e+00j)  (1.261010615277129709e-01+0.000000000000000000e+00j)  (1.584632674021350329e+00+0.000000000000000000e+00j)  (-4.076654448980076423e-02+0.000000000000000000e+00j)  (0.000000000000000000e+00+2.445503470854167027e-02j)  (0.000000000000000000e+00+3.073110295345516940e-01j)
 (1.219755999999999840e+00+0.000000000000000000e+00j)  (0.000000000000000000e+00+0.000000000000000000e+00j)  (0.000000000000000000e+00+0.000000000000000000e+00j)  (1.281321565476215563e-01+0.000000000000000000e+00j)  (1.281321565476215563e-01+0.000000000000000000e+00j)  (1.610156166794500798e+00+0.000000000000000000e+00j)  (-1.299826425700623123e-02+0.000000000000000000e+00j)  (0.000000000000000000e+00+7.927355408534448103e-03j)  (0.000000000000000000e+00+9.961808605538852168e-02j)
 (1.239751999999999743e+00+0.000000000000000000e+00j)  (0.000000000000000000e+00+0.000000000000000000e+00j)  (0.000000000000000000e+00+0.000000000000000000e+00j)  (1.281103981162776961e-01+0.000000000000000000e+00j)  (1.281103981162776961e-01+0.000000000000000000e+00j)  (1.609882742282246593e+00+0.000000000000000000e+00j)  (1.320570210017181327e-02+0.000000000000000000e+00j)  (-0.000000000000000000e+00-8.185897795046101141e-03j)  (-0.000000000000000000e+00-1.028670255038148657e-01j)
 (1.259747999999999868e+00+0.000000000000000000e+00j)  (0.000000000000000000e+00+0.000000000000000000e+00j)  (0.000000000000000000e+00+0.000000000000000000e+00j)  (1.261018166026210141e-01+0.000000000000000000e+00j)  (1.261018166026210141e-01+0.000000000000000000e+00j)  (1.584642162572486246e+00+0.000000000000000000e+00j)  (3.757062494589168133e-02+0.000000000000000000e+00j)  (-0.000000000000000000e+00-2.366475981716857288e-02j)  (-0.000000000000000000e+00-2.973801423623348983e-01j)
 (1.279743999999999771e+00+0.000000000000000000e+00j)  (0.000000000000000000e+00+0.000000000000000000e+00j)  (0.000000000000000000e+00+0.000000000000000000e+00j)  (1.221991576791354311e-01+0.000000000000000000e+00j)  (1.221991576791354311e-01+0.000000000000000000e+00j)  (1.535599904158530427e+00+0.000000000000000000e+00j)  (5.986251492406303304e-02+0.000000000000000000e+00j)  (-0.000000000000000000e+00-3.830434714949004782e-02j)  (-0.000000000000000000e+00-4.813466224215642852e-01j)
 (1.299739999999999673e+00+0.000000000000000000e+00j)  (0.000000000000000000e+00+0.000000000000000000e+00j)  (0.000000000000000000e+00+0.000000000000000000e+00j)  (1.165198333001394443e-01+0.000000000000000000e+00j)  (1.165198333001394443e-01+0.000000000000000000e+00j)  (1.464231409172901621e+00+0.000000000000000000e+00j)  (7.988869711340854107e-02+0.000000000000000000e+00j)  (-0.000000000000000000e+00-5.191726759309078787e-02j)  (-0.000000000000000000e+00-6.524116258596379669e-01j)
 (1.319735999999999798e+00+0.000000000000000000e+00j)  (0.000000000000000000e+00+0.000000000000000000e+00j)  (0.000000000000000000e+00+0.000000000000000000e+00j)  (1.092035873894450365e-01+0.000000000000000000e+00j)  (1.092035873894450365e-01+0.000000000000000000e+00j)  (1.372292751553326084e+00+0.000000000000000000e+00j)  (9.749790503682244369e-02+0.000000000000000000e+00j)  (-0.000000000000000000e+00-6.433574760083793365e-02j)  (-0.000000000000000000e+00-8.084668481039984922e-01j)
 (1.339731999999999701e+00+0.000000000000000000e+00j)  (0.000000000000000000e+00+0.000000000000000000e+00j)  (0.000000000000000000e+00+0.000000000000000000e+00j)  (1.004099132750250617e-01+0.000000000000000000e+00j)  (1.004099132750250617e-01+0.000000000000000000e+00j)  (1.261788183569628075e+00+0.000000000000000000e+00j)  (1.125799087402923337e-01+0.000000000000000000e+00j)  (-0.000000000000000000e+00-7.541345314822464618e-02j)  (-0.000000000000000000e+00-9.476734015692024338e-01j)
 (1.359727999999999826e+00+0.000000000000000000e+00j)  (0.000000000000000000e+00+0.000000000000000000e+00j)  (0.000000000000000000e+00+0.000000000000000000e+00j)  (9.031526265389168417e-02+0.000000000000000000e+00j)  (9.031526265389168417e-02+0.000000000000000000e+00j)  (1.134935062641994952e+00+0.000000000000000000e+00j)  (1.250646960996542323e-01+0.000000000000000000e+00j)  (-0.000000000000000000e+00-8.502698454909533854e-02j)  (-0.000000000000000000e+00-1.068480600065322861e+00j)
 (1.379723999999999728e+00+0.000000000000000000e+00j)  (0.000000000000000000e+00+0.000000000000000000e+00j)  (0.000000000000000000e+00+0.000000000000000000e+00j)  (7.911008803680219525e-02+0.000000000000000000e+00j)  (7.911008803680219525e-02+0.000000000000000000e+00j)  (9.941266856050382517e-01+0.000000000000000000e+00j)  (1.349212311208652093e-01+0.000000000000000000e+00j)  (-0.000000000000000000e+00-9.307703034350228721e-02j)  (-0.000000000000000000e+00-1.169640458980404363e+00j)
 (1.399719999999999853e+00+0.000000000000000000e+00j)  (0.000000000000000000e+00+0.000000000000000000e+00j)  (0.000000000000000000e+00+0.000000000000000000e+00j)  (6.699576218705022290e-02+0.000000000000000000e+00j)  (6.699576218705022290e-02+0.000000000000000000e+00j)  (8.418935772339433132e-01+0.000000000000000000e+00j)  (1.421558172234346495e-01+0.000000000000000000e+00j)  (-0.000000000000000000e+00-9.948917024199296910e-02j)  (-0.000000000000000000e+00-1.250217785375957291e+00j)
 (1.419715999999999756e+00+0.000000000000000000e+00j)  (0.000000000000000000e+00+0.000000000000000000e+00j)  (0.000000000000000000e+00+0.000000000000000000e+00j)  (5.418141901642122699e-02+0.000000000000000000e+00j)  (5.418141901642122699e-02+0.000000000000000000e+00j)  (6.808637917722368815e-01+0.000000000000000000e+00j)  (1.468100972946539129e-01+0.000000000000000000e+00j)  (-0.000000000000000000e+00-1.042143220453884134e-01j)  (-0.000000000000000000e+00-1.309595794146532377e+00j)
 (1.439711999999999659e+00+0.000000000000000000e+00j)  (0.000000000000000000e+00+0.000000000000000000e+00j)  (0.000000000000000000e+00+0.000000000000000000e+00j)  (4.088076072892626173e-02+0.000000000000000000e+00j)  (4.088076072892626173e-02+0.000000000000000000e+00j)  (5.137227903166273757e-01+0.000000000000000000e+00j)  (1.489587256377755964e-01+0.000000000000000000e+00j)  (-0.000000000000000000e+00-1.072288324027065448e-01j)  (-0.000000000000000000e+00-1.347477248517416237e+00j)
 (1.459707999999999783e+00+0.000000000000000000e+00j)  (0.000000000000000000e+00+0.000000000000000000e+00j)  (0.000000000000000000e+00+0.000000000000000000e+00j)  (2.730887571239955583e-02+0.000000000000000000e+00j)  (2.730887571239955583e-02+0.000000000000000000e+00j)  (3.431734532634846402e-01+0.000000000000000000e+00j)  (1.487067497799530180e-01+0.000000000000000000e+00j)  (-0.000000000000000000e+00-1.085342161538978001e-01j)  (-0.000000000000000000e+00-1.363881184528847879e+00j)
 (1.479703999999999686e+00+0.000000000000000000e+00j)  (0.000000000000000000e+00+0.000000000000000000e+00j)  (0.000000000000000000e+00+0.000000000000000000e+00j)  (1.367911078114778488e-02+0.000000000000000000e+00j)  (1.367911078114778488e-02+0.000000000000000000e+00j)  (1.718967757507792737e-01+0.000000000000000000e+00j)  (1.461867424317407627e-01+0.000000000000000000e+00j)  (-0.000000000000000000e+00-1.081565537616082512e-01j)  (-0.000000000000000000e+00-1.359135338940231863e+00j)
 (1.499699999999999811e+00+0.000000000000000000e+00j)  (0.000000000000000000e+00+0.000000000000000000e+00j)  (0.000000000000000000e+00+0.000000000000000000e+00j)  (2.000398895428541447e-04+0.000000000000000000e+00j)  (2.000398895428541447e-04+0.000000000000000000e+00j)  (2.513775389650977059e-03+0.000000000000000000e+00j)  (1.415557256821563525e-01+0.000000000000000000e+00j)  (-0.000000000000000000e+00-1.061455609027649183e-01j)  (-0.000000000000000000e+00-1.333864457373177048e+00j)
 (1.519695999999999714e+00+0.000000000000000000e+00j)  (0.000000000000000000e+00+0.000000000000000000e+00j)  (0.000000000000000000e+00+0.000000000000000000e+00j)  (-1.292743060535166133e-02+0.000000000000000000e+00j)  (-1.292743060535166133e-02+0.000000000000000000e+00j)  (-1.624508840782585284e-01+0.000000000000000000e+00j)  (1.349919307613749453e-01+0.000000000000000000e+00j)  (-0.000000000000000000e+00-1.025733486051692289e-01j)  (-0.000000000000000000e+00-1.288974713728417987e+00j)
 (1.539691999999999616e+00+0.000000000000000000e+00j)  (0.000000000000000000e+00+0.000000000000000000e+00j)  (0.000000000000000000e+00+0.000000000000000000e+00j)  (-2.551278261904900424e-02+0.000000000000000000e+00j)  (-2.551278261904900424e-02+0.000000000000000000e+00j)  (-3.206030817945508260e-01+0.000000000000000000e+00j)  (1.266914374035762458e-01+0.000000000000000000e+00j)  (-0.000000000000000000e+00-9.753289631939351945e-02j)  (-0.000000000000000000e+00-1.225634522241366930e+00j)
 (1.559687999999999741e+00+0.000000000000000000e+00j)  (0.000000000000000000e+00+0.000000000000000000e+00j)  (0.000000000000000000e+00+0.000000000000000000e+00j)  (-3.737839848573445978e-02+0.000000000000000000e+00j)  (-3.737839848573445978e-02+0.000000000000000000e+00j)  (-4.697108083429409331e-01+0.000000000000000000e+00j)  (1.168647369985225393e-01+0.000000000000000000e+00j)  (-0.000000000000000000e+00-9.113626395987579898e-02j)  (-0.000000000000000000e+00-1.145252069327864053e+00j)
 (1.579683999999999644e+00+0.000000000000000000e+00j)  (0.000000000000000000e+00+0.000000000000000000e+00j)  (0.000000000000000000e+00+0.000000000000000000e+00j)  (-4.836183358673275257e-02+0.000000000000000000e+00j)  (-4.836183358673275257e-02+0.000000000000000000e+00j)  (-6.077327244408469165e-01+0.000000000000000000e+00j)  (1.057332633419624801e-01+0.000000000000000000e+00j)  (-0.000000000000000000e+00-8.351257218454230524e-02j)  (-0.000000000000000000e+00-1.049449933029381610e+00j)
 (1.599679999999999769e+00+0.000000000000000000e+00j)  (0.000000000000000000e+00+0.000000000000000000e+00j)  (0.000000000000000000e+00+0.000000000000000000e+00j)  (-5.831782233020101069e-02+0.000000000000000000e+00j)  (-5.831782233020101069e-02+0.000000000000000000e+00j)  (-7.328433688236571930e-01+0.000000000000000000e+00j)  (9.352593389812943747e-02+0.000000000000000000e+00j)  (-0.000000000000000000e+00-7.480578296907983149e-02j)  (-0.000000000000000000e+00-9.400371928867746751e-01j)
 (1.619675999999999672e+00+0.000000000000000000e+00j)  (0.000000000000000000e+00+0.000000000000000000e+00j)  (0.000000000000000000e+00+0.000000000000000000e+00j)  (-6.711999452834344071e-02+0.000000000000000000e+00j)  (-6.711999452834344071e-02+0.000000000000000000e+00j)  (-8.434547268769235773e-01+0.000000000000000000e+00j)  (8.047574309471131060e-02+0.000000000000000000e+00j)  (-0.000000000000000000e+00-6.517231483633480205e-02j)  (-0.000000000000000000e+00-8.189794620290821170e-01j)
 (1.639671999999999796e+00+0.000000000000000000e+00j)  (0.000000000000000000e+00+0.000000000000000000e+00j)  (0.000000000000000000e+00+0.000000000000000000e+00j)  (-7.466228365367412467e-02+0.000000000000000000e+00j)  (-7.466228365367412467e-02+0.000000000000000000e+00j)  (-9.382339273064796981e-01+0.000000000000000000e+00j)  (6.681644730962987833e-02+0.000000000000000000e+00j)  (-0.000000000000000000e+00-5.477852889653770513e-02j)  (-0.000000000000000000e+00-6.883672958232761596e-01j)
 (1.659667999999999699e+00+0.000000000000000000e+00j)  (0.000000000000000000e+00+0.000000000000000000e+00j)  (0.000000000000000000e+00+0.000000000000000000e+00j)  (-8.086001308358567452e-02+0.000000000000000000e+00j)  (-8.086001308358567452e-02+0.000000000000000000e+00j)  (-1.016116892290269247e+00+0.000000000000000000e+00j)  (5.277937891298777745e-02+0.000000000000000000e+00j)  (-0.000000000000000000e+00-4.379812312088027931e-02j)  (-0.000000000000000000e+00-5.503834473503150804e-01j)
 (1.679663999999999602e+00+0.000000000000000000e+00j)  (0.000000000000000000e+00+0.000000000000000000e+00j)  (0.000000000000000000e+00+0.000000000000000000e+00j)  (-8.565065119554489403e-02+0.000000000000000000e+00j)  (-8.565065119554489403e-02+0.000000000000000000e+00j)  (-1.076317826284422630e+00+0.000000000000000000e+00j)  (3.859042403448832703e-02+0.000000000000000000e+00j)  (-0.000000000000000000e+00-3.240947299773239143e-02j)  (-0.000000000000000000e+00-4.072694491055713906e-01j)
 (1.699659999999999727e+00+0.000000000000000000e+00j)  (0.000000000000000000e+00+0.000000000000000000e+00j)  (0.000000000000000000e+00+0.000000000000000000e+00j)  (-8.899423098542755262e-02+0.000000000000000000e+00j)  (-8.899423098542755262e-02+0.000000000000000000e+00j)  (-1.118334489102769336e+00+0.000000000000000000e+00j)  (2.446719567861015132e-02+0.000000000000000000e+00j)  (-0.000000000000000000e+00-2.079295690355326132e-02j)  (-0.000000000000000000e+00-2.612920026184484268e-01j)
 (1.719655999999999629e+00+0.000000000000000000e+00j)  (0.000000000000000000e+00+0.000000000000000000e+00j)  (0.000000000000000000e+00+0.000000000000000000e+00j)  (-9.087343468064434937e-02+0.000000000000000000e+00j)  (-9.087343468064434937e-02+0.000000000000000000e+00j)  (-1.141949259196736843e+00+0.000000000000000000e+00j)  (1.061643045245553446e-02+0.000000000000000000e+00j)  (-0.000000000000000000e+00-9.128304163073936578e-03j)  (-0.000000000000000000e+00-1.147096531937848163e-01j)
 (1.739651999999999754e+00+0.000000000000000000e+00j)  (0.000000000000000000e+00+0.000000000000000000e+00j)  (0.000000000000000000e+00+0.000000000000000000e+00j)  (-9.129334854055401460e-02+0.000000000000000000e+00j)  (-9.129334854055401460e-02+0.000000000000000000e+00j)  (-1.147226052386467687e+00+0.000000000000000000e+00j)  (-2.768366446925677425e-03+0.000000000000000000e+00j)  (0.000000000000000000e+00+2.407997113063574390e-03j)  (0.000000000000000000e+00+3.025978416106382338e-02j)
 (1.759647999999999657e+00+0.000000000000000000e+00j)  (0.000000000000000000e+00+0.000000000000000000e+00j)  (0.000000000000000000e+00+0.000000000000000000e+00j)  (-9.028089761385074685e-02+0.000000000000000000e+00j)  (-9.028089761385074685e-02+0.000000000000000000e+00j)  (-1.134503218812663139e+00+0.000000000000000000e+00j)  (-1.550900716693480105e-02+0.000000000000000000e+00j)  (0.000000000000000000e+00+1.364519672164124162e-02j)  (0.000000000000000000e+00+1.714705991099826077e-01j)
 (1.779643999999999782e+00+0.000000000000000000e+00j)  (0.000000000000000000e+00+0.000000000000000000e+00j)  (0.000000000000000000e+00+0.000000000000000000e+00j)  (-8.788397459359470476e-02+0.000000000000000000e+00j)  (-8.788397459359470476e-02+0.000000000000000000e+00j)  (-1.104382595806036704e+00+0.000000000000000000e+00j)  (-2.744442122220500449e-02+0.000000000000000000e+00j)  (0.000000000000000000e+00+2.442064978078490114e-02j)  (0.000000000000000000e+00+3.068789357888121461e-01j)
 (1.799639999999999684e+00+0.000000000000000000e+00j)  (0.000000000000000000e+00+0.000000000000000000e+00j)  (0.000000000000000000e+00+0.000000000000000000e+00j)  (-8.417028101640314230e-02+0.000000000000000000e+00j)  (-8.417028101640314230e-02+0.000000000000000000e+00j)  (-1.057714945966882203e+00+0.000000000000000000e+00j)  (-3.843215686195158853e-02+0.000000000000000000e+00j)  (0.000000000000000000e+00+3.458202338752127541e-02j)  (0.000000000000000000e+00+4.345705224820289869e-01j)
 (1.819635999999999587e+00+0.000000000000000000e+00j)  (0.000000000000000000e+00+0.000000000000000000e+00j)  (0.000000000000000000e+00+0.000000000000000000e+00j)  (-7.922590283856247029e-02+0.000000000000000000e+00j)  (-7.922590283856247029e-02+0.000000000000000000e+00j)  (-9.955820573265864448e-01+0.000000000000000000e+00j)  (-4.834957517815355321e-02+0.000000000000000000e+00j)  (0.000000000000000000e+00+4.398931378943730236e-02j)  (0.000000000000000000e+00+5.527860201494095849e-01j)
 (1.839631999999999712e+00+0.000000000000000000e+00j)  (0.000000000000000000e+00+0.000000000000000000e+00j)  (0.000000000000000000e+00+0.000000000000000000e+00j)  (-7.315364583914729657e-02+0.000000000000000000e+00j)  (-7.315364583914729657e-02+0.000000000000000000e+00j)  (-9.192758254062988188e-01+0.000000000000000000e+00j)  (-5.709473248830674447e-02+0.000000000000000000e+00j)  (0.000000000000000000e+00+5.251664845846434893e-02j)  (0.000000000000000000e+00+6.599436679530773509e-01j)
 (1.859627999999999615e+00+0.000000000000000000e+00j)  (0.000000000000000000e+00+0.000000000000000000e+00j)  (0.000000000000000000e+00+0.000000000000000000e+00j)  (-6.607115930513708657e-02+0.000000000000000000e+00j)  (-6.607115930513708657e-02+0.000000000000000000e+00j)  (-8.302746747487182999e-01+0.000000000000000000e+00j)  (-6.458695060944653898e-02+0.000000000000000000e+00j)  (0.000000000000000000e+00+6.005385089397192316e-02j)  (0.000000000000000000e+00+7.546589471531160997e-01j)
 (1.879623999999999739e+00+0.000000000000000000e+00j)  (0.000000000000000000e+00+0.000000000000000000e+00j)  (0.000000000000000000e+00+0.000000000000000000e+00j)  (-5.810887900886833879e-02+0.000000000000000000e+00j)  (-5.810887900886833879e-02+0.000000000000000000e+00j)  (-7.302177096103955600e-01+0.000000000000000000e+00j)  (-7.076707861835983271e-02+0.000000000000000000e+00j)  (0.000000000000000000e+00+6.650774969047797136e-02j)  (0.000000000000000000e+00+8.357610313375778421e-01j)
 (1.899619999999999642e+00+0.000000000000000000e+00j)  (0.000000000000000000e+00+0.000000000000000000e+00j)  (0.000000000000000000e+00+0.000000000000000000e+00j)  (-4.940782256364278924e-02+0.000000000000000000e+00j)  (-4.940782256364278924e-02+0.000000000000000000e+00j)  (-6.208770095832327751e-01+0.000000000000000000e+00j)  (-7.559745351858643270e-02+0.000000000000000000e+00j)  (0.000000000000000000e+00+7.180321732648854705e-02j)  (0.000000000000000000e+00+9.023058402280311752e-01j)
 (1.919615999999999545e+00+0.000000000000000000e+00j)  (0.000000000000000000e+00+0.000000000000000000e+00j)  (0.000000000000000000e+00+0.000000000000000000e+00j)  (-4.011727181579093082e-02+0.000000000000000000e+00j)  (-4.011727181579093082e-02+0.000000000000000000e+00j)  (-5.041285056742146331e-01+0.000000000000000000e+00j)  (-7.906157086309029136e-02+0.000000000000000000e+00j)  (0.000000000000000000e+00+7.588392820696095165e-02j)  (0.000000000000000000e+00+9.535855655220951688e-01j)
 (1.939611999999999670e+00+0.000000000000000000e+00j)  (0.000000000000000000e+00+0.000000000000000000e+00j)  (0.000000000000000000e+00+0.000000000000000000e+00j)  (-3.039237798528114654e-02+0.000000000000000000e+00j)  (-3.039237798528114654e-02+0.000000000000000000e+00j)  (-3.819218856147336139e-01+0.000000000000000000e+00j)  (-8.116347977094032218e-02+0.000000000000000000e+00j)  (0.000000000000000000e+00+7.871282966273653037e-02j)  (0.000000000000000000e+00+9.891345896468715093e-01j)
 (1.959607999999999572e+00+0.000000000000000000e+00j)  (0.000000000000000000e+00+0.000000000000000000e+00j)  (0.000000000000000000e+00+0.000000000000000000e+00j)  (-2.039172579394557885e-02+0.000000000000000000e+00j)  (-2.039172579394557885e-02+0.000000000000000000e+00j)  (-2.562499837931077051e-01+0.000000000000000000e+00j)  (-8.192691988950732973e-02+0.000000000000000000e+00j)  (0.000000000000000000e+00+8.027232381541882233e-02j)  (0.000000000000000000e+00+1.008731771140402911e+00j)
 (1.979603999999999697e+00+0.000000000000000000e+00j)  (0.000000000000000000e+00+0.000000000000000000e+00j)  (0.000000000000000000e+00+0.000000000000000000e+00j)  (-1.027489282005972920e-02+0.000000000000000000e+00j)  (-1.027489282005972920e-02+0.000000000000000000e+00j)  (-1.291181111996886344e-01+0.000000000000000000e+00j)  (-8.139422065740806178e-02+0.000000000000000000e+00j)  (0.000000000000000000e+00+8.056416239514381517e-02j)  (0.000000000000000000e+00+1.012399122892795544e+00j)
 (1.999599999999999600e+00+0.000000000000000000e+00j)  (0.000000000000000000e+00+0.000000000000000000e+00j)  (0.000000000000000000e+00+0.000000000000000000e+00j)  (-2.000397974082120524e-04+0.000000000000000000e+00j)  (-2.000397974082120524e-04+0.000000000000000000e+00j)  (-2.513774231852918244e-03+0.000000000000000000e+00j)  (-7.962498568923027931e-02+0.000000000000000000e+00j)  (0.000000000000000000e+00+7.960906069209242042e-02j)  (0.000000000000000000e+00+1.000396960917846023e+00j)
 (2.019595999999999503e+00+0.000000000000000000e+00j)  (0.000000000000000000e+00+0.000000000000000000e+00j)  (0.000000000000000000e+00+0.000000000000000000e+00j)  (9.678433449537988606e-03+0.000000000000000000e+00j)  (9.678433449537988606e-03+0.000000000000000000e+00j)  (1.216227816933050515e-01+0.000000000000000000e+00j)  (-7.669458720743832503e-02+0.000000000000000000e+00j)  (0.000000000000000000e+00+7.744604077289679589e-02j)  (0.000000000000000000e+00+9.732156509669925848e-01j)
 (2.039591999999999850e+00+0.000000000000000000e+00j)  (0.000000000000000000e+00+0.000000000000000000e+00j)  (0.000000000000000000e+00+0.000000000000000000e+00j)  (1.921213325363139296e-02+0.000000000000000000e+00j)  (1.921213325363139296e-02+0.000000000000000000e+00j)  (2.414267867575861926e-01+0.000000000000000000e+00j)  (-7.269249717141783307e-02+0.000000000000000000e+00j)  (0.000000000000000000e+00+7.413151784542319767e-02j)  (0.000000000000000000e+00+9.315641274505687131e-01j)
 (2.059587999999999752e+00+0.000000000000000000e+00j)  (0.000000000000000000e+00+0.000000000000000000e+00j)  (0.000000000000000000e+00+0.000000000000000000e+00j)  (2.826078732276881764e-02+0.000000000000000000e+00j)  (2.826078732276881764e-02+0.000000000000000000e+00j)  (3.551355273514962829e-01+0.000000000000000000e+00j)  (-6.772048308530768945e-02+0.000000000000000000e+00j)  (0.000000000000000000e+00+6.973814715835131850e-02j)  (0.000000000000000000e+00+8.763554031505617070e-01j)
 (2.079583999999999655e+00+0.000000000000000000e+00j)  (0.000000000000000000e+00+0.000000000000000000e+00j)  (0.000000000000000000e+00+0.000000000000000000e+00j)  (3.669420110300423282e-02+0.000000000000000000e+00j)  (3.669420110300423282e-02+0.000000000000000000e+00j)  (4.611129304581782495e-01+0.000000000000000000e+00j)  (-6.189069739737972781e-02+0.000000000000000000e+00j)  (0.000000000000000000e+00+6.435345202821624033e-02j)  (0.000000000000000000e+00+8.086893284999493448e-01j)
 (2.099579999999999558e+00+0.000000000000000000e+00j)  (0.000000000000000000e+00+0.000000000000000000e+00j)  (0.000000000000000000e+00+0.000000000000000000e+00j)  (4.439402923382729932e-02+0.000000000000000000e+00j)  (4.439402923382729932e-02+0.000000000000000000e+00j)  (5.578718244169693641e-01+0.000000000000000000e+00j)  (-5.532368993192127160e-02+0.000000000000000000e+00j)  (0.000000000000000000e+00+5.807825645363160622e-02j)  (0.000000000000000000e+00+7.298328952321322394e-01j)
 (2.119575999999999460e+00+0.000000000000000000e+00j)  (0.000000000000000000e+00+0.000000000000000000e+00j)  (0.000000000000000000e+00+0.000000000000000000e+00j)  (5.125533915040998700e-02+0.000000000000000000e+00j)  (5.125533915040998700e-02+0.000000000000000000e+00j)  (6.440935877287252698e-01+0.000000000000000000e+00j)  (-4.814637292278133029e-02+0.000000000000000000e+00j)  (0.000000000000000000e+00+5.102494826708856013e-02j)  (0.000000000000000000e+00+6.411984105027387359e-01j)
 (2.139571999999999807e+00+0.000000000000000000e+00j)  (0.000000000000000000e+00+0.000000000000000000e+00j)  (0.000000000000000000e+00+0.000000000000000000e+00j)  (5.718794728325432564e-02+0.000000000000000000e+00j)  (5.718794728325432564e-02+0.000000000000000000e+00j)  (7.186449402358086047e-01+0.000000000000000000e+00j)  (-4.048996795404438687e-02+0.000000000000000000e+00j)  (0.000000000000000000e+00+4.331560085768532131e-02j)  (0.000000000000000000e+00+5.443198937613278332e-01j)
 (2.159567999999999710e+00+0.000000000000000000e+00j)  (0.000000000000000000e+00+0.000000000000000000e+00j)  (0.000000000000000000e+00+0.000000000000000000e+00j)  (6.211751193604551219e-02+0.000000000000000000e+00j)  (6.211751193604551219e-02+0.000000000000000000e+00j)  (7.805916766302275489e-01+0.000000000000000000e+00j)  (-3.248796347070464358e-02+0.000000000000000000e+00j)  (0.000000000000000000e+00+3.507998314825133690e-02j)  (0.000000000000000000e+00+4.408280693864005673e-01j)
 (2.179563999999999613e+00+0.000000000000000000e+00j)  (0.000000000000000000e+00+0.000000000000000000e+00j)  (0.000000000000000000e+00+0.000000000000000000e+00j)  (6.598637073200579184e-02+0.000000000000000000e+00j)  (6.598637073200579184e-02+0.000000000000000000e+00j)  (8.292091901148878064e-01+0.000000000000000000e+00j)  (-2.427411051840301995e-02+0.000000000000000000e+00j)  (0.000000000000000000e+00+2.645348870896627527e-02j)  (0.000000000000000000e+00+3.324243431596359821e-01j)
 (2.199559999999999516e+00+0.000000000000000000e+00j)  (0.000000000000000000e+00+0.000000000000000000e+00j)  (0.000000000000000000e+00+0.000000000000000000e+00j)  (6.875411445010271017e-02+0.000000000000000000e+00j)  (6.875411445010271017e-02+0.000000000000000000e+00j)  (8.639896834420580651e-01+0.000000000000000000e+00j)  (-1.598048302829751036e-02+0.000000000000000000e+00j)  (0.000000000000000000e+00+1.757501562486103383e-02j)  (0.000000000000000000e+00+2.208541598951569984e-01j)
 (2.219555999999999418e+00+0.000000000000000000e+00j)  (0.000000000000000000e+00+0.000000000000000000e+00j)  (0.000000000000000000e+00+0.000000000000000000e+00j)  (7.039789306650563738e-02+0.000000000000000000e+00j)  (7.039789306650563738e-02+0.000000000000000000e+00j)  (8.846460147437358312e-01+0.000000000000000000e+00j)  (-7.735627306926072359e-03+0.000000000000000000e+00j)  (0.000000000000000000e+00+8.584829001425799133e-03j)  (0.000000000000000000e+00+1.078801428928155698e-01j)
 (2.239551999999999765e+00+0.000000000000000000e+00j)  (0.000000000000000000e+00+0.000000000000000000e+00j)  (0.000000000000000000e+00+0.000000000000000000e+00j)  (7.091245381487096267e-02+0.000000000000000000e+00j)  (7.091245381487096267e-02+0.000000000000000000e+00j)  (8.911121758112965363e-01+0.000000000000000000e+00j)  (3.371765489466544211e-04+0.000000000000000000e+00j)  (-0.000000000000000000e+00-3.775622072732892588e-04j)  (-0.000000000000000000e+00-4.744586626571649021e-03j)
 (2.259547999999999668e+00+0.000000000000000000e+00j)  (0.000000000000000000e+00+0.000000000000000000e+00j)  (0.000000000000000000e+00+0.000000000000000000e+00j)  (7.030991502321565223e-02+0.000000000000000000e+00j)  (7.030991502321565223e-02+0.000000000000000000e+00j)  (8.835404500458275967e-01+0.000000000000000000e+00j)  (8.121520783427902540e-03+0.000000000000000000e+00j)  (-0.000000000000000000e+00-9.175483021576476619e-03j)  (-0.000000000000000000e+00-1.153025202148901113e-01j)
 (2.279543999999999571e+00+0.000000000000000000e+00j)  (0.000000000000000000e+00+0.000000000000000000e+00j)  (0.000000000000000000e+00+0.000000000000000000e+00j)  (6.861928331861642805e-02+0.000000000000000000e+00j)  (6.861928331861642805e-02+0.000000000000000000e+00j)  (8.622953454734479939e-01+0.000000000000000000e+00j)  (1.550932553622513116e-02+0.000000000000000000e+00j)  (-0.000000000000000000e+00-1.767709498507438748e-02j)  (-0.000000000000000000e+00-2.221369269676747027e-01j)
 (2.299539999999999473e+00+0.000000000000000000e+00j)  (0.000000000000000000e+00+0.000000000000000000e+00j)  (0.000000000000000000e+00+0.000000000000000000e+00j)  (6.588572545934828772e-02+0.000000000000000000e+00j)  (6.588572545934828772e-02+0.000000000000000000e+00j)  (8.279444443180902224e-01+0.000000000000000000e+00j)  (2.240212828397036143e-02+0.000000000000000000e+00j)  (-0.000000000000000000e+00-2.575729503706059367e-02j)  (-0.000000000000000000e+00-3.236757154590976238e-01j)
 (2.319535999999999376e+00+0.000000000000000000e+00j)  (0.000000000000000000e+00+0.000000000000000000e+00j)  (0.000000000000000000e+00+0.000000000000000000e+00j)  (6.216960950600006891e-02+0.000000000000000000e+00j)  (6.216960950600006891e-02+0.000000000000000000e+00j)  (7.812463540023839581e-01+0.000000000000000000e+00j)  (2.871219435610784798e-02+0.000000000000000000e+00j)  (-0.000000000000000000e+00-3.329948422399447994e-02j)  (-0.000000000000000000e+00-4.184536600257210415e-01j)
 (2.339531999999999723e+00+0.000000000000000000e+00j)  (0.000000000000000000e+00+0.000000000000000000e+00j)  (0.000000000000000000e+00+0.000000000000000000e+00j)  (5.754533323098764280e-02+0.000000000000000000e+00j)  (5.754533323098764280e-02+0.000000000000000000e+00j)  (7.231359845073894732e-01+0.000000000000000000e+00j)  (3.436343853817528521e-02+0.000000000000000000e+00j)  (-0.000000000000000000e+00-4.019718204504714454e-02j)  (-0.000000000000000000e+00-5.051326872309265248e-01j)
 (2.359527999999999626e+00+0.000000000000000000e+00j)  (0.000000000000000000e+00+0.000000000000000000e+00j)  (0.000000000000000000e+00+0.000000000000000000e+00j)  (5.209996054655136738e-02+0.000000000000000000e+00j)  (5.209996054655136738e-02+0.000000000000000000e+00j)  (6.547074132214553144e-01+0.000000000000000000e+00j)  (3.929215065977597482e-02+0.000000000000000000e+00j)  (-0.000000000000000000e+00-4.635546483097992970e-02j)  (-0.000000000000000000e+00-5.825199510669862857e-01j)
 (2.379523999999999528e+00+0.000000000000000000e+00j)  (0.000000000000000000e+00+0.000000000000000000e+00j)  (0.000000000000000000e+00+0.000000000000000000e+00j)  (4.593168926658967172e-02+0.000000000000000000e+00j)  (4.593168926658967172e-02+0.000000000000000000e+00j)  (5.771946302675490248e-01+0.000000000000000000e+00j)  (4.344752096842976336e-02+0.000000000000000000e+00j)  (-0.000000000000000000e+00-5.169220944244092009e-02j)  (-0.000000000000000000e+00-6.495834617287893353e-01j)
 (2.399519999999999431e+00+0.000000000000000000e+00j)  (0.000000000000000000e+00+0.000000000000000000e+00j)  (0.000000000000000000e+00+0.000000000000000000e+00j)  (3.914817567485962685e-02+0.000000000000000000e+00j)  (3.914817567485962685e-02+0.000000000000000000e+00j)  (4.919504844063265492e-01+0.000000000000000000e+00j)  (4.679196397425621629e-02+0.000000000000000000e+00j)  (-0.000000000000000000e+00-5.613912669775362324e-02j)  (-0.000000000000000000e+00-7.054650720504376249e-01j)
 (2.419515999999999778e+00+0.000000000000000000e+00j)  (0.000000000000000000e+00+0.000000000000000000e+00j)  (0.000000000000000000e+00+0.000000000000000000e+00j)  (3.186474312438200562e-02+0.000000000000000000e+00j)  (3.186474312438200562e-02+0.000000000000000000e+00j)  (4.004241716323375111e-01+0.000000000000000000e+00j)  (4.930124227569918777e-02+0.000000000000000000e+00j)  (-0.000000000000000000e+00-5.964257225296529935e-02j)  (-0.000000000000000000e+00-7.494906673244569051e-01j)
 (2.439511999999999681e+00+0.000000000000000000e+00j)  (0.000000000000000000e+00+0.000000000000000000e+00j)  (0.000000000000000000e+00+0.000000000000000000e+00j)  (2.420250321978843419e-02+0.000000000000000000e+00j)  (2.420250321978843419e-02+0.000000000000000000e+00j)  (3.041376252550826442e-01+0.000000000000000000e+00j)  (5.096439460648152092e-02+0.000000000000000000e+00j)  (-0.000000000000000000e+00-6.216412610762347274e-02j)  (-0.000000000000000000e+00-7.811774475861574807e-01j)
 (2.459507999999999583e+00+0.000000000000000000e+00j)  (0.000000000000000000e+00+0.000000000000000000e+00j)  (0.000000000000000000e+00+0.000000000000000000e+00j)  (1.628641902175425454e-02+0.000000000000000000e+00j)  (1.628641902175425454e-02+0.000000000000000000e+00j)  (2.046611774081129320e-01+0.000000000000000000e+00j)  (5.178347494403397200e-02+0.000000000000000000e+00j)  (-0.000000000000000000e+00-6.368093544632554004e-02j)  (-0.000000000000000000e+00-8.002382358876086732e-01j)
 (2.479503999999999486e+00+0.000000000000000000e+00j)  (0.000000000000000000e+00+0.000000000000000000e+00j)  (0.000000000000000000e+00+0.000000000000000000e+00j)  (8.243340153119138938e-03+0.000000000000000000e+00j)  (8.243340153119138938e-03+0.000000000000000000e+00j)  (1.035888674643233864e-01+0.000000000000000000e+00j)  (5.177311195762670376e-02+0.000000000000000000e+00j)  (-0.000000000000000000e+00-6.418581909569161248e-02j)  (-0.000000000000000000e+00-8.065827909426729336e-01j)
 (2.499499999999999389e+00+0.000000000000000000e+00j)  (0.000000000000000000e+00+0.000000000000000000e+00j)  (0.000000000000000000e+00+0.000000000000000000e+00j)  (2.000396789493916357e-04+0.000000000000000000e+00j)  (2.000396789493916357e-04+0.000000000000000000e+00j)  (2.513772743255478052e-03+0.000000000000000000e+00j)  (5.095990032112356766e-02+0.000000000000000000e+00j)  (-0.000000000000000000e+00-6.368713542632416236e-02j)  (-0.000000000000000000e+00-8.003161471340729527e-01j)
 (2.519495999999999736e+00+0.000000000000000000e+00j)  (0.000000000000000000e+00+0.000000000000000000e+00j)  (0.000000000000000000e+00+0.000000000000000000e+00j)  (-7.718717816586064331e-03+0.000000000000000000e+00j)  (-7.718717816586064331e-03+0.000000000000000000e+00j)  (-9.699626875087770383e-02+0.000000000000000000e+00j)  (4.938163744466726041e-02+0.000000000000000000e+00j)  (-0.000000000000000000e+00-6.220841900764468441e-02j)  (-0.000000000000000000e+00-7.817340485834087804e-01j)
 (2.539491999999999639e+00+0.000000000000000000e+00j)  (0.000000000000000000e+00+0.000000000000000000e+00j)  (0.000000000000000000e+00+0.000000000000000000e+00j)  (-1.539204841291441812e-02+0.000000000000000000e+00j)  (-1.539204841291441812e-02+0.000000000000000000e+00j)  (-1.934221848708414793e-01+0.000000000000000000e+00j)  (4.708642096922341369e-02+0.000000000000000000e+00j)  (-0.000000000000000000e+00-5.978779467998755065e-02j)  (-0.000000000000000000e+00-7.513155861639352340e-01j)
 (2.559487999999999541e+00+0.000000000000000000e+00j)  (0.000000000000000000e+00+0.000000000000000000e+00j)  (0.000000000000000000e+00+0.000000000000000000e+00j)  (-2.270473404250958685e-02+0.000000000000000000e+00j)  (-2.270473404250958685e-02+0.000000000000000000e+00j)  (-2.853161026786327770e-01+0.000000000000000000e+00j)  (4.413162389903464711e-02+0.000000000000000000e+00j)  (-0.000000000000000000e+00-5.647718089504618483e-02j)  (-0.000000000000000000e+00-7.097131863813557207e-01j)
 (2.579483999999999444e+00+0.000000000000000000e+00j)  (0.000000000000000000e+00+0.000000000000000000e+00j)  (0.000000000000000000e+00+0.000000000000000000e+00j)  (-2.954889511239448124e-02+0.000000000000000000e+00j)  (-2.954889511239448124e-02+0.000000000000000000e+00j)  (-3.713223672271753761e-01+0.000000000000000000e+00j)  (4.058276550487597417e-02+0.000000000000000000e+00j)  (-0.000000000000000000e+00-5.234129714778974068e-02j)  (-0.000000000000000000e+00-6.577401383954264436e-01j)
 (2.599479999999999347e+00+0.000000000000000000e+00j)  (0.000000000000000000e+00+0.000000000000000000e+00j)  (0.000000000000000000e+00+0.000000000000000000e+00j)  (-3.582552701885689805e-02+0.000000000000000000e+00j)  (-3.582552701885689805e-02+0.000000000000000000e+00j)  (-4.501968499736939133e-01+0.000000000000000000e+00j)  (3.651229710481904839e-02+0.000000000000000000e+00j)  (-0.000000000000000000e+00-4.745649303901749300e-02j)  (-0.000000000000000000e+00-5.963558795860500750e-01j)
 (2.619475999999999694e+00+0.000000000000000000e+00j)  (0.000000000000000000e+00+0.000000000000000000e+00j)  (0.000000000000000000e+00+0.000000000000000000e+00j)  (-4.144587937559338769e-02+0.000000000000000000e+00j)  (-4.144587937559338769e-02+0.000000000000000000e+00j)  (-5.208242806717316986e-01+0.000000000000000000e+00j)  (3.199832251238242387e-02+0.000000000000000000e+00j)  (-0.000000000000000000e+00-4.190941893072272495e-02j)  (-0.000000000000000000e+00-5.266492905159021465e-01j)
 (2.639471999999999596e+00+0.000000000000000000e+00j)  (0.000000000000000000e+00+0.000000000000000000e+00j)  (0.000000000000000000e+00+0.000000000000000000e+00j)  (-4.633265941884300715e-02+0.000000000000000000e+00j)  (-4.633265941884300715e-02+0.000000000000000000e+00j)  (-5.822333698060605522e-01+0.000000000000000000e+00j)  (2.712327333196707171e-02+0.000000000000000000e+00j)  (-0.000000000000000000e+00-3.579556025403688585e-02j)  (-0.000000000000000000e+00-4.498202765008522674e-01j)
 (2.659467999999999499e+00+0.000000000000000000e+00j)  (0.000000000000000000e+00+0.000000000000000000e+00j)  (0.000000000000000000e+00+0.000000000000000000e+00j)  (-5.042104393806869783e-02+0.000000000000000000e+00j)  (-5.042104393806869783e-02+0.000000000000000000e+00j)  (-6.336095248886591813e-01+0.000000000000000000e+00j)  (2.197255937991542812e-02+0.000000000000000000e+00j)  (-0.000000000000000000e+00-2.921765927449246000e-02j)  (-0.000000000000000000e+00-3.671599349273407809e-01j)
 (2.679463999999999402e+00+0.000000000000000000e+00j)  (0.000000000000000000e+00+0.000000000000000000e+00j)  (0.000000000000000000e+00+0.000000000000000000e+00j)  (-5.365948716164705562e-02+0.000000000000000000e+00j)  (-5.365948716164705562e-02+0.000000000000000000e+00j)  (-6.743050026497048322e-01+0.000000000000000000e+00j)  (1.663321432193575616e-02+0.000000000000000000e+00j)  (-0.000000000000000000e+00-2.228404948995563184e-02j)  (-0.000000000000000000e+00-2.800296246795039301e-01j)
 (2.699459999999999305e+00+0.000000000000000000e+00j)  (0.000000000000000000e+00+0.000000000000000000e+00j)  (0.000000000000000000e+00+0.000000000000000000e+00j)  (-5.601031525575812797e-02+0.000000000000000000e+00j)  (-5.601031525575812797e-02+0.000000000000000000e+00j)  (-7.038463797309522096e-01+0.000000000000000000e+00j)  (1.119255615333362291e-02+0.000000000000000000e+00j)  (-0.000000000000000000e+00-1.510692881683898744e-02j)  (-0.000000000000000000e+00-1.898392663571412120e-01j)
 (2.719455999999999651e+00+0.000000000000000000e+00j)  (0.000000000000000000e+00+0.000000000000000000e+00j)  (0.000000000000000000e+00+0.000000000000000000e+00j)  (-5.745010142146917548e-02+0.000000000000000000e+00j)  (-5.745010142146917548e-02+0.000000000000000000e+00j)  (-7.219392662947043959e-01+0.000000000000000000e+00j)  (5.736881420457481430e-03+0.000000000000000000e+00j)  (-0.000000000000000000e+00-7.800598300075810287e-03j)  (-0.000000000000000000e+00-9.802520925249276484e-02j)
 (2.739451999999999554e+00+0.000000000000000000e+00j)  (0.000000000000000000e+00+0.000000000000000000e+00j)  (0.000000000000000000e+00+0.000000000000000000e+00j)  (-5.796981894927123735e-02+0.000000000000000000e+00j)  (-5.796981894927123735e-02+0.000000000000000000e+00j)  (-7.284702293638436466e-01+0.000000000000000000e+00j)  (3.502111062941718270e-04+0.000000000000000000e+00j)  (-0.000000000000000000e+00-4.796932577798908065e-04j)  (-0.000000000000000000e+00-6.028003258471439224e-03j)
 (2.759447999999999457e+00+0.000000000000000000e+00j)  (0.000000000000000000e+00+0.000000000000000000e+00j)  (0.000000000000000000e+00+0.000000000000000000e+00j)  (-5.757477296130177058e-02+0.000000000000000000e+00j)  (-5.757477296130177058e-02+0.000000000000000000e+00j)  (-7.235059350693037183e-01+0.000000000000000000e+00j)  (-4.886895100388181749e-03+0.000000000000000000e+00j)  (0.000000000000000000e+00+6.742566455487980850e-03j)  (0.000000000000000000e+00+8.472958897160803859e-02j)
 (2.779443999999999360e+00+0.000000000000000000e+00j)  (0.000000000000000000e+00+0.000000000000000000e+00j)  (0.000000000000000000e+00+0.000000000000000000e+00j)  (-5.628431488904096086e-02+0.000000000000000000e+00j)  (-5.628431488904096086e-02+0.000000000000000000e+00j)  (-7.072895606709828087e-01+0.000000000000000000e+00j)  (-9.898440842442329107e-03+0.000000000000000000e+00j)  (0.000000000000000000e+00+1.375608100444063522e-02j)  (0.000000000000000000e+00+1.728640121029472176e-01j)
 (2.799439999999999706e+00+0.000000000000000000e+00j)  (0.000000000000000000e+00+0.000000000000000000e+00j)  (0.000000000000000000e+00+0.000000000000000000e+00j)  (-5.413134694964363142e-02+0.000000000000000000e+00j)  (-5.413134694964363142e-02+0.000000000000000000e+00j)  (-6.802345676236826177e-01+0.000000000000000000e+00j)  (-1.461399771936470506e-02+0.000000000000000000e+00j)  (0.000000000000000000e+00+2.045550488774915826e-02j)  (0.000000000000000000e+00+2.570514555232914500e-01j)
 (2.819435999999999609e+00+0.000000000000000000e+00j)  (0.000000000000000000e+00+0.000000000000000000e+00j)  (0.000000000000000000e+00+0.000000000000000000e+00j)  (-5.116162695055226362e-02+0.000000000000000000e+00j)  (-5.116162695055226362e-02+0.000000000000000000e+00j)  (-6.429159654942261382e-01+0.000000000000000000e+00j)  (-1.896960052700554650e-02+0.000000000000000000e+00j)  (0.000000000000000000e+00+2.674178731572919923e-02j)  (0.000000000000000000e+00+3.360472102998222632e-01j)
 (2.839431999999999512e+00+0.000000000000000000e+00j)  (0.000000000000000000e+00+0.000000000000000000e+00j)  (0.000000000000000000e+00+0.000000000000000000e+00j)  (-4.743288662567026609e-02+0.000000000000000000e+00j)  (-4.743288662567026609e-02+0.000000000000000000e+00j)  (-5.960592326470529612e-01+0.000000000000000000e+00j)  (-2.290852301199718805e-02+0.000000000000000000e+00j)  (0.000000000000000000e+00+3.252359665650059184e-02j)  (0.000000000000000000e+00+4.087035692975192758e-01j)
 (2.859427999999999415e+00+0.000000000000000000e+00j)  (0.000000000000000000e+00+0.000000000000000000e+00j)  (0.000000000000000000e+00+0.000000000000000000e+00j)  (-4.301377934654646018e-02+0.000000000000000000e+00j)  (-4.301377934654646018e-02+0.000000000000000000e+00j)  (-5.405270927929708424e-01+0.000000000000000000e+00j)  (-2.638192601165337964e-02+0.000000000000000000e+00j)  (0.000000000000000000e+00+3.771860896582499012e-02j)  (0.000000000000000000e+00+4.739860193226475560e-01j)
 (2.879423999999999317e+00+0.000000000000000000e+00j)  (0.000000000000000000e+00+0.000000000000000000e+00j)  (0.000000000000000000e+00+0.000000000000000000e+00j)  (-3.798267542205146369e-02+0.000000000000000000e+00j)  (-3.798267542205146369e-02+0.000000000000000000e+00j)  (-4.773043762784098809e-01+0.000000000000000000e+00j)  (-2.934937188863004018e-02+0.000000000000000000e+00j)  (0.000000000000000000e+00+4.225464290052331762e-02j)  (0.000000000000000000e+00+5.309875028653766593e-01j)
 (2.899419999999999664e+00+0.000000000000000000e+00j)  (0.000000000000000000e+00+0.000000000000000000e+00j)  (0.000000000000000000e+00+0.000000000000000000e+00j)  (-3.242632526765973355e-02+0.000000000000000000e+00j)  (-3.242632526765973355e-02+0.000000000000000000e+00j)  (-4.074812209751715320e-01+0.000000000000000000e+00j)  (-3.177920124574393212e-02+0.000000000000000000e+00j)  (0.000000000000000000e+00+4.607062583796742855e-02j)  (0.000000000000000000e+00+5.789405587153703125e-01j)
 (2.919415999999999567e+00+0.000000000000000000e+00j)  (0.000000000000000000e+00+0.000000000000000000e+00j)  (0.000000000000000000e+00+0.000000000000000000e+00j)  (-2.643841246329688491e-02+0.000000000000000000e+00j)  (-2.643841246329688491e-02+0.000000000000000000e+00j)  (-3.322348894690812515e-01+0.000000000000000000e+00j)  (-3.364876998989627110e-02+0.000000000000000000e+00j)  (0.000000000000000000e+00+4.911737874441150092e-02j)  (0.000000000000000000e+00+6.172271849081224504e-01j)
 (2.939411999999999470e+00+0.000000000000000000e+00j)  (0.000000000000000000e+00+0.000000000000000000e+00j)  (0.000000000000000000e+00+0.000000000000000000e+00j)  (-2.011802010459052409e-02+0.000000000000000000e+00j)  (-2.011802010459052409e-02+0.000000000000000000e+00j)  (-2.528104966614134197e-01+0.000000000000000000e+00j)  (-3.494454687546140470e-02+0.000000000000000000e+00j)  (0.000000000000000000e+00+5.135821021014686655e-02j)  (0.000000000000000000e+00+6.453863035908709023e-01j)
 (2.959407999999999372e+00+0.000000000000000000e+00j)  (0.000000000000000000e+00+0.000000000000000000e+00j)  (0.000000000000000000e+00+0.000000000000000000e+00j)  (-1.356803486960547409e-02+0.000000000000000000e+00j)  (-1.356803486960547409e-02+0.000000000000000000e+00j)  (-1.705009546800108078e-01+0.000000000000000000e+00j)  (-3.566207366812872842e-02+0.000000000000000000e+00j)  (0.000000000000000000e+00+5.276931305502473996e-02j)  (0.000000000000000000e+00+6.631187449145827806e-01j)
 (2.979403999999999275e+00+0.000000000000000000e+00j)  (0.000000000000000000e+00+0.000000000000000000e+00j)  (0.000000000000000000e+00+0.000000000000000000e+00j)  (-6.893513860734694874e-03+0.000000000000000000e+00j)  (-6.893513860734694874e-03+0.000000000000000000e+00j)  (-8.662645000921410932e-02+0.000000000000000000e+00j)  (-3.580579200271710727e-02+0.000000000000000000e+00j)  (0.000000000000000000e+00+5.333995995803166024e-02j)  (0.000000000000000000e+00+6.702897053877039379e-01j)
 (2.999399999999999622e+00+0.000000000000000000e+00j)  (0.000000000000000000e+00+0.000000000000000000e+00j)  (0.000000000000000000e+00+0.000000000000000000e+00j)  (-2.000395341663360283e-04+0.000000000000000000e+00j)  (-2.000395341663360283e-04+0.000000000000000000e+00j)  (-2.513770923857942645e-03+0.000000000000000000e+00j)  (-3.538874283726428649e-02+0.000000000000000000e+00j)  (0.000000000000000000e+00+5.307249763304524443e-02j)  (0.000000000000000000e+00+6.669286746865464854e-01j)
 (3.019395999999999525e+00+0.000000000000000000e+00j)  (0.000000000000000000e+00+0.000000000000000000e+00j)  (0.000000000000000000e+00+0.000000000000000000e+00j)  (6.407912102156727505e-03+0.000000000000000000e+00j)  (6.407912102156727505e-03+0.000000000000000000e+00j)  (8.052419833993881837e-02+0.000000000000000000e+00j)  (-3.443214610709618290e-02+0.000000000000000000e+00j)  (0.000000000000000000e+00+5.198214211359089565e-02j)  (0.000000000000000000e+00+6.532268631276709758e-01j)
 (3.039391999999999427e+00+0.000000000000000000e+00j)  (0.000000000000000000e+00+0.000000000000000000e+00j)  (0.000000000000000000e+00+0.000000000000000000e+00j)  (1.282856535058991658e-02+0.000000000000000000e+00j)  (1.282856535058991658e-02+0.000000000000000000e+00j)  (1.612085066460394178e-01+0.000000000000000000e+00j)  (-3.296486973525340064e-02+0.000000000000000000e+00j)  (0.000000000000000000e+00+5.009658067718564256e-02j)  (0.000000000000000000e+00+6.295321993016591566e-01j)
 (3.059387999999999330e+00+0.000000000000000000e+00j)  (0.000000000000000000e+00+0.000000000000000000e+00j)  (0.000000000000000000e+00+0.000000000000000000e+00j)  (1.896437694975934563e-02+0.000000000000000000e+00j)  (1.896437694975934563e-02+0.000000000000000000e+00j)  (2.383133892210862748e-01+0.000000000000000000e+00j)  (-3.102279854080226482e-02+0.000000000000000000e+00j)  (0.000000000000000000e+00+4.745538879107397134e-02j)  (0.000000000000000000e+00+5.963420031971415902e-01j)
 (3.079383999999999233e+00+0.000000000000000000e+00j)  (0.000000000000000000e+00+0.000000000000000000e+00j)  (0.000000000000000000e+00+0.000000000000000000e+00j)  (2.472348389249424613e-02+0.000000000000000000e+00j)  (2.472348389249424613e-02+0.000000000000000000e+00j)  (3.106844614712220287e-01+0.000000000000000000e+00j)  (-2.864811478814685564e-02+0.000000000000000000e+00j)  (0.000000000000000000e+00+4.410927315439138602e-02j)  (0.000000000000000000e+00+5.542934739880859274e-01j)
 (3.099379999999999580e+00+0.000000000000000000e+00j)  (0.000000000000000000e+00+0.000000000000000000e+00j)  (0.000000000000000000e+00+0.000000000000000000e+00j)  (3.002104591429263780e-02+0.000000000000000000e+00j)  (3.002104591429263780e-02+0.000000000000000000e+00j)  (3.772555891896944846e-01+0.000000000000000000e+00j)  (-2.588850312538826248e-02+0.000000000000000000e+00j)  (0.000000000000000000e+00+4.011915440838292879e-02j)  (0.000000000000000000e+00+5.041521630304415247e-01j)
 (3.119375999999999483e+00+0.000000000000000000e+00j)  (0.000000000000000000e+00+0.000000000000000000e+00j)  (0.000000000000000000e+00+0.000000000000000000e+00j)  (3.478046348087711348e-02+0.000000000000000000e+00j)  (3.478046348087711348e-02+0.000000000000000000e+00j)  (4.370641942398864610e-01+0.000000000000000000e+00j)  (-2.279629345800515683e-02+0.000000000000000000e+00j)  (0.000000000000000000e+00+3.555510535092914343e-02j)  (0.000000000000000000e+00+4.467986310723605636e-01j)
 (3.139371999999999385e+00+0.000000000000000000e+00j)  (0.000000000000000000e+00+0.000000000000000000e+00j)  (0.000000000000000000e+00+0.000000000000000000e+00j)  (3.893445422166572079e-02+0.000000000000000000e+00j)  (3.893445422166572079e-02+0.000000000000000000e+00j)  (4.892647814172525478e-01+0.000000000000000000e+00j)  (-1.942755588875208841e-02+0.000000000000000000e+00j)  (0.000000000000000000e+00+3.049516249279169908e-02j)  (0.000000000000000000e+00+3.832135138295256760e-01j)
 (3.159367999999999288e+00+0.000000000000000000e+00j)  (0.000000000000000000e+00+0.000000000000000000e+00j)  (0.000000000000000000e+00+0.000000000000000000e+00j)  (4.242597310766593049e-02+0.000000000000000000e+00j)  (4.242597310766593049e-02+0.000000000000000000e+00j)  (5.331405017457656603e-01+0.000000000000000000e+00j)  (-1.584116222197138116e-02+0.000000000000000000e+00j)  (0.000000000000000000e+00+2.502403050345263641e-02j)  (0.000000000000000000e+00+3.144612415714147513e-01j)
 (3.179363999999999635e+00+0.000000000000000000e+00j)  (0.000000000000000000e+00+0.000000000000000000e+00j)  (0.000000000000000000e+00+0.000000000000000000e+00j)  (4.520896421942190158e-02+0.000000000000000000e+00j)  (4.520896421942190158e-02+0.000000000000000000e+00j)  (5.681125994725586548e-01+0.000000000000000000e+00j)  (-1.209782867992513500e-02+0.000000000000000000e+00j)  (0.000000000000000000e+00+1.923170049156074785e-02j)  (0.000000000000000000e+00+2.416726759213058406e-01j)
 (3.199359999999999538e+00+0.000000000000000000e+00j)  (0.000000000000000000e+00+0.000000000000000000e+00j)  (0.000000000000000000e+00+0.000000000000000000e+00j)  (4.724893465265857240e-02+0.000000000000000000e+00j)  (4.724893465265857240e-02+0.000000000000000000e+00j)  (5.937476239789455379e-01+0.000000000000000000e+00j)  (-8.259154412841081955e-03+0.000000000000000000e+00j)  (0.000000000000000000e+00+1.321200413113361900e-02j)  (0.000000000000000000e+00+1.660269404702695017e-01j)
 (3.219355999999999440e+00+0.000000000000000000e+00j)  (0.000000000000000000e+00+0.000000000000000000e+00j)  (0.000000000000000000e+00+0.000000000000000000e+00j)  (4.852334392375413918e-02+0.000000000000000000e+00j)  (4.852334392375413918e-02+0.000000000000000000e+00j)  (6.097623231939077737e-01+0.000000000000000000e+00j)  (-4.386670108695289380e-03+0.000000000000000000e+00j)  (0.000000000000000000e+00+7.061126367224414974e-03j)  (0.000000000000000000e+00+8.873273088536562381e-02j)
 (3.239351999999999343e+00+0.000000000000000000e+00j)  (0.000000000000000000e+00+0.000000000000000000e+00j)  (0.000000000000000000e+00+0.000000000000000000e+00j)  (4.902180512044548161e-02+0.000000000000000000e+00j)  (4.902180512044548161e-02+0.000000000000000000e+00j)  (6.160261713284080898e-01+0.000000000000000000e+00j)  (-5.409105317870769626e-04+0.000000000000000000e+00j)  (0.000000000000000000e+00+8.760998064827653104e-04j)  (0.000000000000000000e+00+1.100939486343078047e-02j)
 (3.259347999999999246e+00+0.000000000000000000e+00j)  (0.000000000000000000e+00+0.000000000000000000e+00j)  (0.000000000000000000e+00+0.000000000000000000e+00j)  (4.874609695098122697e-02+0.000000000000000000e+00j)  (4.874609695098122697e-02+0.000000000000000000e+00j)  (6.125615202895137168e-01+0.000000000000000000e+00j)  (3.219475847959910476e-03+0.000000000000000000e+00j)  (-0.000000000000000000e+00-5.246696083048217087e-03j)  (-0.000000000000000000e+00-6.593192748049049590e-02j)
 (3.279343999999999593e+00+0.000000000000000000e+00j)  (0.000000000000000000e+00+0.000000000000000000e+00j)  (0.000000000000000000e+00+0.000000000000000000e+00j)  (4.770998873310616784e-02+0.000000000000000000e+00j)  (4.770998873310616784e-02+0.000000000000000000e+00j)  (5.995414004271124586e-01+0.000000000000000000e+00j)  (6.838567816651959855e-03+0.000000000000000000e+00j)  (-0.000000000000000000e+00-1.121300816906535026e-02j)  (-0.000000000000000000e+00-1.409068163543121532e-01j)
 (3.299339999999999495e+00+0.000000000000000000e+00j)  (0.000000000000000000e+00+0.000000000000000000e+00j)  (0.000000000000000000e+00+0.000000000000000000e+00j)  (4.593888318937802695e-02+0.000000000000000000e+00j)  (4.593888318937802695e-02+0.000000000000000000e+00j)  (5.772850317674785847e-01+0.000000000000000000e+00j)  (1.026395165493634853e-02+0.000000000000000000e+00j)  (-0.000000000000000000e+00-1.693213312659884451e-02j)  (-0.000000000000000000e+00-2.127754601605092166e-01j)
 (3.319335999999999398e+00+0.000000000000000000e+00j)  (0.000000000000000000e+00+0.000000000000000000e+00j)  (0.000000000000000000e+00+0.000000000000000000e+00j)  (4.346928463536096215e-02+0.000000000000000000e+00j)  (4.346928463536096215e-02+0.000000000000000000e+00j)  (5.462511410690146230e-01+0.000000000000000000e+00j)  (1.344743048621306093e-02+0.000000000000000000e+00j)  (-0.000000000000000000e+00-2.231827006019225165e-02j)  (-0.000000000000000000e+00-2.804596530477320160e-01j)
 (3.339331999999999301e+00+0.000000000000000000e+00j)  (0.000000000000000000e+00+0.000000000000000000e+00j)  (0.000000000000000000e+00+0.000000000000000000e+00j)  (4.034810272220326621e-02+0.000000000000000000e+00j)  (4.034810272220326621e-02+0.000000000000000000e+00j)  (5.070292123934404538e-01+0.000000000000000000e+00j)  (1.634565383749076242e-02+0.000000000000000000e+00j)  (-0.000000000000000000e+00-2.729178246022784943e-02j)  (-0.000000000000000000e+00-3.429586531216902712e-01j)
 (3.359327999999999204e+00+0.000000000000000000e+00j)  (0.000000000000000000e+00+0.000000000000000000e+00j)  (0.000000000000000000e+00+0.000000000000000000e+00j)  (3.663180428758033846e-02+0.000000000000000000e+00j)  (3.663180428758033846e-02+0.000000000000000000e+00j)  (4.603288289504058883e-01+0.000000000000000000e+00j)  (1.892065988814491118e-02+0.000000000000000000e+00j)  (-0.000000000000000000e+00-3.178035127036103052e-02j)  (-0.000000000000000000e+00-3.993636723178770054e-01j)
 (3.379323999999999550e+00+0.000000000000000000e+00j)  (0.000000000000000000e+00+0.000000000000000000e+00j)  (0.000000000000000000e+00+0.000000000000000000e+00j)  (3.238542804468971803e-02+0.000000000000000000e+00j)  (3.238542804468971803e-02+0.000000000000000000e+00j)  (4.069672913142323156e-01+0.000000000000000000e+00j)  (2.114032433437148736e-02+0.000000000000000000e+00j)  (-0.000000000000000000e+00-3.572000269546279916e-02j)  (-0.000000000000000000e+00-4.488707922170940834e-01j)
 (3.399319999999999453e+00+0.000000000000000000e+00j)  (0.000000000000000000e+00+0.000000000000000000e+00j)  (0.000000000000000000e+00+0.000000000000000000e+00j)  (2.768147876726603437e-02+0.000000000000000000e+00j)  (2.768147876726603437e-02+0.000000000000000000e+00j)  (3.478557213429792627e-01+0.000000000000000000e+00j)  (2.297871130717638738e-02+0.000000000000000000e+00j)  (-0.000000000000000000e+00-3.905599646035540912e-02j)  (-0.000000000000000000e+00-4.907921262339260959e-01j)
 (3.419315999999999356e+00+0.000000000000000000e+00j)  (0.000000000000000000e+00+0.000000000000000000e+00j)  (0.000000000000000000e+00+0.000000000000000000e+00j)  (2.259871928282070064e-02+0.000000000000000000e+00j)  (2.259871928282070064e-02+0.000000000000000000e+00j)  (2.839838819177900597e-01+0.000000000000000000e+00j)  (2.441632332621264390e-02+0.000000000000000000e+00j)  (-0.000000000000000000e+00-4.174356250524604434e-02j)  (-0.000000000000000000e+00-5.245650772045893362e-01j)
 (3.439311999999999259e+00+0.000000000000000000e+00j)  (0.000000000000000000e+00+0.000000000000000000e+00j)  (0.000000000000000000e+00+0.000000000000000000e+00j)  (1.722087994430743577e-02+0.000000000000000000e+00j)  (1.722087994430743577e-02+0.000000000000000000e+00j)  (2.164039596855522052e-01+0.000000000000000000e+00j)  (2.544024882754210640e-02+0.000000000000000000e+00j)  (-0.000000000000000000e+00-4.374847653777573508e-02j)  (-0.000000000000000000e+00-5.497595699872867003e-01j)
 (3.459307999999999161e+00+0.000000000000000000e+00j)  (0.000000000000000000e+00+0.000000000000000000e+00j)  (0.000000000000000000e+00+0.000000000000000000e+00j)  (1.163530629464468343e-02+0.000000000000000000e+00j)  (1.163530629464468343e-02+0.000000000000000000e+00j)  (1.462135711100912561e-01+0.000000000000000000e+00j)  (2.604420734762858194e-02+0.000000000000000000e+00j)  (-0.000000000000000000e+00-4.504746741565515689e-02j)  (-0.000000000000000000e+00-5.660831707833913207e-01j)
 (3.479303999999999508e+00+0.000000000000000000e+00j)  (0.000000000000000000e+00+0.000000000000000000e+00j)  (0.000000000000000000e+00+0.000000000000000000e+00j)  (5.931566356414130076e-03+0.000000000000000000e+00j)  (5.931566356414130076e-03+0.000000000000000000e+00j)  (7.453826115836402477e-02+0.000000000000000000e+00j)  (2.622849395633676528e-02+0.000000000000000000e+00j)  (-0.000000000000000000e+00-4.562845196812916060e-02j)  (-0.000000000000000000e+00-5.733840379909972418e-01j)
 (3.499299999999999411e+00+0.000000000000000000e+00j)  (0.000000000000000000e+00+0.000000000000000000e+00j)  (0.000000000000000000e+00+0.000000000000000000e+00j)  (2.000393630592855977e-04+0.000000000000000000e+00j)  (2.000393630592855977e-04+0.000000000000000000e+00j)  (2.513768773663332175e-03+0.000000000000000000e+00j)  (2.599982598712352946e-02+0.000000000000000000e+00j)  (-0.000000000000000000e+00-4.549059553837067615e-02j)  (-0.000000000000000000e+00-5.716516830030797802e-01j)
 (3.519295999999999314e+00+0.000000000000000000e+00j)  (0.000000000000000000e+00+0.000000000000000000e+00j)  (0.000000000000000000e+00+0.000000000000000000e+00j)  (-5.469492204377346053e-03+0.000000000000000000e+00j)  (-5.469492204377346053e-03+0.000000000000000000e+00j)  (-6.873166611255406011e-02+0.000000000000000000e+00j)  (2.537109649287681845e-02+0.000000000000000000e+00j)  (-0.000000000000000000e+00-4.464419920149770293e-02j)  (-0.000000000000000000e+00-5.610155529472979907e-01j)
 (3.539291999999999216e+00+0.000000000000000000e+00j)  (0.000000000000000000e+00+0.000000000000000000e+00j)  (0.000000000000000000e+00+0.000000000000000000e+00j)  (-1.098922569679666381e-02+0.000000000000000000e+00j)  (-1.098922569679666381e-02+0.000000000000000000e+00j)  (-1.380946828707863006e-01+0.000000000000000000e+00j)  (2.436104014237467502e-02+0.000000000000000000e+00j)  (-0.000000000000000000e+00-4.311041724379275492e-02j)  (-0.000000000000000000e+00-5.417414804251602378e-01j)
 (3.559287999999999563e+00+0.000000000000000000e+00j)  (0.000000000000000000e+00+0.000000000000000000e+00j)  (0.000000000000000000e+00+0.000000000000000000e+00j)  (-1.627467552640055395e-02+0.000000000000000000e+00j)  (-1.627467552640055395e-02+0.000000000000000000e+00j)  (-2.045136042931903486e-01+0.000000000000000000e+00j)  (2.299381844821387841e-02+0.000000000000000000e+00j)  (-0.000000000000000000e+00-4.092081103845313095e-02j)  (-0.000000000000000000e+00-5.142260773493618764e-01j)
 (3.579283999999999466e+00+0.000000000000000000e+00j)  (0.000000000000000000e+00+0.000000000000000000e+00j)  (0.000000000000000000e+00+0.000000000000000000e+00j)  (-2.124594450436659288e-02+0.000000000000000000e+00j)  (-2.124594450436659288e-02+0.000000000000000000e+00j)  (-2.669844126939781015e-01+0.000000000000000000e+00j)  (2.129853226733561047e-02+0.000000000000000000e+00j)  (-0.000000000000000000e+00-3.811674788397903524e-02j)  (-0.000000000000000000e+00-4.789891805241713318e-01j)
 (3.599279999999999369e+00+0.000000000000000000e+00j)  (0.000000000000000000e+00+0.000000000000000000e+00j)  (0.000000000000000000e+00+0.000000000000000000e+00j)  (-2.582891046636171320e-02+0.000000000000000000e+00j)  (-2.582891046636171320e-02+0.000000000000000000e+00j)  (-3.245756614854019007e-01+0.000000000000000000e+00j)  (1.930867042710455311e-02+0.000000000000000000e+00j)  (-0.000000000000000000e+00-3.474865564743443574e-02j)  (-0.000000000000000000e+00-4.366644852164059953e-01j)
 (3.619275999999999271e+00+0.000000000000000000e+00j)  (0.000000000000000000e+00+0.000000000000000000e+00j)  (0.000000000000000000e+00+0.000000000000000000e+00j)  (-2.995631086093835521e-02+0.000000000000000000e+00j)  (-2.995631086093835521e-02+0.000000000000000000e+00j)  (-3.764421045175043168e-01+0.000000000000000000e+00j)  (1.706150409269130419e-02+0.000000000000000000e+00j)  (-0.000000000000000000e+00-3.087514614328969870e-02j)  (-0.000000000000000000e+00-3.879885292090806126e-01j)
 (3.639271999999999174e+00+0.000000000000000000e+00j)  (0.000000000000000000e+00+0.000000000000000000e+00j)  (0.000000000000000000e+00+0.000000000000000000e+00j)  (-3.356870972041170464e-02+0.000000000000000000e+00j)  (-3.356870972041170464e-02+0.000000000000000000e+00j)  (-4.218368473925347417e-01+0.000000000000000000e+00j)  (1.459743709703896150e-02+0.000000000000000000e+00j)  (-0.000000000000000000e+00-2.656202204950758317e-02j)  (-0.000000000000000000e+00-3.337882133408924812e-01j)
 (3.659267999999999521e+00+0.000000000000000000e+00j)  (0.000000000000000000e+00+0.000000000000000000e+00j)  (0.000000000000000000e+00+0.000000000000000000e+00j)  (-3.661533339836694351e-02+0.000000000000000000e+00j)  (-3.661533339836694351e-02+0.000000000000000000e+00j)  (-4.601218496522023194e-01+0.000000000000000000e+00j)  (1.195932289719138855e-02+0.000000000000000000e+00j)  (-0.000000000000000000e+00-2.188118378967986860e-02j)  (-0.000000000000000000e+00-2.749670649820253332e-01j)
 (3.679263999999999424e+00+0.000000000000000000e+00j)  (0.000000000000000000e+00+0.000000000000000000e+00j)  (0.000000000000000000e+00+0.000000000000000000e+00j)  (-3.905476361042355821e-02+0.000000000000000000e+00j)  (-3.905476361042355821e-02+0.000000000000000000e+00j)  (-4.907766337847705995e-01+0.000000000000000000e+00j)  (9.191759096927841488e-03+0.000000000000000000e+00j)  (-0.000000000000000000e+00-1.690945417099955564e-02j)  (-0.000000000000000000e+00-2.124904679993019629e-01j)
 (3.699259999999999327e+00+0.000000000000000000e+00j)  (0.000000000000000000e+00+0.000000000000000000e+00j)  (0.000000000000000000e+00+0.000000000000000000e+00j)  (-4.085547862066166158e-02+0.000000000000000000e+00j)  (-4.085547862066166158e-02+0.000000000000000000e+00j)  (-5.134050859742621542e-01+0.000000000000000000e+00j)  (6.340370584678376581e-03+0.000000000000000000e+00j)  (-0.000000000000000000e+00-1.172733964453866705e-02j)  (-0.000000000000000000e+00-1.473700962937400383e-01j)
 (3.719255999999999229e+00+0.000000000000000000e+00j)  (0.000000000000000000e+00+0.000000000000000000e+00j)  (0.000000000000000000e+00+0.000000000000000000e+00j)  (-4.199623583856528647e-02+0.000000000000000000e+00j)  (-4.199623583856528647e-02+0.000000000000000000e+00j)  (-5.277402639554443775e-01+0.000000000000000000e+00j)  (3.451092279239538832e-03+0.000000000000000000e+00j)  (-0.000000000000000000e+00-6.417747833057665073e-03j)  (-0.000000000000000000e+00-8.064779777970310093e-02j)
 (3.739251999999999132e+00+0.000000000000000000e+00j)  (0.000000000000000000e+00+0.000000000000000000e+00j)  (0.000000000000000000e+00+0.000000000000000000e+00j)  (-4.246629159242214235e-02+0.000000000000000000e+00j)  (-4.246629159242214235e-02+0.000000000000000000e+00j)  (-5.336471587678216499e-01+0.000000000000000000e+00j)  (5.694622578922655569e-04+0.000000000000000000e+00j)  (-0.000000000000000000e+00-1.064681443374085107e-03j)  (-0.000000000000000000e+00-1.337918160366960950e-02j)
 (3.759247999999999479e+00+0.000000000000000000e+00j)  (0.000000000000000000e+00+0.000000000000000000e+00j)  (0.000000000000000000e+00+0.000000000000000000e+00j)  (-4.226545638594542825e-02+0.000000000000000000e+00j)  (-4.226545638594542825e-02+0.000000000000000000e+00j)  (-5.311233891308237975e-01+0.000000000000000000e+00j)  (-2.260064331531644582e-03+0.000000000000000000e+00j)  (0.000000000000000000e+00+4.248071159090834222e-03j)  (0.000000000000000000e+00+5.338283658130577730e-02j)
 (3.779243999999999382e+00+0.000000000000000000e+00j)  (0.000000000000000000e+00+0.000000000000000000e+00j)  (0.000000000000000000e+00+0.000000000000000000e+00j)  (-4.140398648633789036e-02+0.000000000000000000e+00j)  (-4.140398648633789036e-02+0.000000000000000000e+00j)  (-5.202978390992407665e-01+0.000000000000000000e+00j)  (-4.994770692822886674e-03+0.000000000000000000e+00j)  (0.000000000000000000e+00+9.438228586113366070e-03j)  (0.000000000000000000e+00+1.186042783561397362e-01j)
 (3.799239999999999284e+00+0.000000000000000000e+00j)  (0.000000000000000000e+00+0.000000000000000000e+00j)  (0.000000000000000000e+00+0.000000000000000000e+00j)  (-3.990231519533660870e-02+0.000000000000000000e+00j)  (-3.990231519533660870e-02+0.000000000000000000e+00j)  (-5.014272811155753296e-01+0.000000000000000000e+00j)  (-7.594293911952535413e-03+0.000000000000000000e+00j)  (0.000000000000000000e+00+1.442627260102327148e-02j)  (0.000000000000000000e+00+1.812858880882337320e-01j)
 (3.819235999999999187e+00+0.000000000000000000e+00j)  (0.000000000000000000e+00+0.000000000000000000e+00j)  (0.000000000000000000e+00+0.000000000000000000e+00j)  (-3.779062958213839918e-02+0.000000000000000000e+00j)  (-3.779062958213839918e-02+0.000000000000000000e+00j)  (-4.748910570791164409e-01+0.000000000000000000e+00j)  (-1.002119215008232325e-02+0.000000000000000000e+00j)  (0.000000000000000000e+00+1.913664891125589976e-02j)  (0.000000000000000000e+00+2.404782225357146030e-01j)
 (3.839231999999999090e+00+0.000000000000000000e+00j)  (0.000000000000000000e+00+0.000000000000000000e+00j)  (0.000000000000000000e+00+0.000000000000000000e+00j)  (-3.510830077220028489e-02+0.000000000000000000e+00j)  (-3.510830077220028489e-02+0.000000000000000000e+00j)  (-4.411839191438611252e-01+0.000000000000000000e+00j)  (-1.224145594313849096e-02+0.000000000000000000e+00j)  (0.000000000000000000e+00+2.349889469174372761e-02j)  (0.000000000000000000e+00+2.952958197242491201e-01j)
 (3.859227999999999437e+00+0.000000000000000000e+00j)  (0.000000000000000000e+00+0.000000000000000000e+00j)  (0.000000000000000000e+00+0.000000000000000000e+00j)  (-3.190317805446937771e-02+0.000000000000000000e+00j)  (-3.190317805446937771e-02+0.000000000000000000e+00j)  (-4.009071592083524038e-01+0.000000000000000000e+00j)  (-1.422495703701698311e-02+0.000000000000000000e+00j)  (0.000000000000000000e+00+2.744867624802648301e-02j)  (0.000000000000000000e+00+3.449302386062585990e-01j)
 (3.879223999999999339e+00+0.000000000000000000e+00j)  (0.000000000000000000e+00+0.000000000000000000e+00j)  (0.000000000000000000e+00+0.000000000000000000e+00j)  (-2.823075905990614712e-02+0.000000000000000000e+00j)  (-2.823075905990614712e-02+0.000000000000000000e+00j)  (-3.547581810714585671e-01+0.000000000000000000e+00j)  (-1.594582925103539203e-02+0.000000000000000000e+00j)  (0.000000000000000000e+00+3.092872176525925110e-02j)  (0.000000000000000000e+00+3.886617803306448571e-01j)
 (3.899219999999999242e+00+0.000000000000000000e+00j)  (0.000000000000000000e+00+0.000000000000000000e+00j)  (0.000000000000000000e+00+0.000000000000000000e+00j)  (-2.415325004750865090e-02+0.000000000000000000e+00j)  (-2.415325004750865090e-02+0.000000000000000000e+00j)  (-3.035186916382819899e-01+0.000000000000000000e+00j)  (-1.738277698720951461e-02+0.000000000000000000e+00j)  (0.000000000000000000e+00+3.388963584203354140e-02j)  (0.000000000000000000e+00+4.258697239766636167e-01j)
 (3.919215999999999145e+00+0.000000000000000000e+00j)  (0.000000000000000000e+00+0.000000000000000000e+00j)  (0.000000000000000000e+00+0.000000000000000000e+00j)  (-1.973853188513733509e-02+0.000000000000000000e+00j)  (-1.973853188513733509e-02+0.000000000000000000e+00j)  (-2.480417070519813361e-01+0.000000000000000000e+00j)  (-1.851930817153548542e-02+0.000000000000000000e+00j)  (0.000000000000000000e+00+3.629058444740630718e-02j)  (0.000000000000000000e+00+4.560409339778065951e-01j)
 (3.939211999999999492e+00+0.000000000000000000e+00j)  (0.000000000000000000e+00+0.000000000000000000e+00j)  (0.000000000000000000e+00+0.000000000000000000e+00j)  (-1.505904860974440797e-02+0.000000000000000000e+00j)  (-1.505904860974440797e-02+0.000000000000000000e+00j)  (-1.892375859296984708e-01+0.000000000000000000e+00j)  (-1.934388960762024184e-02+0.000000000000000000e+00j)  (0.000000000000000000e+00+3.809984103450647641e-02j)  (0.000000000000000000e+00+4.787767227877779419e-01j)
 (3.959207999999999394e+00+0.000000000000000000e+00j)  (0.000000000000000000e+00+0.000000000000000000e+00j)  (0.000000000000000000e+00+0.000000000000000000e+00j)  (-1.019063647768296381e-02+0.000000000000000000e+00j)  (-1.019063647768296381e-02+0.000000000000000000e+00j)  (-1.280593147747718652e-01+0.000000000000000000e+00j)  (-1.985002392457595188e-02+0.000000000000000000e+00j)  (0.000000000000000000e+00+3.929518676118624876e-02j)  (0.000000000000000000e+00+4.937978802015264290e-01j)
 (3.979203999999999297e+00+0.000000000000000000e+00j)  (0.000000000000000000e+00+0.000000000000000000e+00j)  (0.000000000000000000e+00+0.000000000000000000e+00j)  (-5.211312157431577385e-03+0.000000000000000000e+00j)  (-5.211312157431577385e-03+0.000000000000000000e+00j)  (-6.548727995740087626e-02+0.000000000000000000e+00j)  (-2.003624849216012124e-02+0.000000000000000000e+00j)  (0.000000000000000000e+00+3.986416007249875965e-02j)  (0.000000000000000000e+00+5.009478097011585973e-01j)
 (3.999199999999999200e+00+0.000000000000000000e+00j)  (0.000000000000000000e+00+0.000000000000000000e+00j)  (0.000000000000000000e+00+0.000000000000000000e+00j)  (-2.000391656281718495e-04+0.000000000000000000e+00j)  (-2.000391656281718495e-04+0.000000000000000000e+00j)  (-2.513766292670786221e-03+0.000000000000000000e+00j)  (-1.990605783924991046e-02+0.000000000000000000e+00j)  (0.000000000000000000e+00+3.980415325536411364e-02j)  (0.000000000000000000e+00+5.001937417976566325e-01j)
 (4.019195999999999103e+00+0.000000000000000000e+00j)  (0.000000000000000000e+00+0.000000000000000000e+00j)  (0.000000000000000000e+00+0.000000000000000000e+00j)  (4.764508201412105508e-03+0.000000000000000000e+00j)  (4.764508201412105508e-03+0.000000000000000000e+00j)  (5.987257585409835881e-02+0.000000000000000000e+00j)  (-1.946775223016429524e-02+0.000000000000000000e+00j)  (0.000000000000000000e+00+3.912235594623369311e-02j)  (0.000000000000000000e+00+4.916260241272509268e-01j)
 (4.039191999999999005e+00+0.000000000000000000e+00j)  (0.000000000000000000e+00+0.000000000000000000e+00j)  (0.000000000000000000e+00+0.000000000000000000e+00j)  (9.605164334081484068e-03+0.000000000000000000e+00j)  (9.605164334081484068e-03+0.000000000000000000e+00j)  (1.207020548338923471e-01+0.000000000000000000e+00j)  (-1.873421611131791120e-02+0.000000000000000000e+00j)  (0.000000000000000000e+00+3.783554792155319202e-02j)  (0.000000000000000000e+00+4.754555175795843192e-01j)
 (4.059187999999998908e+00+0.000000000000000000e+00j)  (0.000000000000000000e+00+0.000000000000000000e+00j)  (0.000000000000000000e+00+0.000000000000000000e+00j)  (1.424745650462160874e-02+0.000000000000000000e+00j)  (1.424745650462160874e-02+0.000000000000000000e+00j)  (1.790388187490374317e-01+0.000000000000000000e+00j)  (-1.772263112360820264e-02+0.000000000000000000e+00j)  (0.000000000000000000e+00+3.596974579268845396e-02j)  (0.000000000000000000e+00+4.520091565352097329e-01j)
