 (0.000000000000000000e+00+0.000000000000000000e+00j)  (0.000000000000000000e+00+0.000000000000000000e+00j)  (0.000000000000000000e+00+0.000000000000000000e+00j)  (1.000000000000000000e+00+0.000000000000000000e+00j)  (1.000000000000000000e+00+0.000000000000000000e+00j)  (1.256637061435917246e+01+0.000000000000000000e+00j)  (4.188790204786390525e+00+0.000000000000000000e+00j)  (0.000000000000000000e+00+0.000000000000000000e+00j)  (0.000000000000000000e+00+0.000000000000000000e+00j)
 (3.991999999999999715e-02+0.000000000000000000e+00j)  (0.000000000000000000e+00+0.000000000000000000e+00j)  (0.000000000000000000e+00+0.000000000000000000e+00j)  (9.895474245846260786e-01+0.000000000000000000e+00j)  (9.895474245846260786e-01+0.000000000000000000e+00j)  (1.243501967781504547e+01+0.000000000000000000e+00j)  (4.162496387673286335e+00+0.000000000000000000e+00j)  (-0.000000000000000000e+00-8.308342789795908345e-02j)  (-0.000000000000000000e+00-1.044057146877142239e+00j)
 (7.983999999999999431e-02+0.000000000000000000e+00j)  (0.000000000000000000e+00+0.000000000000000000e+00j)  (0.000000000000000000e+00+0.000000000000000000e+00j)  (9.585825500482697548e-01+0.000000000000000000e+00j)  (9.585825500482697548e-01+0.000000000000000000e+00j)  (1.204590358836405883e+01+0.000000000000000000e+00j)  (4.084321357605510627e+00+0.000000000000000000e+00j)  (-0.000000000000000000e+00-1.630461085956120548e-01j)  (-0.000000000000000000e+00-2.048897827841513752e+00j)
 (1.197599999999999915e-01+0.000000000000000000e+00j)  (0.000000000000000000e+00+0.000000000000000000e+00j)  (0.000000000000000000e+00+0.000000000000000000e+00j)  (9.082663611458265951e-01+0.000000000000000000e+00j)  (9.082663611458265951e-01+0.000000000000000000e+00j)  (1.141361171071384994e+01+0.000000000000000000e+00j)  (3.956359790847489677e+00+0.000000000000000000e+00j)  (-0.000000000000000000e+00-2.369068242759477805e-01j)  (-0.000000000000000000e+00-2.977058954922422451e+00j)
 (1.596799999999999886e-01+0.000000000000000000e+00j)  (0.000000000000000000e+00+0.000000000000000000e+00j)  (0.000000000000000000e+00+0.000000000000000000e+00j)  (8.404761200893844375e-01+0.000000000000000000e+00j)  (8.404761200893844375e-01+0.000000000000000000e+00j)  (1.056173441756185305e+01+0.000000000000000000e+00j)  (3.782021835955040601e+00+0.000000000000000000e+00j)  (-0.000000000000000000e+00-3.019566233826505020e-01j)  (-0.000000000000000000e+00-3.794498838886859016e+00j)
 (1.995999999999999996e-01+0.000000000000000000e+00j)  (0.000000000000000000e+00+0.000000000000000000e+00j)  (0.000000000000000000e+00+0.000000000000000000e+00j)  (7.577217485351437354e-01+0.000000000000000000e+00j)  (7.577217485351437354e-01+0.000000000000000000e+00j)  (9.521812314652880360e+00+0.000000000000000000e+00j)  (3.565915033283244995e+00+0.000000000000000000e+00j)  (-0.000000000000000000e+00-3.558783203216679958e-01j)  (-0.000000000000000000e+00-4.472098866777709070e+00j)
 (2.395199999999999829e-01+0.000000000000000000e+00j)  (0.000000000000000000e+00+0.000000000000000000e+00j)  (0.000000000000000000e+00+0.000000000000000000e+00j)  (6.630345080553102788e-01+0.000000000000000000e+00j)  (6.630345080553102788e-01+0.000000000000000000e+00j)  (8.331937358332341503e+00+0.000000000000000000e+00j)  (3.313685625986308114e+00+0.000000000000000000e+00j)  (-0.000000000000000000e+00-3.968469905681202281e-01j)  (-0.000000000000000000e+00-4.986926360672097935e+00j)
 (2.794399999999999662e-01+0.000000000000000000e+00j)  (0.000000000000000000e+00+0.000000000000000000e+00j)  (0.000000000000000000e+00+0.000000000000000000e+00j)  (5.598333705177162001e-01+0.000000000000000000e+00j)  (5.598333705177162001e-01+0.000000000000000000e+00j)  (7.035073616211478864e+00+0.000000000000000000e+00j)  (3.031825540962945542e+00+0.000000000000000000e+00j)  (-0.000000000000000000e+00-4.236066645833427291e-01j)  (-0.000000000000000000e+00-5.323198341866819838e+00j)
 (3.193599999999999772e-01+0.000000000000000000e+00j)  (0.000000000000000000e+00+0.000000000000000000e+00j)  (0.000000000000000000e+00+0.000000000000000000e+00j)  (4.517755252030880020e-01+0.000000000000000000e+00j)  (4.517755252030880020e-01+0.000000000000000000e+00j)  (5.677178684198766589e+00+0.000000000000000000e+00j)  (2.727452636661015006e+00+0.000000000000000000e+00j)  (-0.000000000000000000e+00-4.355196370220308366e-01j)  (-0.000000000000000000e+00-5.472901168650022186e+00j)
 (3.592799999999999883e-01+0.000000000000000000e+00j)  (0.000000000000000000e+00+0.000000000000000000e+00j)  (0.000000000000000000e+00+0.000000000000000000e+00j)  (3.425981968262532540e-01+0.000000000000000000e+00j)  (3.425981968262532540e-01+0.000000000000000000e+00j)  (4.305215913129869065e+00+0.000000000000000000e+00j)  (2.408072806816177636e+00+0.000000000000000000e+00j)  (-0.000000000000000000e+00-4.325861990164581172e-01j)  (-0.000000000000000000e+00-5.436038499497747978e+00j)
 (3.991999999999999993e-01+0.000000000000000000e+00j)  (0.000000000000000000e+00+0.000000000000000000e+00j)  (0.000000000000000000e+00+0.000000000000000000e+00j)  (2.359593122220629002e-01+0.000000000000000000e+00j)  (2.359593122220629002e-01+0.000000000000000000e+00j)  (2.965152167291732255e+00+0.000000000000000000e+00j)  (2.081333154352023485e+00+0.000000000000000000e+00j)  (-0.000000000000000000e+00-4.154340976086638992e-01j)  (-0.000000000000000000e+00-5.220498836392334141e+00j)
 (4.391199999999999548e-01+0.000000000000000000e+00j)  (0.000000000000000000e+00+0.000000000000000000e+00j)  (0.000000000000000000e+00+0.000000000000000000e+00j)  (1.352845367610667482e-01+0.000000000000000000e+00j)  (1.352845367610667482e-01+0.000000000000000000e+00j)  (1.700035627331462518e+00+0.000000000000000000e+00j)  (1.754775683767267891e+00+0.000000000000000000e+00j)  (-0.000000000000000000e+00-3.852785491279413499e-01j)  (-0.000000000000000000e+00-4.841553038104298601e+00j)
 (4.790399999999999658e-01+0.000000000000000000e+00j)  (0.000000000000000000e+00+0.000000000000000000e+00j)  (0.000000000000000000e+00+0.000000000000000000e+00j)  (4.362780794529486084e-02+0.000000000000000000e+00j)  (4.362780794529486084e-02+0.000000000000000000e+00j)  (5.482432037326588903e-01+0.000000000000000000e+00j)  (1.435600796996945094e+00+0.000000000000000000e+00j)  (-0.000000000000000000e+00-3.438551028967082313e-01j)  (-0.000000000000000000e+00-4.321010660638644474e+00j)
 (5.189599999999999769e-01+0.000000000000000000e+00j)  (0.000000000000000000e+00+0.000000000000000000e+00j)  (0.000000000000000000e+00+0.000000000000000000e+00j)  (-3.644825388255932413e-02+0.000000000000000000e+00j)  (-3.644825388255932413e-02+0.000000000000000000e+00j)  (-4.580222665344961253e-01+0.000000000000000000e+00j)  (1.130449328403469123e+00+0.000000000000000000e+00j)  (-0.000000000000000000e+00-2.933289917341321273e-01j)  (-0.000000000000000000e+00-3.686080822067403062e+00j)
 (5.588799999999999324e-01+0.000000000000000000e+00j)  (0.000000000000000000e+00+0.000000000000000000e+00j)  (0.000000000000000000e+00+0.000000000000000000e+00j)  (-1.029667378678950085e-01+0.000000000000000000e+00j)  (-1.029667378678950085e-01+0.000000000000000000e+00j)  (-1.293918188999539698e+00+0.000000000000000000e+00j)  (8.452109478272823440e-01+0.000000000000000000e+00j)  (-0.000000000000000000e+00-2.361857472608558106e-01j)  (-0.000000000000000000e+00-2.967997633909280619e+00j)
 (5.987999999999999989e-01+0.000000000000000000e+00j)  (0.000000000000000000e+00+0.000000000000000000e+00j)  (0.000000000000000000e+00+0.000000000000000000e+00j)  (-1.546016334647590806e-01+0.000000000000000000e+00j)  (-1.546016334647590806e-01+0.000000000000000000e+00j)  (-1.942781423703476174e+00+0.000000000000000000e+00j)  (5.848655407819736141e-01+0.000000000000000000e+00j)  (-0.000000000000000000e+00-1.751087429101228776e-01j)  (-0.000000000000000000e+00-2.200481361223143306e+00j)
 (6.387199999999999545e-01+0.000000000000000000e+00j)  (0.000000000000000000e+00+0.000000000000000000e+00j)  (0.000000000000000000e+00+0.000000000000000000e+00j)  (-1.907113155077547195e-01+0.000000000000000000e+00j)  (-1.907113155077547195e-01+0.000000000000000000e+00j)  (-2.396549071022429978e+00+0.000000000000000000e+00j)  (3.533626996729613001e-01+0.000000000000000000e+00j)  (-0.000000000000000000e+00-1.128499117675569041e-01j)  (-0.000000000000000000e+00-1.418113815068852590e+00j)
 (6.786399999999999100e-01+0.000000000000000000e+00j)  (0.000000000000000000e+00+0.000000000000000000e+00j)  (0.000000000000000000e+00+0.000000000000000000e+00j)  (-2.113394253454918270e-01+0.000000000000000000e+00j)  (-2.113394253454918270e-01+0.000000000000000000e+00j)  (-2.655769544317142739e+00+0.000000000000000000e+00j)  (1.535427977814979861e-01+0.000000000000000000e+00j)  (-0.000000000000000000e+00-5.210014214321787712e-02j)  (-0.000000000000000000e+00-6.547096952324691355e-01j)
 (7.185599999999999765e-01+0.000000000000000000e+00j)  (0.000000000000000000e+00+0.000000000000000000e+00j)  (0.000000000000000000e+00+0.000000000000000000e+00j)  (-2.171838776208732669e-01+0.000000000000000000e+00j)  (-2.171838776208732669e-01+0.000000000000000000e+00j)  (-2.729213097647520403e+00+0.000000000000000000e+00j)  (-1.289865549433008574e-02+0.000000000000000000e+00j)  (0.000000000000000000e+00+4.634228946002901667e-03j)  (0.000000000000000000e+00+5.823543844726354612e-02j)
 (7.584799999999999320e-01+0.000000000000000000e+00j)  (0.000000000000000000e+00+0.000000000000000000e+00j)  (0.000000000000000000e+00+0.000000000000000000e+00j)  (-2.095362875066694164e-01+0.000000000000000000e+00j)  (-2.095362875066694164e-01+0.000000000000000000e+00j)  (-2.633110645965725638e+00+0.000000000000000000e+00j)  (-1.454034843972819013e-01+0.000000000000000000e+00j)  (0.000000000000000000e+00+5.514281742282516746e-02j)  (0.000000000000000000e+00+6.929450804551632315e-01j)
 (7.983999999999999986e-01+0.000000000000000000e+00j)  (0.000000000000000000e+00+0.000000000000000000e+00j)  (0.000000000000000000e+00+0.000000000000000000e+00j)  (-1.901955358279775188e-01+0.000000000000000000e+00j)  (-1.901955358279775188e-01+0.000000000000000000e+00j)  (-2.390067592410993758e+00+0.000000000000000000e+00j)  (-2.445020043824831513e-01+0.000000000000000000e+00j)  (0.000000000000000000e+00+9.760520014948728673e-02j)  (0.000000000000000000e+00+1.226543118967162505e+00j)
 (8.383199999999999541e-01+0.000000000000000000e+00j)  (0.000000000000000000e+00+0.000000000000000000e+00j)  (0.000000000000000000e+00+0.000000000000000000e+00j)  (-1.613603979257772214e-01+0.000000000000000000e+00j)  (-1.613603979257772214e-01+0.000000000000000000e+00j)  (-2.027714562815789545e+00+0.000000000000000000e+00j)  (-3.117263626167658952e-01+0.000000000000000000e+00j)  (0.000000000000000000e+00+1.306632221544435923e-01j)  (0.000000000000000000e+00+1.641962475259084231e+00j)
 (8.782399999999999096e-01+0.000000000000000000e+00j)  (0.000000000000000000e+00+0.000000000000000000e+00j)  (0.000000000000000000e+00+0.000000000000000000e+00j)  (-1.255070969110559376e-01+0.000000000000000000e+00j)  (-1.255070969110559376e-01+0.000000000000000000e+00j)  (-1.577168694516622338e+00+0.000000000000000000e+00j)  (-3.494909955569787674e-01+0.000000000000000000e+00j)  (0.000000000000000000e+00+1.534684859689805225e-01j)  (0.000000000000000000e+00+1.928541872310789662e+00j)
 (9.181599999999999762e-01+0.000000000000000000e+00j)  (0.000000000000000000e+00+0.000000000000000000e+00j)  (0.000000000000000000e+00+0.000000000000000000e+00j)  (-8.525825890821146780e-02+0.000000000000000000e+00j)  (-8.525825890821146780e-02+0.000000000000000000e+00j)  (-1.071386879375574752e+00+0.000000000000000000e+00j)  (-3.609463246788583990e-01+0.000000000000000000e+00j)  (0.000000000000000000e+00+1.657032387335703183e-01j)  (0.000000000000000000e+00+2.082288309925680814e+00j)
 (9.580799999999999317e-01+0.000000000000000000e+00j)  (0.000000000000000000e+00+0.000000000000000000e+00j)  (0.000000000000000000e+00+0.000000000000000000e+00j)  (-4.325002016239661018e-02+0.000000000000000000e+00j)  (-4.325002016239661018e-02+0.000000000000000000e+00j)  (-5.434957824391823955e-01+0.000000000000000000e+00j)  (-3.498127000686044319e-01+0.000000000000000000e+00j)  (0.000000000000000000e+00+1.675742758408642619e-01j)  (0.000000000000000000e+00+2.105800455649154745e+00j)
 (9.979999999999998872e-01+0.000000000000000000e+00j)  (0.000000000000000000e+00+0.000000000000000000e+00j)  (0.000000000000000000e+00+0.000000000000000000e+00j)  (-2.003955273071812964e-03+0.000000000000000000e+00j)  (-2.003955273071812964e-03+0.000000000000000000e+00j)  (-2.518244465601973681e-02+0.000000000000000000e+00j)  (-3.202021603810655259e-01+0.000000000000000000e+00j)  (0.000000000000000000e+00+1.597808780301517018e-01j)  (0.000000000000000000e+00+2.007865730414605476e+00j)
 (1.037919999999999954e+00+0.000000000000000000e+00j)  (0.000000000000000000e+00+0.000000000000000000e+00j)  (0.000000000000000000e+00+0.000000000000000000e+00j)  (3.618992708700751598e-02+0.000000000000000000e+00j)  (3.618992708700751598e-02+0.000000000000000000e+00j)  (4.547760362819722735e-01+0.000000000000000000e+00j)  (-2.764357908140139819e-01+0.000000000000000000e+00j)  (0.000000000000000000e+00+1.434591180008406575e-01j)  (0.000000000000000000e+00+1.802760444807649298e+00j)
 (1.077839999999999909e+00+0.000000000000000000e+00j)  (0.000000000000000000e+00+0.000000000000000000e+00j)  (0.000000000000000000e+00+0.000000000000000000e+00j)  (6.937361121149727972e-02+0.000000000000000000e+00j)  (6.937361121149727972e-02+0.000000000000000000e+00j)  (8.717745093401374490e-01+0.000000000000000000e+00j)  (-2.228643286275739377e-01+0.000000000000000000e+00j)  (0.000000000000000000e+00+1.201060439839720939e-01j)  (0.000000000000000000e+00+1.509297061727117306e+00j)
 (1.117759999999999865e+00+0.000000000000000000e+00j)  (0.000000000000000000e+00+0.000000000000000000e+00j)  (0.000000000000000000e+00+0.000000000000000000e+00j)  (9.600041990962780714e-02+0.000000000000000000e+00j)  (9.600041990962780714e-02+0.000000000000000000e+00j)  (1.206376855718488184e+00+0.000000000000000000e+00j)  (-1.636992045380263050e-01+0.000000000000000000e+00j)  (0.000000000000000000e+00+9.148821143221214092e-02j)  (0.000000000000000000e+00+1.149674771702029474e+00j)
 (1.157679999999999820e+00+0.000000000000000000e+00j)  (0.000000000000000000e+00+0.000000000000000000e+00j)  (0.000000000000000000e+00+0.000000000000000000e+00j)  (1.149899903649611171e-01+0.000000000000000000e+00j)  (1.149899903649611171e-01+0.000000000000000000e+00j)  (1.445006835867691741e+00+0.000000000000000000e+00j)  (-1.028604489110542392e-01+0.000000000000000000e+00j)  (0.000000000000000000e+00+5.953974224767462353e-02j)  (0.000000000000000000e+00+7.481984673676977948e-01j)
 (1.197599999999999998e+00+0.000000000000000000e+00j)  (0.000000000000000000e+00+0.000000000000000000e+00j)  (0.000000000000000000e+00+0.000000000000000000e+00j)  (1.257569501184157834e-01+0.000000000000000000e+00j)  (1.257569501184157834e-01+0.000000000000000000e+00j)  (1.580308442519492207e+00+0.000000000000000000e+00j)  (-4.384687783838402131e-02+0.000000000000000000e+00j)  (0.000000000000000000e+00+2.625551044962434744e-02j)  (0.000000000000000000e+00+3.299364749791596219e-01j)
 (1.237519999999999953e+00+0.000000000000000000e+00j)  (0.000000000000000000e+00+0.000000000000000000e+00j)  (0.000000000000000000e+00+0.000000000000000000e+00j)  (1.282127880331365710e-01+0.000000000000000000e+00j)  (1.282127880331365710e-01+0.000000000000000000e+00j)  (1.611169411924668893e+00+0.000000000000000000e+00j)  (1.036723981166762926e-02+0.000000000000000000e+00j)  (-0.000000000000000000e+00-6.414833305867458958e-03j)  (-0.000000000000000000e+00-8.061117275086533696e-02j)
 (1.277439999999999909e+00+0.000000000000000000e+00j)  (0.000000000000000000e+00+0.000000000000000000e+00j)  (0.000000000000000000e+00+0.000000000000000000e+00j)  (1.227418300256035433e-01+0.000000000000000000e+00j)  (1.227418300256035433e-01+0.000000000000000000e+00j)  (1.542419325986412737e+00+0.000000000000000000e+00j)  (5.740618545017486807e-02+0.000000000000000000e+00j)  (-0.000000000000000000e+00-3.666647877073568595e-02j)  (-0.000000000000000000e+00-4.607645613565973797e-01j)
 (1.317359999999999864e+00+0.000000000000000000e+00j)  (0.000000000000000000e+00+0.000000000000000000e+00j)  (0.000000000000000000e+00+0.000000000000000000e+00j)  (1.101535590192553871e-01+0.000000000000000000e+00j)  (1.101535590192553871e-01+0.000000000000000000e+00j)  (1.384230447126649555e+00+0.000000000000000000e+00j)  (9.553603882590419594e-02+0.000000000000000000e+00j)  (-0.000000000000000000e+00-6.292767805384655300e-02j)  (-0.000000000000000000e+00-7.907725243257121006e-01j)
 (1.357279999999999820e+00+0.000000000000000000e+00j)  (0.000000000000000000e+00+0.000000000000000000e+00j)  (0.000000000000000000e+00+0.000000000000000000e+00j)  (9.161469390315461758e-02+0.000000000000000000e+00j)  (9.161469390315461758e-02+0.000000000000000000e+00j)  (1.151264197308112580e+00+0.000000000000000000e+00j)  (1.236771736282020889e-01+0.000000000000000000e+00j)  (-0.000000000000000000e+00-8.393227711104306321e-02j)  (-0.000000000000000000e+00-1.054724100684462540e+00j)
 (1.397199999999999998e+00+0.000000000000000000e+00j)  (0.000000000000000000e+00+0.000000000000000000e+00j)  (0.000000000000000000e+00+0.000000000000000000e+00j)  (6.856540386750291372e-02+0.000000000000000000e+00j)  (6.856540386750291372e-02+0.000000000000000000e+00j)  (8.616182763222574037e-01+0.000000000000000000e+00j)  (1.413873688209155433e-01+0.000000000000000000e+00j)  (-0.000000000000000000e+00-9.877321585829160200e-02j)  (-0.000000000000000000e+00-1.241220837247390962e+00j)
 (1.437119999999999953e+00+0.000000000000000000e+00j)  (0.000000000000000000e+00+0.000000000000000000e+00j)  (0.000000000000000000e+00+0.000000000000000000e+00j)  (4.262473571194681787e-02+0.000000000000000000e+00j)  (4.262473571194681787e-02+0.000000000000000000e+00j)  (5.356382262954345608e-01+0.000000000000000000e+00j)  (1.488181467656455870e-01+0.000000000000000000e+00j)  (-0.000000000000000000e+00-1.069347675399222874e-01j)  (-0.000000000000000000e+00-1.343781920467008506e+00j)
 (1.477039999999999909e+00+0.000000000000000000e+00j)  (0.000000000000000000e+00+0.000000000000000000e+00j)  (0.000000000000000000e+00+0.000000000000000000e+00j)  (1.549074103173825670e-02+0.000000000000000000e+00j)  (1.549074103173825670e-02+0.000000000000000000e+00j)  (1.946623928958834959e-01+0.000000000000000000e+00j)  (1.466480163441572504e-01+0.000000000000000000e+00j)  (-0.000000000000000000e+00-1.083024930304870015e-01j)  (-0.000000000000000000e+00-1.360969265880150880e+00j)
 (1.516959999999999864e+00+0.000000000000000000e+00j)  (0.000000000000000000e+00+0.000000000000000000e+00j)  (0.000000000000000000e+00+0.000000000000000000e+00j)  (-1.115910744156528578e-02+0.000000000000000000e+00j)  (-1.115910744156528578e-02+0.000000000000000000e+00j)  (-1.402294798361627681e-01+0.000000000000000000e+00j)  (1.359971479013756535e-01+0.000000000000000000e+00j)  (-0.000000000000000000e+00-1.031511167402353879e-01j)  (-0.000000000000000000e+00-1.296235162242826533e+00j)
 (1.556879999999999820e+00+0.000000000000000000e+00j)  (0.000000000000000000e+00+0.000000000000000000e+00j)  (0.000000000000000000e+00+0.000000000000000000e+00j)  (-3.576182361404608295e-02+0.000000000000000000e+00j)  (-3.576182361404608295e-02+0.000000000000000000e+00j)  (-4.493963293794446257e-01+0.000000000000000000e+00j)  (1.183286059614061247e-01+0.000000000000000000e+00j)  (-0.000000000000000000e+00-9.211172002459697139e-02j)  (-0.000000000000000000e+00-1.157510011755174650e+00j)
 (1.596799999999999997e+00+0.000000000000000000e+00j)  (0.000000000000000000e+00+0.000000000000000000e+00j)  (0.000000000000000000e+00+0.000000000000000000e+00j)  (-5.695224202175735301e-02+0.000000000000000000e+00j)  (-5.695224202175735301e-02+0.000000000000000000e+00j)  (-7.156829805640831932e-01+0.000000000000000000e+00j)  (9.534159737986691585e-02+0.000000000000000000e+00j)  (-0.000000000000000000e+00-7.612073134808573782e-02j)  (-0.000000000000000000e+00-9.565613215561136196e-01j)
 (1.636719999999999953e+00+0.000000000000000000e+00j)  (0.000000000000000000e+00+0.000000000000000000e+00j)  (0.000000000000000000e+00+0.000000000000000000e+00j)  (-7.363162137491809089e-02+0.000000000000000000e+00j)  (-7.363162137491809089e-02+0.000000000000000000e+00j)  (-9.252822431333913578e-01+0.000000000000000000e+00j)  (6.886225240170852635e-02+0.000000000000000000e+00j)  (-0.000000000000000000e+00-5.635411287546219367e-02j)  (-0.000000000000000000e+00-7.081666680364879785e-01j)
 (1.676639999999999908e+00+0.000000000000000000e+00j)  (0.000000000000000000e+00+0.000000000000000000e+00j)  (0.000000000000000000e+00+0.000000000000000000e+00j)  (-8.501830762032973332e-02+0.000000000000000000e+00j)  (-8.501830762032973332e-02+0.000000000000000000e+00j)  (-1.068371562562659971e+00+0.000000000000000000e+00j)  (4.073725274440193750e-02+0.000000000000000000e+00j)  (-0.000000000000000000e+00-3.415085372068702579e-02j)  (-0.000000000000000000e+00-4.291522846509200351e-01j)
 (1.716559999999999864e+00+0.000000000000000000e+00j)  (0.000000000000000000e+00+0.000000000000000000e+00j)  (0.000000000000000000e+00+0.000000000000000000e+00j)  (-9.067834128819286799e-02+0.000000000000000000e+00j)  (-9.067834128819286799e-02+0.000000000000000000e+00j)  (-1.139497643322778808e+00+0.000000000000000000e+00j)  (1.273517544078793702e-02+0.000000000000000000e+00j)  (-0.000000000000000000e+00-1.093034637731946784e-02j)  (-0.000000000000000000e+00-1.373547835207146184e-01j)
 (1.756479999999999819e+00+0.000000000000000000e+00j)  (0.000000000000000000e+00+0.000000000000000000e+00j)  (0.000000000000000000e+00+0.000000000000000000e+00j)  (-9.053507274895487844e-02+0.000000000000000000e+00j)  (-9.053507274895487844e-02+0.000000000000000000e+00j)  (-1.137697277761336556e+00+0.000000000000000000e+00j)  (-1.354023420865683308e-02+0.000000000000000000e+00j)  (0.000000000000000000e+00+1.189157529141077543e-02j)  (0.000000000000000000e+00+1.494339423004239775e-01j)
 (1.796399999999999775e+00+0.000000000000000000e+00j)  (0.000000000000000000e+00+0.000000000000000000e+00j)  (0.000000000000000000e+00+0.000000000000000000e+00j)  (-8.485804464099791500e-02+0.000000000000000000e+00j)  (-8.485804464099791500e-02+0.000000000000000000e+00j)  (-1.066357638568615096e+00+0.000000000000000000e+00j)  (-3.672147159925686494e-02+0.000000000000000000e+00j)  (0.000000000000000000e+00+3.298322579045250696e-02j)  (0.000000000000000000e+00+4.144794393399159893e-01j)
 (1.836319999999999952e+00+0.000000000000000000e+00j)  (0.000000000000000000e+00+0.000000000000000000e+00j)  (0.000000000000000000e+00+0.000000000000000000e+00j)  (-7.423254648478457007e-02+0.000000000000000000e+00j)  (-7.423254648478457007e-02+0.000000000000000000e+00j)  (-9.328336907754480878e-01+0.000000000000000000e+00j)  (-5.573092044440920018e-02+0.000000000000000000e+00j)  (0.000000000000000000e+00+5.116990191523874965e-02j)  (0.000000000000000000e+00+6.430199517672973153e-01j)
 (1.876239999999999908e+00+0.000000000000000000e+00j)  (0.000000000000000000e+00+0.000000000000000000e+00j)  (0.000000000000000000e+00+0.000000000000000000e+00j)  (-5.951228004441265484e-02+0.000000000000000000e+00j)  (-5.951228004441265484e-02+0.000000000000000000e+00j)  (-7.478533671436209396e-01+0.000000000000000000e+00j)  (-6.981531116530652337e-02+0.000000000000000000e+00j)  (0.000000000000000000e+00+6.549513971039734594e-02j)  (0.000000000000000000e+00+8.230361990400857364e-01j)
 (1.916159999999999863e+00+0.000000000000000000e+00j)  (0.000000000000000000e+00+0.000000000000000000e+00j)  (0.000000000000000000e+00+0.000000000000000000e+00j)  (-4.175844071938282498e-02+0.000000000000000000e+00j)  (-4.175844071938282498e-02+0.000000000000000000e+00j)  (-5.247520423575118276e-01+0.000000000000000000e+00j)  (-7.856059413526685076e-02+0.000000000000000000e+00j)  (0.000000000000000000e+00+7.526733402911646442e-02j)  (0.000000000000000000e+00+9.458372145646453122e-01j)
 (1.956079999999999819e+00+0.000000000000000000e+00j)  (0.000000000000000000e+00+0.000000000000000000e+00j)  (0.000000000000000000e+00+0.000000000000000000e+00j)  (-2.216917614083914120e-02+0.000000000000000000e+00j)  (-2.216917614083914120e-02+0.000000000000000000e+00j)  (-2.785860836007934549e-01+0.000000000000000000e+00j)  (-8.188782877336278632e-02+0.000000000000000000e+00j)  (0.000000000000000000e+00+8.008957205349971631e-02j)  (0.000000000000000000e+00+1.006435244769700477e+00j)
 (1.995999999999999774e+00+0.000000000000000000e+00j)  (0.000000000000000000e+00+0.000000000000000000e+00j)  (0.000000000000000000e+00+0.000000000000000000e+00j)  (-2.003797049187710198e-03+0.000000000000000000e+00j)  (-2.003797049187710198e-03+0.000000000000000000e+00j)  (-2.518045635605206320e-02+0.000000000000000000e+00j)  (-8.003160351794889882e-02+0.000000000000000000e+00j)  (0.000000000000000000e+00+7.987154031091298068e-02j)  (0.000000000000000000e+00+1.003695377086660789e+00j)
 (2.035919999999999952e+00+0.000000000000000000e+00j)  (0.000000000000000000e+00+0.000000000000000000e+00j)  (0.000000000000000000e+00+0.000000000000000000e+00j)  (1.749372939030206797e-02+0.000000000000000000e+00j)  (1.749372939030206797e-02+0.000000000000000000e+00j)  (2.198326869458433197e-01+0.000000000000000000e+00j)  (-7.350329121068759075e-02+0.000000000000000000e+00j)  (0.000000000000000000e+00+7.482341032083153487e-02j)  (0.000000000000000000e+00+9.402587047218361471e-01j)
 (2.075839999999999907e+00+0.000000000000000000e+00j)  (0.000000000000000000e+00+0.000000000000000000e+00j)  (0.000000000000000000e+00+0.000000000000000000e+00j)  (3.516757929027150564e-02+0.000000000000000000e+00j)  (3.516757929027150564e-02+0.000000000000000000e+00j)  (4.419288349714139974e-01+0.000000000000000000e+00j)  (-6.304207572468603638e-02+0.000000000000000000e+00j)  (0.000000000000000000e+00+6.543263123616611943e-02j)  (0.000000000000000000e+00+8.222506943863581164e-01j)
 (2.115759999999999863e+00+0.000000000000000000e+00j)  (0.000000000000000000e+00+0.000000000000000000e+00j)  (0.000000000000000000e+00+0.000000000000000000e+00j)  (5.001509364688220410e-02+0.000000000000000000e+00j)  (5.001509364688220410e-02+0.000000000000000000e+00j)  (6.285082030786027785e-01+0.000000000000000000e+00j)  (-4.955713451568549005e-02+0.000000000000000000e+00j)  (0.000000000000000000e+00+5.242550146145335405e-02j)  (0.000000000000000000e+00+6.587982810082513296e-01j)
 (2.155679999999999819e+00+0.000000000000000000e+00j)  (0.000000000000000000e+00+0.000000000000000000e+00j)  (0.000000000000000000e+00+0.000000000000000000e+00j)  (6.124052539792864541e-02+0.000000000000000000e+00j)  (6.124052539792864541e-02+0.000000000000000000e+00j)  (7.695711387684470717e-01+0.000000000000000000e+00j)  (-3.406461417318532026e-02+0.000000000000000000e+00j)  (0.000000000000000000e+00+3.671620374042604967e-02j)  (0.000000000000000000e+00+4.613894237545143051e-01j)
 (2.195599999999999774e+00+0.000000000000000000e+00j)  (0.000000000000000000e+00+0.000000000000000000e+00j)  (0.000000000000000000e+00+0.000000000000000000e+00j)  (6.829477290948893220e-02+0.000000000000000000e+00j)  (6.829477290948893220e-02+0.000000000000000000e+00j)  (8.582174274041345363e-01+0.000000000000000000e+00j)  (-1.762308859613858497e-02+0.000000000000000000e+00j)  (0.000000000000000000e+00+1.934662666084093277e-02j)  (0.000000000000000000e+00+2.431168807577692437e-01j)
 (2.235519999999999730e+00+0.000000000000000000e+00j)  (0.000000000000000000e+00+0.000000000000000000e+00j)  (0.000000000000000000e+00+0.000000000000000000e+00j)  (7.089925312270498048e-02+0.000000000000000000e+00j)  (7.089925312270498048e-02+0.000000000000000000e+00j)  (8.909462910211727316e-01+0.000000000000000000e+00j)  (-1.271049062011669895e-03+0.000000000000000000e+00j)  (0.000000000000000000e+00+1.420727799554164080e-03j)  (0.000000000000000000e+00+1.785339207132061526e-02j)
 (2.275439999999999685e+00+0.000000000000000000e+00j)  (0.000000000000000000e+00+0.000000000000000000e+00j)  (0.000000000000000000e+00+0.000000000000000000e+00j)  (6.905304022042230150e-02+0.000000000000000000e+00j)  (6.905304022042230150e-02+0.000000000000000000e+00j)  (8.677460954580769048e-01+0.000000000000000000e+00j)  (1.403034126657584993e-02+0.000000000000000000e+00j)  (-0.000000000000000000e+00-1.596259986580867221e-02j)  (-0.000000000000000000e+00-2.005919458824717561e-01j)
 (2.315359999999999641e+00+0.000000000000000000e+00j)  (0.000000000000000000e+00+0.000000000000000000e+00j)  (0.000000000000000000e+00+0.000000000000000000e+00j)  (6.302339093719189211e-02+0.000000000000000000e+00j)  (6.302339093719189211e-02+0.000000000000000000e+00j)  (7.919752878903983939e-01+0.000000000000000000e+00j)  (2.744646405183330529e-02+0.000000000000000000e+00j)  (-0.000000000000000000e+00-3.177422250352637811e-02j)  (-0.000000000000000000e+00-3.992866559624237977e-01j)
 (2.355280000000000040e+00+0.000000000000000000e+00j)  (0.000000000000000000e+00+0.000000000000000000e+00j)  (0.000000000000000000e+00+0.000000000000000000e+00j)  (5.332073788514372220e-02+0.000000000000000000e+00j)  (5.332073788514372220e-02+0.000000000000000000e+00j)  (6.700481536958179385e-01+0.000000000000000000e+00j)  (3.830825739578044148e-02+0.000000000000000000e+00j)  (-0.000000000000000000e+00-4.511333623956687716e-02j)  (-0.000000000000000000e+00-5.669109028365979519e-01j)
 (2.395199999999999996e+00+0.000000000000000000e+00j)  (0.000000000000000000e+00+0.000000000000000000e+00j)  (0.000000000000000000e+00+0.000000000000000000e+00j)  (4.066010323301433305e-02+0.000000000000000000e+00j)  (4.066010323301433305e-02+0.000000000000000000e+00j)  (5.109499264441617061e-01+0.000000000000000000e+00j)  (4.613951744548439732e-02+0.000000000000000000e+00j)  (-0.000000000000000000e+00-5.525668609271212200e-02j)  (-0.000000000000000000e+00-6.943759963623268305e-01j)
 (2.435119999999999951e+00+0.000000000000000000e+00j)  (0.000000000000000000e+00+0.000000000000000000e+00j)  (0.000000000000000000e+00+0.000000000000000000e+00j)  (2.591161890249808059e-02+0.000000000000000000e+00j)  (2.591161890249808059e-02+0.000000000000000000e+00j)  (3.256150063468255529e-01+0.000000000000000000e+00j)  (5.067170061627575967e-02+0.000000000000000000e+00j)  (-0.000000000000000000e+00-6.169583580235269565e-02j)  (-0.000000000000000000e+00-7.752927380550135306e-01j)
 (2.475039999999999907e+00+0.000000000000000000e+00j)  (0.000000000000000000e+00+0.000000000000000000e+00j)  (0.000000000000000000e+00+0.000000000000000000e+00j)  (1.004339730329848433e-02+0.000000000000000000e+00j)  (1.004339730329848433e-02+0.000000000000000000e+00j)  (1.262090527405042295e-01+0.000000000000000000e+00j)  (5.184615694531140989e-02+0.000000000000000000e+00j)  (-0.000000000000000000e+00-6.416065614296176389e-02j)  (-0.000000000000000000e+00-8.062665839529180589e-01j)
 (2.514959999999999862e+00+0.000000000000000000e+00j)  (0.000000000000000000e+00+0.000000000000000000e+00j)  (0.000000000000000000e+00+0.000000000000000000e+00j)  (-5.939649258627269744e-03+0.000000000000000000e+00j)  (-5.939649258627269744e-03+0.000000000000000000e+00j)  (-7.463983390321396461e-02+0.000000000000000000e+00j)  (4.980441103463530833e-02+0.000000000000000000e+00j)  (-0.000000000000000000e+00-6.262805078783320600e-02j)  (-0.000000000000000000e+00-7.870072970548210867e-01j)
 (2.554879999999999818e+00+0.000000000000000000e+00j)  (0.000000000000000000e+00+0.000000000000000000e+00j)  (0.000000000000000000e+00+0.000000000000000000e+00j)  (-2.105730735454795430e-02+0.000000000000000000e+00j)  (-2.105730735454795430e-02+0.000000000000000000e+00j)  (-2.646139283577206847e-01+0.000000000000000000e+00j)  (4.486772424702122064e-02+0.000000000000000000e+00j)  (-0.000000000000000000e+00-5.731582566211478741e-02j)  (-0.000000000000000000e+00-7.202519073381326020e-01j)
 (2.594799999999999773e+00+0.000000000000000000e+00j)  (0.000000000000000000e+00+0.000000000000000000e+00j)  (0.000000000000000000e+00+0.000000000000000000e+00j)  (-3.441223266154069121e-02+0.000000000000000000e+00j)  (-3.441223266154069121e-02+0.000000000000000000e+00j)  (-4.324368692924759339e-01+0.000000000000000000e+00j)  (3.750769064666267805e-02+0.000000000000000000e+00j)  (-0.000000000000000000e+00-4.866247784498015788e-02j)  (-0.000000000000000000e+00-6.115107316130629078e-01j)
 (2.634719999999999729e+00+0.000000000000000000e+00j)  (0.000000000000000000e+00+0.000000000000000000e+00j)  (0.000000000000000000e+00+0.000000000000000000e+00j)  (-4.524144221014279182e-02+0.000000000000000000e+00j)  (-4.524144221014279182e-02+0.000000000000000000e+00j)  (-5.685207299407670778e-01+0.000000000000000000e+00j)  (2.831001653012370223e-02+0.000000000000000000e+00j)  (-0.000000000000000000e+00-3.729448337612375347e-02j)  (-0.000000000000000000e+00-4.686562999754282366e-01j)
 (2.674639999999999684e+00+0.000000000000000000e+00j)  (0.000000000000000000e+00+0.000000000000000000e+00j)  (0.000000000000000000e+00+0.000000000000000000e+00j)  (-5.295826482728647339e-02+0.000000000000000000e+00j)  (-5.295826482728647339e-02+0.000000000000000000e+00j)  (-6.654931829130635856e-01+0.000000000000000000e+00j)  (1.793389366709591606e-02+0.000000000000000000e+00j)  (-0.000000000000000000e+00-2.398335467888070352e-02j)  (-0.000000000000000000e+00-3.013837234704400680e-01j)
 (2.714559999999999640e+00+0.000000000000000000e+00j)  (0.000000000000000000e+00+0.000000000000000000e+00j)  (0.000000000000000000e+00+0.000000000000000000e+00j)  (-5.718252690697685214e-02+0.000000000000000000e+00j)  (-5.718252690697685214e-02+0.000000000000000000e+00j)  (-7.185768257786366853e-01+0.000000000000000000e+00j)  (7.069491987113700471e-03+0.000000000000000000e+00j)  (-0.000000000000000000e+00-9.595280084269682680e-03j)  (-0.000000000000000000e+00-1.205778456875123555e-01j)
 (2.754479999999999595e+00+0.000000000000000000e+00j)  (0.000000000000000000e+00+0.000000000000000000e+00j)  (0.000000000000000000e+00+0.000000000000000000e+00j)  (-5.775750567581423855e-02+0.000000000000000000e+00j)  (-5.775750567581423855e-02+0.000000000000000000e+00j)  (-7.258022220832351934e-01+0.000000000000000000e+00j)  (-3.603931064054956106e-03+0.000000000000000000e+00j)  (0.000000000000000000e+00+4.963478018659046864e-03j)  (0.000000000000000000e+00+6.237290431869473017e-02j)
 (2.794399999999999995e+00+0.000000000000000000e+00j)  (0.000000000000000000e+00+0.000000000000000000e+00j)  (0.000000000000000000e+00+0.000000000000000000e+00j)  (-5.475300425753296812e-02+0.000000000000000000e+00j)  (-5.475300425753296812e-02+0.000000000000000000e+00j)  (-6.880465437497449432e-01+0.000000000000000000e+00j)  (-1.345697163615475894e-02+0.000000000000000000e+00j)  (0.000000000000000000e+00+1.880208077003543005e-02j)  (0.000000000000000000e+00+2.362739152773808970e-01j)
 (2.834319999999999951e+00+0.000000000000000000e+00j)  (0.000000000000000000e+00+0.000000000000000000e+00j)  (0.000000000000000000e+00+0.000000000000000000e+00j)  (-4.845474225206049257e-02+0.000000000000000000e+00j)  (-4.845474225206049257e-02+0.000000000000000000e+00j)  (-6.089002491626407387e-01+0.000000000000000000e+00j)  (-2.194402312943914343e-02+0.000000000000000000e+00j)  (0.000000000000000000e+00+3.109819181811597846e-02j)  (0.000000000000000000e+00+3.907914038228774700e-01j)
 (2.874239999999999906e+00+0.000000000000000000e+00j)  (0.000000000000000000e+00+0.000000000000000000e+00j)  (0.000000000000000000e+00+0.000000000000000000e+00j)  (-3.934106251698493012e-02+0.000000000000000000e+00j)  (-3.934106251698493012e-02+0.000000000000000000e+00j)  (-4.943743719511065615e-01+0.000000000000000000e+00j)  (-2.863055882035092300e-02+0.000000000000000000e+00j)  (0.000000000000000000e+00+4.114554869190271968e-02j)  (0.000000000000000000e+00+5.170502139936108410e-01j)
 (2.914159999999999862e+00+0.000000000000000000e+00j)  (0.000000000000000000e+00+0.000000000000000000e+00j)  (0.000000000000000000e+00+0.000000000000000000e+00j)  (-2.804868267619432462e-02+0.000000000000000000e+00j)  (-2.804868267619432462e-02+0.000000000000000000e+00j)  (-3.524701417536135195e-01+0.000000000000000000e+00j)  (-3.321254798694647792e-02+0.000000000000000000e+00j)  (0.000000000000000000e+00+4.839333942081996964e-02j)  (0.000000000000000000e+00+6.081286384285014002e-01j)
 (2.954079999999999817e+00+0.000000000000000000e+00j)  (0.000000000000000000e+00+0.000000000000000000e+00j)  (0.000000000000000000e+00+0.000000000000000000e+00j)  (-1.532982756999098049e-02+0.000000000000000000e+00j)  (-1.532982756999098049e-02+0.000000000000000000e+00j)  (-1.926402946987277320e-01+0.000000000000000000e+00j)  (-3.552730331792949836e-02+0.000000000000000000e+00j)  (0.000000000000000000e+00+5.247524809271457424e-02j)  (0.000000000000000000e+00+6.594234156134956004e-01j)
 (2.993999999999999773e+00+0.000000000000000000e+00j)  (0.000000000000000000e+00+0.000000000000000000e+00j)  (0.000000000000000000e+00+0.000000000000000000e+00j)  (-2.003533359371035584e-03+0.000000000000000000e+00j)  (-2.003533359371035584e-03+0.000000000000000000e+00j)  (-2.517714273208849704e-02+0.000000000000000000e+00j)  (-3.555557594553090256e-02+0.000000000000000000e+00j)  (0.000000000000000000e+00+5.322669719045975550e-02j)  (0.000000000000000000e+00+6.688664034735873898e-01j)
 (3.033919999999999728e+00+0.000000000000000000e+00j)  (0.000000000000000000e+00+0.000000000000000000e+00j)  (0.000000000000000000e+00+0.000000000000000000e+00j)  (1.109580799937790428e-02+0.000000000000000000e+00j)  (1.109580799937790428e-02+0.000000000000000000e+00j)  (1.394340355859539360e-01+0.000000000000000000e+00j)  (-3.341521887412979286e-02+0.000000000000000000e+00j)  (0.000000000000000000e+00+5.068955042329992278e-02j)  (0.000000000000000000e+00+6.369836768944336924e-01j)
 (3.073839999999999684e+00+0.000000000000000000e+00j)  (0.000000000000000000e+00+0.000000000000000000e+00j)  (0.000000000000000000e+00+0.000000000000000000e+00j)  (2.316950608206022263e-02+0.000000000000000000e+00j)  (2.316950608206022263e-02+0.000000000000000000e+00j)  (2.911566003788176871e-01+0.000000000000000000e+00j)  (-2.934720247767003826e-02+0.000000000000000000e+00j)  (0.000000000000000000e+00+4.510430243198063766e-02j)  (0.000000000000000000e+00+5.667973806624103661e-01j)
 (3.113759999999999639e+00+0.000000000000000000e+00j)  (0.000000000000000000e+00+0.000000000000000000e+00j)  (0.000000000000000000e+00+0.000000000000000000e+00j)  (3.350217406482916549e-02+0.000000000000000000e+00j)  (3.350217406482916549e-02+0.000000000000000000e+00j)  (4.210007356854151839e-01+0.000000000000000000e+00j)  (-2.369516314982023433e-02+0.000000000000000000e+00j)  (0.000000000000000000e+00+3.689052560469212316e-02j)  (0.000000000000000000e+00+4.635800169070676824e-01j)
 (3.153679999999999595e+00+0.000000000000000000e+00j)  (0.000000000000000000e+00+0.000000000000000000e+00j)  (0.000000000000000000e+00+0.000000000000000000e+00j)  (4.150309886826249184e-02+0.000000000000000000e+00j)  (4.150309886826249184e-02+0.000000000000000000e+00j)  (5.215433220229771516e-01+0.000000000000000000e+00j)  (-1.687997878148597697e-02+0.000000000000000000e+00j)  (0.000000000000000000e+00+2.661702574179834399e-02j)  (0.000000000000000000e+00+3.344794101233763417e-01j)
 (3.193599999999999994e+00+0.000000000000000000e+00j)  (0.000000000000000000e+00+0.000000000000000000e+00j)  (0.000000000000000000e+00+0.000000000000000000e+00j)  (4.673904208740724264e-02+0.000000000000000000e+00j)  (4.673904208740724264e-02+0.000000000000000000e+00j)  (5.873401250304909338e-01+0.000000000000000000e+00j)  (-9.371078696230902491e-03+0.000000000000000000e+00j)  (0.000000000000000000e+00+1.496373846214150462e-02j)  (0.000000000000000000e+00+1.880398832916111151e-01j)
 (3.233519999999999950e+00+0.000000000000000000e+00j)  (0.000000000000000000e+00+0.000000000000000000e+00j)  (0.000000000000000000e+00+0.000000000000000000e+00j)  (4.895670314980320875e-02+0.000000000000000000e+00j)  (4.895670314980320875e-02+0.000000000000000000e+00j)  (6.152080758375921832e-01+0.000000000000000000e+00j)  (-1.656303245610996414e-03+0.000000000000000000e+00j)  (0.000000000000000000e+00+2.677844835374035108e-03j)  (0.000000000000000000e+00+3.365079064905774492e-02j)
 (3.273439999999999905e+00+0.000000000000000000e+00j)  (0.000000000000000000e+00+0.000000000000000000e+00j)  (0.000000000000000000e+00+0.000000000000000000e+00j)  (4.809373756833051905e-02+0.000000000000000000e+00j)  (4.809373756833051905e-02+0.000000000000000000e+00j)  (6.043637305133703341e-01+0.000000000000000000e+00j)  (5.787872037574485519e-03+0.000000000000000000e+00j)  (-0.000000000000000000e+00-9.473125921338910321e-03j)  (-0.000000000000000000e+00-1.190428112040374520e-01j)
 (3.313359999999999861e+00+0.000000000000000000e+00j)  (0.000000000000000000e+00+0.000000000000000000e+00j)  (0.000000000000000000e+00+0.000000000000000000e+00j)  (4.427793587814103649e-02+0.000000000000000000e+00j)  (4.427793587814103649e-02+0.000000000000000000e+00j)  (5.564129522835512542e-01+0.000000000000000000e+00j)  (1.252403640100826533e-02+0.000000000000000000e+00j)  (-0.000000000000000000e+00-2.074832062482236811e-02j)  (-0.000000000000000000e+00-2.607310865970701719e-01j)
 (3.353279999999999816e+00+0.000000000000000000e+00j)  (0.000000000000000000e+00+0.000000000000000000e+00j)  (0.000000000000000000e+00+0.000000000000000000e+00j)  (3.781488928505711417e-02+0.000000000000000000e+00j)  (3.781488928505711417e-02+0.000000000000000000e+00j)  (4.751959134969871990e-01+0.000000000000000000e+00j)  (1.817795324408041924e-02+0.000000000000000000e+00j)  (-0.000000000000000000e+00-3.047788352715499055e-02j)  (-0.000000000000000000e+00-3.829963799435019411e-01j)
 (3.393199999999999772e+00+0.000000000000000000e+00j)  (0.000000000000000000e+00+0.000000000000000000e+00j)  (0.000000000000000000e+00+0.000000000000000000e+00j)  (2.916515306470926841e-02+0.000000000000000000e+00j)  (2.916515306470926841e-02+0.000000000000000000e+00j)  (3.665001224356498888e-01+0.000000000000000000e+00j)  (2.245783882748718027e-02+0.000000000000000000e+00j)  (-0.000000000000000000e+00-3.810196935471475005e-02j)  (-0.000000000000000000e+00-4.788034680483010952e-01j)
 (3.433119999999999727e+00+0.000000000000000000e+00j)  (0.000000000000000000e+00+0.000000000000000000e+00j)  (0.000000000000000000e+00+0.000000000000000000e+00j)  (1.891252818639041142e-02+0.000000000000000000e+00j)  (1.891252818639041142e-02+0.000000000000000000e+00j)  (2.376618384446960441e-01+0.000000000000000000e+00j)  (2.516790406321662080e-02+0.000000000000000000e+00j)  (-0.000000000000000000e+00-4.320221739875511335e-02j)  (-0.000000000000000000e+00-5.428950751948729003e-01j)
 (3.473039999999999683e+00+0.000000000000000000e+00j)  (0.000000000000000000e+00+0.000000000000000000e+00j)  (0.000000000000000000e+00+0.000000000000000000e+00j)  (7.725580659371552271e-03+0.000000000000000000e+00j)  (7.725580659371552271e-03+0.000000000000000000e+00j)  (9.708250977678824223e-02+0.000000000000000000e+00j)  (2.621562468991634962e-02+0.000000000000000000e+00j)  (-0.000000000000000000e+00-4.552395658653353439e-02j)  (-0.000000000000000000e+00-5.720709102983776440e-01j)
 (3.512959999999999638e+00+0.000000000000000000e+00j)  (0.000000000000000000e+00+0.000000000000000000e+00j)  (0.000000000000000000e+00+0.000000000000000000e+00j)  (-3.685120836599913106e-03+0.000000000000000000e+00j)  (-3.685120836599913106e-03+0.000000000000000000e+00j)  (-4.630859419141183930e-02+0.000000000000000000e+00j)  (2.561259173039283701e-02+0.000000000000000000e+00j)  (-0.000000000000000000e+00-4.498800512260040657e-02j)  (-0.000000000000000000e+00-5.653359455712856363e-01j)
 (3.552879999999999594e+00+0.000000000000000000e+00j)  (0.000000000000000000e+00+0.000000000000000000e+00j)  (0.000000000000000000e+00+0.000000000000000000e+00j)  (-1.461136413580299553e-02+0.000000000000000000e+00j)  (-1.461136413580299553e-02+0.000000000000000000e+00j)  (-1.836118169118562404e-01+0.000000000000000000e+00j)  (2.346917306413813520e-02+0.000000000000000000e+00j)  (-0.000000000000000000e+00-4.169157779805755110e-02j)  (-0.000000000000000000e+00-5.239118181077796477e-01j)
 (3.592799999999999550e+00+0.000000000000000000e+00j)  (0.000000000000000000e+00+0.000000000000000000e+00j)  (0.000000000000000000e+00+0.000000000000000000e+00j)  (-2.439052610278123409e-02+0.000000000000000000e+00j)  (-2.439052610278123409e-02+0.000000000000000000e+00j)  (-3.065003904867504292e-01+0.000000000000000000e+00j)  (1.998356685998222901e-02+0.000000000000000000e+00j)  (-0.000000000000000000e+00-3.589847950727207554e-02j)  (-0.000000000000000000e+00-4.511135979803588270e-01j)
 (3.632719999999999949e+00+0.000000000000000000e+00j)  (0.000000000000000000e+00+0.000000000000000000e+00j)  (0.000000000000000000e+00+0.000000000000000000e+00j)  (-3.244508111634413633e-02+0.000000000000000000e+00j)  (-3.244508111634413633e-02+0.000000000000000000e+00j)  (-4.077169139209266824e-01+0.000000000000000000e+00j)  (1.542612960996196138e-02+0.000000000000000000e+00j)  (-0.000000000000000000e+00-2.801940477835051027e-02j)  (-0.000000000000000000e+00-3.521022248384989006e-01j)
 (3.672639999999999905e+00+0.000000000000000000e+00j)  (0.000000000000000000e+00+0.000000000000000000e+00j)  (0.000000000000000000e+00+0.000000000000000000e+00j)  (-3.831606809021055604e-02+0.000000000000000000e+00j)  (-3.831606809021055604e-02+0.000000000000000000e+00j)  (-4.814939121066070249e-01+0.000000000000000000e+00j)  (1.012010014852922184e-02+0.000000000000000000e+00j)  (-0.000000000000000000e+00-1.858374230474718267e-02j)  (-0.000000000000000000e+00-2.335301932031983718e-01j)
 (3.712559999999999860e+00+0.000000000000000000e+00j)  (0.000000000000000000e+00+0.000000000000000000e+00j)  (0.000000000000000000e+00+0.000000000000000000e+00j)  (-4.168861245863176440e-02+0.000000000000000000e+00j)  (-4.168861245863176440e-02+0.000000000000000000e+00j)  (-5.238745545535579140e-01+0.000000000000000000e+00j)  (4.420005099957616257e-03+0.000000000000000000e+00j)  (-0.000000000000000000e+00-8.204767066949324519e-03j)  (-0.000000000000000000e+00-1.031041437677738815e-01j)
 (3.752479999999999816e+00+0.000000000000000000e+00j)  (0.000000000000000000e+00+0.000000000000000000e+00j)  (0.000000000000000000e+00+0.000000000000000000e+00j)  (-4.240811981180393764e-02+0.000000000000000000e+00j)  (-4.240811981180393764e-02+0.000000000000000000e+00j)  (-5.329161506132760184e-01+0.000000000000000000e+00j)  (-1.310885868944791904e-03+0.000000000000000000e+00j)  (0.000000000000000000e+00+2.459536502748975711e-03j)  (0.000000000000000000e+00+3.090744723308845934e-02j)
 (3.792399999999999771e+00+0.000000000000000000e+00j)  (0.000000000000000000e+00+0.000000000000000000e+00j)  (0.000000000000000000e+00+0.000000000000000000e+00j)  (-4.048635113498383342e-02+0.000000000000000000e+00j)  (-4.048635113498383342e-02+0.000000000000000000e+00j)  (-5.087664931852879935e-01+0.000000000000000000e+00j)  (-6.722686450109371069e-03+0.000000000000000000e+00j)  (0.000000000000000000e+00+1.274755804669739159e-02j)  (0.000000000000000000e+00+1.601905388428558896e-01j)
 (3.832319999999999727e+00+0.000000000000000000e+00j)  (0.000000000000000000e+00+0.000000000000000000e+00j)  (0.000000000000000000e+00+0.000000000000000000e+00j)  (-3.609721875355755005e-02+0.000000000000000000e+00j)  (-3.609721875355755005e-02+0.000000000000000000e+00j)  (-4.536110290048003812e-01+0.000000000000000000e+00j)  (-1.149931264989200244e-02+0.000000000000000000e+00j)  (0.000000000000000000e+00+2.203452292721705397e-02j)  (0.000000000000000000e+00+2.768939814140038425e-01j)
 (3.872239999999999682e+00+0.000000000000000000e+00j)  (0.000000000000000000e+00+0.000000000000000000e+00j)  (0.000000000000000000e+00+0.000000000000000000e+00j)  (-2.956276852423573437e-02+0.000000000000000000e+00j)  (-2.956276852423573437e-02+0.000000000000000000e+00j)  (-3.714967056620582242e-01+0.000000000000000000e+00j)  (-1.537605662040972786e-02+0.000000000000000000e+00j)  (0.000000000000000000e+00+2.976989074390767182e-02j)  (0.000000000000000000e+00+3.740994802369245198e-01j)
 (3.912159999999999638e+00+0.000000000000000000e+00j)  (0.000000000000000000e+00+0.000000000000000000e+00j)  (0.000000000000000000e+00+0.000000000000000000e+00j)  (-2.133039983374886150e-02+0.000000000000000000e+00j)  (-2.133039983374886150e-02+0.000000000000000000e+00j)  (-2.680457096633534486e-01+0.000000000000000000e+00j)  (-1.815338959889112314e-02+0.000000000000000000e+00j)  (0.000000000000000000e+00+3.550948232659893733e-02j)  (0.000000000000000000e+00+4.462253152400793565e-01j)
 (3.952079999999999593e+00+0.000000000000000000e+00j)  (0.000000000000000000e+00+0.000000000000000000e+00j)  (0.000000000000000000e+00+0.000000000000000000e+00j)  (-1.194288599397828193e-02+0.000000000000000000e+00j)  (-1.194288599397828193e-02+0.000000000000000000e+00j)  (-1.500787316053704412e-01+0.000000000000000000e+00j)  (-1.970632603028884058e-02+0.000000000000000000e+00j)  (0.000000000000000000e+00+3.894048848889196390e-02j)  (0.000000000000000000e+00+4.893406102556035475e-01j)
 (3.991999999999999549e+00+0.000000000000000000e+00j)  (0.000000000000000000e+00+0.000000000000000000e+00j)  (0.000000000000000000e+00+0.000000000000000000e+00j)  (-2.003164228605484789e-03+0.000000000000000000e+00j)  (-2.003164228605484789e-03+0.000000000000000000e+00j)  (-2.517250409808342512e-02+0.000000000000000000e+00j)  (-1.998896803893494487e-02+0.000000000000000000e+00j)  (0.000000000000000000e+00+3.989798020571413972e-02j)  (0.000000000000000000e+00+5.013728060293700661e-01j)
 (4.031919999999999504e+00+0.000000000000000000e+00j)  (0.000000000000000000e+00+0.000000000000000000e+00j)  (0.000000000000000000e+00+0.000000000000000000e+00j)  (7.863855971188960306e-03+0.000000000000000000e+00j)  (7.863855971188960306e-03+0.000000000000000000e+00j)  (9.882012859190186793e-02+0.000000000000000000e+00j)  (-1.903414797707377384e-02+0.000000000000000000e+00j)  (0.000000000000000000e+00+3.837208095586163575e-02j)  (0.000000000000000000e+00+4.821977905355508964e-01j)
 (4.071839999999999904e+00+0.000000000000000000e+00j)  (0.000000000000000000e+00+0.000000000000000000e+00j)  (0.000000000000000000e+00+0.000000000000000000e+00j)  (1.705007932407840224e-02+0.000000000000000000e+00j)  (1.705007932407840224e-02+0.000000000000000000e+00j)  (2.142576157905917433e-01+0.000000000000000000e+00j)  (-1.694837900507457570e-02+0.000000000000000000e+00j)  (0.000000000000000000e+00+3.450554378401143873e-02j)  (0.000000000000000000e+00+4.336094514398851074e-01j)
 (4.111759999999999415e+00+0.000000000000000000e+00j)  (0.000000000000000000e+00+0.000000000000000000e+00j)  (0.000000000000000000e+00+0.000000000000000000e+00j)  (2.500122855397633390e-02+0.000000000000000000e+00j)  (2.500122855397633390e-02+0.000000000000000000e+00j)  (3.141747038235656597e-01+0.000000000000000000e+00j)  (-1.390259274093197037e-02+0.000000000000000000e+00j)  (0.000000000000000000e+00+2.858206236422721966e-02j)  (0.000000000000000000e+00+3.591727885916061735e-01j)
 (4.151679999999999815e+00+0.000000000000000000e+00j)  (0.000000000000000000e+00+0.000000000000000000e+00j)  (0.000000000000000000e+00+0.000000000000000000e+00j)  (3.124984132580117119e-02+0.000000000000000000e+00j)  (3.124984132580117119e-02+0.000000000000000000e+00j)  (3.926970877399347248e-01+0.000000000000000000e+00j)  (-1.011937408040519508e-02+0.000000000000000000e+00j)  (0.000000000000000000e+00+2.100620149106831661e-02j)  (0.000000000000000000e+00+2.639717131366687841e-01j)
 (4.191599999999999326e+00+0.000000000000000000e+00j)  (0.000000000000000000e+00+0.000000000000000000e+00j)  (0.000000000000000000e+00+0.000000000000000000e+00j)  (3.544232164798404028e-02+0.000000000000000000e+00j)  (3.544232164798404028e-02+0.000000000000000000e+00j)  (4.453813492618926007e-01+0.000000000000000000e+00j)  (-5.857584187641943531e-03+0.000000000000000000e+00j)  (0.000000000000000000e+00+1.227632494045998411e-02j)  (0.000000000000000000e+00+1.542688489841209654e-01j)
 (4.231519999999999726e+00+0.000000000000000000e+00j)  (0.000000000000000000e+00+0.000000000000000000e+00j)  (0.000000000000000000e+00+0.000000000000000000e+00j)  (3.735850507631672396e-02+0.000000000000000000e+00j)  (3.735850507631672396e-02+0.000000000000000000e+00j)  (4.694608203874144348e-01+0.000000000000000000e+00j)  (-1.395384583166053372e-03+0.000000000000000000e+00j)  (0.000000000000000000e+00+2.952298885679408621e-03j)  (0.000000000000000000e+00+3.709968196180705308e-02j)
 (4.271440000000000126e+00+0.000000000000000000e+00j)  (0.000000000000000000e+00+0.000000000000000000e+00j)  (0.000000000000000000e+00+0.000000000000000000e+00j)  (3.692268144701104510e-02+0.000000000000000000e+00j)  (3.692268144701104510e-02+0.000000000000000000e+00j)  (4.639840991390642433e-01+0.000000000000000000e+00j)  (2.987266855864996202e-03+0.000000000000000000e+00j)  (-0.000000000000000000e+00-6.379965569407989971e-03j)  (-0.000000000000000000e+00-8.017301185203185021e-02j)
 (4.311359999999999637e+00+0.000000000000000000e+00j)  (0.000000000000000000e+00+0.000000000000000000e+00j)  (0.000000000000000000e+00+0.000000000000000000e+00j)  (3.420555875432690351e-02+0.000000000000000000e+00j)  (3.420555875432690351e-02+0.000000000000000000e+00j)  (4.298397283781097422e-01+0.000000000000000000e+00j)  (7.025584478392461578e-03+0.000000000000000000e+00j)  (-0.000000000000000000e+00-1.514491194838105820e-02j)  (-0.000000000000000000e+00-1.903165764651928715e-01j)
 (4.351280000000000037e+00+0.000000000000000000e+00j)  (0.000000000000000000e+00+0.000000000000000000e+00j)  (0.000000000000000000e+00+0.000000000000000000e+00j)  (2.941721345209165686e-02+0.000000000000000000e+00j)  (2.941721345209165686e-02+0.000000000000000000e+00j)  (3.696676066806959260e-01+0.000000000000000000e+00j)  (1.048539434139354742e-02+0.000000000000000000e+00j)  (-0.000000000000000000e+00-2.281244334490945685e-02j)  (-0.000000000000000000e+00-2.866696176912036931e-01j)
 (4.391199999999999548e+00+0.000000000000000000e+00j)  (0.000000000000000000e+00+0.000000000000000000e+00j)  (0.000000000000000000e+00+0.000000000000000000e+00j)  (2.289162143799932519e-02+0.000000000000000000e+00j)  (2.289162143799932519e-02+0.000000000000000000e+00j)  (2.876645989535092096e-01+0.000000000000000000e+00j)  (1.317617698773133721e-02+0.000000000000000000e+00j)  (-0.000000000000000000e+00-2.892961419426291758e-02j)  (-0.000000000000000000e+00-3.635402536955335551e-01j)
 (4.431119999999999948e+00+0.000000000000000000e+00j)  (0.000000000000000000e+00+0.000000000000000000e+00j)  (0.000000000000000000e+00+0.000000000000000000e+00j)  (1.506386716546650843e-02+0.000000000000000000e+00j)  (1.506386716546650843e-02+0.000000000000000000e+00j)  (1.892981376867283183e-01+0.000000000000000000e+00j)  (1.496101892188591263e-02+0.000000000000000000e+00j)  (-0.000000000000000000e+00-3.314703508257355047e-02j)  (-0.000000000000000000e+00-4.165379276147848642e-01j)
 (4.471039999999999459e+00+0.000000000000000000e+00j)  (0.000000000000000000e+00+0.000000000000000000e+00j)  (0.000000000000000000e+00+0.000000000000000000e+00j)  (6.441555942102079359e-03+0.000000000000000000e+00j)  (6.441555942102079359e-03+0.000000000000000000e+00j)  (8.094697930158228916e-02+0.000000000000000000e+00j)  (1.576298634155857276e-02+0.000000000000000000e+00j)  (-0.000000000000000000e+00-3.523847122628101514e-02j)  (-0.000000000000000000e+00-4.428196893128789613e-01j)
 (4.510959999999999859e+00+0.000000000000000000e+00j)  (0.000000000000000000e+00+0.000000000000000000e+00j)  (0.000000000000000000e+00+0.000000000000000000e+00j)  (-2.427718183165678955e-03+0.000000000000000000e+00j)  (-2.427718183165678955e-03+0.000000000000000000e+00j)  (-3.050760643687862664e-02+0.000000000000000000e+00j)  (1.556766454254088564e-02+0.000000000000000000e+00j)  (-0.000000000000000000e+00-3.511255602241011853e-02j)  (-0.000000000000000000e+00-4.412373921950546451e-01j)
 (4.550879999999999370e+00+0.000000000000000000e+00j)  (0.000000000000000000e+00+0.000000000000000000e+00j)  (0.000000000000000000e+00+0.000000000000000000e+00j)  (-1.099078767934818374e-02+0.000000000000000000e+00j)  (-1.099078767934818374e-02+0.000000000000000000e+00j)  (-1.381143113224218566e-01+0.000000000000000000e+00j)  (1.442184369553556507e-02+0.000000000000000000e+00j)  (-0.000000000000000000e+00-3.281604001856944230e-02j)  (-0.000000000000000000e+00-4.123785209689856401e-01j)
 (4.590799999999999770e+00+0.000000000000000000e+00j)  (0.000000000000000000e+00+0.000000000000000000e+00j)  (0.000000000000000000e+00+0.000000000000000000e+00j)  (-1.872306901119205613e-02+0.000000000000000000e+00j)  (-1.872306901119205613e-02+0.000000000000000000e+00j)  (-2.352810242328627066e-01+0.000000000000000000e+00j)  (1.242856214319605634e-02+0.000000000000000000e+00j)  (-0.000000000000000000e+00-2.852852154349222458e-02j)  (-0.000000000000000000e+00-3.584999747952533067e-01j)
 (4.630719999999999281e+00+0.000000000000000000e+00j)  (0.000000000000000000e+00+0.000000000000000000e+00j)  (0.000000000000000000e+00+0.000000000000000000e+00j)  (-2.516037364614340938e-02+0.000000000000000000e+00j)  (-2.516037364614340938e-02+0.000000000000000000e+00j)  (-3.161745800331934864e-01+0.000000000000000000e+00j)  (9.738928591463731285e-03+0.000000000000000000e+00j)  (-0.000000000000000000e+00-2.254912570353145851e-02j)  (-0.000000000000000000e+00-2.833606706203488090e-01j)
 (4.670639999999999681e+00+0.000000000000000000e+00j)  (0.000000000000000000e+00+0.000000000000000000e+00j)  (0.000000000000000000e+00+0.000000000000000000e+00j)  (-2.992646268759497491e-02+0.000000000000000000e+00j)  (-2.992646268759497491e-02+0.000000000000000000e+00j)  (-3.760670213091097391e-01+0.000000000000000000e+00j)  (6.541322798762351856e-03+0.000000000000000000e+00j)  (-0.000000000000000000e+00-1.527608195840569373e-02j)  (-0.000000000000000000e+00-1.919649074246516374e-01j)
 (4.710560000000000080e+00+0.000000000000000000e+00j)  (0.000000000000000000e+00+0.000000000000000000e+00j)  (0.000000000000000000e+00+0.000000000000000000e+00j)  (-3.275472760948835993e-02+0.000000000000000000e+00j)  (-3.275472760948835993e-02+0.000000000000000000e+00j)  (-4.116080465132135879e-01+0.000000000000000000e+00j)  (3.048711086883085751e-03+0.000000000000000000e+00j)  (-0.000000000000000000e+00-7.180568248713994732e-03j)  (-0.000000000000000000e+00-9.023368183504004714e-02j)
 (4.750479999999999592e+00+0.000000000000000000e+00j)  (0.000000000000000000e+00+0.000000000000000000e+00j)  (0.000000000000000000e+00+0.000000000000000000e+00j)  (-3.350276588249958415e-02+0.000000000000000000e+00j)  (-3.350276588249958415e-02+0.000000000000000000e+00j)  (-4.210081726855978146e-01+0.000000000000000000e+00j)  (-5.150985560763694879e-04+0.000000000000000000e+00j)  (0.000000000000000000e+00+1.223482694334835849e-03j)  (0.000000000000000000e+00+1.537473697726626787e-02j)
 (4.790399999999999991e+00+0.000000000000000000e+00j)  (0.000000000000000000e+00+0.000000000000000000e+00j)  (0.000000000000000000e+00+0.000000000000000000e+00j)  (-3.215907547935680649e-02+0.000000000000000000e+00j)  (-3.215907547935680649e-02+0.000000000000000000e+00j)  (-4.041228610887479533e-01+0.000000000000000000e+00j)  (-3.929400540682937218e-03+0.000000000000000000e+00j)  (0.000000000000000000e+00+9.411700175043769684e-03j)  (0.000000000000000000e+00+1.182709125108291209e-01j)
 (4.830319999999999503e+00+0.000000000000000000e+00j)  (0.000000000000000000e+00+0.000000000000000000e+00j)  (0.000000000000000000e+00+0.000000000000000000e+00j)  (-2.884158747549238344e-02+0.000000000000000000e+00j)  (-2.884158747549238344e-02+0.000000000000000000e+00j)  (-3.624340773234970281e-01+0.000000000000000000e+00j)  (-6.989889693635921268e-03+0.000000000000000000e+00j)  (0.000000000000000000e+00+1.688170199248173117e-02j)  (0.000000000000000000e+00+2.121417238386911208e-01j)
 (4.870239999999999903e+00+0.000000000000000000e+00j)  (0.000000000000000000e+00+0.000000000000000000e+00j)  (0.000000000000000000e+00+0.000000000000000000e+00j)  (-2.378826038528785228e-02+0.000000000000000000e+00j)  (-2.378826038528785228e-02+0.000000000000000000e+00j)  (-2.989320962724056896e-01+0.000000000000000000e+00j)  (-9.520533929223680067e-03+0.000000000000000000e+00j)  (0.000000000000000000e+00+2.318364258173116407e-02j)  (0.000000000000000000e+00+2.913342448728725165e-01j)
 (4.910159999999999414e+00+0.000000000000000000e+00j)  (0.000000000000000000e+00+0.000000000000000000e+00j)  (0.000000000000000000e+00+0.000000000000000000e+00j)  (-1.734044257680529902e-02+0.000000000000000000e+00j)  (-1.734044257680529902e-02+0.000000000000000000e+00j)  (-2.179064280371487416e-01+0.000000000000000000e+00j)  (-1.138335261144866190e-02+0.000000000000000000e+00j)  (0.000000000000000000e+00+2.794704132931537591e-02j)  (0.000000000000000000e+00+3.511928789189900924e-01j)
 (4.950079999999999814e+00+0.000000000000000000e+00j)  (0.000000000000000000e+00+0.000000000000000000e+00j)  (0.000000000000000000e+00+0.000000000000000000e+00j)  (-9.920140972048666420e-03+0.000000000000000000e+00j)  (-9.920140972048666420e-03+0.000000000000000000e+00j)  (-1.246601680014527980e-01+0.000000000000000000e+00j)  (-1.248557845994170863e-02+0.000000000000000000e+00j)  (0.000000000000000000e+00+3.090230611149412387e-02j)  (0.000000000000000000e+00+3.883298314354116099e-01j)
 (4.989999999999999325e+00+0.000000000000000000e+00j)  (0.000000000000000000e+00+0.000000000000000000e+00j)  (0.000000000000000000e+00+0.000000000000000000e+00j)  (-2.002689691863550597e-03+0.000000000000000000e+00j)  (-2.002689691863550597e-03+0.000000000000000000e+00j)  (-2.516654089351414575e-02+0.000000000000000000e+00j)  (-1.278385429224230402e-02+0.000000000000000000e+00j)  (0.000000000000000000e+00+3.189571645914454634e-02j)  (0.000000000000000000e+00+4.008133940361262582e-01j)
 (5.029919999999999725e+00+0.000000000000000000e+00j)  (0.000000000000000000e+00+0.000000000000000000e+00j)  (0.000000000000000000e+00+0.000000000000000000e+00j)  (5.913429182790384819e-03+0.000000000000000000e+00j)  (5.913429182790384819e-03+0.000000000000000000e+00j)  (7.431034271271105829e-02+0.000000000000000000e+00j)  (-1.228530481732890457e-02+0.000000000000000000e+00j)  (0.000000000000000000e+00+3.089705020338950198e-02j)  (0.000000000000000000e+00+3.882637837462539210e-01j)
 (5.069839999999999236e+00+0.000000000000000000e+00j)  (0.000000000000000000e+00+0.000000000000000000e+00j)  (0.000000000000000000e+00+0.000000000000000000e+00j)  (1.333771329500284437e-02+0.000000000000000000e+00j)  (1.333771329500284437e-02+0.000000000000000000e+00j)  (1.676066484130714074e-01+0.000000000000000000e+00j)  (-1.104551637461866943e-02+0.000000000000000000e+00j)  (0.000000000000000000e+00+2.799950036834835537e-02j)  (0.000000000000000000e+00+3.518520986455516142e-01j)
 (5.109759999999999636e+00+0.000000000000000000e+00j)  (0.000000000000000000e+00+0.000000000000000000e+00j)  (0.000000000000000000e+00+0.000000000000000000e+00j)  (1.981778799007658659e-02+0.000000000000000000e+00j)  (1.981778799007658659e-02+0.000000000000000000e+00j)  (2.490376686400985473e-01+0.000000000000000000e+00j)  (-9.163642348460955891e-03+0.000000000000000000e+00j)  (0.000000000000000000e+00+2.341200656323592574e-02j)  (0.000000000000000000e+00+2.942039512994319983e-01j)
 (5.149680000000000035e+00+0.000000000000000000e+00j)  (0.000000000000000000e+00+0.000000000000000000e+00j)  (0.000000000000000000e+00+0.000000000000000000e+00j)  (2.496673624112083142e-02+0.000000000000000000e+00j)  (2.496673624112083142e-02+0.000000000000000000e+00j)  (3.137412606368769619e-01+0.000000000000000000e+00j)  (-6.775018188343332089e-03+0.000000000000000000e+00j)  (0.000000000000000000e+00+1.744458783207394545e-02j)  (0.000000000000000000e+00+2.192151559125816163e-01j)
 (5.189599999999999547e+00+0.000000000000000000e+00j)  (0.000000000000000000e+00+0.000000000000000000e+00j)  (0.000000000000000000e+00+0.000000000000000000e+00j)  (2.848597323055362257e-02+0.000000000000000000e+00j)  (2.848597323055362257e-02+0.000000000000000000e+00j)  (3.579652969258511064e-01+0.000000000000000000e+00j)  (-4.041808162174343431e-03+0.000000000000000000e+00j)  (0.000000000000000000e+00+1.048768381920998569e-02j)  (0.000000000000000000e+00+1.317921217584105686e-01j)
 (5.229519999999999946e+00+0.000000000000000000e+00j)  (0.000000000000000000e+00+0.000000000000000000e+00j)  (0.000000000000000000e+00+0.000000000000000000e+00j)  (3.018232664806432680e-02+0.000000000000000000e+00j)  (3.018232664806432680e-02+0.000000000000000000e+00j)  (3.792823026632253236e-01+0.000000000000000000e+00j)  (-1.142308735918634490e-03+0.000000000000000000e+00j)  (0.000000000000000000e+00+2.986863190330608236e-03j)  (0.000000000000000000e+00+3.753402982408164668e-02j)
 (5.269439999999999458e+00+0.000000000000000000e+00j)  (0.000000000000000000e+00+0.000000000000000000e+00j)  (0.000000000000000000e+00+0.000000000000000000e+00j)  (2.997835972332678345e-02+0.000000000000000000e+00j)  (2.997835972332678345e-02+0.000000000000000000e+00j)  (3.767191786939022569e-01+0.000000000000000000e+00j)  (1.740404295879587407e-03+0.000000000000000000e+00j)  (-0.000000000000000000e+00-4.585478006439864737e-03j)  (-0.000000000000000000e+00-5.762281607291620117e-02j)
 (5.309359999999999857e+00+0.000000000000000000e+00j)  (0.000000000000000000e+00+0.000000000000000000e+00j)  (0.000000000000000000e+00+0.000000000000000000e+00j)  (2.791540342849485254e-02+0.000000000000000000e+00j)  (2.791540342849485254e-02+0.000000000000000000e+00j)  (3.507953053318190184e-01+0.000000000000000000e+00j)  (4.429778648955166181e-03+0.000000000000000000e+00j)  (-0.000000000000000000e+00-1.175964478380830264e-02j)  (-0.000000000000000000e+00-1.477760546465507474e-01j)
 (5.349279999999999369e+00+0.000000000000000000e+00j)  (0.000000000000000000e+00+0.000000000000000000e+00j)  (0.000000000000000000e+00+0.000000000000000000e+00j)  (2.414922009580681289e-02+0.000000000000000000e+00j)  (2.414922009580681289e-02+0.000000000000000000e+00j)  (3.034680497716387149e-01+0.000000000000000000e+00j)  (6.766355899206023816e-03+0.000000000000000000e+00j)  (-0.000000000000000000e+00-1.809756614225239285e-02j)  (-0.000000000000000000e+00-2.274207233614219947e-01j)
 (5.389199999999999768e+00+0.000000000000000000e+00j)  (0.000000000000000000e+00+0.000000000000000000e+00j)  (0.000000000000000000e+00+0.000000000000000000e+00j)  (1.893867460812095199e-02+0.000000000000000000e+00j)  (1.893867460812095199e-02+0.000000000000000000e+00j)  (2.379904040704013124e-01+0.000000000000000000e+00j)  (8.616991022536059017e-03+0.000000000000000000e+00j)  (-0.000000000000000000e+00-2.321934400932566117e-02j)  (-0.000000000000000000e+00-2.917828822434866964e-01j)
 (5.429119999999999280e+00+0.000000000000000000e+00j)  (0.000000000000000000e+00+0.000000000000000000e+00j)  (0.000000000000000000e+00+0.000000000000000000e+00j)  (1.262821356196401970e-02+0.000000000000000000e+00j)  (1.262821356196401970e-02+0.000000000000000000e+00j)  (1.586908118169166326e-01+0.000000000000000000e+00j)  (9.882202264428896835e-03+0.000000000000000000e+00j)  (-0.000000000000000000e+00-2.682583097892810367e-02j)  (-0.000000000000000000e+00-3.371033341193681032e-01j)
 (5.469039999999999679e+00+0.000000000000000000e+00j)  (0.000000000000000000e+00+0.000000000000000000e+00j)  (0.000000000000000000e+00+0.000000000000000000e+00j)  (5.625321807836777474e-03+0.000000000000000000e+00j)  (5.625321807836777474e-03+0.000000000000000000e+00j)  (7.068987866231389583e-02+0.000000000000000000e+00j)  (1.050126030100333695e-02+0.000000000000000000e+00j)  (-0.000000000000000000e+00-2.871590631829963949e-02j)  (-0.000000000000000000e+00-3.608547213229714723e-01j)
 (5.508959999999999191e+00+0.000000000000000000e+00j)  (0.000000000000000000e+00+0.000000000000000000e+00j)  (0.000000000000000000e+00+0.000000000000000000e+00j)  (-1.625582286574282298e-03+0.000000000000000000e+00j)  (-1.625582286574282298e-03+0.000000000000000000e+00j)  (-2.042766947722985185e-02+0.000000000000000000e+00j)  (1.045477337270816869e-02+0.000000000000000000e+00j)  (-0.000000000000000000e+00-2.879746415965719550e-02j)  (-0.000000000000000000e+00-3.618796073839776750e-01j)
 (5.548879999999999590e+00+0.000000000000000000e+00j)  (0.000000000000000000e+00+0.000000000000000000e+00j)  (0.000000000000000000e+00+0.000000000000000000e+00j)  (-8.671153435306212104e-03+0.000000000000000000e+00j)  (-8.671153435306212104e-03+0.000000000000000000e+00j)  (-1.089649277220315904e-01+0.000000000000000000e+00j)  (9.764683269171165955e-03+0.000000000000000000e+00j)  (-0.000000000000000000e+00-2.709152784931924407e-02j)  (-0.000000000000000000e+00-3.404421794637785270e-01j)
 (5.588799999999999990e+00+0.000000000000000000e+00j)  (0.000000000000000000e+00+0.000000000000000000e+00j)  (0.000000000000000000e+00+0.000000000000000000e+00j)  (-1.507727511082201065e-02+0.000000000000000000e+00j)  (-1.507727511082201065e-02+0.000000000000000000e+00j)  (-1.894666268972426404e-01+0.000000000000000000e+00j)  (8.491745931425171562e-03+0.000000000000000000e+00j)  (-0.000000000000000000e+00-2.372933483077449904e-02j)  (-0.000000000000000000e+00-2.981916159157342316e-01j)
 (5.628719999999999501e+00+0.000000000000000000e+00j)  (0.000000000000000000e+00+0.000000000000000000e+00j)  (0.000000000000000000e+00+0.000000000000000000e+00j)  (-2.045562711359295849e-02+0.000000000000000000e+00j)  (-2.045562711359295849e-02+0.000000000000000000e+00j)  (-2.570529914585433229e-01+0.000000000000000000e+00j)  (6.730720454122104436e-03+0.000000000000000000e+00j)  (-0.000000000000000000e+00-1.894267041726309039e-02j)  (-0.000000000000000000e+00-2.380406168889856733e-01j)
 (5.668639999999999901e+00+0.000000000000000000e+00j)  (0.000000000000000000e+00+0.000000000000000000e+00j)  (0.000000000000000000e+00+0.000000000000000000e+00j)  (-2.448704995463910072e-02+0.000000000000000000e+00j)  (-2.448704995463910072e-02+0.000000000000000000e+00j)  (-3.077133449823218903e-01+0.000000000000000000e+00j)  (4.603622644536685231e-03+0.000000000000000000e+00j)  (-0.000000000000000000e+00-1.304813973386321699e-02j)  (-0.000000000000000000e+00-1.639677597236710582e-01j)
 (5.708559999999999413e+00+0.000000000000000000e+00j)  (0.000000000000000000e+00+0.000000000000000000e+00j)  (0.000000000000000000e+00+0.000000000000000000e+00j)  (-2.694031062759129694e-02+0.000000000000000000e+00j)  (-2.694031062759129694e-02+0.000000000000000000e+00j)  (-3.385419278122713815e-01+0.000000000000000000e+00j)  (2.251506550030594328e-03+0.000000000000000000e+00j)  (-0.000000000000000000e+00-6.426430115621325351e-03j)  (-0.000000000000000000e+00-8.075690256017663271e-02j)
 (5.748479999999999812e+00+0.000000000000000000e+00j)  (0.000000000000000000e+00+0.000000000000000000e+00j)  (0.000000000000000000e+00+0.000000000000000000e+00j)  (-2.768517674435646767e-02+0.000000000000000000e+00j)  (-2.768517674435646767e-02+0.000000000000000000e+00j)  (-3.479021914936211157e-01+0.000000000000000000e+00j)  (-1.746862694653882498e-04+0.000000000000000000e+00j)  (0.000000000000000000e+00+5.020902631481974181e-04j)  (0.000000000000000000e+00+6.309452328581371429e-03j)
 (5.788399999999999324e+00+0.000000000000000000e+00j)  (0.000000000000000000e+00+0.000000000000000000e+00j)  (0.000000000000000000e+00+0.000000000000000000e+00j)  (-2.669907146430354483e-02+0.000000000000000000e+00j)  (-2.669907146430354483e-02+0.000000000000000000e+00j)  (-3.355104270796995802e-01+0.000000000000000000e+00j)  (-2.523628236436212605e-03+0.000000000000000000e+00j)  (0.000000000000000000e+00+7.303884841893685913e-03j)  (0.000000000000000000e+00+9.178332384783619013e-02j)
 (5.828319999999999723e+00+0.000000000000000000e+00j)  (0.000000000000000000e+00+0.000000000000000000e+00j)  (0.000000000000000000e+00+0.000000000000000000e+00j)  (-2.406698687524708516e-02+0.000000000000000000e+00j)  (-2.406698687524708516e-02+0.000000000000000000e+00j)  (-3.024346766452728485e-01+0.000000000000000000e+00j)  (-4.652871058189378059e-03+0.000000000000000000e+00j)  (0.000000000000000000e+00+1.355921072293315641e-02j)  (0.000000000000000000e+00+1.703900671825710200e-01j)
 (5.868239999999999235e+00+0.000000000000000000e+00j)  (0.000000000000000000e+00+0.000000000000000000e+00j)  (0.000000000000000000e+00+0.000000000000000000e+00j)  (-1.997475306956444582e-02+0.000000000000000000e+00j)  (-1.997475306956444582e-02+0.000000000000000000e+00j)  (-2.510101500024553567e-01+0.000000000000000000e+00j)  (-6.437318009345728217e-03+0.000000000000000000e+00j)  (0.000000000000000000e+00+1.888786351758148241e-02j)  (0.000000000000000000e+00+2.373518930753626133e-01j)
 (5.908159999999999634e+00+0.000000000000000000e+00j)  (0.000000000000000000e+00+0.000000000000000000e+00j)  (0.000000000000000000e+00+0.000000000000000000e+00j)  (-1.469616813910840786e-02+0.000000000000000000e+00j)  (-1.469616813910840786e-02+0.000000000000000000e+00j)  (-1.846774954469734276e-01+0.000000000000000000e+00j)  (-7.776409349452264620e-03+0.000000000000000000e+00j)  (0.000000000000000000e+00+2.297213533102994421e-02j)  (0.000000000000000000e+00+2.886763663729368101e-01j)
 (5.948079999999999146e+00+0.000000000000000000e+00j)  (0.000000000000000000e+00+0.000000000000000000e+00j)  (0.000000000000000000e+00+0.000000000000000000e+00j)  (-8.574865778606133651e-03+0.000000000000000000e+00j)  (-8.574865778606133651e-03+0.000000000000000000e+00j)  (-1.077549413423502245e-01+0.000000000000000000e+00j)  (-8.599618204454345660e-03+0.000000000000000000e+00j)  (0.000000000000000000e+00+2.557560852477539642e-02j)  (0.000000000000000000e+00+3.213925754100914745e-01j)
 (5.987999999999999545e+00+0.000000000000000000e+00j)  (0.000000000000000000e+00+0.000000000000000000e+00j)  (0.000000000000000000e+00+0.000000000000000000e+00j)  (-2.002109794103710053e-03+0.000000000000000000e+00j)  (-2.002109794103710053e-03+0.000000000000000000e+00j)  (-2.515925368334555670e-02+0.000000000000000000e+00j)  (-8.869967372671150319e-03+0.000000000000000000e+00j)  (0.000000000000000000e+00+2.655668231377742231e-02j)  (0.000000000000000000e+00+3.337211122427245491e-01j)
 (6.027919999999999945e+00+0.000000000000000000e+00j)  (0.000000000000000000e+00+0.000000000000000000e+00j)  (0.000000000000000000e+00+0.000000000000000000e+00j)  (4.608059882759915800e-03+0.000000000000000000e+00j)  (4.608059882759915800e-03+0.000000000000000000e+00j)  (5.790658829992157558e-02+0.000000000000000000e+00j)  (-8.585405212003644621e-03+0.000000000000000000e+00j)  (0.000000000000000000e+00+2.587606789277050248e-02j)  (0.000000000000000000e+00+3.251682591828741198e-01j)
 (6.067839999999999456e+00+0.000000000000000000e+00j)  (0.000000000000000000e+00+0.000000000000000000e+00j)  (0.000000000000000000e+00+0.000000000000000000e+00j)  (1.084476053337206196e-02+0.000000000000000000e+00j)  (1.084476053337206196e-02+0.000000000000000000e+00j)  (1.362792800863287801e-01+0.000000000000000000e+00j)  (-7.778012943550937849e-03+0.000000000000000000e+00j)  (0.000000000000000000e+00+2.359786902969805700e-02j)  (0.000000000000000000e+00+2.965395679362941017e-01j)
 (6.107759999999999856e+00+0.000000000000000000e+00j)  (0.000000000000000000e+00+0.000000000000000000e+00j)  (0.000000000000000000e+00+0.000000000000000000e+00j)  (1.632566414194331489e-02+0.000000000000000000e+00j)  (1.632566414194331489e-02+0.000000000000000000e+00j)  (2.051543461332137608e-01+0.000000000000000000e+00j)  (-6.511148100549160600e-03+0.000000000000000000e+00j)  (0.000000000000000000e+00+1.988426496130507246e-02j)  (0.000000000000000000e+00+2.498730428978757911e-01j)
 (6.147679999999999367e+00+0.000000000000000000e+00j)  (0.000000000000000000e+00+0.000000000000000000e+00j)  (0.000000000000000000e+00+0.000000000000000000e+00j)  (2.072029782495470387e-02+0.000000000000000000e+00j)  (2.072029782495470387e-02+0.000000000000000000e+00j)  (2.603789417082810753e-01+0.000000000000000000e+00j)  (-4.874751509510162444e-03+0.000000000000000000e+00j)  (0.000000000000000000e+00+1.498420617999271509e-02j)  (0.000000000000000000e+00+1.882970882197595452e-01j)
 (6.187599999999999767e+00+0.000000000000000000e+00j)  (0.000000000000000000e+00+0.000000000000000000e+00j)  (0.000000000000000000e+00+0.000000000000000000e+00j)  (2.376983543486790168e-02+0.000000000000000000e+00j)  (2.376983543486790168e-02+0.000000000000000000e+00j)  (2.987005615168774053e-01+0.000000000000000000e+00j)  (-2.979150947582513611e-03+0.000000000000000000e+00j)  (0.000000000000000000e+00+9.216897201630781453e-03j)  (0.000000000000000000e+00+1.158229461501423391e-01j)
 (6.227519999999999278e+00+0.000000000000000000e+00j)  (0.000000000000000000e+00+0.000000000000000000e+00j)  (0.000000000000000000e+00+0.000000000000000000e+00j)  (2.530220307346095487e-02+0.000000000000000000e+00j)  (2.530220307346095487e-02+0.000000000000000000e+00j)  (3.179568611808880618e-01+0.000000000000000000e+00j)  (-9.477775088799192307e-04+0.000000000000000000e+00j)  (0.000000000000000000e+00+2.951151696049937254e-03j)  (0.000000000000000000e+00+3.708526595175815760e-02j)
 (6.267439999999999678e+00+0.000000000000000000e+00j)  (0.000000000000000000e+00+0.000000000000000000e+00j)  (0.000000000000000000e+00+0.000000000000000000e+00j)  (2.524162530763936207e-02+0.000000000000000000e+00j)  (2.524162530763936207e-02+0.000000000000000000e+00j)  (3.171956185245840554e-01+0.000000000000000000e+00j)  (1.090733707770239532e-03+0.000000000000000000e+00j)  (-0.000000000000000000e+00-3.418054034713754671e-03j)  (-0.000000000000000000e+00-4.295253378011873457e-02j)
 (6.307359999999999189e+00+0.000000000000000000e+00j)  (0.000000000000000000e+00+0.000000000000000000e+00j)  (0.000000000000000000e+00+0.000000000000000000e+00j)  (2.361209291430388033e-02+0.000000000000000000e+00j)  (2.361209291430388033e-02+0.000000000000000000e+00j)  (2.967183105418266797e-01+0.000000000000000000e+00j)  (3.010561390096015526e-03+0.000000000000000000e+00j)  (-0.000000000000000000e+00-9.494347244717999540e-03j)  (-0.000000000000000000e+00-1.193094862185462568e-01j)
 (6.347279999999999589e+00+0.000000000000000000e+00j)  (0.000000000000000000e+00+0.000000000000000000e+00j)  (0.000000000000000000e+00+0.000000000000000000e+00j)  (2.053461457985565272e-02+0.000000000000000000e+00j)  (2.053461457985565272e-02+0.000000000000000000e+00j)  (2.580455772334894760e-01+0.000000000000000000e+00j)  (4.696342296284696481e-03+0.000000000000000000e+00j)  (-0.000000000000000000e+00-1.490449976518096187e-02j)  (-0.000000000000000000e+00-1.872954678708932397e-01j)
 (6.387199999999999989e+00+0.000000000000000000e+00j)  (0.000000000000000000e+00+0.000000000000000000e+00j)  (0.000000000000000000e+00+0.000000000000000000e+00j)  (1.621850031323115310e-02+0.000000000000000000e+00j)  (1.621850031323115310e-02+0.000000000000000000e+00j)  (2.038076857451629753e-01+0.000000000000000000e+00j)  (6.049984986952081263e-03+0.000000000000000000e+00j)  (-0.000000000000000000e+00-1.932123205433016605e-02j)  (-0.000000000000000000e+00-2.427977627207490996e-01j)
 (6.427119999999999500e+00+0.000000000000000000e+00j)  (0.000000000000000000e+00+0.000000000000000000e+00j)  (0.000000000000000000e+00+0.000000000000000000e+00j)  (1.094728962899963257e-02+0.000000000000000000e+00j)  (1.094728962899963257e-02+0.000000000000000000e+00j)  (1.375676987007398988e-01+0.000000000000000000e+00j)  (6.996257789778543429e-03+0.000000000000000000e+00j)  (-0.000000000000000000e+00-2.248289418292073738e-02j)  (-0.000000000000000000e+00-2.825283807860018981e-01j)
 (6.467039999999999900e+00+0.000000000000000000e+00j)  (0.000000000000000000e+00+0.000000000000000000e+00j)  (0.000000000000000000e+00+0.000000000000000000e+00j)  (5.060260569438401398e-03+0.000000000000000000e+00j)  (5.060260569438401398e-03+0.000000000000000000e+00j)  (6.358910972079113988e-02+0.000000000000000000e+00j)  (7.486840100468836190e-03+0.000000000000000000e+00j)  (-0.000000000000000000e+00-2.420884720166799342e-02j)  (-0.000000000000000000e+00-3.042173460825519093e-01j)
 (6.506959999999999411e+00+0.000000000000000000e+00j)  (0.000000000000000000e+00+0.000000000000000000e+00j)  (0.000000000000000000e+00+0.000000000000000000e+00j)  (-1.069283018608180617e-03+0.000000000000000000e+00j)  (-1.069283018608180617e-03+0.000000000000000000e+00j)  (-1.343700670347111430e-02+0.000000000000000000e+00j)  (7.502627281081490108e-03+0.000000000000000000e+00j)  (-0.000000000000000000e+00-2.440964780645300120e-02j)  (-0.000000000000000000e+00-3.067406809018678460e-01j)
 (6.546879999999999811e+00+0.000000000000000000e+00j)  (0.000000000000000000e+00+0.000000000000000000e+00j)  (0.000000000000000000e+00+0.000000000000000000e+00j)  (-7.057564208869220208e-03+0.000000000000000000e+00j)  (-7.057564208869220208e-03+0.000000000000000000e+00j)  (-8.868796748328720836e-02+0.000000000000000000e+00j)  (7.054190877353855478e-03+0.000000000000000000e+00j)  (-0.000000000000000000e+00-2.309147058556520332e-02j)  (-0.000000000000000000e+00-2.901759774087857569e-01j)
 (6.586799999999999322e+00+0.000000000000000000e+00j)  (0.000000000000000000e+00+0.000000000000000000e+00j)  (0.000000000000000000e+00+0.000000000000000000e+00j)  (-1.253424710321253757e-02+0.000000000000000000e+00j)  (-1.253424710321253757e-02+0.000000000000000000e+00j)  (-1.575099944709265898e-01+0.000000000000000000e+00j)  (6.180410636785638873e-03+0.000000000000000000e+00j)  (-0.000000000000000000e+00-2.035456439118981872e-02j)  (-0.000000000000000000e+00-2.557829998335293675e-01j)
 (6.626719999999999722e+00+0.000000000000000000e+00j)  (0.000000000000000000e+00+0.000000000000000000e+00j)  (0.000000000000000000e+00+0.000000000000000000e+00j)  (-1.716522920246303999e-02+0.000000000000000000e+00j)  (-1.716522920246303999e-02+0.000000000000000000e+00j)  (-2.157046318385714700e-01+0.000000000000000000e+00j)  (4.945405830525809524e-03+0.000000000000000000e+00j)  (-0.000000000000000000e+00-1.638590986263099500e-02j)  (-0.000000000000000000e+00-2.059114161873042970e-01j)
 (6.666639999999999233e+00+0.000000000000000000e+00j)  (0.000000000000000000e+00+0.000000000000000000e+00j)  (0.000000000000000000e+00+0.000000000000000000e+00j)  (-2.067291597978248782e-02+0.000000000000000000e+00j)  (-2.067291597978248782e-02+0.000000000000000000e+00j)  (-2.597835238814548142e-01+0.000000000000000000e+00j)  (3.433994017195325134e-03+0.000000000000000000e+00j)  (-0.000000000000000000e+00-1.144660093739751500e-02j)  (-0.000000000000000000e+00-1.438422296540083078e-01j)
 (6.706559999999999633e+00+0.000000000000000000e+00j)  (0.000000000000000000e+00+0.000000000000000000e+00j)  (0.000000000000000000e+00+0.000000000000000000e+00j)  (-2.285275376655016705e-02+0.000000000000000000e+00j)  (-2.285275376655016705e-02+0.000000000000000000e+00j)  (-2.871761733891619039e-01+0.000000000000000000e+00j)  (1.745989771928482598e-03+0.000000000000000000e+00j)  (-0.000000000000000000e+00-5.854792582412341601e-03j)  (-0.000000000000000000e+00-7.357349346079450347e-02j)
 (6.746479999999999144e+00+0.000000000000000000e+00j)  (0.000000000000000000e+00+0.000000000000000000e+00j)  (0.000000000000000000e+00+0.000000000000000000e+00j)  (-2.358504273176082258e-02+0.000000000000000000e+00j)  (-2.358504273176082258e-02+0.000000000000000000e+00j)  (-2.963783879228045759e-01+0.000000000000000000e+00j)  (-1.028070464136480512e-05+0.000000000000000000e+00j)  (0.000000000000000000e+00+3.467928412443727965e-05j)  (0.000000000000000000e+00+4.357927369483411686e-04j)
 (6.786399999999999544e+00+0.000000000000000000e+00j)  (0.000000000000000000e+00+0.000000000000000000e+00j)  (0.000000000000000000e+00+0.000000000000000000e+00j)  (-2.284135490386000542e-02+0.000000000000000000e+00j)  (-2.284135490386000542e-02+0.000000000000000000e+00j)  (-2.870329310560151836e-01+0.000000000000000000e+00j)  (-1.724834147632714823e-03+0.000000000000000000e+00j)  (0.000000000000000000e+00+5.852707229747327461e-03j)  (0.000000000000000000e+00+7.354728814634428624e-02j)
 (6.826319999999999943e+00+0.000000000000000000e+00j)  (0.000000000000000000e+00+0.000000000000000000e+00j)  (0.000000000000000000e+00+0.000000000000000000e+00j)  (-2.068522348789057774e-02+0.000000000000000000e+00j)  (-2.068522348789057774e-02+0.000000000000000000e+00j)  (-2.599381845896803211e-01+0.000000000000000000e+00j)  (-3.292826140345087981e-03+0.000000000000000000e+00j)  (0.000000000000000000e+00+1.123894246918024156e-02j)  (0.000000000000000000e+00+1.412327163811799013e-01j)
 (6.866239999999999455e+00+0.000000000000000000e+00j)  (0.000000000000000000e+00+0.000000000000000000e+00j)  (0.000000000000000000e+00+0.000000000000000000e+00j)  (-1.726712768268812495e-02+0.000000000000000000e+00j)  (-1.726712768268812495e-02+0.000000000000000000e+00j)  (-2.169851259061198467e-01+0.000000000000000000e+00j)  (-4.620874037469944323e-03+0.000000000000000000e+00j)  (0.000000000000000000e+00+1.586401507551881210e-02j)  (0.000000000000000000e+00+1.993530928707505367e-01j)
 (6.906159999999999854e+00+0.000000000000000000e+00j)  (0.000000000000000000e+00+0.000000000000000000e+00j)  (0.000000000000000000e+00+0.000000000000000000e+00j)  (-1.281414953365768439e-02+0.000000000000000000e+00j)  (-1.281414953365768439e-02+0.000000000000000000e+00j)  (-1.610273521477602054e-01+0.000000000000000000e+00j)  (-5.632530965376396186e-03+0.000000000000000000e+00j)  (0.000000000000000000e+00+1.944958002592191842e-02j)  (0.000000000000000000e+00+2.444106308993723164e-01j)
 (6.946079999999999366e+00+0.000000000000000000e+00j)  (0.000000000000000000e+00+0.000000000000000000e+00j)  (0.000000000000000000e+00+0.000000000000000000e+00j)  (-7.615004396292376389e-03+0.000000000000000000e+00j)  (-7.615004396292376389e-03+0.000000000000000000e+00j)  (-9.569296747378443213e-02+0.000000000000000000e+00j)  (-6.272595400467375140e-03+0.000000000000000000e+00j)  (0.000000000000000000e+00+2.178497472963920878e-02j)  (0.000000000000000000e+00+2.737580662770953133e-01j)
 (6.985999999999999766e+00+0.000000000000000000e+00j)  (0.000000000000000000e+00+0.000000000000000000e+00j)  (0.000000000000000000e+00+0.000000000000000000e+00j)  (-2.001424590264668651e-03+0.000000000000000000e+00j)  (-2.001424590264668651e-03+0.000000000000000000e+00j)  (-2.515064315795777564e-02+0.000000000000000000e+00j)  (-6.510019117695215254e-03+0.000000000000000000e+00j)  (0.000000000000000000e+00+2.273949677810938735e-02j)  (0.000000000000000000e+00+2.857529440977488733e-01j)
 (7.025919999999999277e+00+0.000000000000000000e+00j)  (0.000000000000000000e+00+0.000000000000000000e+00j)  (0.000000000000000000e+00+0.000000000000000000e+00j)  (3.672909829458865551e-03+0.000000000000000000e+00j)  (3.672909829458865551e-03+0.000000000000000000e+00j)  (4.615514615010285482e-02+0.000000000000000000e+00j)  (-6.339267286361928953e-03+0.000000000000000000e+00j)  (0.000000000000000000e+00+2.226959240629800343e-02j)  (0.000000000000000000e+00+2.798479516082593710e-01j)
 (7.065839999999999677e+00+0.000000000000000000e+00j)  (0.000000000000000000e+00+0.000000000000000000e+00j)  (0.000000000000000000e+00+0.000000000000000000e+00j)  (9.054561082724421964e-03+0.000000000000000000e+00j)  (9.054561082724421964e-03+0.000000000000000000e+00j)  (1.137829703158683564e-01+0.000000000000000000e+00j)  (-5.780082350667236323e-03+0.000000000000000000e+00j)  (0.000000000000000000e+00+2.042056853831929197e-02j)  (0.000000000000000000e+00+2.566124324084430031e-01j)
 (7.105759999999999188e+00+0.000000000000000000e+00j)  (0.000000000000000000e+00+0.000000000000000000e+00j)  (0.000000000000000000e+00+0.000000000000000000e+00j)  (1.381225802767865017e-02+0.000000000000000000e+00j)  (1.381225802767865017e-02+0.000000000000000000e+00j)  (1.735699533969675412e-01+0.000000000000000000e+00j)  (-4.875701960258262309e-03+0.000000000000000000e+00j)  (0.000000000000000000e+00+1.732278398056236873e-02j)  (0.000000000000000000e+00+2.176845235722307814e-01j)
 (7.145679999999999588e+00+0.000000000000000000e+00j)  (0.000000000000000000e+00+0.000000000000000000e+00j)  (0.000000000000000000e+00+0.000000000000000000e+00j)  (1.765720039551406731e-02+0.000000000000000000e+00j)  (1.765720039551406731e-02+0.000000000000000000e+00j)  (2.218869241820391469e-01+0.000000000000000000e+00j)  (-3.689674590828175005e-03+0.000000000000000000e+00j)  (0.000000000000000000e+00+1.318261696509453670e-02j)  (0.000000000000000000e+00+1.656576504505166691e-01j)
 (7.185599999999999099e+00+0.000000000000000000e+00j)  (0.000000000000000000e+00+0.000000000000000000e+00j)  (0.000000000000000000e+00+0.000000000000000000e+00j)  (2.036050370716485300e-02+0.000000000000000000e+00j)  (2.036050370716485300e-02+0.000000000000000000e+00j)  (2.558576354792674312e-01+0.000000000000000000e+00j)  (-2.301499046748755727e-03+0.000000000000000000e+00j)  (0.000000000000000000e+00+8.268825775158928845e-03j)  (0.000000000000000000e+00+1.039091292362128854e-01j)
 (7.225519999999999499e+00+0.000000000000000000e+00j)  (0.000000000000000000e+00+0.000000000000000000e+00j)  (0.000000000000000000e+00+0.000000000000000000e+00j)  (2.176673628883793454e-02+0.000000000000000000e+00j)  (2.176673628883793454e-02+0.000000000000000000e+00j)  (2.735288752705584137e-01+0.000000000000000000e+00j)  (-8.013809756822949139e-04+0.000000000000000000e+00j)  (0.000000000000000000e+00+2.895197133705966833e-03j)  (0.000000000000000000e+00+3.638212018377956491e-02j)
 (7.265439999999999898e+00+0.000000000000000000e+00j)  (0.000000000000000000e+00+0.000000000000000000e+00j)  (0.000000000000000000e+00+0.000000000000000000e+00j)  (2.180275313030744649e-02+0.000000000000000000e+00j)  (2.180275313030744649e-02+0.000000000000000000e+00j)  (2.739814762488230193e-01+0.000000000000000000e+00j)  (7.155528892639583102e-04+0.000000000000000000e+00j)  (-0.000000000000000000e+00-2.599403291886966550e-03j)  (-0.000000000000000000e+00-3.266506514203687539e-02j)
 (7.305359999999999410e+00+0.000000000000000000e+00j)  (0.000000000000000000e+00+0.000000000000000000e+00j)  (0.000000000000000000e+00+0.000000000000000000e+00j)  (2.048133105172669430e-02+0.000000000000000000e+00j)  (2.048133105172669430e-02+0.000000000000000000e+00j)  (2.573759966713803360e-01+0.000000000000000000e+00j)  (2.155216292216961729e-03+0.000000000000000000e+00j)  (-0.000000000000000000e+00-7.872315446255051530e-03j)  (-0.000000000000000000e+00-9.892643349078528159e-02j)
 (7.345279999999999809e+00+0.000000000000000000e+00j)  (0.000000000000000000e+00+0.000000000000000000e+00j)  (0.000000000000000000e+00+0.000000000000000000e+00j)  (1.789943674793346984e-02+0.000000000000000000e+00j)  (1.789943674793346984e-02+0.000000000000000000e+00j)  (2.249309559628118460e-01+0.000000000000000000e+00j)  (3.430331536015439071e-03+0.000000000000000000e+00j)  (-0.000000000000000000e+00-1.259837281243174172e-02j)  (-0.000000000000000000e+00-1.583158218988837684e-01j)
 (7.385199999999999321e+00+0.000000000000000000e+00j)  (0.000000000000000000e+00+0.000000000000000000e+00j)  (0.000000000000000000e+00+0.000000000000000000e+00j)  (1.423129326412970672e-02+0.000000000000000000e+00j)  (1.423129326412970672e-02+0.000000000000000000e+00j)  (1.788357054786871847e-01+0.000000000000000000e+00j)  (4.465654593071032713e-03+0.000000000000000000e+00j)  (-0.000000000000000000e+00-1.648987615037409218e-02j)  (-0.000000000000000000e+00-2.072178950904831340e-01j)
 (7.425119999999999720e+00+0.000000000000000000e+00j)  (0.000000000000000000e+00+0.000000000000000000e+00j)  (0.000000000000000000e+00+0.000000000000000000e+00j)  (9.716730617079834958e-03+0.000000000000000000e+00j)  (9.716730617079834958e-03+0.000000000000000000e+00j)  (1.221040380941161158e-01+0.000000000000000000e+00j)  (5.202348479698118769e-03+0.000000000000000000e+00j)  (-0.000000000000000000e+00-1.931403087178804392e-02j)  (-0.000000000000000000e+00-2.427072699920631571e-01j)
 (7.465039999999999232e+00+0.000000000000000000e+00j)  (0.000000000000000000e+00+0.000000000000000000e+00j)  (0.000000000000000000e+00+0.000000000000000000e+00j)  (4.645592977904302277e-03+0.000000000000000000e+00j)  (4.645592977904302277e-03+0.000000000000000000e+00j)  (5.837824308380994837e-02+0.000000000000000000e+00j)  (5.601254851901633393e-03+0.000000000000000000e+00j)  (-0.000000000000000000e+00-2.090679575981988295e-02j)  (-0.000000000000000000e+00-2.627225438766095378e-01j)
 (7.504959999999999631e+00+0.000000000000000000e+00j)  (0.000000000000000000e+00+0.000000000000000000e+00j)  (0.000000000000000000e+00+0.000000000000000000e+00j)  (-6.607892851755201935e-04+0.000000000000000000e+00j)  (-6.607892851755201935e-04+0.000000000000000000e+00j)  (-8.303723055513060128e-03+0.000000000000000000e+00j)  (5.644886543791601159e-03+0.000000000000000000e+00j)  (-0.000000000000000000e+00-2.118232385784710875e-02j)  (-0.000000000000000000e+00-2.661849320710891198e-01j)
 (7.544879999999999143e+00+0.000000000000000000e+00j)  (0.000000000000000000e+00+0.000000000000000000e+00j)  (0.000000000000000000e+00+0.000000000000000000e+00j)  (-5.869883384784709522e-03+0.000000000000000000e+00j)  (-5.869883384784709522e-03+0.000000000000000000e+00j)  (-7.376313007627371965e-02+0.000000000000000000e+00j)  (5.338045838668699188e-03+0.000000000000000000e+00j)  (-0.000000000000000000e+00-2.013745764362734336e-02j)  (-0.000000000000000000e+00-2.530547559807811986e-01j)
 (7.584799999999999542e+00+0.000000000000000000e+00j)  (0.000000000000000000e+00+0.000000000000000000e+00j)  (0.000000000000000000e+00+0.000000000000000000e+00j)  (-1.065871812401808158e-02+0.000000000000000000e+00j)  (-1.065871812401808158e-02+0.000000000000000000e+00j)  (-1.339414022203983534e-01+0.000000000000000000e+00j)  (4.707059435143105125e-03+0.000000000000000000e+00j)  (-0.000000000000000000e+00-1.785105220183671321e-02j)  (-0.000000000000000000e+00-2.243229378245524541e-01j)
 (7.624719999999999054e+00+0.000000000000000000e+00j)  (0.000000000000000000e+00+0.000000000000000000e+00j)  (0.000000000000000000e+00+0.000000000000000000e+00j)  (-1.473383620146998321e-02+0.000000000000000000e+00j)  (-1.473383620146998321e-02+0.000000000000000000e+00j)  (-1.851508462789337728e-01+0.000000000000000000e+00j)  (3.797706001493609575e-03+0.000000000000000000e+00j)  (-0.000000000000000000e+00-1.447822245185417453e-02j)  (-0.000000000000000000e+00-1.819387091671355039e-01j)
 (7.664639999999999453e+00+0.000000000000000000e+00j)  (0.000000000000000000e+00+0.000000000000000000e+00j)  (0.000000000000000000e+00+0.000000000000000000e+00j)  (-1.784920663200022586e-02+0.000000000000000000e+00j)  (-1.784920663200022586e-02+0.000000000000000000e+00j)  (-2.242997457099925041e-01+0.000000000000000000e+00j)  (2.671990741344009573e-03+0.000000000000000000e+00j)  (-0.000000000000000000e+00-1.023992355786747244e-02j)  (-0.000000000000000000e+00-1.286786744908700320e-01j)
 (7.704559999999999853e+00+0.000000000000000000e+00j)  (0.000000000000000000e+00+0.000000000000000000e+00j)  (0.000000000000000000e+00+0.000000000000000000e+00j)  (-1.982100819554117807e-02+0.000000000000000000e+00j)  (-1.982100819554117807e-02+0.000000000000000000e+00j)  (-2.490781349354209973e-01+0.000000000000000000e+00j)  (1.403988858740887755e-03+0.000000000000000000e+00j)  (-0.000000000000000000e+00-5.408558200750345976e-03j)  (-0.000000000000000000e+00-6.796594683996047548e-02j)
 (7.744479999999999364e+00+0.000000000000000000e+00j)  (0.000000000000000000e+00+0.000000000000000000e+00j)  (0.000000000000000000e+00+0.000000000000000000e+00j)  (-2.053839987999138070e-02+0.000000000000000000e+00j)  (-2.053839987999138070e-02+0.000000000000000000e+00j)  (-2.580931447178816396e-01+0.000000000000000000e+00j)  (7.503231642059565362e-05+0.000000000000000000e+00j)  (-0.000000000000000000e+00-2.905431369364872549e-04j)  (-0.000000000000000000e+00-3.651072738202407186e-03j)
 (7.784399999999999764e+00+0.000000000000000000e+00j)  (0.000000000000000000e+00+0.000000000000000000e+00j)  (0.000000000000000000e+00+0.000000000000000000e+00j)  (-1.996965194607789110e-02+0.000000000000000000e+00j)  (-1.996965194607789110e-02+0.000000000000000000e+00j)  (-2.509460473941736991e-01+0.000000000000000000e+00j)  (-1.231451075912894620e-03+0.000000000000000000e+00j)  (0.000000000000000000e+00+4.793053877668168421e-03j)  (0.000000000000000000e+00+6.023129140136954801e-02j)
 (7.824319999999999276e+00+0.000000000000000000e+00j)  (0.000000000000000000e+00+0.000000000000000000e+00j)  (0.000000000000000000e+00+0.000000000000000000e+00j)  (-1.816330504294614082e-02+0.000000000000000000e+00j)  (-1.816330504294614082e-02+0.000000000000000000e+00j)  (-2.282468227513201331e-01+0.000000000000000000e+00j)  (-2.435122181469045154e-03+0.000000000000000000e+00j)  (0.000000000000000000e+00+9.526587593455938460e-03j)  (0.000000000000000000e+00+1.197146303895233743e-01j)
 (7.864239999999999675e+00+0.000000000000000000e+00j)  (0.000000000000000000e+00+0.000000000000000000e+00j)  (0.000000000000000000e+00+0.000000000000000000e+00j)  (-1.524433620671434945e-02+0.000000000000000000e+00j)  (-1.524433620671434945e-02+0.000000000000000000e+00j)  (-1.915659785434667695e-01+0.000000000000000000e+00j)  (-3.463619718907635491e-03+0.000000000000000000e+00j)  (0.000000000000000000e+00+1.361936836911109040e-02j)  (0.000000000000000000e+00+1.711460304597303972e-01j)
 (7.904159999999999187e+00+0.000000000000000000e+00j)  (0.000000000000000000e+00+0.000000000000000000e+00j)  (0.000000000000000000e+00+0.000000000000000000e+00j)  (-1.140562014182036447e-02+0.000000000000000000e+00j)  (-1.140562014182036447e-02+0.000000000000000000e+00j)  (-1.433272497887145280e-01+0.000000000000000000e+00j)  (-4.256859703495496222e-03+0.000000000000000000e+00j)  (0.000000000000000000e+00+1.682345009699047836e-02j)  (0.000000000000000000e+00+2.114097089309591171e-01j)
 (7.944079999999999586e+00+0.000000000000000000e+00j)  (0.000000000000000000e+00+0.000000000000000000e+00j)  (0.000000000000000000e+00+0.000000000000000000e+00j)  (-6.895262785616254435e-03+0.000000000000000000e+00j)  (-6.895262785616254435e-03+0.000000000000000000e+00j)  (-8.664842764745246673e-02+0.000000000000000000e+00j)  (-4.770492821891058992e-03+0.000000000000000000e+00j)  (0.000000000000000000e+00+1.894858830826416304e-02j)  (0.000000000000000000e+00+2.381149833005605509e-01j)
 (7.983999999999999098e+00+0.000000000000000000e+00j)  (0.000000000000000000e+00+0.000000000000000000e+00j)  (0.000000000000000000e+00+0.000000000000000000e+00j)  (-2.000634145259482227e-03+0.000000000000000000e+00j)  (-2.000634145259482227e-03+0.000000000000000000e+00j)  (-2.514071013307233454e-02+0.000000000000000000e+00j)  (-4.978324111286782858e-03+0.000000000000000000e+00j)  (0.000000000000000000e+00+1.987346985225683579e-02j)  (0.000000000000000000e+00+2.497373875567532042e-01j)
 (8.023919999999998609e+00+0.000000000000000000e+00j)  (0.000000000000000000e+00+0.000000000000000000e+00j)  (0.000000000000000000e+00+0.000000000000000000e+00j)  (2.969876311172845069e-03+0.000000000000000000e+00j)  (2.969876311172845069e-03+0.000000000000000000e+00j)  (3.732056640500386324e-02+0.000000000000000000e+00j)  (-4.873566870090824225e-03+0.000000000000000000e+00j)  (0.000000000000000000e+00+1.955255534012957652e-02j)  (0.000000000000000000e+00+2.457046568618358184e-01j)
 (8.063839999999999009e+00+0.000000000000000000e+00j)  (0.000000000000000000e+00+0.000000000000000000e+00j)  (0.000000000000000000e+00+0.000000000000000000e+00j)  (7.706227445761213921e-03+0.000000000000000000e+00j)  (7.706227445761213921e-03+0.000000000000000000e+00j)  (9.683931012198185306e-02+0.000000000000000000e+00j)  (-4.468876798773171836e-03+0.000000000000000000e+00j)  (0.000000000000000000e+00+1.801815374250952465e-02j)  (0.000000000000000000e+00+2.264227977148774440e-01j)
 (8.103759999999999408e+00+0.000000000000000000e+00j)  (0.000000000000000000e+00+0.000000000000000000e+00j)  (0.000000000000000000e+00+0.000000000000000000e+00j)  (1.191600495344300424e-02+0.000000000000000000e+00j)  (1.191600495344300424e-02+0.000000000000000000e+00j)  (1.497409344875045012e-01+0.000000000000000000e+00j)  (-3.795188296873152917e-03+0.000000000000000000e+00j)  (0.000000000000000000e+00+1.537764755633438778e-02j)  (0.000000000000000000e+00+1.932412183698925812e-01j)
