 (0.000000000000000000e+00+0.000000000000000000e+00j)  (0.000000000000000000e+00+0.000000000000000000e+00j)  (0.000000000000000000e+00+0.000000000000000000e+00j)  (1.000000000000000000e+00+0.000000000000000000e+00j)  (5.000000000000000000e-01+0.000000000000000000e+00j)  (3.141592653589793116e+00+0.000000000000000000e+00j)  (5.235987755982988157e-01+0.000000000000000000e+00j)  (0.000000000000000000e+00+0.000000000000000000e+00j)  (0.000000000000000000e+00+0.000000000000000000e+00j)
 (1.999599999999999642e-02+0.000000000000000000e+00j)  (0.000000000000000000e+00+0.000000000000000000e+00j)  (0.000000000000000000e+00+0.000000000000000000e+00j)  (9.993424192991158250e-01+0.000000000000000000e+00j)  (4.996712096495579125e-01+0.000000000000000000e+00j)  (3.139526802890753032e+00+0.000000000000000000e+00j)  (5.233921788815223408e-01+0.000000000000000000e+00j)  (-0.000000000000000000e+00-1.046575000891398870e-02j)  (-0.000000000000000000e+00-6.575824668462298961e-02j)
 (3.999199999999999283e-02+0.000000000000000000e+00j)  (0.000000000000000000e+00+0.000000000000000000e+00j)  (0.000000000000000000e+00+0.000000000000000000e+00j)  (9.973712337640173731e-01+0.000000000000000000e+00j)  (4.986856168820086865e-01+0.000000000000000000e+00j)  (3.133334140894825204e+00+0.000000000000000000e+00j)  (5.227727380606097540e-01+0.000000000000000000e+00j)  (-0.000000000000000000e+00-2.090672734052020573e-02j)  (-0.000000000000000000e+00-1.313608420471663041e-01j)
 (5.998799999999998578e-02+0.000000000000000000e+00j)  (0.000000000000000000e+00+0.000000000000000000e+00j)  (0.000000000000000000e+00+0.000000000000000000e+00j)  (9.940911087110834155e-01+0.000000000000000000e+00j)  (4.970455543555417077e-01+0.000000000000000000e+00j)  (3.123029324125671913e+00+0.000000000000000000e+00j)  (5.217415003581677979e-01+0.000000000000000000e+00j)  (-0.000000000000000000e+00-3.129822912348567687e-02j)  (-0.000000000000000000e+00-1.966525733694254041e-01j)
 (7.998399999999998566e-02+0.000000000000000000e+00j)  (0.000000000000000000e+00+0.000000000000000000e+00j)  (0.000000000000000000e+00+0.000000000000000000e+00j)  (9.895098050601245365e-01+0.000000000000000000e+00j)  (4.947549025300622683e-01+0.000000000000000000e+00j)  (3.108636734231955412e+00+0.000000000000000000e+00j)  (5.203002085948540412e-01+0.000000000000000000e+00j)  (-0.000000000000000000e+00-4.161569188425089105e-02j)  (-0.000000000000000000e+00-2.614791037952379771e-01j)
 (9.997999999999998555e-02+0.000000000000000000e+00j)  (0.000000000000000000e+00+0.000000000000000000e+00j)  (0.000000000000000000e+00+0.000000000000000000e+00j)  (9.836381574702152131e-01+0.000000000000000000e+00j)  (4.918190787351076065e-01+0.000000000000000000e+00j)  (3.090190409299028218e+00+0.000000000000000000e+00j)  (5.184512973707970929e-01+0.000000000000000000e+00j)  (-0.000000000000000000e+00-5.183476071113208433e-02j)  (-0.000000000000000000e+00-3.256874069013548367e-01j)
 (1.199759999999999716e-01+0.000000000000000000e+00j)  (0.000000000000000000e+00+0.000000000000000000e+00j)  (0.000000000000000000e+00+0.000000000000000000e+00j)  (9.764900438238253155e-01+0.000000000000000000e+00j)  (4.882450219119126578e-01+0.000000000000000000e+00j)  (3.067733947980504805e+00+0.000000000000000000e+00j)  (5.161978877328134985e-01+0.000000000000000000e+00j)  (-0.000000000000000000e+00-6.193135777863196384e-02j)  (-0.000000000000000000e+00-3.891261972483825438e-01j)
 (1.399719999999999853e-01+0.000000000000000000e+00j)  (0.000000000000000000e+00+0.000000000000000000e+00j)  (0.000000000000000000e+00+0.000000000000000000e+00j)  (9.680823461528582641e-01+0.000000000000000000e+00j)  (4.840411730764291320e-01+0.000000000000000000e+00j)  (3.041320386743791016e+00+0.000000000000000000e+00j)  (5.135437803410454194e-01+0.000000000000000000e+00j)  (-0.000000000000000000e+00-7.188175002189679808e-02j)  (-0.000000000000000000e+00-4.516463555919378314e-01j)
 (1.599679999999999713e-01+0.000000000000000000e+00j)  (0.000000000000000000e+00+0.000000000000000000e+00j)  (0.000000000000000000e+00+0.000000000000000000e+00j)  (9.584349031264203234e-01+0.000000000000000000e+00j)  (4.792174515632101617e-01+0.000000000000000000e+00j)  (3.011012050606006962e+00+0.000000000000000000e+00j)  (5.104934471520055084e-01+0.000000000000000000e+00j)  (-0.000000000000000000e+00-8.166261575401205508e-02j)  (-0.000000000000000000e+00-5.131013474514607431e-01j)
 (1.799639999999999573e-01+0.000000000000000000e+00j)  (0.000000000000000000e+00+0.000000000000000000e+00j)  (0.000000000000000000e+00+0.000000000000000000e+00j)  (9.475704542459936208e-01+0.000000000000000000e+00j)  (4.737852271229968104e-01+0.000000000000000000e+00j)  (2.976880377817956447e+00+0.000000000000000000e+00j)  (5.070520216390228541e-01+0.000000000000000000e+00j)  (-0.000000000000000000e+00-9.125111002224525758e-02j)  (-0.000000000000000000e+00-5.733476337555993840e-01j)
 (1.999599999999999711e-01+0.000000000000000000e+00j)  (0.000000000000000000e+00+0.000000000000000000e+00j)  (0.000000000000000000e+00+0.000000000000000000e+00j)  (9.355145759190465204e-01+0.000000000000000000e+00j)  (4.677572879595232602e-01+0.000000000000000000e+00j)  (2.939005719033447317e+00+0.000000000000000000e+00j)  (5.032252875745011345e-01+0.000000000000000000e+00j)  (-0.000000000000000000e+00-1.006249285033971597e-01j)  (-0.000000000000000000e+00-6.322450723085414337e-01j)
 (2.199559999999999571e-01+0.000000000000000000e+00j)  (0.000000000000000000e+00+0.000000000000000000e+00j)  (0.000000000000000000e+00+0.000000000000000000e+00j)  (9.222956096069366838e-01+0.000000000000000000e+00j)  (4.611478048034683419e-01+0.000000000000000000e+00j)  (2.897477111579271902e+00+0.000000000000000000e+00j)  (4.990196664021331330e-01+0.000000000000000000e+00j)  (-0.000000000000000000e+00-1.097623697431476253e-01j)  (-0.000000000000000000e+00-6.896573088513583416e-01j)
 (2.399519999999999431e-01+0.000000000000000000e+00j)  (0.000000000000000000e+00+0.000000000000000000e+00j)  (0.000000000000000000e+00+0.000000000000000000e+00j)  (9.079445822671454724e-01+0.000000000000000000e+00j)  (4.539722911335727362e-01+0.000000000000000000e+00j)  (2.852392029517117678e+00+0.000000000000000000e+00j)  (4.944422032307036474e-01+0.000000000000000000e+00j)  (-0.000000000000000000e+00-1.186423955496137828e-01j)  (-0.000000000000000000e+00-7.454521565259221161e-01j)
 (2.599479999999999569e-01+0.000000000000000000e+00j)  (0.000000000000000000e+00+0.000000000000000000e+00j)  (0.000000000000000000e+00+0.000000000000000000e+00j)  (8.924951193333592325e-01+0.000000000000000000e+00j)  (4.462475596666796163e-01+0.000000000000000000e+00j)  (2.803856110262426871e+00+0.000000000000000000e+00j)  (4.895005514844832373e-01+0.000000000000000000e+00j)  (-0.000000000000000000e+00-1.272446893572884430e-01j)  (-0.000000000000000000e+00-7.995019625863454271e-01j)
 (2.799439999999999706e-01+0.000000000000000000e+00j)  (0.000000000000000000e+00+0.000000000000000000e+00j)  (0.000000000000000000e+00+0.000000000000000000e+00j)  (8.759833504996056286e-01+0.000000000000000000e+00j)  (4.379916752498028143e-01+0.000000000000000000e+00j)  (2.751982858596534243e+00+0.000000000000000000e+00j)  (4.842029562486327432e-01+0.000000000000000000e+00j)  (-0.000000000000000000e+00-1.355497123840672669e-01j)  (-0.000000000000000000e+00-8.516839612439902618e-01j)
 (2.999399999999999289e-01+0.000000000000000000e+00j)  (0.000000000000000000e+00+0.000000000000000000e+00j)  (0.000000000000000000e+00+0.000000000000000000e+00j)  (8.584478085964857286e-01+0.000000000000000000e+00j)  (4.292239042982428643e-01+0.000000000000000000e+00j)  (2.696893328976976534e+00+0.000000000000000000e+00j)  (4.785582363511902138e-01+0.000000000000000000e+00j)  (-0.000000000000000000e+00-1.435387574111760267e-01j)  (-0.000000000000000000e+00-9.018806115767161735e-01j)
 (3.199359999999999427e-01+0.000000000000000000e+00j)  (0.000000000000000000e+00+0.000000000000000000e+00j)  (0.000000000000000000e+00+0.000000000000000000e+00j)  (8.399293218684502627e-01+0.000000000000000000e+00j)  (4.199646609342251313e-01+0.000000000000000000e+00j)  (2.638715787116579836e+00+0.000000000000000000e+00j)  (4.725757652263842257e-01+0.000000000000000000e+00j)  (-0.000000000000000000e+00-1.511940000234684722e-01j)  (-0.000000000000000000e+00-9.499799194811672232e-01j)
 (3.399319999999999564e-01+0.000000000000000000e+00j)  (0.000000000000000000e+00+0.000000000000000000e+00j)  (0.000000000000000000e+00+0.000000000000000000e+00j)  (8.204708999809818826e-01+0.000000000000000000e+00j)  (4.102354499904909413e-01+0.000000000000000000e+00j)  (2.577585351864458918e+00+0.000000000000000000e+00j)  (4.662654506069618954e-01+0.000000000000000000e+00j)  (-0.000000000000000000e+00-1.584985471557258108e-01j)  (-0.000000000000000000e+00-9.958757426981671435e-01j)
 (3.599279999999999147e-01+0.000000000000000000e+00j)  (0.000000000000000000e+00+0.000000000000000000e+00j)  (0.000000000000000000e+00+0.000000000000000000e+00j)  (8.001176141053994995e-01+0.000000000000000000e+00j)  (4.000588070526997497e-01+0.000000000000000000e+00j)  (2.513643618481316011e+00+0.000000000000000000e+00j)  (4.596377130961214474e-01+0.000000000000000000e+00j)  (-0.000000000000000000e+00-1.654364827992607645e-01j)  (-0.000000000000000000e+00-1.039468077995783668e+00j)
 (3.799239999999999284e-01+0.000000000000000000e+00j)  (0.000000000000000000e+00+0.000000000000000000e+00j)  (0.000000000000000000e+00+0.000000000000000000e+00j)  (7.789164714467333717e-01+0.000000000000000000e+00j)  (3.894582357233666858e-01+0.000000000000000000e+00j)  (2.447038264457141565e+00+0.000000000000000000e+00j)  (4.527034636723413219e-01+0.000000000000000000e+00j)  (-0.000000000000000000e+00-1.719929107322505646e-01j)  (-0.000000000000000000e+00-1.080663329651926796e+00j)
 (3.999199999999999422e-01+0.000000000000000000e+00j)  (0.000000000000000000e+00+0.000000000000000000e+00j)  (0.000000000000000000e+00+0.000000000000000000e+00j)  (7.569162845966947994e-01+0.000000000000000000e+00j)  (3.784581422983473997e-01+0.000000000000000000e+00j)  (2.377922639071457400e+00+0.000000000000000000e+00j)  (4.454740801829852326e-01+0.000000000000000000e+00j)  (-0.000000000000000000e+00-1.781539941467794319e-01j)  (-0.000000000000000000e+00-1.119374558438402500e+00j)
 (4.199159999999999004e-01+0.000000000000000000e+00j)  (0.000000000000000000e+00+0.000000000000000000e+00j)  (0.000000000000000000e+00+0.000000000000000000e+00j)  (7.341675361090845842e-01+0.000000000000000000e+00j)  (3.670837680545422921e-01+0.000000000000000000e+00j)  (2.306455337944419259e+00+0.000000000000000000e+00j)  (4.379613828849978630e-01+0.000000000000000000e+00j)  (-0.000000000000000000e+00-1.839069920555367055e-01j)  (-0.000000000000000000e+00-1.155521710370941202e+00j)
 (4.399119999999999142e-01+0.000000000000000000e+00j)  (0.000000000000000000e+00+0.000000000000000000e+00j)  (0.000000000000000000e+00+0.000000000000000000e+00j)  (7.107222387090592619e-01+0.000000000000000000e+00j)  (3.553611193545296310e-01+0.000000000000000000e+00j)  (2.232799763871271992e+00+0.000000000000000000e+00j)  (4.301776090932685204e-01+0.000000000000000000e+00j)  (-0.000000000000000000e+00-1.892402923714378848e-01j)  (-0.000000000000000000e+00-1.189031824554587669e+00j)
 (4.599079999999999280e-01+0.000000000000000000e+00j)  (0.000000000000000000e+00+0.000000000000000000e+00j)  (0.000000000000000000e+00+0.000000000000000000e+00j)  (6.866337915604128206e-01+0.000000000000000000e+00j)  (3.433168957802064103e-01+0.000000000000000000e+00j)  (2.157123675272698105e+00+0.000000000000000000e+00j)  (4.221353869993519359e-01+0.000000000000000000e+00j)  (-0.000000000000000000e+00-1.941434415640979072e-01j)  (-0.000000000000000000e+00-1.219839219520818530e+00j)
 (4.799039999999998862e-01+0.000000000000000000e+00j)  (0.000000000000000000e+00+0.000000000000000000e+00j)  (0.000000000000000000e+00+0.000000000000000000e+00j)  (6.619568330264133937e-01+0.000000000000000000e+00j)  (3.309784165132066969e-01+0.000000000000000000e+00j)  (2.079598723629345614e+00+0.000000000000000000e+00j)  (4.138477087251785091e-01+0.000000000000000000e+00j)  (-0.000000000000000000e+00-1.986071708080479892e-01j)  (-0.000000000000000000e+00-1.247885657521633718e+00j)
 (4.998999999999999000e-01+0.000000000000000000e+00j)  (0.000000000000000000e+00+0.000000000000000000e+00j)  (0.000000000000000000e+00+0.000000000000000000e+00j)  (6.367470903697292073e-01+0.000000000000000000e+00j)  (3.183735451848646036e-01+0.000000000000000000e+00j)  (2.000399981300217345e+00+0.000000000000000000e+00j)  (4.053279026781417826e-01+0.000000000000000000e+00j)  (-0.000000000000000000e+00-2.026234185488030304e-01j)  (-0.000000000000000000e+00-1.273120486316338784e+00j)
 (5.198959999999999138e-01+0.000000000000000000e+00j)  (0.000000000000000000e+00+0.000000000000000000e+00j)  (0.000000000000000000e+00+0.000000000000000000e+00j)  (6.110612268455449803e-01+0.000000000000000000e+00j)  (3.055306134227724901e-01+0.000000000000000000e+00j)  (1.919705461151530290e+00+0.000000000000000000e+00j)  (3.965896052755408796e-01+0.000000000000000000e+00j)  (-0.000000000000000000e+00-2.061853494243325591e-01j)  (-0.000000000000000000e+00-1.295500758058655499e+00j)
 (5.398919999999999275e-01+0.000000000000000000e+00j)  (0.000000000000000000e+00+0.000000000000000000e+00j)  (0.000000000000000000e+00+0.000000000000000000e+00j)  (5.849566866490829575e-01+0.000000000000000000e+00j)  (2.924783433245414788e-01+0.000000000000000000e+00j)  (1.837695629444985546e+00+0.000000000000000000e+00j)  (3.876467321077631811e-01+0.000000000000000000e+00j)  (-0.000000000000000000e+00-2.092873694911245031e-01j)  (-0.000000000000000000e+00-1.314991324964898789e+00j)
 (5.598879999999999413e-01+0.000000000000000000e+00j)  (0.000000000000000000e+00+0.000000000000000000e+00j)  (0.000000000000000000e+00+0.000000000000000000e+00j)  (5.584915381843912341e-01+0.000000000000000000e+00j)  (2.792457690921956170e-01+0.000000000000000000e+00j)  (1.754552913452146923e+00+0.000000000000000000e+00j)  (3.785134486107957219e-01+0.000000000000000000e+00j)  (-0.000000000000000000e+00-2.119251377158011818e-01j)  (-0.000000000000000000e+00-1.331564911517932215e+00j)
 (5.798839999999998440e-01+0.000000000000000000e+00j)  (0.000000000000000000e+00+0.000000000000000000e+00j)  (0.000000000000000000e+00+0.000000000000000000e+00j)  (5.317243161254225914e-01+0.000000000000000000e+00j)  (2.658621580627112957e-01+0.000000000000000000e+00j)  (1.670461205274684557e+00+0.000000000000000000e+00j)  (3.692041403196960059e-01+0.000000000000000000e+00j)  (-0.000000000000000000e+00-2.140955737051465080e-01j)  (-0.000000000000000000e+00-1.345202163036360643e+00j)
 (5.998799999999998578e-01+0.000000000000000000e+00j)  (0.000000000000000000e+00+0.000000000000000000e+00j)  (0.000000000000000000e+00+0.000000000000000000e+00j)  (5.047138627430790558e-01+0.000000000000000000e+00j)  (2.523569313715395279e-01+0.000000000000000000e+00j)  (1.585605363358584263e+00+0.000000000000000000e+00j)  (3.597333827754771729e-01+0.000000000000000000e+00j)  (-0.000000000000000000e+00-2.157968616593531896e-01j)  (-0.000000000000000000e+00-1.355891670513513780e+00j)
 (6.198759999999998715e-01+0.000000000000000000e+00j)  (0.000000000000000000e+00+0.000000000000000000e+00j)  (0.000000000000000000e+00+0.000000000000000000e+00j)  (4.775191689730632350e-01+0.000000000000000000e+00j)  (2.387595844865316175e-01+0.000000000000000000e+00j)  (1.500170713194078465e+00+0.000000000000000000e+00j)  (3.501159111585090411e-01+0.000000000000000000e+00j)  (-0.000000000000000000e+00-2.170284505452919344e-01j)  (-0.000000000000000000e+00-1.363629971706129540e+00j)
 (6.398719999999998853e-01+0.000000000000000000e+00j)  (0.000000000000000000e+00+0.000000000000000000e+00j)  (0.000000000000000000e+00+0.000000000000000000e+00j)  (4.501992156990186622e-01+0.000000000000000000e+00j)  (2.250996078495093311e-01+0.000000000000000000e+00j)  (1.414342548691923662e+00+0.000000000000000000e+00j)  (3.403665897219830261e-01+0.000000000000000000e+00j)  (-0.000000000000000000e+00-2.177910504985846873e-01j)  (-0.000000000000000000e+00-1.368421528527914655e+00j)
 (6.598679999999998991e-01+0.000000000000000000e+00j)  (0.000000000000000000e+00+0.000000000000000000e+00j)  (0.000000000000000000e+00+0.000000000000000000e+00j)  (4.228128157235884754e-01+0.000000000000000000e+00j)  (2.114064078617942377e-01+0.000000000000000000e+00j)  (1.328305635720840483e+00+0.000000000000000000e+00j)  (3.305003810992396818e-01+0.000000000000000000e+00j)  (-0.000000000000000000e+00-2.180866254751930300e-01j)  (-0.000000000000000000e+00-1.370278680878110222e+00j)
 (6.798639999999999128e-01+0.000000000000000000e+00j)  (0.000000000000000000e+00+0.000000000000000000e+00j)  (0.000000000000000000e+00+0.000000000000000000e+00j)  (3.954184568966804814e-01+0.000000000000000000e+00j)  (1.977092284483402407e-01+0.000000000000000000e+00j)  (1.242243719280423653e+00+0.000000000000000000e+00j)  (3.205323155588144513e-01+0.000000000000000000e+00j)  (-0.000000000000000000e+00-2.179183821850778080e-01j)  (-0.000000000000000000e+00-1.369221577109626553e+00j)
 (6.998599999999999266e-01+0.000000000000000000e+00j)  (0.000000000000000000e+00+0.000000000000000000e+00j)  (0.000000000000000000e+00+0.000000000000000000e+00j)  (3.680741468653906390e-01+0.000000000000000000e+00j)  (1.840370734326953195e-01+0.000000000000000000e+00j)  (1.156339035768641610e+00+0.000000000000000000e+00j)  (3.104774602809155515e-01+0.000000000000000000e+00j)  (-0.000000000000000000e+00-2.172907553522015478e-01j)  (-0.000000000000000000e+00-1.365278081414906808e+00j)
 (7.198559999999998293e-01+0.000000000000000000e+00j)  (0.000000000000000000e+00+0.000000000000000000e+00j)  (0.000000000000000000e+00+0.000000000000000000e+00j)  (3.408372599037530759e-01+0.000000000000000000e+00j)  (1.704186299518765380e-01+0.000000000000000000e+00j)  (1.070771831783305705e+00+0.000000000000000000e+00j)  (3.003508887287167917e-01+0.000000000000000000e+00j)  (-0.000000000000000000e+00-2.162093893566990888e-01j)  (-0.000000000000000000e+00-1.358483658480282186e+00j)
 (7.398519999999998431e-01+0.000000000000000000e+00j)  (0.000000000000000000e+00+0.000000000000000000e+00j)  (0.000000000000000000e+00+0.000000000000000000e+00j)  (3.137643862727544364e-01+0.000000000000000000e+00j)  (1.568821931363772182e-01+0.000000000000000000e+00j)  (9.857198908725954833e-01+0.000000000000000000e+00j)  (2.901676501873156067e-01+0.000000000000000000e+00j)  (-0.000000000000000000e+00-2.146811163263857292e-01j)  (-0.000000000000000000e+00-1.348881235830858394e+00j)
 (7.598479999999998569e-01+0.000000000000000000e+00j)  (0.000000000000000000e+00+0.000000000000000000e+00j)  (0.000000000000000000e+00+0.000000000000000000e+00j)  (2.869111845519083936e-01+0.000000000000000000e+00j)  (1.434555922759541968e-01+0.000000000000000000e+00j)  (9.013580696210208298e-01+0.000000000000000000e+00j)  (2.799427395424953779e-01+0.000000000000000000e+00j)  (-0.000000000000000000e+00-2.127139307558860160e-01j)  (-0.000000000000000000e+00-1.336521044357798838e+00j)
 (7.798439999999998706e-01+0.000000000000000000e+00j)  (0.000000000000000000e+00+0.000000000000000000e+00j)  (0.000000000000000000e+00+0.000000000000000000e+00j)  (2.603322373731699613e-01+0.000000000000000000e+00j)  (1.301661186865849806e-01+0.000000000000000000e+00j)  (8.178578444241448864e-01+0.000000000000000000e+00j)  (2.696910673705172345e-01+0.000000000000000000e+00j)  (-0.000000000000000000e+00-2.103169607424936471e-01j)  (-0.000000000000000000e+00-1.321460437587901771e+00j)
 (7.998399999999998844e-01+0.000000000000000000e+00j)  (0.000000000000000000e+00+0.000000000000000000e+00j)  (0.000000000000000000e+00+0.000000000000000000e+00j)  (2.340809109761078366e-01+0.000000000000000000e+00j)  (1.170404554880539183e-01+0.000000000000000000e+00j)  (7.353868702681467528e-01+0.000000000000000000e+00j)  (2.594274304090785077e-01+0.000000000000000000e+00j)  (-0.000000000000000000e+00-2.075004359383973429e-01j)  (-0.000000000000000000e+00-1.303763690321497082e+00j)
 (8.198359999999998982e-01+0.000000000000000000e+00j)  (0.000000000000000000e+00+0.000000000000000000e+00j)  (0.000000000000000000e+00+0.000000000000000000e+00j)  (2.082092189900933976e-01+0.000000000000000000e+00j)  (1.041046094950466988e-01+0.000000000000000000e+00j)  (6.541085527889458628e-01+0.000000000000000000e+00j)  (2.491664824782983956e-01+0.000000000000000000e+00j)  (-0.000000000000000000e+00-2.042756523290782389e-01j)  (-0.000000000000000000e+00-1.283501777328589721e+00j)
 (8.398319999999998009e-01+0.000000000000000000e+00j)  (0.000000000000000000e+00+0.000000000000000000e+00j)  (0.000000000000000000e+00+0.000000000000000000e+00j)  (1.827676908348466467e-01+0.000000000000000000e+00j)  (9.138384541742332334e-02+0.000000000000000000e+00j)  (5.741816348403248060e-01+0.000000000000000000e+00j)  (2.389227059191418590e-01+0.000000000000000000e+00j)  (-0.000000000000000000e+00-2.006549339574847102e-01j)  (-0.000000000000000000e+00-1.260752132854757956e+00j)
 (8.598279999999998147e-01+0.000000000000000000e+00j)  (0.000000000000000000e+00+0.000000000000000000e+00j)  (0.000000000000000000e+00+0.000000000000000000e+00j)  (1.578052451150628310e-01+0.000000000000000000e+00j)  (7.890262255753141551e-02+0.000000000000000000e+00j)  (4.957597987514180127e-01+0.000000000000000000e+00j)  (2.287103836150631841e-01+0.000000000000000000e+00j)  (-0.000000000000000000e+00-1.966515917229725019e-01j)  (-0.000000000000000000e+00-1.235598391747259495e+00j)
 (8.798239999999998284e-01+0.000000000000000000e+00j)  (0.000000000000000000e+00+0.000000000000000000e+00j)  (0.000000000000000000e+00+0.000000000000000000e+00j)  (1.333690683680668621e-01+0.000000000000000000e+00j)  (6.668453418403343103e-02+0.000000000000000000e+00j)  (4.189912854012337040e-01+0.000000000000000000e+00j)  (2.185435716608621626e-01+0.000000000000000000e+00j)  (-0.000000000000000000e+00-1.922798793929463568e-01j)  (-0.000000000000000000e+00-1.208130113068023315e+00j)
 (8.998199999999998422e-01+0.000000000000000000e+00j)  (0.000000000000000000e+00+0.000000000000000000e+00j)  (0.000000000000000000e+00+0.000000000000000000e+00j)  (1.095044995055757392e-01+0.000000000000000000e+00j)  (5.475224975278786960e-02+0.000000000000000000e+00j)  (3.440185311817439140e-01+0.000000000000000000e+00j)  (2.084360727407847669e-01+0.000000000000000000e+00j)  (-0.000000000000000000e+00-1.875549469736129404e-01j)  (-0.000000000000000000e+00-1.178442487113451120e+00j)
 (9.198159999999998560e-01+0.000000000000000000e+00j)  (0.000000000000000000e+00+0.000000000000000000e+00j)  (0.000000000000000000e+00+0.000000000000000000e+00j)  (8.625492027175052367e-02+0.000000000000000000e+00j)  (4.312746013587526184e-02+0.000000000000000000e+00j)  (2.709778238617047696e-01+0.000000000000000000e+00j)  (1.984014102757913345e-01+0.000000000000000000e+00j)  (-0.000000000000000000e+00-1.824927915942372580e-01j)  (-0.000000000000000000e+00-1.146636026811097775e+00j)
 (9.398119999999998697e-01+0.000000000000000000e+00j)  (0.000000000000000000e+00+0.000000000000000000e+00j)  (0.000000000000000000e+00+0.000000000000000000e+00j)  (6.366165201984450017e-02+0.000000000000000000e+00j)  (3.183082600992225009e-02+0.000000000000000000e+00j)  (1.999989783009333000e-01+0.000000000000000000e+00j)  (1.884528033976476669e-01+0.000000000000000000e+00j)  (-0.000000000000000000e+00-1.771102060667499867e-01j)  (-0.000000000000000000e+00-1.112816244510152375e+00j)
 (9.598079999999997725e-01+0.000000000000000000e+00j)  (0.000000000000000000e+00+0.000000000000000000e+00j)  (0.000000000000000000e+00+0.000000000000000000e+00j)  (4.176385908898088556e-02+0.000000000000000000e+00j)  (2.088192954449044278e-02+0.000000000000000000e+00j)  (1.312050328995016391e-01+0.000000000000000000e+00j)  (1.786031428050927072e-01+0.000000000000000000e+00j)  (-0.000000000000000000e+00-1.714247252894703644e-01j)  (-0.000000000000000000e+00-1.077093315226097081e+00j)
 (9.798039999999997862e-01+0.000000000000000000e+00j)  (0.000000000000000000e+00+0.000000000000000000e+00j)  (0.000000000000000000e+00+0.000000000000000000e+00j)  (2.059845904098677252e-02+0.000000000000000000e+00j)  (1.029922952049338626e-02+0.000000000000000000e+00j)  (6.471196759843429736e-02+0.000000000000000000e+00j)  (1.688649675547872486e-01+0.000000000000000000e+00j)  (-0.000000000000000000e+00-1.654545706700507601e-01j)  (-0.000000000000000000e+00-1.039581727439769399e+00j)
 (9.997999999999998000e-01+0.000000000000000000e+00j)  (0.000000000000000000e+00+0.000000000000000000e+00j)  (0.000000000000000000e+00+0.000000000000000000e+00j)  (2.000399948397201520e-04+0.000000000000000000e+00j)  (1.000199974198600760e-04+0.000000000000000000e+00j)  (6.284441782126049675e-04+0.000000000000000000e+00j)  (1.592504428370818126e-01+0.000000000000000000e+00j)  (-0.000000000000000000e+00-1.592185927485143815e-01j)  (-0.000000000000000000e+00-1.000399922587275725e+00j)
 (1.019795999999999925e+00+0.000000000000000000e+00j)  (0.000000000000000000e+00+0.000000000000000000e+00j)  (0.000000000000000000e+00+0.000000000000000000e+00j)  (-1.939921472677105796e-02+0.000000000000000000e+00j)  (-9.699607363385528980e-03+0.000000000000000000e+00j)  (-6.094443047103487859e-02+0.000000000000000000e+00j)  (1.497713387838436605e-01+0.000000000000000000e+00j)  (-0.000000000000000000e+00-1.527362122064085947e-01j)  (-0.000000000000000000e+00-9.596699244095699965e-01j)
 (1.039791999999999828e+00+0.000000000000000000e+00j)  (0.000000000000000000e+00+0.000000000000000000e+00j)  (0.000000000000000000e+00+0.000000000000000000e+00j)  (-3.816959444792797362e-02+0.000000000000000000e+00j)  (-1.908479722396398681e-02+0.000000000000000000e+00j)  (-1.199133175081122660e-01+0.000000000000000000e+00j)  (1.404390103526810540e-01+0.000000000000000000e+00j)  (-0.000000000000000000e+00-1.460273594526348973e-01j)  (-0.000000000000000000e+00-9.175169593590277728e-01j)
 (1.059787999999999730e+00+0.000000000000000000e+00j)  (0.000000000000000000e+00+0.000000000000000000e+00j)  (0.000000000000000000e+00+0.000000000000000000e+00j)  (-5.608392132036837258e-02+0.000000000000000000e+00j)  (-2.804196066018418629e-02+0.000000000000000000e+00j)  (-1.761928352045772361e-01+0.000000000000000000e+00j)  (1.312643783288895416e-01+0.000000000000000000e+00j)  (-0.000000000000000000e+00-1.391124129804171550e-01j)  (-0.000000000000000000e+00-8.740690692848559484e-01j)
 (1.079783999999999855e+00+0.000000000000000000e+00j)  (0.000000000000000000e+00+0.000000000000000000e+00j)  (0.000000000000000000e+00+0.000000000000000000e+00j)  (-7.311760269276423863e-02+0.000000000000000000e+00j)  (-3.655880134638211931e-02+0.000000000000000000e+00j)  (-2.297057234676854187e-01+0.000000000000000000e+00j)  (1.222579114833423630e-01+0.000000000000000000e+00j)  (-0.000000000000000000e+00-1.320121366931293616e-01j)  (-0.000000000000000000e+00-8.294567176396535624e-01j)
 (1.099779999999999758e+00+0.000000000000000000e+00j)  (0.000000000000000000e+00+0.000000000000000000e+00j)  (0.000000000000000000e+00+0.000000000000000000e+00j)  (-8.924867555140734987e-02+0.000000000000000000e+00j)  (-4.462433777570367494e-02+0.000000000000000000e+00j)  (-2.803829834549202982e-01+0.000000000000000000e+00j)  (1.134296099213523284e-01+0.000000000000000000e+00j)  (-0.000000000000000000e+00-1.247476163993048309e-01j)  (-0.000000000000000000e+00-7.838123904657873231e-01j)
 (1.119775999999999883e+00+0.000000000000000000e+00j)  (0.000000000000000000e+00+0.000000000000000000e+00j)  (0.000000000000000000e+00+0.000000000000000000e+00j)  (-1.044578429406096548e-01+0.000000000000000000e+00j)  (-5.222892147030482740e-02+0.000000000000000000e+00j)  (-3.281639919920557591e-01+0.000000000000000000e+00j)  (1.047889896542632260e-01+0.000000000000000000e+00j)  (-0.000000000000000000e+00-1.173401956790922490e-01j)  (-0.000000000000000000e+00-7.372701934324500384e-01j)
 (1.139771999999999785e+00+0.000000000000000000e+00j)  (0.000000000000000000e+00+0.000000000000000000e+00j)  (0.000000000000000000e+00+0.000000000000000000e+00j)  (-1.187285022966187431e-01+0.000000000000000000e+00j)  (-5.936425114830937155e-02+0.000000000000000000e+00j)  (-3.729965905867763110e-01+0.000000000000000000e+00j)  (9.634506842219499323e-02+0.000000000000000000e+00j)  (-0.000000000000000000e+00-1.098114113257020186e-01j)  (-0.000000000000000000e+00-6.899654462023049328e-01j)
 (1.159767999999999688e+00+0.000000000000000000e+00j)  (0.000000000000000000e+00+0.000000000000000000e+00j)  (0.000000000000000000e+00+0.000000000000000000e+00j)  (-1.320467656544793700e-01+0.000000000000000000e+00j)  (-6.602338282723968499e-02+0.000000000000000000e+00j)  (-4.148371489104054066e-01+0.000000000000000000e+00j)  (8.810635279296413769e-02+0.000000000000000000e+00j)  (-0.000000000000000000e+00-1.021829285659904274e-01j)  (-0.000000000000000000e+00-6.420342754104122474e-01j)
 (1.179763999999999813e+00+0.000000000000000000e+00j)  (0.000000000000000000e+00+0.000000000000000000e+00j)  (0.000000000000000000e+00+0.000000000000000000e+00j)  (-1.444014717129114833e-01+0.000000000000000000e+00j)  (-7.220073585645574166e-02+0.000000000000000000e+00j)  (-4.536506027008370134e-01+0.000000000000000000e+00j)  (8.008082655876394562e-02+0.000000000000000000e+00j)  (-0.000000000000000000e+00-9.447647626427355116e-02j)  (-0.000000000000000000e+00-5.936132075377845707e-01j)
 (1.199759999999999716e+00+0.000000000000000000e+00j)  (0.000000000000000000e+00+0.000000000000000000e+00j)  (0.000000000000000000e+00+0.000000000000000000e+00j)  (-1.557841897678869658e-01+0.000000000000000000e+00j)  (-7.789209488394348291e-02+0.000000000000000000e+00j)  (-4.894104661202319240e-01+0.000000000000000000e+00j)  (7.227594044869972700e-02+0.000000000000000000e+00j)  (-0.000000000000000000e+00-8.671378231273195458e-02j)  (-0.000000000000000000e+00-5.448387629573264723e-01j)
 (1.219755999999999840e+00+0.000000000000000000e+00j)  (0.000000000000000000e+00+0.000000000000000000e+00j)  (0.000000000000000000e+00+0.000000000000000000e+00j)  (-1.661892155510536762e-01+0.000000000000000000e+00j)  (-8.309460777552683808e-02+0.000000000000000000e+00j)  (-5.220988186810409104e-01+0.000000000000000000e+00j)  (6.469860317176459596e-02+0.000000000000000000e+00j)  (-0.000000000000000000e+00-7.891650941037887945e-02j)  (-0.000000000000000000e+00-4.958470524211920916e-01j)
 (1.239751999999999743e+00+0.000000000000000000e+00j)  (0.000000000000000000e+00+0.000000000000000000e+00j)  (0.000000000000000000e+00+0.000000000000000000e+00j)  (-1.756135590344075070e-01+0.000000000000000000e+00j)  (-8.780677951720375352e-02+0.000000000000000000e+00j)  (-5.517062669332520874e-01+0.000000000000000000e+00j)  (5.735517380130961823e-02+0.000000000000000000e+00j)  (-0.000000000000000000e+00-7.110619143052118729e-02j)  (-0.000000000000000000e+00-4.467733772457497254e-01j)
 (1.259747999999999868e+00+0.000000000000000000e+00j)  (0.000000000000000000e+00+0.000000000000000000e+00j)  (0.000000000000000000e+00+0.000000000000000000e+00j)  (-1.840569242875750300e-01+0.000000000000000000e+00j)  (-9.202846214378751499e-02+0.000000000000000000e+00j)  (-5.782318811841784534e-01+0.000000000000000000e+00j)  (5.025145550851836673e-02+0.000000000000000000e+00j)  (-0.000000000000000000e+00-6.330417057394498170e-02j)  (-0.000000000000000000e+00-3.977518344334013967e-01j)
 (1.279743999999999771e+00+0.000000000000000000e+00j)  (0.000000000000000000e+00+0.000000000000000000e+00j)  (0.000000000000000000e+00+0.000000000000000000e+00j)  (-1.915216814986390459e-01+0.000000000000000000e+00j)  (-9.576084074931952295e-02+0.000000000000000000e+00j)  (-6.016831075992885580e-01+0.000000000000000000e+00j)  (4.339269064886012994e-02+0.000000000000000000e+00j)  (-0.000000000000000000e+00-5.553153550173483416e-02j)  (-0.000000000000000000e+00-3.489149279496219225e-01j)
 (1.299739999999999673e+00+0.000000000000000000e+00j)  (0.000000000000000000e+00+0.000000000000000000e+00j)  (0.000000000000000000e+00+0.000000000000000000e+00j)  (-1.980128312935677537e-01+0.000000000000000000e+00j)  (-9.900641564678387685e-02+0.000000000000000000e+00j)  (-6.220756561083875535e-01+0.000000000000000000e+00j)  (3.678355720196092860e-02+0.000000000000000000e+00j)  (-0.000000000000000000e+00-4.780906063767667580e-02j)  (-0.000000000000000000e+00-3.003931873487080684e-01j)
 (1.319735999999999798e+00+0.000000000000000000e+00j)  (0.000000000000000000e+00+0.000000000000000000e+00j)  (0.000000000000000000e+00+0.000000000000000000e+00j)  (-2.035379615128872222e-01+0.000000000000000000e+00j)  (-1.017689807564436111e-01+0.000000000000000000e+00j)  (-6.394333646155285766e-01+0.000000000000000000e+00j)  (3.042816656182563070e-02+0.000000000000000000e+00j)  (-0.000000000000000000e+00-4.015714682563750748e-02j)  (-0.000000000000000000e+00-2.523147949130989942e-01j)
 (1.339731999999999701e+00+0.000000000000000000e+00j)  (0.000000000000000000e+00+0.000000000000000000e+00j)  (0.000000000000000000e+00+0.000000000000000000e+00j)  (-2.081071966272144136e-01+0.000000000000000000e+00j)  (-1.040535983136072068e-01+0.000000000000000000e+00j)  (-6.537880400832234429e-01+0.000000000000000000e+00j)  (2.433006267086258376e-02+0.000000000000000000e+00j)  (-0.000000000000000000e+00-3.259576352216006501e-02j)  (-0.000000000000000000e+00-2.048052224387364451e-01j)
 (1.359727999999999826e+00+0.000000000000000000e+00j)  (0.000000000000000000e+00+0.000000000000000000e+00j)  (0.000000000000000000e+00+0.000000000000000000e+00j)  (-2.117331399955596494e-01+0.000000000000000000e+00j)  (-1.058665699977798247e-01+0.000000000000000000e+00j)  (-6.651792771315494512e-01+0.000000000000000000e+00j)  (1.849222248772122018e-02+0.000000000000000000e+00j)  (-0.000000000000000000e+00-2.514439269878419869e-02j)  (-0.000000000000000000e+00-1.579868787629545301e-01j)
 (1.379723999999999728e+00+0.000000000000000000e+00j)  (0.000000000000000000e+00+0.000000000000000000e+00j)  (0.000000000000000000e+00+0.000000000000000000e+00j)  (-2.144308091918412928e-01+0.000000000000000000e+00j)  (-1.072154045959206464e-01+0.000000000000000000e+00j)  (-6.736542548604033120e-01+0.000000000000000000e+00j)  (1.291705777556404269e-02+0.000000000000000000e+00j)  (-0.000000000000000000e+00-1.782197462233232541e-02j)  (-0.000000000000000000e+00-1.119787690919659129e-01j)
 (1.399719999999999853e+00+0.000000000000000000e+00j)  (0.000000000000000000e+00+0.000000000000000000e+00j)  (0.000000000000000000e+00+0.000000000000000000e+00j)  (-2.162175646457741018e-01+0.000000000000000000e+00j)  (-1.081087823228870509e-01+0.000000000000000000e+00j)  (-6.792675126682400366e-01+0.000000000000000000e+00j)  (7.606418194056770860e-03+0.000000000000000000e+00j)  (-0.000000000000000000e+00-1.064685567458514490e-02j)  (-0.000000000000000000e+00-6.689616714221498228e-02j)
 (1.419715999999999756e+00+0.000000000000000000e+00j)  (0.000000000000000000e+00+0.000000000000000000e+00j)  (0.000000000000000000e+00+0.000000000000000000e+00j)  (-2.171130318641162349e-01+0.000000000000000000e+00j)  (-1.085565159320581174e-01+0.000000000000000000e+00j)  (-6.820807059029141417e-01+0.000000000000000000e+00j)  (2.561595675097547153e-03+0.000000000000000000e+00j)  (-0.000000000000000000e+00-3.636738365466783175e-03j)  (-0.000000000000000000e+00-2.285030106395719712e-02j)
 (1.439711999999999659e+00+0.000000000000000000e+00j)  (0.000000000000000000e+00+0.000000000000000000e+00j)  (0.000000000000000000e+00+0.000000000000000000e+00j)  (-2.171390175171416526e-01+0.000000000000000000e+00j)  (-1.085695087585708263e-01+0.000000000000000000e+00j)  (-6.821623422395575176e-01+0.000000000000000000e+00j)  (-2.216669940887847773e-03+0.000000000000000000e+00j)  (0.000000000000000000e+00+3.191366313935526614e-03j)  (0.000000000000000000e+00+2.005194593354757762e-02j)
 (1.459707999999999783e+00+0.000000000000000000e+00j)  (0.000000000000000000e+00+0.000000000000000000e+00j)  (0.000000000000000000e+00+0.000000000000000000e+00j)  (-2.163194196930736946e-01+0.000000000000000000e+00j)  (-1.081597098465368473e-01+0.000000000000000000e+00j)  (-6.795874997365675130e-01+0.000000000000000000e+00j)  (-6.728184034362906518e-03+0.000000000000000000e+00j)  (0.000000000000000000e+00+9.821184060431809026e-03j)  (0.000000000000000000e+00+6.170831938761148910e-02j)
 (1.479703999999999686e+00+0.000000000000000000e+00j)  (0.000000000000000000e+00+0.000000000000000000e+00j)  (0.000000000000000000e+00+0.000000000000000000e+00j)  (-2.146801326400255006e-01+0.000000000000000000e+00j)  (-1.073400663200127503e-01+0.000000000000000000e+00j)  (-6.744375275735864372e-01+0.000000000000000000e+00j)  (-1.097328913110250104e-02+0.000000000000000000e+00j)  (0.000000000000000000e+00+1.623721982044889350e-02j)  (0.000000000000000000e+00+1.020214610052896514e-01j)
 (1.499699999999999811e+00+0.000000000000000000e+00j)  (0.000000000000000000e+00+0.000000000000000000e+00j)  (0.000000000000000000e+00+0.000000000000000000e+00j)  (-2.122489463306873325e-01+0.000000000000000000e+00j)  (-1.061244731653436663e-01+0.000000000000000000e+00j)  (-6.667997305246615714e-01+0.000000000000000000e+00j)  (-1.495285565382809510e-02+0.000000000000000000e+00j)  (0.000000000000000000e+00+2.242479762404599175e-02j)  (0.000000000000000000e+00+1.408991589478814643e-01j)
 (1.519695999999999714e+00+0.000000000000000000e+00j)  (0.000000000000000000e+00+0.000000000000000000e+00j)  (0.000000000000000000e+00+0.000000000000000000e+00j)  (-2.090554411995361739e-01+0.000000000000000000e+00j)  (-1.045277205997680869e-01+0.000000000000000000e+00j)  (-6.567670382654358097e-01+0.000000000000000000e+00j)  (-1.866827153606779796e-02+0.000000000000000000e+00j)  (0.000000000000000000e+00+2.837009758027608450e-02j)  (0.000000000000000000e+00+1.782545802796418055e-01j)
 (1.539691999999999616e+00+0.000000000000000000e+00j)  (0.000000000000000000e+00+0.000000000000000000e+00j)  (0.000000000000000000e+00+0.000000000000000000e+00j)  (-2.051308784156728737e-01+0.000000000000000000e+00j)  (-1.025654392078364369e-01+0.000000000000000000e+00j)  (-6.444376606550989983e-01+0.000000000000000000e+00j)  (-2.212143073594752263e-02+0.000000000000000000e+00j)  (0.000000000000000000e+00+3.406018993269249728e-02j)  (0.000000000000000000e+00+2.140064849448395923e-01j)
 (1.559687999999999741e+00+0.000000000000000000e+00j)  (0.000000000000000000e+00+0.000000000000000000e+00j)  (0.000000000000000000e+00+0.000000000000000000e+00j)  (-2.005080860664795739e-01+0.000000000000000000e+00j)  (-1.002540430332397869e-01+0.000000000000000000e+00j)  (-6.299147301718022174e-01+0.000000000000000000e+00j)  (-2.531472069018508506e-02+0.000000000000000000e+00j)  (0.000000000000000000e+00+3.948306608383339578e-02j)  (0.000000000000000000e+00+2.480794207003426122e-01j)
 (1.579683999999999644e+00+0.000000000000000000e+00j)  (0.000000000000000000e+00+0.000000000000000000e+00j)  (0.000000000000000000e+00+0.000000000000000000e+00j)  (-1.952213416381000377e-01+0.000000000000000000e+00j)  (-9.761067081905001885e-02+0.000000000000000000e+00j)  (-6.133059327141981987e-01+0.000000000000000000e+00j)  (-2.825100875100212267e-02+0.000000000000000000e+00j)  (0.000000000000000000e+00+4.462766650781803401e-02j)  (0.000000000000000000e+00+2.804038984956327418e-01j)
 (1.599679999999999769e+00+0.000000000000000000e+00j)  (0.000000000000000000e+00+0.000000000000000000e+00j)  (0.000000000000000000e+00+0.000000000000000000e+00j)  (-1.893062511882454835e-01+0.000000000000000000e+00j)  (-9.465312559412274174e-02+0.000000000000000000e+00j)  (-5.947231280116160868e-01+0.000000000000000000e+00j)  (-3.093362765097450520e-02+0.000000000000000000e+00j)  (0.000000000000000000e+00+4.948390548071088940e-02j)  (0.000000000000000000e+00+3.109165478582660569e-01j)
 (1.619675999999999672e+00+0.000000000000000000e+00j)  (0.000000000000000000e+00+0.000000000000000000e+00j)  (0.000000000000000000e+00+0.000000000000000000e+00j)  (-1.827996256149977128e-01+0.000000000000000000e+00j)  (-9.139981280749885639e-02+0.000000000000000000e+00j)  (-5.742819609110414447e-01+0.000000000000000000e+00j)  (-3.336636004300657515e-02+0.000000000000000000e+00j)  (0.000000000000000000e+00+5.404269256901670510e-02j)  (0.000000000000000000e+00+3.395602519100692218e-01j)
 (1.639671999999999796e+00+0.000000000000000000e+00j)  (0.000000000000000000e+00+0.000000000000000000e+00j)  (0.000000000000000000e+00+0.000000000000000000e+00j)  (-1.757393544320895729e-01+0.000000000000000000e+00j)  (-8.786967721604478643e-02+0.000000000000000000e+00j)  (-5.521014648304654049e-01+0.000000000000000000e+00j)  (-3.555342216463758254e-02+0.000000000000000000e+00j)  (0.000000000000000000e+00+5.829595082753562946e-02j)  (0.000000000000000000e+00+3.662842617076355056e-01j)
 (1.659667999999999699e+00+0.000000000000000000e+00j)  (0.000000000000000000e+00+0.000000000000000000e+00j)  (0.000000000000000000e+00+0.000000000000000000e+00j)  (-1.681642774665859652e-01+0.000000000000000000e+00j)  (-8.408213873329298260e-02+0.000000000000000000e+00j)  (-5.283036586852620786e-01+0.000000000000000000e+00j)  (-3.749944667775738372e-02+0.000000000000000000e+00j)  (0.000000000000000000e+00+6.223663166878021930e-02j)  (0.000000000000000000e+00+3.910442896696276205e-01j)
 (1.679663999999999602e+00+0.000000000000000000e+00j)  (0.000000000000000000e+00+0.000000000000000000e+00j)  (0.000000000000000000e+00+0.000000000000000000e+00j)  (-1.601140548989400947e-01+0.000000000000000000e+00j)  (-8.005702744947004734e-02+0.000000000000000000e+00j)  (-5.030131386069829347e-01+0.000000000000000000e+00j)  (-3.920946473652578423e-02+0.000000000000000000e+00j)  (0.000000000000000000e+00+6.585872637721182365e-02j)  (0.000000000000000000e+00+4.138025819228580149e-01j)
 (1.699659999999999727e+00+0.000000000000000000e+00j)  (0.000000000000000000e+00+0.000000000000000000e+00j)  (0.000000000000000000e+00+0.000000000000000000e+00j)  (-1.516290360680648819e-01+0.000000000000000000e+00j)  (-7.581451803403244094e-02+0.000000000000000000e+00j)  (-4.763566657823343764e-01+0.000000000000000000e+00j)  (-4.068888733784833261e-02+0.000000000000000000e+00j)  (0.000000000000000000e+00+6.915727425264728279e-02j)  (0.000000000000000000e+00+4.345279694688225502e-01j)
 (1.719655999999999629e+00+0.000000000000000000e+00j)  (0.000000000000000000e+00+0.000000000000000000e+00j)  (0.000000000000000000e+00+0.000000000000000000e+00j)  (-1.427501274653285024e-01+0.000000000000000000e+00j)  (-7.137506373266425119e-02+0.000000000000000000e+00j)  (-4.484627517440825106e-01+0.000000000000000000e+00j)  (-4.194348601015689820e-02+0.000000000000000000e+00j)  (0.000000000000000000e+00+7.212836737828236255e-02j)  (0.000000000000000000e+00+4.531958981420750598e-01j)
 (1.739651999999999754e+00+0.000000000000000000e+00j)  (0.000000000000000000e+00+0.000000000000000000e+00j)  (0.000000000000000000e+00+0.000000000000000000e+00j)  (-1.335186603412569506e-01+0.000000000000000000e+00j)  (-6.675933017062847530e-02+0.000000000000000000e+00j)  (-4.194612424452436872e-01+0.000000000000000000e+00j)  (-4.297937289747717771e-02+0.000000000000000000e+00j)  (0.000000000000000000e+00+7.476915201984195292e-02j)  (0.000000000000000000e+00+4.697884374013477915e-01j)
 (1.759647999999999657e+00+0.000000000000000000e+00j)  (0.000000000000000000e+00+0.000000000000000000e+00j)  (0.000000000000000000e+00+0.000000000000000000e+00j)  (-1.239762583472227564e-01+0.000000000000000000e+00j)  (-6.198812917361137820e-02+0.000000000000000000e+00j)  (-3.894829024431852860e-01+0.000000000000000000e+00j)  (-4.380298029682910821e-02+0.000000000000000000e+00j)  (0.000000000000000000e+00+7.707782667335472127e-02j)  (0.000000000000000000e+00+4.842942680633572361e-01j)
 (1.779643999999999782e+00+0.000000000000000000e+00j)  (0.000000000000000000e+00+0.000000000000000000e+00j)  (0.000000000000000000e+00+0.000000000000000000e+00j)  (-1.141647056315080455e-01+0.000000000000000000e+00j)  (-5.708235281575402276e-02+0.000000000000000000e+00j)  (-3.586590005111869872e-01+0.000000000000000000e+00j)  (-4.442103970790486217e-02+0.000000000000000000e+00j)  (0.000000000000000000e+00+7.905363678993464205e-02j)  (0.000000000000000000e+00+4.967086491576289675e-01j)
 (1.799639999999999684e+00+0.000000000000000000e+00j)  (0.000000000000000000e+00+0.000000000000000000e+00j)  (0.000000000000000000e+00+0.000000000000000000e+00j)  (-1.041258158048967430e-01+0.000000000000000000e+00j)  (-5.206290790244837152e-02+0.000000000000000000e+00j)  (-3.271208979817075702e-01+0.000000000000000000e+00j)  (-4.484056045469459600e-02+0.000000000000000000e+00j)  (0.000000000000000000e+00+8.069686621668656357e-02j)  (0.000000000000000000e+00+5.070333641481217235e-01j)
 (1.819635999999999587e+00+0.000000000000000000e+00j)  (0.000000000000000000e+00+0.000000000000000000e+00j)  (0.000000000000000000e+00+0.000000000000000000e+00j)  (-9.390130218536177353e-02+0.000000000000000000e+00j)  (-4.695065109268088677e-02+0.000000000000000000e+00j)  (-2.949996411080477721e-01+0.000000000000000000e+00j)  (-4.506880793928745577e-02+0.000000000000000000e+00j)  (0.000000000000000000e+00+8.200882540341324078e-02j)  (0.000000000000000000e+00+5.152766468337820482e-01j)
 (1.839631999999999712e+00+0.000000000000000000e+00j)  (0.000000000000000000e+00+0.000000000000000000e+00j)  (0.000000000000000000e+00+0.000000000000000000e+00j)  (-8.353264972452784098e-02+0.000000000000000000e+00j)  (-4.176632486226392049e-02+0.000000000000000000e+00j)  (-2.624255587094661557e-01+0.000000000000000000e+00j)  (-4.511328158845967495e-02+0.000000000000000000e+00j)  (0.000000000000000000e+00+8.299183643514124187e-02j)  (0.000000000000000000e+00+5.214530873051308468e-01j)
 (1.859627999999999615e+00+0.000000000000000000e+00j)  (0.000000000000000000e+00+0.000000000000000000e+00j)  (0.000000000000000000e+00+0.000000000000000000e+00j)  (-7.306098901040737614e-02+0.000000000000000000e+00j)  (-3.653049450520368807e-02+0.000000000000000000e+00j)  (-2.295278663391004670e-01+0.000000000000000000e+00j)  (-4.498169255387594878e-02+0.000000000000000000e+00j)  (0.000000000000000000e+00+8.364921496057919903e-02j)  (0.000000000000000000e+00+5.255835183974180147e-01j)
 (1.879623999999999739e+00+0.000000000000000000e+00j)  (0.000000000000000000e+00+0.000000000000000000e+00j)  (0.000000000000000000e+00+0.000000000000000000e+00j)  (-6.252697273147984902e-02+0.000000000000000000e+00j)  (-3.126348636573992451e-02+0.000000000000000000e+00j)  (-1.964342781844263808e-01+0.000000000000000000e+00j)  (-4.468194122677388719e-02+0.000000000000000000e+00j)  (0.000000000000000000e+00+8.398524909643362291e-02j)  (0.000000000000000000e+00+5.276948831425294362e-01j)
 (1.899619999999999642e+00+0.000000000000000000e+00j)  (0.000000000000000000e+00+0.000000000000000000e+00j)  (0.000000000000000000e+00+0.000000000000000000e+00j)  (-5.197065497654582145e-02+0.000000000000000000e+00j)  (-2.598532748827291072e-02+0.000000000000000000e+00j)  (-1.632706278765661823e-01+0.000000000000000000e+00j)  (-4.422209462787555362e-02+0.000000000000000000e+00j)  (0.000000000000000000e+00+8.400517539700493030e-02j)  (0.000000000000000000e+00+5.278200837815054669e-01j)
 (1.919615999999999545e+00+0.000000000000000000e+00j)  (0.000000000000000000e+00+0.000000000000000000e+00j)  (0.000000000000000000e+00+0.000000000000000000e+00j)  (-4.143137373296927606e-02+0.000000000000000000e+00j)  (-2.071568686648463803e-02+0.000000000000000000e+00j)  (-1.301604993476293826e-01+0.000000000000000000e+00j)  (-4.361036373297691449e-02+0.000000000000000000e+00j)  (0.000000000000000000e+00+8.371515198764217791e-02j)  (0.000000000000000000e+00+5.259978129570592742e-01j)
 (1.939611999999999670e+00+0.000000000000000000e+00j)  (0.000000000000000000e+00+0.000000000000000000e+00j)  (0.000000000000000000e+00+0.000000000000000000e+00j)  (-3.094763693298317742e-02+0.000000000000000000e+00j)  (-1.547381846649158871e-02+0.000000000000000000e+00j)  (-9.722486883462409801e-02+0.000000000000000000e+00j)  (-4.285508079420756455e-02+0.000000000000000000e+00j)  (0.000000000000000000e+00+8.312222896941448558e-02j)  (0.000000000000000000e+00+5.222723677606425641e-01j)
 (1.959607999999999572e+00+0.000000000000000000e+00j)  (0.000000000000000000e+00+0.000000000000000000e+00j)  (0.000000000000000000e+00+0.000000000000000000e+00j)  (-2.055701238371466719e-02+0.000000000000000000e+00j)  (-1.027850619185733359e-02+0.000000000000000000e+00j)  (-6.458175908443240798e-02+0.000000000000000000e+00j)  (-4.196467671633073021e-02+0.000000000000000000e+00j)  (0.000000000000000000e+00+8.223431621073540310e-02j)  (0.000000000000000000e+00+5.166934473612527778e-01j)
 (1.979603999999999697e+00+0.000000000000000000e+00j)  (0.000000000000000000e+00+0.000000000000000000e+00j)  (0.000000000000000000e+00+0.000000000000000000e+00j)  (-1.029602190153790925e-02+0.000000000000000000e+00j)  (-5.148010950768954624e-03+0.000000000000000000e+00j)  (-3.234590676707110868e-02+0.000000000000000000e+00j)  (-4.094765854667239968e-02+0.000000000000000000e+00j)  (0.000000000000000000e+00+8.106014864962686473e-02j)  (0.000000000000000000e+00+5.093159349931287716e-01j)
 (1.999599999999999600e+00+0.000000000000000000e+00j)  (0.000000000000000000e+00+0.000000000000000000e+00j)  (0.000000000000000000e+00+0.000000000000000000e+00j)  (-2.000399553534091754e-04+0.000000000000000000e+00j)  (-1.000199776767045877e-04+0.000000000000000000e+00j)  (-6.284440541627005043e-04+0.000000000000000000e+00j)  (-3.981258713633008955e-02+0.000000000000000000e+00j)  (0.000000000000000000e+00+7.960924923780562934e-02j)  (0.000000000000000000e+00+5.001996651265779859e-01j)
 (2.019595999999999503e+00+0.000000000000000000e+00j)  (0.000000000000000000e+00+0.000000000000000000e+00j)  (0.000000000000000000e+00+0.000000000000000000e+00j)  (9.696802893543392948e-03+0.000000000000000000e+00j)  (4.848401446771696474e-03+0.000000000000000000e+00j)  (3.046340473366417056e-02+0.000000000000000000e+00j)  (-3.856805502922082407e-02+0.000000000000000000e+00j)  (0.000000000000000000e+00+7.789188966479425325e-02j)  (0.000000000000000000e+00+4.894091766902887164e-01j)
 (2.039591999999999850e+00+0.000000000000000000e+00j)  (0.000000000000000000e+00+0.000000000000000000e+00j)  (0.000000000000000000e+00+0.000000000000000000e+00j)  (1.936171148511186754e-02+0.000000000000000000e+00j)  (9.680855742555933771e-03+0.000000000000000000e+00j)  (6.082661056255256327e-02+0.000000000000000000e+00j)  (-3.722266463428945682e-02+0.000000000000000000e+00j)  (0.000000000000000000e+00+7.591904900677966250e-02j)  (0.000000000000000000e+00+4.770134532544449968e-01j)
 (2.059587999999999752e+00+0.000000000000000000e+00j)  (0.000000000000000000e+00+0.000000000000000000e+00j)  (0.000000000000000000e+00+0.000000000000000000e+00j)  (2.876331223641244092e-02+0.000000000000000000e+00j)  (1.438165611820622046e-02+0.000000000000000000e+00j)  (9.036261041482271383e-02+0.000000000000000000e+00j)  (-3.578500673481550820e-02+0.000000000000000000e+00j)  (0.000000000000000000e+00+7.370237045094518713e-02j)  (0.000000000000000000e+00+4.630856511216856486e-01j)
 (2.079583999999999655e+00+0.000000000000000000e+00j)  (0.000000000000000000e+00+0.000000000000000000e+00j)  (0.000000000000000000e+00+0.000000000000000000e+00j)  (3.787173376761313048e-02+0.000000000000000000e+00j)  (1.893586688380656524e-02+0.000000000000000000e+00j)  (1.189775605830418886e-01+0.000000000000000000e+00j)  (-3.426363938723610975e-02+0.000000000000000000e+00j)  (0.000000000000000000e+00+7.125411625146597927e-02j)  (0.000000000000000000e+00+4.477028163072773181e-01j)
 (2.099579999999999558e+00+0.000000000000000000e+00j)  (0.000000000000000000e+00+0.000000000000000000e+00j)  (0.000000000000000000e+00+0.000000000000000000e+00j)  (4.665868176605453971e-02+0.000000000000000000e+00j)  (2.332934088302726985e-02+0.000000000000000000e+00j)  (1.465825718624209628e-01+0.000000000000000000e+00j)  (-3.266706726024901780e-02+0.000000000000000000e+00j)  (0.000000000000000000e+00+6.858712107827361071e-02j)  (0.000000000000000000e+00+4.309455914207561134e-01j)
 (2.119575999999999460e+00+0.000000000000000000e+00j)  (0.000000000000000000e+00+0.000000000000000000e+00j)  (0.000000000000000000e+00+0.000000000000000000e+00j)  (5.509750789679610655e-02+0.000000000000000000e+00j)  (2.754875394839805328e-02+0.000000000000000000e+00j)  (1.730939260396802404e-01+0.000000000000000000e+00j)  (-3.100372146317880231e-02+0.000000000000000000e+00j)  (0.000000000000000000e+00+6.571474392403864329e-02j)  (0.000000000000000000e+00+4.128979134885886193e-01j)
 (2.139571999999999807e+00+0.000000000000000000e+00j)  (0.000000000000000000e+00+0.000000000000000000e+00j)  (0.000000000000000000e+00+0.000000000000000000e+00j)  (6.316327258909330833e-02+0.000000000000000000e+00j)  (3.158163629454665416e-02+0.000000000000000000e+00j)  (1.984332731425851037e-01+0.000000000000000000e+00j)  (-2.928193991068754262e-02+0.000000000000000000e+00j)  (0.000000000000000000e+00+6.265081873858956152e-02j)  (0.000000000000000000e+00+3.936467037810774117e-01j)
 (2.159567999999999710e+00+0.000000000000000000e+00j)  (0.000000000000000000e+00+0.000000000000000000e+00j)  (0.000000000000000000e+00+0.000000000000000000e+00j)  (7.083280154972113052e-02+0.000000000000000000e+00j)  (3.541640077486056526e-02+0.000000000000000000e+00j)  (2.225278089817875893e-01+0.000000000000000000e+00j)  (-2.750994826889609918e-02+0.000000000000000000e+00j)  (0.000000000000000000e+00+5.940960396316340847e-02j)  (0.000000000000000000e+00+3.732815507267064348e-01j)
 (2.179563999999999613e+00+0.000000000000000000e+00j)  (0.000000000000000000e+00+0.000000000000000000e+00j)  (0.000000000000000000e+00+0.000000000000000000e+00j)  (7.808473587589154219e-02+0.000000000000000000e+00j)  (3.904236793794577109e-02+0.000000000000000000e+00j)  (2.453104325852002165e-01+0.000000000000000000e+00j)  (-2.569584152585692449e-02+0.000000000000000000e+00j)  (0.000000000000000000e+00+5.600573113946280546e-02j)  (0.000000000000000000e+00+3.518943870133229845e-01j)
 (2.199559999999999516e+00+0.000000000000000000e+00j)  (0.000000000000000000e+00+0.000000000000000000e+00j)  (0.000000000000000000e+00+0.000000000000000000e+00j)  (8.489957566261925603e-02+0.000000000000000000e+00j)  (4.244978783130962802e-02+0.000000000000000000e+00j)  (2.667198831945754578e-01+0.000000000000000000e+00j)  (-2.384756622709743173e-02+0.000000000000000000e+00j)  (0.000000000000000000e+00+5.245415277047441038e-02j)  (0.000000000000000000e+00+3.295791619879981926e-01j)
 (2.219555999999999418e+00+0.000000000000000000e+00j)  (0.000000000000000000e+00+0.000000000000000000e+00j)  (0.000000000000000000e+00+0.000000000000000000e+00j)  (9.125971702172198941e-02+0.000000000000000000e+00j)  (4.562985851086099470e-02+0.000000000000000000e+00j)  (2.867008565641251949e-01+0.000000000000000000e+00j)  (-2.197290341463342678e-02+0.000000000000000000e+00j)  (0.000000000000000000e+00+4.877008961137009602e-02j)  (0.000000000000000000e+00+3.064315104759923747e-01j)
 (2.239551999999999765e+00+0.000000000000000000e+00j)  (0.000000000000000000e+00+0.000000000000000000e+00j)  (0.000000000000000000e+00+0.000000000000000000e+00j)  (9.714948245209621691e-02+0.000000000000000000e+00j)  (4.857474122604810846e-02+0.000000000000000000e+00j)  (3.052041003715560419e-01+0.000000000000000000e+00j)  (-2.007945230545030851e-02+0.000000000000000000e+00j)  (0.000000000000000000e+00+4.496897756957584508e-02j)  (0.000000000000000000e+00+2.825484191440473247e-01j)
 (2.259547999999999668e+00+0.000000000000000000e+00j)  (0.000000000000000000e+00+0.000000000000000000e+00j)  (0.000000000000000000e+00+0.000000000000000000e+00j)  (1.025551445234246239e-01+0.000000000000000000e+00j)  (5.127757226171231197e-02+0.000000000000000000e+00j)  (3.221864886226303293e-01+0.000000000000000000e+00j)  (-1.817461474296811624e-02+0.000000000000000000e+00j)  (0.000000000000000000e+00+4.106641439324412030e-02j)  (0.000000000000000000e+00+2.580278915341797097e-01j)
 (2.279543999999999571e+00+0.000000000000000000e+00j)  (0.000000000000000000e+00+0.000000000000000000e+00j)  (0.000000000000000000e+00+0.000000000000000000e+00j)  (1.074649428579720345e-01+0.000000000000000000e+00j)  (5.373247142898601725e-02+0.000000000000000000e+00j)  (3.376110750010518635e-01+0.000000000000000000e+00j)  (-1.626558045245469347e-02+0.000000000000000000e+00j)  (0.000000000000000000e+00+3.707810632691037334e-02j)  (0.000000000000000000e+00+2.329686128912857312e-01j)
 (2.299539999999999473e+00+0.000000000000000000e+00j)  (0.000000000000000000e+00+0.000000000000000000e+00j)  (0.000000000000000000e+00+0.000000000000000000e+00j)  (1.118690944175225049e-01+0.000000000000000000e+00j)  (5.593454720876125247e-02+0.000000000000000000e+00j)  (3.514471251858316547e-01+0.000000000000000000e+00j)  (-1.435931312873899371e-02+0.000000000000000000e+00j)  (0.000000000000000000e+00+3.301981491206046337e-02j)  (0.000000000000000000e+00+2.074696159012477115e-01j)
 (2.319535999999999376e+00+0.000000000000000000e+00j)  (0.000000000000000000e+00+0.000000000000000000e+00j)  (0.000000000000000000e+00+0.000000000000000000e+00j)  (1.157597971247474045e-01+0.000000000000000000e+00j)  (5.787989856237370223e-02+0.000000000000000000e+00j)  (3.636701282281513126e-01+0.000000000000000000e+00j)  (-1.246253738190766965e-02+0.000000000000000000e+00j)  (0.000000000000000000e+00+2.890730410868058708e-02j)  (0.000000000000000000e+00+1.816299484458339386e-01j)
 (2.339531999999999723e+00+0.000000000000000000e+00j)  (0.000000000000000000e+00+0.000000000000000000e+00j)  (0.000000000000000000e+00+0.000000000000000000e+00j)  (1.191312268702780924e-01+0.000000000000000000e+00j)  (5.956561343513904622e-02+0.000000000000000000e+00j)  (3.742617871488045922e-01+0.000000000000000000e+00j)  (-1.058172656395589203e-02+0.000000000000000000e+00j)  (0.000000000000000000e+00+2.475628791162485035e-02j)  (0.000000000000000000e+00+1.555483444666288517e-01j)
 (2.359527999999999626e+00+0.000000000000000000e+00j)  (0.000000000000000000e+00+0.000000000000000000e+00j)  (0.000000000000000000e+00+0.000000000000000000e+00j)  (1.219795279784268438e-01+0.000000000000000000e+00j)  (6.098976398921342190e-02+0.000000000000000000e+00j)  (3.832099889853763930e-01+0.000000000000000000e+00j)  (-8.723091496612407972e-03+0.000000000000000000e+00j)  (0.000000000000000000e+00+2.058237863281887903e-02j)  (0.000000000000000000e+00+1.293228990125346312e-01j)
 (2.379523999999999528e+00+0.000000000000000000e+00j)  (0.000000000000000000e+00+0.000000000000000000e+00j)  (0.000000000000000000e+00+0.000000000000000000e+00j)  (1.243027972257808866e-01+0.000000000000000000e+00j)  (6.215139861289044332e-02+0.000000000000000000e+00j)  (3.905087545851749220e-01+0.000000000000000000e+00j)  (-6.892570117779015480e-03+0.000000000000000000e+00j)  (0.000000000000000000e+00+1.640103601693798999e-02j)  (0.000000000000000000e+00+1.030507485241479865e-01j)
 (2.399519999999999431e+00+0.000000000000000000e+00j)  (0.000000000000000000e+00+0.000000000000000000e+00j)  (0.000000000000000000e+00+0.000000000000000000e+00j)  (1.261010615277129709e-01+0.000000000000000000e+00j)  (6.305053076385648547e-02+0.000000000000000000e+00j)  (3.961581685053375823e-01+0.000000000000000000e+00j)  (-5.095818061225095529e-03+0.000000000000000000e+00j)  (0.000000000000000000e+00+1.222751735427083514e-02j)  (0.000000000000000000e+00+7.682775738363792351e-02j)
 (2.419515999999999778e+00+0.000000000000000000e+00j)  (0.000000000000000000e+00+0.000000000000000000e+00j)  (0.000000000000000000e+00+0.000000000000000000e+00j)  (1.273762494281478197e-01+0.000000000000000000e+00j)  (6.368812471407390985e-02+0.000000000000000000e+00j)  (4.001642894452902555e-01+0.000000000000000000e+00j)  (-3.338200181364389587e-03+0.000000000000000000e+00j)  (0.000000000000000000e+00+8.076828750014039895e-03j)  (0.000000000000000000e+00+5.074821173069388180e-02j)
 (2.439511999999999681e+00+0.000000000000000000e+00j)  (0.000000000000000000e+00+0.000000000000000000e+00j)  (0.000000000000000000e+00+0.000000000000000000e+00j)  (1.281321565476215563e-01+0.000000000000000000e+00j)  (6.406607827381077813e-02+0.000000000000000000e+00j)  (4.025390416986251996e-01+0.000000000000000000e+00j)  (-1.624783032125778903e-03+0.000000000000000000e+00j)  (0.000000000000000000e+00+3.963677704267224051e-03j)  (0.000000000000000000e+00+2.490452151384713042e-02j)
 (2.459507999999999583e+00+0.000000000000000000e+00j)  (0.000000000000000000e+00+0.000000000000000000e+00j)  (0.000000000000000000e+00+0.000000000000000000e+00j)  (1.283744051637166206e-01+0.000000000000000000e+00j)  (6.418720258185831029e-02+0.000000000000000000e+00j)  (4.033000881712917041e-01+0.000000000000000000e+00j)  (3.967169388350514497e-05+0.000000000000000000e+00j)  (-0.000000000000000000e+00-9.757284848003207713e-05j)  (-0.000000000000000000e+00-6.130682879493976490e-04j)
 (2.479503999999999486e+00+0.000000000000000000e+00j)  (0.000000000000000000e+00+0.000000000000000000e+00j)  (0.000000000000000000e+00+0.000000000000000000e+00j)  (1.281103981162776961e-01+0.000000000000000000e+00j)  (6.405519905813884807e-02+0.000000000000000000e+00j)  (4.024706855705616482e-01+0.000000000000000000e+00j)  (1.650712762521476659e-03+0.000000000000000000e+00j)  (-0.000000000000000000e+00-4.092948897523050571e-03j)  (-0.000000000000000000e+00-2.571675637595371641e-02j)
 (2.499499999999999389e+00+0.000000000000000000e+00j)  (0.000000000000000000e+00+0.000000000000000000e+00j)  (0.000000000000000000e+00+0.000000000000000000e+00j)  (1.273492672473653942e-01+0.000000000000000000e+00j)  (6.367463362368269708e-02+0.000000000000000000e+00j)  (4.000795224243663961e-01+0.000000000000000000e+00j)  (3.204204030941346266e-03+0.000000000000000000e+00j)  (-0.000000000000000000e+00-8.008907975337892921e-03j)  (-0.000000000000000000e+00-5.032145291719646724e-02j)
 (2.519495999999999736e+00+0.000000000000000000e+00j)  (0.000000000000000000e+00+0.000000000000000000e+00j)  (0.000000000000000000e+00+0.000000000000000000e+00j)  (1.261018166026210141e-01+0.000000000000000000e+00j)  (6.305090830131050705e-02+0.000000000000000000e+00j)  (3.961605406431215615e-01+0.000000000000000000e+00j)  (4.696328118236460167e-03+0.000000000000000000e+00j)  (-0.000000000000000000e+00-1.183237990858428644e-02j)  (-0.000000000000000000e+00-7.434503559058372457e-02j)
 (2.539491999999999639e+00+0.000000000000000000e+00j)  (0.000000000000000000e+00+0.000000000000000000e+00j)  (0.000000000000000000e+00+0.000000000000000000e+00j)  (1.243804606365501997e-01+0.000000000000000000e+00j)  (6.219023031827509984e-02+0.000000000000000000e+00j)  (3.907527413859005483e-01+0.000000000000000000e+00j)  (6.123589118742373168e-03+0.000000000000000000e+00j)  (-0.000000000000000000e+00-1.555080557833330400e-02j)  (-0.000000000000000000e+00-9.770859312459015400e-02j)
 (2.559487999999999541e+00+0.000000000000000000e+00j)  (0.000000000000000000e+00+0.000000000000000000e+00j)  (0.000000000000000000e+00+0.000000000000000000e+00j)  (1.221991576791354311e-01+0.000000000000000000e+00j)  (6.109957883956771557e-02+0.000000000000000000e+00j)  (3.838999760396326066e-01+0.000000000000000000e+00j)  (7.482814365507879130e-03+0.000000000000000000e+00j)  (-0.000000000000000000e+00-1.915217357474502391e-02j)  (-0.000000000000000000e+00-1.203366556053910713e-01j)
 (2.579483999999999444e+00+0.000000000000000000e+00j)  (0.000000000000000000e+00+0.000000000000000000e+00j)  (0.000000000000000000e+00+0.000000000000000000e+00j)  (1.195733389351110593e-01+0.000000000000000000e+00j)  (5.978666946755552963e-02+0.000000000000000000e+00j)  (3.756507231637472577e-01+0.000000000000000000e+00j)  (8.771155254063592310e-03+0.000000000000000000e+00j)  (-0.000000000000000000e+00-2.262505463937296638e-02j)  (-0.000000000000000000e+00-1.421574108842435513e-01j)
 (2.599479999999999347e+00+0.000000000000000000e+00j)  (0.000000000000000000e+00+0.000000000000000000e+00j)  (0.000000000000000000e+00+0.000000000000000000e+00j)  (1.165198333001394443e-01+0.000000000000000000e+00j)  (5.825991665006972214e-02+0.000000000000000000e+00j)  (3.660578522932254053e-01+0.000000000000000000e+00j)  (9.986087139176067634e-03+0.000000000000000000e+00j)  (-0.000000000000000000e+00-2.595863379654539393e-02j)  (-0.000000000000000000e+00-1.631029064649094917e-01j)
 (2.619475999999999694e+00+0.000000000000000000e+00j)  (0.000000000000000000e+00+0.000000000000000000e+00j)  (0.000000000000000000e+00+0.000000000000000000e+00j)  (1.130567882899732451e-01+0.000000000000000000e+00j)  (5.652839414498662257e-02+0.000000000000000000e+00j)  (3.551783755302364565e-01+0.000000000000000000e+00j)  (1.112540831976771907e-02+0.000000000000000000e+00j)  (-0.000000000000000000e+00-2.914274008383185843e-02j)  (-0.000000000000000000e+00-1.831092363056859296e-01j)
 (2.639471999999999596e+00+0.000000000000000000e+00j)  (0.000000000000000000e+00+0.000000000000000000e+00j)  (0.000000000000000000e+00+0.000000000000000000e+00j)  (1.092035873894450365e-01+0.000000000000000000e+00j)  (5.460179369472251826e-02+0.000000000000000000e+00j)  (3.430731878883315211e-01+0.000000000000000000e+00j)  (1.218723812960280546e-02+0.000000000000000000e+00j)  (-0.000000000000000000e+00-3.216787380041896682e-02j)  (-0.000000000000000000e+00-2.021167120259996230e-01j)
 (2.659467999999999499e+00+0.000000000000000000e+00j)  (0.000000000000000000e+00+0.000000000000000000e+00j)  (0.000000000000000000e+00+0.000000000000000000e+00j)  (1.049807641377562273e-01+0.000000000000000000e+00j)  (5.249038206887811364e-02+0.000000000000000000e+00j)  (3.298067973834177824e-01+0.000000000000000000e+00j)  (1.317001415368124727e-02+0.000000000000000000e+00j)  (-0.000000000000000000e+00-3.502523120126235789e-02j)  (-0.000000000000000000e+00-2.200700180643396231e-01j)
 (2.679463999999999402e+00+0.000000000000000000e+00j)  (0.000000000000000000e+00+0.000000000000000000e+00j)  (0.000000000000000000e+00+0.000000000000000000e+00j)  (1.004099132750250617e-01+0.000000000000000000e+00j)  (5.020495663751253085e-02+0.000000000000000000e+00j)  (3.154470458924070186e-01+0.000000000000000000e+00j)  (1.407248859253654172e-02+0.000000000000000000e+00j)  (-0.000000000000000000e+00-3.770672657411232309e-02j)  (-0.000000000000000000e+00-2.369183503923006084e-01j)
 (2.699459999999999305e+00+0.000000000000000000e+00j)  (0.000000000000000000e+00+0.000000000000000000e+00j)  (0.000000000000000000e+00+0.000000000000000000e+00j)  (9.551359928236506647e-02+0.000000000000000000e+00j)  (4.775679964118253323e-02+0.000000000000000000e+00j)  (3.000648218233974429e-01+0.000000000000000000e+00j)  (1.489372379879952413e-02+0.000000000000000000e+00j)  (-0.000000000000000000e+00-4.020501164590735421e-02j)  (-0.000000000000000000e+00-2.526155384485492261e-01j)
 (2.719455999999999651e+00+0.000000000000000000e+00j)  (0.000000000000000000e+00+0.000000000000000000e+00j)  (0.000000000000000000e+00+0.000000000000000000e+00j)  (9.031526265389168417e-02+0.000000000000000000e+00j)  (4.515763132694584209e-02+0.000000000000000000e+00j)  (2.837337656604987379e-01+0.000000000000000000e+00j)  (1.563308701245677904e-02+0.000000000000000000e+00j)  (-0.000000000000000000e+00-4.251349227454766927e-02j)  (-0.000000000000000000e+00-2.671201500163307152e-01j)
 (2.739451999999999554e+00+0.000000000000000000e+00j)  (0.000000000000000000e+00+0.000000000000000000e+00j)  (0.000000000000000000e+00+0.000000000000000000e+00j)  (8.483912424397972718e-02+0.000000000000000000e+00j)  (4.241956212198986359e-02+0.000000000000000000e+00j)  (2.665299694618784576e-01+0.000000000000000000e+00j)  (1.629024432319826216e-02+0.000000000000000000e+00j)  (-0.000000000000000000e+00-4.462634239167411615e-02j)  (-0.000000000000000000e+00-2.803955788285323325e-01j)
 (2.759447999999999457e+00+0.000000000000000000e+00j)  (0.000000000000000000e+00+0.000000000000000000e+00j)  (0.000000000000000000e+00+0.000000000000000000e+00j)  (7.911008803680219525e-02+0.000000000000000000e+00j)  (3.955504401840109763e-02+0.000000000000000000e+00j)  (2.485316714012595629e-01+0.000000000000000000e+00j)  (1.686515389010815116e-02+0.000000000000000000e+00j)  (-0.000000000000000000e+00-4.653851517175114361e-02j)  (-0.000000000000000000e+00-2.924101147451010907e-01j)
 (2.779443999999999360e+00+0.000000000000000000e+00j)  (0.000000000000000000e+00+0.000000000000000000e+00j)  (0.000000000000000000e+00+0.000000000000000000e+00j)  (7.315364268768083378e-02+0.000000000000000000e+00j)  (3.657682134384041689e-02+0.000000000000000000e+00j)  (2.298189464509508284e-01+0.000000000000000000e+00j)  (1.735805845069987238e-02+0.000000000000000000e+00j)  (-0.000000000000000000e+00-4.824575141244703824e-02j)  (-0.000000000000000000e+00-3.031369964085260382e-01j)
 (2.799439999999999706e+00+0.000000000000000000e+00j)  (0.000000000000000000e+00+0.000000000000000000e+00j)  (0.000000000000000000e+00+0.000000000000000000e+00j)  (6.699576218705022290e-02+0.000000000000000000e+00j)  (3.349788109352511145e-02+0.000000000000000000e+00j)  (2.104733943084858283e-01+0.000000000000000000e+00j)  (1.776947715292933119e-02+0.000000000000000000e+00j)  (-0.000000000000000000e+00-4.974458512099648455e-02j)  (-0.000000000000000000e+00-3.125544463439893228e-01j)
 (2.819435999999999609e+00+0.000000000000000000e+00j)  (0.000000000000000000e+00+0.000000000000000000e+00j)  (0.000000000000000000e+00+0.000000000000000000e+00j)  (6.066280599790103284e-02+0.000000000000000000e+00j)  (3.033140299895051642e-02+0.000000000000000000e+00j)  (1.905778256691486872e-01+0.000000000000000000e+00j)  (1.810019674533344322e-02+0.000000000000000000e+00j)  (-0.000000000000000000e+00-5.103234631087593537e-02j)  (-0.000000000000000000e+00-3.206456885313960226e-01j)
 (2.839431999999999512e+00+0.000000000000000000e+00j)  (0.000000000000000000e+00+0.000000000000000000e+00j)  (0.000000000000000000e+00+0.000000000000000000e+00j)  (5.418141901642122699e-02+0.000000000000000000e+00j)  (2.709070950821061349e-02+0.000000000000000000e+00j)  (1.702159479430592204e-01+0.000000000000000000e+00j)  (1.835126216183173911e-02+0.000000000000000000e+00j)  (-0.000000000000000000e+00-5.210716102269420669e-02j)  (-0.000000000000000000e+00-3.273989485366330943e-01j)
 (2.859427999999999415e+00+0.000000000000000000e+00j)  (0.000000000000000000e+00+0.000000000000000000e+00j)  (0.000000000000000000e+00+0.000000000000000000e+00j)  (4.757843170321124360e-02+0.000000000000000000e+00j)  (2.378921585160562180e-02+0.000000000000000000e+00j)  (1.494720515081321144e-01+0.000000000000000000e+00j)  (1.852396653899496606e-02+0.000000000000000000e+00j)  (-0.000000000000000000e+00-5.296794859266528571e-02j)  (-0.000000000000000000e+00-3.328074363488781606e-01j)
 (2.879423999999999317e+00+0.000000000000000000e+00j)  (0.000000000000000000e+00+0.000000000000000000e+00j)  (0.000000000000000000e+00+0.000000000000000000e+00j)  (4.088076072892626173e-02+0.000000000000000000e+00j)  (2.044038036446313086e-02+0.000000000000000000e+00j)  (1.284306975791568439e-01+0.000000000000000000e+00j)  (1.861984070472194955e-02+0.000000000000000000e+00j)  (-0.000000000000000000e+00-5.361441620135327241e-02j)  (-0.000000000000000000e+00-3.368693121293540593e-01j)
 (2.899419999999999664e+00+0.000000000000000000e+00j)  (0.000000000000000000e+00+0.000000000000000000e+00j)  (0.000000000000000000e+00+0.000000000000000000e+00j)  (3.411531047351439722e-02+0.000000000000000000e+00j)  (1.705765523675719861e-02+0.000000000000000000e+00j)  (1.071764087585277553e-01+0.000000000000000000e+00j)  (1.864064217827422071e-02+0.000000000000000000e+00j)  (-0.000000000000000000e+00-5.404705074453183128e-02j)  (-0.000000000000000000e+00-3.395876351344319088e-01j)
 (2.919415999999999567e+00+0.000000000000000000e+00j)  (0.000000000000000000e+00+0.000000000000000000e+00j)  (0.000000000000000000e+00+0.000000000000000000e+00j)  (2.730887571239955583e-02+0.000000000000000000e+00j)  (1.365443785619977791e-02+0.000000000000000000e+00j)  (8.579336331587116005e-02+0.000000000000000000e+00j)  (1.858834372249412725e-02+0.000000000000000000e+00j)  (-0.000000000000000000e+00-5.426710807694890004e-02j)  (-0.000000000000000000e+00-3.409702961322119696e-01j)
 (2.939411999999999470e+00+0.000000000000000000e+00j)  (0.000000000000000000e+00+0.000000000000000000e+00j)  (0.000000000000000000e+00+0.000000000000000000e+00j)  (2.048804581602222882e-02+0.000000000000000000e+00j)  (1.024402290801111441e-02+0.000000000000000000e+00j)  (6.436509422202653374e-02+0.000000000000000000e+00j)  (1.846512148977572446e-02+0.000000000000000000e+00j)  (-0.000000000000000000e+00-5.427659968850463007e-02j)  (-0.000000000000000000e+00-3.410299336864804354e-01j)
 (2.959407999999999372e+00+0.000000000000000000e+00j)  (0.000000000000000000e+00+0.000000000000000000e+00j)  (0.000000000000000000e+00+0.000000000000000000e+00j)  (1.367911078114778488e-02+0.000000000000000000e+00j)  (6.839555390573892439e-03+0.000000000000000000e+00j)  (4.297419393769481843e-02+0.000000000000000000e+00j)  (1.827334280396759533e-02+0.000000000000000000e+00j)  (-0.000000000000000000e+00-5.407827688080412559e-02j)  (-0.000000000000000000e+00-3.397838347350579657e-01j)
 (2.979403999999999275e+00+0.000000000000000000e+00j)  (0.000000000000000000e+00+0.000000000000000000e+00j)  (0.000000000000000000e+00+0.000000000000000000e+00j)  (6.907969403290268283e-03+0.000000000000000000e+00j)  (3.453984701645134141e-03+0.000000000000000000e+00j)  (2.170202592859977325e-02+0.000000000000000000e+00j)  (1.801555362086238593e-02+0.000000000000000000e+00j)  (-0.000000000000000000e+00-5.367561252021186419e-02j)  (-0.000000000000000000e+00-3.372538199408598447e-01j)
 (2.999399999999999622e+00+0.000000000000000000e+00j)  (0.000000000000000000e+00+0.000000000000000000e+00j)  (0.000000000000000000e+00+0.000000000000000000e+00j)  (2.000398895428541447e-04+0.000000000000000000e+00j)  (1.000199447714270723e-04+0.000000000000000000e+00j)  (6.284438474127442649e-04+0.000000000000000000e+00j)  (1.769446571026954407e-02+0.000000000000000000e+00j)  (-0.000000000000000000e+00-5.307278045138245914e-02j)  (-0.000000000000000000e+00-3.334661143432942620e-01j)
 (3.019395999999999525e+00+0.000000000000000000e+00j)  (0.000000000000000000e+00+0.000000000000000000e+00j)  (0.000000000000000000e+00+0.000000000000000000e+00j)  (-6.419826799919798807e-03+0.000000000000000000e+00j)  (-3.209913399959899404e-03+0.000000000000000000e+00j)  (-2.016848071194691019e-02+0.000000000000000000e+00j)  (1.731294360287569806e-02+0.000000000000000000e+00j)  (-0.000000000000000000e+00-5.227463266274846865e-02j)  (-0.000000000000000000e+00-3.284512038847912652e-01j)
 (3.039391999999999427e+00+0.000000000000000000e+00j)  (0.000000000000000000e+00+0.000000000000000000e+00j)  (0.000000000000000000e+00+0.000000000000000000e+00j)  (-1.292743060535166133e-02+0.000000000000000000e+00j)  (-6.463715302675830665e-03+0.000000000000000000e+00j)  (-4.061272101956463210e-02+0.000000000000000000e+00j)  (1.687399134517186816e-02+0.000000000000000000e+00j)  (-0.000000000000000000e+00-5.128667430258461446e-02j)  (-0.000000000000000000e+00-3.222436784321044967e-01j)
 (3.059387999999999330e+00+0.000000000000000000e+00j)  (0.000000000000000000e+00+0.000000000000000000e+00j)  (0.000000000000000000e+00+0.000000000000000000e+00j)  (-1.929930275245431495e-02+0.000000000000000000e+00j)  (-9.649651376227157476e-03+0.000000000000000000e+00j)  (-6.063054774651575191e-02+0.000000000000000000e+00j)  (1.638073910567035621e-02+0.000000000000000000e+00j)  (-0.000000000000000000e+00-5.011503665101860877e-02j)  (-0.000000000000000000e+00-3.148820619544466237e-01j)
 (3.079383999999999233e+00+0.000000000000000000e+00j)  (0.000000000000000000e+00+0.000000000000000000e+00j)  (0.000000000000000000e+00+0.000000000000000000e+00j)  (-2.551278261904900424e-02+0.000000000000000000e+00j)  (-1.275639130952450212e-02+0.000000000000000000e+00j)  (-8.015077044863770650e-02+0.000000000000000000e+00j)  (1.583642967544703073e-02+0.000000000000000000e+00j)  (-0.000000000000000000e+00-4.876644815969675972e-02j)  (-0.000000000000000000e+00-3.064086305603417326e-01j)
 (3.099379999999999580e+00+0.000000000000000000e+00j)  (0.000000000000000000e+00+0.000000000000000000e+00j)  (0.000000000000000000e+00+0.000000000000000000e+00j)  (-3.154609084795269303e-02+0.000000000000000000e+00j)  (-1.577304542397634651e-02+0.000000000000000000e+00j)  (-9.910496725740439161e-02+0.000000000000000000e+00j)  (1.524440490573003744e-02+0.000000000000000000e+00j)  (-0.000000000000000000e+00-4.724820367672155630e-02j)  (-0.000000000000000000e+00-2.968692191322053753e-01j)
 (3.119375999999999483e+00+0.000000000000000000e+00j)  (0.000000000000000000e+00+0.000000000000000000e+00j)  (0.000000000000000000e+00+0.000000000000000000e+00j)  (-3.737839848573445978e-02+0.000000000000000000e+00j)  (-1.868919924286722989e-02+0.000000000000000000e+00j)  (-1.174277020857352333e-01+0.000000000000000000e+00j)  (1.460809212481531741e-02+0.000000000000000000e+00j)  (-0.000000000000000000e+00-4.556813197993789949e-02j)  (-0.000000000000000000e+00-2.863130173319660132e-01j)
 (3.139371999999999385e+00+0.000000000000000000e+00j)  (0.000000000000000000e+00+0.000000000000000000e+00j)  (0.000000000000000000e+00+0.000000000000000000e+00j)  (-4.298989194281337134e-02+0.000000000000000000e+00j)  (-2.149494597140668567e-02+0.000000000000000000e+00j)  (-1.350567287061615329e-01+0.000000000000000000e+00j)  (1.393099057602546591e-02+0.000000000000000000e+00j)  (-0.000000000000000000e+00-4.373456174663821472e-02j)  (-0.000000000000000000e+00-2.747923557824156759e-01j)
 (3.159367999999999288e+00+0.000000000000000000e+00j)  (0.000000000000000000e+00+0.000000000000000000e+00j)  (0.000000000000000000e+00+0.000000000000000000e+00j)  (-4.836183358673275257e-02+0.000000000000000000e+00j)  (-2.418091679336637628e-02+0.000000000000000000e+00j)  (-1.519331811102117291e-01+0.000000000000000000e+00j)  (1.321665791774531001e-02+0.000000000000000000e+00j)  (-0.000000000000000000e+00-4.175628609227115262e-02j)  (-0.000000000000000000e+00-2.623624832573454024e-01j)
 (3.179363999999999635e+00+0.000000000000000000e+00j)  (0.000000000000000000e+00+0.000000000000000000e+00j)  (0.000000000000000000e+00+0.000000000000000000e+00j)  (-5.347661779736686410e-02+0.000000000000000000e+00j)  (-2.673830889868343205e-02+0.000000000000000000e+00j)  (-1.680017496110369490e-01+0.000000000000000000e+00j)  (1.246869682576714697e-02+0.000000000000000000e+00j)  (-0.000000000000000000e+00-3.964252581475833509e-02j)  (-0.000000000000000000e+00-2.490813357387770266e-01j)
 (3.199359999999999538e+00+0.000000000000000000e+00j)  (0.000000000000000000e+00+0.000000000000000000e+00j)  (0.000000000000000000e+00+0.000000000000000000e+00j)  (-5.831782233020101069e-02+0.000000000000000000e+00j)  (-2.915891116510050535e-02+0.000000000000000000e+00j)  (-1.832108422059142983e-01+0.000000000000000000e+00j)  (1.169074173726617968e-02+0.000000000000000000e+00j)  (-0.000000000000000000e+00-3.740289148453991575e-02j)  (-0.000000000000000000e+00-2.350092982216936688e-01j)
 (3.219355999999999440e+00+0.000000000000000000e+00j)  (0.000000000000000000e+00+0.000000000000000000e+00j)  (0.000000000000000000e+00+0.000000000000000000e+00j)  (-6.287025485162812954e-02+0.000000000000000000e+00j)  (-3.143512742581406477e-02+0.000000000000000000e+00j)  (-1.975127307711930236e-01+0.000000000000000000e+00j)  (1.088644577470474287e-02+0.000000000000000000e+00j)  (-0.000000000000000000e+00-3.504734452347035845e-02j)  (-0.000000000000000000e+00-2.202089601655299045e-01j)
 (3.239351999999999343e+00+0.000000000000000000e+00j)  (0.000000000000000000e+00+0.000000000000000000e+00j)  (0.000000000000000000e+00+0.000000000000000000e+00j)  (-6.711999452834344071e-02+0.000000000000000000e+00j)  (-3.355999726417172035e-02+0.000000000000000000e+00j)  (-2.108636817192308943e-01+0.000000000000000000e+00j)  (1.005946788683891382e-02+0.000000000000000000e+00j)  (-0.000000000000000000e+00-3.258615741816740102e-02j)  (-0.000000000000000000e+00-2.047448655072705292e-01j)
 (3.259347999999999246e+00+0.000000000000000000e+00j)  (0.000000000000000000e+00+0.000000000000000000e+00j)  (0.000000000000000000e+00+0.000000000000000000e+00j)  (-7.105442857134436352e-02+0.000000000000000000e+00j)  (-3.552721428567218176e-02+0.000000000000000000e+00j)  (-2.232240708047561473e-01+0.000000000000000000e+00j)  (9.213460242774994258e-03+0.000000000000000000e+00j)  (-0.000000000000000000e+00-3.002987321536818716e-02j)  (-0.000000000000000000e+00-1.886832581632671979e-01j)
 (3.279343999999999593e+00+0.000000000000000000e+00j)  (0.000000000000000000e+00+0.000000000000000000e+00j)  (0.000000000000000000e+00+0.000000000000000000e+00j)  (-7.466228365367412467e-02+0.000000000000000000e+00j)  (-3.733114182683706234e-02+0.000000000000000000e+00j)  (-2.345584818266199245e-01+0.000000000000000000e+00j)  (8.352055913703734791e-03+0.000000000000000000e+00j)  (-0.000000000000000000e+00-2.738926444826885256e-02j)  (-0.000000000000000000e+00-1.720918239558190399e-01j)
 (3.299339999999999495e+00+0.000000000000000000e+00j)  (0.000000000000000000e+00+0.000000000000000000e+00j)  (0.000000000000000000e+00+0.000000000000000000e+00j)  (-7.793365213982654527e-02+0.000000000000000000e+00j)  (-3.896682606991327263e-02+0.000000000000000000e+00j)  (-2.448357890299015238e-01+0.000000000000000000e+00j)  (7.478856875530208101e-03+0.000000000000000000e+00j)  (-0.000000000000000000e+00-2.467529164371182887e-02j)  (-0.000000000000000000e+00-1.550394299061413905e-01j)
 (3.319335999999999398e+00+0.000000000000000000e+00j)  (0.000000000000000000e+00+0.000000000000000000e+00j)  (0.000000000000000000e+00+0.000000000000000000e+00j)  (-8.086001308358567452e-02+0.000000000000000000e+00j)  (-4.043000654179283726e-02+0.000000000000000000e+00j)  (-2.540292230725673117e-01+0.000000000000000000e+00j)  (6.597422364123472181e-03+0.000000000000000000e+00j)  (-0.000000000000000000e+00-2.189906156044013966e-02j)  (-0.000000000000000000e+00-1.375958618375787701e-01j)
 (3.339331999999999301e+00+0.000000000000000000e+00j)  (0.000000000000000000e+00+0.000000000000000000e+00j)  (0.000000000000000000e+00+0.000000000000000000e+00j)  (-8.343424796994286519e-02+0.000000000000000000e+00j)  (-4.171712398497143259e-02+0.000000000000000000e+00j)  (-2.621164204801615938e-01+0.000000000000000000e+00j)  (5.711257613337697436e-03+0.000000000000000000e+00j)  (-0.000000000000000000e+00-1.907178530846220105e-02j)  (-0.000000000000000000e+00-1.198315612318131829e-01j)
 (3.359327999999999204e+00+0.000000000000000000e+00j)  (0.000000000000000000e+00+0.000000000000000000e+00j)  (0.000000000000000000e+00+0.000000000000000000e+00j)  (-8.565065119554489403e-02+0.000000000000000000e+00j)  (-4.282532559777244702e-02+0.000000000000000000e+00j)  (-2.690794565711056574e-01+0.000000000000000000e+00j)  (4.823803004311040879e-03+0.000000000000000000e+00j)  (-0.000000000000000000e+00-1.620473649886619572e-02j)  (-0.000000000000000000e+00-1.018173622763928476e-01j)
 (3.379323999999999550e+00+0.000000000000000000e+00j)  (0.000000000000000000e+00+0.000000000000000000e+00j)  (0.000000000000000000e+00+0.000000000000000000e+00j)  (-8.750493530081944471e-02+0.000000000000000000e+00j)  (-4.375246765040972236e-02+0.000000000000000000e+00j)  (-2.749048618939045063e-01+0.000000000000000000e+00j)  (3.938423652836509602e-03+0.000000000000000000e+00j)  (-0.000000000000000000e+00-1.330920957219808472e-02j)  (-0.000000000000000000e+00-8.362423003420890733e-02j)
 (3.399319999999999453e+00+0.000000000000000000e+00j)  (0.000000000000000000e+00+0.000000000000000000e+00j)  (0.000000000000000000e+00+0.000000000000000000e+00j)  (-8.899423098542755262e-02+0.000000000000000000e+00j)  (-4.449711549271377631e-02+0.000000000000000000e+00j)  (-2.795836222756923339e-01+0.000000000000000000e+00j)  (3.058399459826268915e-03+0.000000000000000000e+00j)  (-0.000000000000000000e+00-1.039647845177663066e-02j)  (-0.000000000000000000e+00-6.532300065461210670e-02j)
 (3.419315999999999356e+00+0.000000000000000000e+00j)  (0.000000000000000000e+00+0.000000000000000000e+00j)  (0.000000000000000000e+00+0.000000000000000000e+00j)  (-9.011708195694892454e-02+0.000000000000000000e+00j)  (-4.505854097847446227e-02+0.000000000000000000e+00j)  (-2.831111626389000158e-01+0.000000000000000000e+00j)  (2.186915648062968953e-03+0.000000000000000000e+00j)  (-0.000000000000000000e+00-7.477755666072075959e-03j)  (-0.000000000000000000e+00-4.698412453174297121e-02j)
 (3.439311999999999259e+00+0.000000000000000000e+00j)  (0.000000000000000000e+00+0.000000000000000000e+00j)  (0.000000000000000000e+00+0.000000000000000000e+00j)  (-9.087343468064434937e-02+0.000000000000000000e+00j)  (-4.543671734032217469e-02+0.000000000000000000e+00j)  (-2.854873147991842108e-01+0.000000000000000000e+00j)  (1.327053806556941808e-03+0.000000000000000000e+00j)  (-0.000000000000000000e+00-4.564152081536968289e-03j)  (-0.000000000000000000e+00-2.867741329844620407e-02j)
 (3.459307999999999161e+00+0.000000000000000000e+00j)  (0.000000000000000000e+00+0.000000000000000000e+00j)  (0.000000000000000000e+00+0.000000000000000000e+00j)  (-9.126462311570815444e-02+0.000000000000000000e+00j)  (-4.563231155785407722e-02+0.000000000000000000e+00j)  (-2.867162695129499284e-01+0.000000000000000000e+00j)  (4.817834619099767984e-04+0.000000000000000000e+00j)  (-0.000000000000000000e+00-1.666637384052876416e-03j)  (-0.000000000000000000e+00-1.047179152387725520e-02j)
 (3.479303999999999508e+00+0.000000000000000000e+00j)  (0.000000000000000000e+00+0.000000000000000000e+00j)  (0.000000000000000000e+00+0.000000000000000000e+00j)  (-9.129334854055401460e-02+0.000000000000000000e+00j)  (-4.564667427027700730e-02+0.000000000000000000e+00j)  (-2.868065130966169218e-01+0.000000000000000000e+00j)  (-3.460458058657096781e-04+0.000000000000000000e+00j)  (0.000000000000000000e+00+1.203998556531787195e-03j)  (0.000000000000000000e+00+7.564946040265955844e-03j)
 (3.499299999999999411e+00+0.000000000000000000e+00j)  (0.000000000000000000e+00+0.000000000000000000e+00j)  (0.000000000000000000e+00+0.000000000000000000e+00j)  (-9.096365458631748557e-02+0.000000000000000000e+00j)  (-4.548182729315874279e-02+0.000000000000000000e+00j)  (-2.857707489920545130e-01+0.000000000000000000e+00j)  (-1.153711687605918357e-03+0.000000000000000000e+00j)  (0.000000000000000000e+00+4.037183308439389225e-03j)  (0.000000000000000000e+00+2.536637084597704109e-02j)
 (3.519295999999999314e+00+0.000000000000000000e+00j)  (0.000000000000000000e+00+0.000000000000000000e+00j)  (0.000000000000000000e+00+0.000000000000000000e+00j)  (-9.028089761385074685e-02+0.000000000000000000e+00j)  (-4.514044880692537343e-02+0.000000000000000000e+00j)  (-2.836258047031657847e-01+0.000000000000000000e+00j)  (-1.938625895866850132e-03+0.000000000000000000e+00j)  (0.000000000000000000e+00+6.822598360820620808e-03j)  (0.000000000000000000e+00+4.286764977749565192e-02j)
 (3.539291999999999216e+00+0.000000000000000000e+00j)  (0.000000000000000000e+00+0.000000000000000000e+00j)  (0.000000000000000000e+00+0.000000000000000000e+00j)  (-8.925171258497494042e-02+0.000000000000000000e+00j)  (-4.462585629248747021e-02+0.000000000000000000e+00j)  (-2.803925245772649899e-01+0.000000000000000000e+00j)  (-2.698340330966077054e-03+0.000000000000000000e+00j)  (0.000000000000000000e+00+9.550214346665586440e-03j)  (0.000000000000000000e+00+6.000576646338490194e-02j)
 (3.559287999999999563e+00+0.000000000000000000e+00j)  (0.000000000000000000e+00+0.000000000000000000e+00j)  (0.000000000000000000e+00+0.000000000000000000e+00j)  (-8.788397459359470476e-02+0.000000000000000000e+00j)  (-4.394198729679735238e-02+0.000000000000000000e+00j)  (-2.760956489515091761e-01+0.000000000000000000e+00j)  (-3.430552652775625561e-03+0.000000000000000000e+00j)  (0.000000000000000000e+00+1.221032489039245057e-02j)  (0.000000000000000000e+00+7.671973394720303652e-02j)
 (3.579283999999999466e+00+0.000000000000000000e+00j)  (0.000000000000000000e+00+0.000000000000000000e+00j)  (0.000000000000000000e+00+0.000000000000000000e+00j)  (-8.618675623641637584e-02+0.000000000000000000e+00j)  (-4.309337811820818792e-02+0.000000000000000000e+00j)  (-2.707636802290599998e-01+0.000000000000000000e+00j)  (-4.133111250880595021e-03+0.000000000000000000e+00j)  (0.000000000000000000e+00+1.479357897049689806e-02j)  (0.000000000000000000e+00+9.295079802802702629e-02j)
 (3.599279999999999369e+00+0.000000000000000000e+00j)  (0.000000000000000000e+00+0.000000000000000000e+00j)  (0.000000000000000000e+00+0.000000000000000000e+00j)  (-8.417028101640314230e-02+0.000000000000000000e+00j)  (-4.208514050820157115e-02+0.000000000000000000e+00j)  (-2.644287364917205507e-01+0.000000000000000000e+00j)  (-4.804019607743948567e-03+0.000000000000000000e+00j)  (0.000000000000000000e+00+1.729101169376063771e-02j)  (0.000000000000000000e+00+1.086426306205072467e-01j)
 (3.619275999999999271e+00+0.000000000000000000e+00j)  (0.000000000000000000e+00+0.000000000000000000e+00j)  (0.000000000000000000e+00+0.000000000000000000e+00j)  (-8.184587298470337446e-02+0.000000000000000000e+00j)  (-4.092293649235168723e-02+0.000000000000000000e+00j)  (-2.571263932953874454e-01+0.000000000000000000e+00j)  (-5.441440051533698828e-03+0.000000000000000000e+00j)  (0.000000000000000000e+00+1.969407338395467652e-02j)  (0.000000000000000000e+00+1.237415125245805714e-01j)
 (3.639271999999999174e+00+0.000000000000000000e+00j)  (0.000000000000000000e+00+0.000000000000000000e+00j)  (0.000000000000000000e+00+0.000000000000000000e+00j)  (-7.922590283856247029e-02+0.000000000000000000e+00j)  (-3.961295141928123514e-02+0.000000000000000000e+00j)  (-2.488955143316466112e-01+0.000000000000000000e+00j)  (-6.043696897269194152e-03+0.000000000000000000e+00j)  (0.000000000000000000e+00+2.199465689471865118e-02j)  (0.000000000000000000e+00+1.381965050373523962e-01j)
 (3.659267999999999521e+00+0.000000000000000000e+00j)  (0.000000000000000000e+00+0.000000000000000000e+00j)  (0.000000000000000000e+00+0.000000000000000000e+00j)  (-7.632373070363758505e-02+0.000000000000000000e+00j)  (-3.816186535181879252e-02+0.000000000000000000e+00j)  (-2.397780716731136019e-01+0.000000000000000000e+00j)  (-6.609278976919895354e-03+0.000000000000000000e+00j)  (0.000000000000000000e+00+2.418512306331570966e-02j)  (0.000000000000000000e+00+1.519596098837553977e-01j)
 (3.679263999999999424e+00+0.000000000000000000e+00j)  (0.000000000000000000e+00+0.000000000000000000e+00j)  (0.000000000000000000e+00+0.000000000000000000e+00j)  (-7.315364583914729657e-02+0.000000000000000000e+00j)  (-3.657682291957364829e-02+0.000000000000000000e+00j)  (-2.298189563515747047e-01+0.000000000000000000e+00j)  (-7.136841561038343058e-03+0.000000000000000000e+00j)  (0.000000000000000000e+00+2.625832422923217446e-02j)  (0.000000000000000000e+00+1.649859169882693377e-01j)
 (3.699259999999999327e+00+0.000000000000000000e+00j)  (0.000000000000000000e+00+0.000000000000000000e+00j)  (0.000000000000000000e+00+0.000000000000000000e+00j)  (-6.973080351336988225e-02+0.000000000000000000e+00j)  (-3.486540175668494113e-02+0.000000000000000000e+00j)  (-2.190657800465161675e-01+0.000000000000000000e+00j)  (-7.625207676423154633e-03+0.000000000000000000e+00j)  (0.000000000000000000e+00+2.820762574908511344e-02j)  (0.000000000000000000e+00+1.772337396570721479e-01j)
 (3.719255999999999229e+00+0.000000000000000000e+00j)  (0.000000000000000000e+00+0.000000000000000000e+00j)  (0.000000000000000000e+00+0.000000000000000000e+00j)  (-6.607115930513708657e-02+0.000000000000000000e+00j)  (-3.303557965256854329e-02+0.000000000000000000e+00j)  (-2.075686686871795750e-01+0.000000000000000000e+00j)  (-8.073368826180817373e-03+0.000000000000000000e+00j)  (0.000000000000000000e+00+3.002692544698596158e-02j)  (0.000000000000000000e+00+1.886647367882790249e-01j)
 (3.739251999999999132e+00+0.000000000000000000e+00j)  (0.000000000000000000e+00+0.000000000000000000e+00j)  (0.000000000000000000e+00+0.000000000000000000e+00j)  (-6.219140109412062828e-02+0.000000000000000000e+00j)  (-3.109570054706031414e-02+0.000000000000000000e+00j)  (-1.953800487937455976e-01+0.000000000000000000e+00j)  (-8.480485120383312106e-03+0.000000000000000000e+00j)  (0.000000000000000000e+00+3.171067094736353814e-02j)  (0.000000000000000000e+00+1.992440217772811217e-01j)
 (3.759247999999999479e+00+0.000000000000000000e+00j)  (0.000000000000000000e+00+0.000000000000000000e+00j)  (0.000000000000000000e+00+0.000000000000000000e+00j)  (-5.810887900886833879e-02+0.000000000000000000e+00j)  (-2.905443950443416939e-02+0.000000000000000000e+00j)  (-1.825544274025988900e-01+0.000000000000000000e+00j)  (-8.845884827294979089e-03+0.000000000000000000e+00j)  (0.000000000000000000e+00+3.325387484523898568e-02j)  (0.000000000000000000e+00+2.089402578343944605e-01j)
 (3.779243999999999382e+00+0.000000000000000000e+00j)  (0.000000000000000000e+00+0.000000000000000000e+00j)  (0.000000000000000000e+00+0.000000000000000000e+00j)  (-5.384153360669317878e-02+0.000000000000000000e+00j)  (-2.692076680334658939e-02+0.000000000000000000e+00j)  (-1.691481664367952276e-01+0.000000000000000000e+00j)  (-9.169063356862747552e-03+0.000000000000000000e+00j)  (0.000000000000000000e+00+3.465212767704339142e-02j)  (0.000000000000000000e+00+2.177257394829101023e-01j)
 (3.799239999999999284e+00+0.000000000000000000e+00j)  (0.000000000000000000e+00+0.000000000000000000e+00j)  (0.000000000000000000e+00+0.000000000000000000e+00j)  (-4.940782256364278924e-02+0.000000000000000000e+00j)  (-2.470391128182139462e-02+0.000000000000000000e+00j)  (-1.552192523958081938e-01+0.000000000000000000e+00j)  (-9.449681689823304087e-03+0.000000000000000000e+00j)  (0.000000000000000000e+00+3.590160866324427352e-02j)  (0.000000000000000000e+00+2.255764600570077938e-01j)
 (3.819235999999999187e+00+0.000000000000000000e+00j)  (0.000000000000000000e+00+0.000000000000000000e+00j)  (0.000000000000000000e+00+0.000000000000000000e+00j)  (-4.482664615587089035e-02+0.000000000000000000e+00j)  (-2.241332307793544518e-02+0.000000000000000000e+00j)  (-1.408270622483531187e-01+0.000000000000000000e+00j)  (-9.687564267374999816e-03+0.000000000000000000e+00j)  (0.000000000000000000e+00+3.699909420227221607e-02j)  (0.000000000000000000e+00+2.324721650706702003e-01j)
 (3.839231999999999090e+00+0.000000000000000000e+00j)  (0.000000000000000000e+00+0.000000000000000000e+00j)  (0.000000000000000000e+00+0.000000000000000000e+00j)  (-4.011727181579093082e-02+0.000000000000000000e+00j)  (-2.005863590789546541e-02+0.000000000000000000e+00j)  (-1.260321264185536583e-01+0.000000000000000000e+00j)  (-9.882696357886286420e-03+0.000000000000000000e+00j)  (0.000000000000000000e+00+3.794196410348047582e-02j)  (0.000000000000000000e+00+2.383963913805237922e-01j)
 (3.859227999999999437e+00+0.000000000000000000e+00j)  (0.000000000000000000e+00+0.000000000000000000e+00j)  (0.000000000000000000e+00+0.000000000000000000e+00j)  (-3.529925804741589068e-02+0.000000000000000000e+00j)  (-1.764962902370794534e-02+0.000000000000000000e+00j)  (-1.108958897589321507e-01+0.000000000000000000e+00j)  (-1.003522091856279275e-02+0.000000000000000000e+00j)  (0.000000000000000000e+00+3.872820555510323587e-02j)  (0.000000000000000000e+00+2.433364921172554984e-01j)
 (3.879223999999999339e+00+0.000000000000000000e+00j)  (0.000000000000000000e+00+0.000000000000000000e+00j)  (0.000000000000000000e+00+0.000000000000000000e+00j)  (-3.039237798528114654e-02+0.000000000000000000e+00j)  (-1.519618899264057327e-02+0.000000000000000000e+00j)  (-9.548047140368340346e-02+0.000000000000000000e+00j)  (-1.014543497136754027e-02+0.000000000000000000e+00j)  (0.000000000000000000e+00+3.935641483136826518e-02j)  (0.000000000000000000e+00+2.472836474117178773e-01j)
 (3.899219999999999242e+00+0.000000000000000000e+00j)  (0.000000000000000000e+00+0.000000000000000000e+00j)  (0.000000000000000000e+00+0.000000000000000000e+00j)  (-2.541654288031083841e-02+0.000000000000000000e+00j)  (-1.270827144015541921e-02+0.000000000000000000e+00j)  (-7.984842439243448886e-02+0.000000000000000000e+00j)  (-1.021378551378026960e-02+0.000000000000000000e+00j)  (0.000000000000000000e+00+3.982579675104228750e-02j)  (0.000000000000000000e+00+2.502328609928693992e-01j)
 (3.919215999999999145e+00+0.000000000000000000e+00j)  (0.000000000000000000e+00+0.000000000000000000e+00j)  (0.000000000000000000e+00+0.000000000000000000e+00j)  (-2.039172579394557885e-02+0.000000000000000000e+00j)  (-1.019586289697278943e-02+0.000000000000000000e+00j)  (-6.406249594827692628e-02+0.000000000000000000e+00j)  (-1.024086498618841622e-02+0.000000000000000000e+00j)  (0.000000000000000000e+00+4.013616190770941117e-02j)  (0.000000000000000000e+00+2.521829427851007277e-01j)
 (3.939211999999999492e+00+0.000000000000000000e+00j)  (0.000000000000000000e+00+0.000000000000000000e+00j)  (0.000000000000000000e+00+0.000000000000000000e+00j)  (-1.533788577879596424e-02+0.000000000000000000e+00j)  (-7.668942889397982118e-03+0.000000000000000000e+00j)  (-4.818538928426475965e-02+0.000000000000000000e+00j)  (-1.022740631882222348e-02+0.000000000000000000e+00j)  (0.000000000000000000e+00+4.028792169998032802e-02j)  (0.000000000000000000e+00+2.531364776821179996e-01j)
 (3.959207999999999394e+00+0.000000000000000000e+00j)  (0.000000000000000000e+00+0.000000000000000000e+00j)  (0.000000000000000000e+00+0.000000000000000000e+00j)  (-1.027489282005972920e-02+0.000000000000000000e+00j)  (-5.137446410029864602e-03+0.000000000000000000e+00j)  (-3.227952779992215859e-02+0.000000000000000000e+00j)  (-1.017427758217600772e-02+0.000000000000000000e+00j)  (0.000000000000000000e+00+4.028208119757190758e-02j)  (0.000000000000000000e+00+2.530997807231988861e-01j)
 (3.979203999999999297e+00+0.000000000000000000e+00j)  (0.000000000000000000e+00+0.000000000000000000e+00j)  (0.000000000000000000e+00+0.000000000000000000e+00j)  (-5.222453806943837436e-03+0.000000000000000000e+00j)  (-2.611226903471918718e-03+0.000000000000000000e+00j)  (-1.640682251360680785e-02+0.000000000000000000e+00j)  (-1.008247626579536482e-02+0.000000000000000000e+00j)  (0.000000000000000000e+00+4.012022988675797291e-02j)  (0.000000000000000000e+00+2.520828389451449936e-01j)
 (3.999199999999999200e+00+0.000000000000000000e+00j)  (0.000000000000000000e+00+0.000000000000000000e+00j)  (0.000000000000000000e+00+0.000000000000000000e+00j)  (-2.000397974082120524e-04+0.000000000000000000e+00j)  (-1.000198987041060262e-04+0.000000000000000000e+00j)  (-6.284435579632295611e-04+0.000000000000000000e+00j)  (-9.953123211153784913e-03+0.000000000000000000e+00j)  (0.000000000000000000e+00+3.980453034604621021e-02j)  (0.000000000000000000e+00+2.500992402294615058e-01j)
 (4.019195999999999103e+00+0.000000000000000000e+00j)  (0.000000000000000000e+00+0.000000000000000000e+00j)  (0.000000000000000000e+00+0.000000000000000000e+00j)  (4.773185167296238596e-03+0.000000000000000000e+00j)  (2.386592583648119298e-03+0.000000000000000000e+00j)  (1.499540345580163171e-02+0.000000000000000000e+00j)  (-9.787456225090147843e-03+0.000000000000000000e+00j)  (0.000000000000000000e+00+3.933770491005741249e-02j)  (0.000000000000000000e+00+2.471660895090389831e-01j)
 (4.039191999999999005e+00+0.000000000000000000e+00j)  (0.000000000000000000e+00+0.000000000000000000e+00j)  (0.000000000000000000e+00+0.000000000000000000e+00j)  (9.678433449537988606e-03+0.000000000000000000e+00j)  (4.839216724768994303e-03+0.000000000000000000e+00j)  (3.040569542332626288e-02+0.000000000000000000e+00j)  (-9.586823400929790628e-03+0.000000000000000000e+00j)  (0.000000000000000000e+00+3.872302038644839794e-02j)  (0.000000000000000000e+00+2.433039127417481462e-01j)
 (4.059187999999998908e+00+0.000000000000000000e+00j)  (0.000000000000000000e+00+0.000000000000000000e+00j)  (0.000000000000000000e+00+0.000000000000000000e+00j)  (1.449736116347044058e-02+0.000000000000000000e+00j)  (7.248680581735220292e-03+0.000000000000000000e+00j)  (4.554480332759671540e-02+0.000000000000000000e+00j)  (-9.352676174965194114e-03+0.000000000000000000e+00j)  (0.000000000000000000e+00+3.796427089730460697e-02j)  (0.000000000000000000e+00+2.385365490997299054e-01j)
