 (0.000000000000000000e+00+0.000000000000000000e+00j)  (0.000000000000000000e+00+0.000000000000000000e+00j)  (0.000000000000000000e+00+0.000000000000000000e+00j)  (1.000000000000000000e+00+0.000000000000000000e+00j)  (5.000000000000000000e-01+0.000000000000000000e+00j)  (3.141592653589793116e+00+0.000000000000000000e+00j)  (5.235987755982988157e-01+0.000000000000000000e+00j)  (0.000000000000000000e+00+0.000000000000000000e+00j)  (0.000000000000000000e+00+0.000000000000000000e+00j)
 (1.999000000000000221e-01+0.000000000000000000e+00j)  (0.000000000000000000e+00+0.000000000000000000e+00j)  (0.000000000000000000e+00+0.000000000000000000e+00j)  (9.355525053862531193e-01+0.000000000000000000e+00j)  (4.677762526931265596e-01+0.000000000000000000e+00j)  (2.939124877968978033e+00+0.000000000000000000e+00j)  (5.032373401803860169e-01+0.000000000000000000e+00j)  (-0.000000000000000000e+00-1.005971443020591549e-01j)  (-0.000000000000000000e+00-6.320704990229226716e-01j)
 (3.998000000000000442e-01+0.000000000000000000e+00j)  (0.000000000000000000e+00+0.000000000000000000e+00j)  (0.000000000000000000e+00+0.000000000000000000e+00j)  (7.570505960600624196e-01+0.000000000000000000e+00j)  (3.785252980300312098e-01+0.000000000000000000e+00j)  (2.378344590978065831e+00+0.000000000000000000e+00j)  (4.455183222059656556e-01+0.000000000000000000e+00j)  (-0.000000000000000000e+00-1.781182252179450698e-01j)  (-0.000000000000000000e+00-1.119149815630296807e+00j)
 (5.997000000000001219e-01+0.000000000000000000e+00j)  (0.000000000000000000e+00+0.000000000000000000e+00j)  (0.000000000000000000e+00+0.000000000000000000e+00j)  (5.049579157719080724e-01+0.000000000000000000e+00j)  (2.524789578859540362e-01+0.000000000000000000e+00j)  (1.586372078561040011e+00+0.000000000000000000e+00j)  (3.598193132562232943e-01+0.000000000000000000e+00j)  (-0.000000000000000000e+00-2.157836421597571497e-01j)  (-0.000000000000000000e+00-1.355808609947883658e+00j)
 (7.996000000000000885e-01+0.000000000000000000e+00j)  (0.000000000000000000e+00+0.000000000000000000e+00j)  (0.000000000000000000e+00+0.000000000000000000e+00j)  (2.343938416005263703e-01+0.000000000000000000e+00j)  (1.171969208002631851e-01+0.000000000000000000e+00j)  (7.363699708189032078e-01+0.000000000000000000e+00j)  (2.595506318966828707e-01+0.000000000000000000e+00j)  (-0.000000000000000000e+00-2.075366852645876004e-01j)  (-0.000000000000000000e+00-1.303991451555211123e+00j)
 (9.995000000000000551e-01+0.000000000000000000e+00j)  (0.000000000000000000e+00+0.000000000000000000e+00j)  (0.000000000000000000e+00+0.000000000000000000e+00j)  (5.002499193429463080e-04+0.000000000000000000e+00j)  (2.501249596714731540e-04+0.000000000000000000e+00j)  (1.571581471566686587e-03+0.000000000000000000e+00j)  (1.593937178592693682e-01+0.000000000000000000e+00j)  (-0.000000000000000000e+00-1.593140210003397839e-01j)  (-0.000000000000000000e+00-1.000999515977034848e+00j)
 (1.199400000000000244e+00+0.000000000000000000e+00j)  (0.000000000000000000e+00+0.000000000000000000e+00j)  (0.000000000000000000e+00+0.000000000000000000e+00j)  (-1.555878893312658551e-01+0.000000000000000000e+00j)  (-7.779394466563292754e-02+0.000000000000000000e+00j)  (-4.887937701106465638e-01+0.000000000000000000e+00j)  (7.241446494117403931e-02+0.000000000000000000e+00j)  (-0.000000000000000000e+00-8.685390925044418620e-02j)  (-0.000000000000000000e+00-5.457192064735000292e-01j)
 (1.399300000000000210e+00+0.000000000000000000e+00j)  (0.000000000000000000e+00+0.000000000000000000e+00j)  (0.000000000000000000e+00+0.000000000000000000e+00j)  (-2.161892715757637029e-01+0.000000000000000000e+00j)  (-1.080946357878818515e-01+0.000000000000000000e+00j)  (-6.791786273673480201e-01+0.000000000000000000e+00j)  (7.715234493557612816e-03+0.000000000000000000e+00j)  (-0.000000000000000000e+00-1.079592762683517435e-02j)  (-0.000000000000000000e+00-6.783281384230493982e-02j)
 (1.599200000000000177e+00+0.000000000000000000e+00j)  (0.000000000000000000e+00+0.000000000000000000e+00j)  (0.000000000000000000e+00+0.000000000000000000e+00j)  (-1.894553205888677427e-01+0.000000000000000000e+00j)  (-9.472766029443387137e-02+0.000000000000000000e+00j)  (-5.951914433454860154e-01+0.000000000000000000e+00j)  (-3.087217515481597771e-02+0.000000000000000000e+00j)  (0.000000000000000000e+00+4.937078250758171472e-02j)  (0.000000000000000000e+00+3.102057752555963388e-01j)
 (1.799100000000000144e+00+0.000000000000000000e+00j)  (0.000000000000000000e+00+0.000000000000000000e+00j)  (0.000000000000000000e+00+0.000000000000000000e+00j)  (-1.043995460048824653e-01+0.000000000000000000e+00j)  (-5.219977300244123264e-02+0.000000000000000000e+00j)  (-3.279808467670484173e-01+0.000000000000000000e+00j)  (-4.483177730337399580e-02+0.000000000000000000e+00j)  (0.000000000000000000e+00+8.065685054650016672e-02j)  (0.000000000000000000e+00+5.067819382771496795e-01j)
 (1.999000000000000110e+00+0.000000000000000000e+00j)  (0.000000000000000000e+00+0.000000000000000000e+00j)  (0.000000000000000000e+00+0.000000000000000000e+00j)  (-5.002493021844725682e-04+0.000000000000000000e+00j)  (-2.501246510922362841e-04+0.000000000000000000e+00j)  (-1.571579532706159381e-03+0.000000000000000000e+00j)  (-3.984828203086005632e-02+0.000000000000000000e+00j)  (0.000000000000000000e+00+7.965671577968926054e-02j)  (0.000000000000000000e+00+5.004979062051237992e-01j)
 (2.198900000000000077e+00+0.000000000000000000e+00j)  (0.000000000000000000e+00+0.000000000000000000e+00j)  (0.000000000000000000e+00+0.000000000000000000e+00j)  (8.468180574573032360e-02+0.000000000000000000e+00j)  (4.234090287286516180e-02+0.000000000000000000e+00j)  (2.660357388235042864e-01+0.000000000000000000e+00j)  (-2.390903490418627708e-02+0.000000000000000000e+00j)  (0.000000000000000000e+00+5.257357685081520682e-02j)  (0.000000000000000000e+00+3.303295256149189618e-01j)
 (2.398800000000000487e+00+0.000000000000000000e+00j)  (0.000000000000000000e+00+0.000000000000000000e+00j)  (0.000000000000000000e+00+0.000000000000000000e+00j)  (1.260454063301507666e-01+0.000000000000000000e+00j)  (6.302270316507538328e-02+0.000000000000000000e+00j)  (3.959833225455420824e-01+0.000000000000000000e+00j)  (-5.159866171907560167e-03+0.000000000000000000e+00j)  (0.000000000000000000e+00+1.237748697317186258e-02j)  (0.000000000000000000e+00+7.777004428964018334e-02j)
 (2.598700000000000454e+00+0.000000000000000000e+00j)  (0.000000000000000000e+00+0.000000000000000000e+00j)  (0.000000000000000000e+00+0.000000000000000000e+00j)  (1.166467417237535137e-01+0.000000000000000000e+00j)  (5.832337086187675684e-02+0.000000000000000000e+00j)  (3.664565468645300528e-01+0.000000000000000000e+00j)  (9.940099228588192629e-03+0.000000000000000000e+00j)  (-0.000000000000000000e+00-2.583133586533213968e-02j)  (-0.000000000000000000e+00-1.623030699738760019e-01j)
 (2.798600000000000421e+00+0.000000000000000000e+00j)  (0.000000000000000000e+00+0.000000000000000000e+00j)  (0.000000000000000000e+00+0.000000000000000000e+00j)  (6.725815309473306969e-02+0.000000000000000000e+00j)  (3.362907654736653484e-02+0.000000000000000000e+00j)  (2.112977196564310156e-01+0.000000000000000000e+00j)  (1.775382432150562212e-02+0.000000000000000000e+00j)  (-0.000000000000000000e+00-4.968585274616564573e-02j)  (-0.000000000000000000e+00-3.121854199493964699e-01j)
 (2.998500000000000387e+00+0.000000000000000000e+00j)  (0.000000000000000000e+00+0.000000000000000000e+00j)  (0.000000000000000000e+00+0.000000000000000000e+00j)  (5.002482735879370396e-04+0.000000000000000000e+00j)  (2.501241367939685198e-04+0.000000000000000000e+00j)  (1.571576301274840021e-03+0.000000000000000000e+00j)  (1.771023835911202798e-02+0.000000000000000000e+00j)  (-0.000000000000000000e+00-5.310414971979742632e-02j)  (-0.000000000000000000e+00-3.336632132696961128e-01j)
 (3.198400000000000354e+00+0.000000000000000000e+00j)  (0.000000000000000000e+00+0.000000000000000000e+00j)  (0.000000000000000000e+00+0.000000000000000000e+00j)  (-5.809188075219734460e-02+0.000000000000000000e+00j)  (-2.904594037609867230e-02+0.000000000000000000e+00j)  (-1.825010258043174849e-01+0.000000000000000000e+00j)  (1.172872220846912436e-02+0.000000000000000000e+00j)  (-0.000000000000000000e+00-3.751314511156764869e-02j)  (-0.000000000000000000e+00-2.357020421910975549e-01j)
 (3.398300000000000320e+00+0.000000000000000000e+00j)  (0.000000000000000000e+00+0.000000000000000000e+00j)  (0.000000000000000000e+00+0.000000000000000000e+00j)  (-8.892712463759692987e-02+0.000000000000000000e+00j)  (-4.446356231879846493e-02+0.000000000000000000e+00j)  (-2.793728014663384163e-01+0.000000000000000000e+00j)  (3.103109555549429105e-03+0.000000000000000000e+00j)  (-0.000000000000000000e+00-1.054529720262362483e-02j)  (-0.000000000000000000e+00-6.625805644336675571e-02j)
 (3.598200000000000287e+00+0.000000000000000000e+00j)  (0.000000000000000000e+00+0.000000000000000000e+00j)  (0.000000000000000000e+00+0.000000000000000000e+00j)  (-8.428716547341859322e-02+0.000000000000000000e+00j)  (-4.214358273670929661e-02+0.000000000000000000e+00j)  (-2.647959398431991573e-01+0.000000000000000000e+00j)  (-4.768623026958273767e-03+0.000000000000000000e+00j)  (0.000000000000000000e+00+1.715845937560126280e-02j)  (0.000000000000000000e+00+1.078097798426156800e-01j)
 (3.798100000000000254e+00+0.000000000000000000e+00j)  (0.000000000000000000e+00+0.000000000000000000e+00j)  (0.000000000000000000e+00+0.000000000000000000e+00j)  (-4.966473943522582701e-02+0.000000000000000000e+00j)  (-2.483236971761291351e-02+0.000000000000000000e+00j)  (-1.560263805521567293e-01+0.000000000000000000e+00j)  (-9.434831088443172351e-03+0.000000000000000000e+00j)  (0.000000000000000000e+00+3.583443195701601497e-02j)  (0.000000000000000000e+00+2.251543763634496209e-01j)
 (3.998000000000000220e+00+0.000000000000000000e+00j)  (0.000000000000000000e+00+0.000000000000000000e+00j)  (0.000000000000000000e+00+0.000000000000000000e+00j)  (-5.002468335551456778e-04+0.000000000000000000e+00j)  (-2.501234167775728389e-04+0.000000000000000000e+00j)  (-1.571571777278401704e-03+0.000000000000000000e+00j)  (-9.961923074212411522e-03+0.000000000000000000e+00j)  (0.000000000000000000e+00+3.982776845070123278e-02j)  (0.000000000000000000e+00+2.502452495471966243e-01j)
 (4.197900000000000631e+00+0.000000000000000000e+00j)  (0.000000000000000000e+00+0.000000000000000000e+00j)  (0.000000000000000000e+00+0.000000000000000000e+00j)  (4.416371559486791804e-02+0.000000000000000000e+00j)  (2.208185779743395902e-02+0.000000000000000000e+00j)  (1.387444044680660460e-01+0.000000000000000000e+00j)  (-6.942572809380220117e-03+0.000000000000000000e+00j)  (0.000000000000000000e+00+2.914422639649722618e-02j)  (0.000000000000000000e+00+1.831185750835868375e-01j)
 (4.397800000000000153e+00+0.000000000000000000e+00j)  (0.000000000000000000e+00+0.000000000000000000e+00j)  (0.000000000000000000e+00+0.000000000000000000e+00j)  (6.868061961800937809e-02+0.000000000000000000e+00j)  (3.434030980900468905e-02+0.000000000000000000e+00j)  (2.157665300359332683e-01+0.000000000000000000e+00j)  (-2.031767893024134970e-03+0.000000000000000000e+00j)  (0.000000000000000000e+00+8.935308839941542847e-03j)  (0.000000000000000000e+00+5.614220121823257359e-02j)
 (4.597700000000000564e+00+0.000000000000000000e+00j)  (0.000000000000000000e+00+0.000000000000000000e+00j)  (0.000000000000000000e+00+0.000000000000000000e+00j)  (6.599680744220155770e-02+0.000000000000000000e+00j)  (3.299840372110077885e-02+0.000000000000000000e+00j)  (2.073350854208006189e-01+0.000000000000000000e+00j)  (2.771689282068036386e-03+0.000000000000000000e+00j)  (-0.000000000000000000e+00-1.274339581216421373e-02j)  (-0.000000000000000000e+00-8.006911733056404357e-02j)
 (4.797600000000000975e+00+0.000000000000000000e+00j)  (0.000000000000000000e+00+0.000000000000000000e+00j)  (0.000000000000000000e+00+0.000000000000000000e+00j)  (3.940181778745709823e-02+0.000000000000000000e+00j)  (1.970090889372854911e-02+0.000000000000000000e+00j)  (1.237844612991588628e-01+0.000000000000000000e+00j)  (5.835741064190673802e-03+0.000000000000000000e+00j)  (-0.000000000000000000e+00-2.799755132956117942e-02j)  (-0.000000000000000000e+00-1.759138031509051014e-01j)
 (4.997500000000000497e+00+0.000000000000000000e+00j)  (0.000000000000000000e+00+0.000000000000000000e+00j)  (0.000000000000000000e+00+0.000000000000000000e+00j)  (5.002449820878906691e-04+0.000000000000000000e+00j)  (2.501224910439453345e-04+0.000000000000000000e+00j)  (1.571565960722474909e-03+0.000000000000000000e+00j)  (6.375559999720248686e-03+0.000000000000000000e+00j)  (-0.000000000000000000e+00-3.186186109860194432e-02j)  (-0.000000000000000000e+00-2.001939775141325650e-01j)
 (5.197400000000000908e+00+0.000000000000000000e+00j)  (0.000000000000000000e+00+0.000000000000000000e+00j)  (0.000000000000000000e+00+0.000000000000000000e+00j)  (-3.559244902262148624e-02+0.000000000000000000e+00j)  (-1.779622451131074312e-02+0.000000000000000000e+00j)  (-1.118169763727368815e-01+0.000000000000000000e+00j)  (4.584989040624654934e-03+0.000000000000000000e+00j)  (-0.000000000000000000e+00-2.383002203974258354e-02j)  (-0.000000000000000000e+00-1.497284443498763107e-01j)
 (5.397300000000000431e+00+0.000000000000000000e+00j)  (0.000000000000000000e+00+0.000000000000000000e+00j)  (0.000000000000000000e+00+0.000000000000000000e+00j)  (-5.593268208059371666e-02+0.000000000000000000e+00j)  (-2.796634104029685833e-02+0.000000000000000000e+00j)  (-1.757177031199666783e-01+0.000000000000000000e+00j)  (1.426726813855435858e-03+0.000000000000000000e+00j)  (-0.000000000000000000e+00-7.700472632421943679e-03j)  (-0.000000000000000000e+00-4.838349650237207256e-02j)
 (5.597200000000000841e+00+0.000000000000000000e+00j)  (0.000000000000000000e+00+0.000000000000000000e+00j)  (0.000000000000000000e+00+0.000000000000000000e+00j)  (-5.423858637452910747e-02+0.000000000000000000e+00j)  (-2.711929318726455374e-02+0.000000000000000000e+00j)  (-1.703955444953161036e-01+0.000000000000000000e+00j)  (-1.802840545565664258e-03+0.000000000000000000e+00j)  (0.000000000000000000e+00+1.009085910164013791e-02j)  (0.000000000000000000e+00+6.340273764424471381e-02j)
 (5.797100000000000364e+00+0.000000000000000000e+00j)  (0.000000000000000000e+00+0.000000000000000000e+00j)  (0.000000000000000000e+00+0.000000000000000000e+00j)  (-3.267775418093143286e-02+0.000000000000000000e+00j)  (-1.633887709046571643e-02+0.000000000000000000e+00j)  (-1.026601924706273261e-01+0.000000000000000000e+00j)  (-3.960626083633333842e-03+0.000000000000000000e+00j)  (0.000000000000000000e+00+2.296014546943079757e-02j)  (0.000000000000000000e+00+1.442628486642335561e-01j)
 (5.997000000000000774e+00+0.000000000000000000e+00j)  (0.000000000000000000e+00+0.000000000000000000e+00j)  (0.000000000000000000e+00+0.000000000000000000e+00j)  (-5.002427191890827709e-04+0.000000000000000000e+00j)  (-2.501213595945413854e-04+0.000000000000000000e+00j)  (-1.571558851616204448e-03+0.000000000000000000e+00j)  (-4.427412157033226194e-03+0.000000000000000000e+00j)  (0.000000000000000000e+00+2.655119070572825590e-02j)  (0.000000000000000000e+00+1.668260513303549686e-01j)
 (6.196900000000000297e+00+0.000000000000000000e+00j)  (0.000000000000000000e+00+0.000000000000000000e+00j)  (0.000000000000000000e+00+0.000000000000000000e+00j)  (2.978603349491956709e-02+0.000000000000000000e+00j)  (1.489301674745978354e-02+0.000000000000000000e+00j)  (9.357558400721881220e-02+0.000000000000000000e+00j)  (-3.253080722792639316e-03+0.000000000000000000e+00j)  (0.000000000000000000e+00+2.015901593107370660e-02j)  (0.000000000000000000e+00+1.266628327053215264e-01j)
 (6.396800000000000708e+00+0.000000000000000000e+00j)  (0.000000000000000000e+00+0.000000000000000000e+00j)  (0.000000000000000000e+00+0.000000000000000000e+00j)  (4.716835857908950602e-02+0.000000000000000000e+00j)  (2.358417928954475301e-02+0.000000000000000000e+00j)  (1.481837687939566994e-01+0.000000000000000000e+00j)  (-1.055588632407117875e-03+0.000000000000000000e+00j)  (0.000000000000000000e+00+6.752389363781851998e-03j)  (0.000000000000000000e+00+4.242651363886984495e-02j)
 (6.596700000000001118e+00+0.000000000000000000e+00j)  (0.000000000000000000e+00+0.000000000000000000e+00j)  (0.000000000000000000e+00+0.000000000000000000e+00j)  (4.604334904878879670e-02+0.000000000000000000e+00j)  (2.302167452439439835e-02+0.000000000000000000e+00j)  (1.446494471183454589e-01+0.000000000000000000e+00j)  (1.262459357143984155e-03+0.000000000000000000e+00j)  (-0.000000000000000000e+00-8.328065641271722302e-03j)  (-0.000000000000000000e+00-5.232677967446561912e-02j)
 (6.796600000000000641e+00+0.000000000000000000e+00j)  (0.000000000000000000e+00+0.000000000000000000e+00j)  (0.000000000000000000e+00+0.000000000000000000e+00j)  (2.793128756914291591e-02+0.000000000000000000e+00j)  (1.396564378457145796e-02+0.000000000000000000e+00j)  (8.774872783252328501e-02+0.000000000000000000e+00j)  (2.861812115175467724e-03+0.000000000000000000e+00j)  (-0.000000000000000000e+00-1.945059222200158297e-02j)  (-0.000000000000000000e+00-1.222116752652219057e-01j)
 (6.996500000000001052e+00+0.000000000000000000e+00j)  (0.000000000000000000e+00+0.000000000000000000e+00j)  (0.000000000000000000e+00+0.000000000000000000e+00j)  (5.002400448621449180e-04+0.000000000000000000e+00j)  (2.501200224310724590e-04+0.000000000000000000e+00j)  (1.571550449970343004e-03+0.000000000000000000e+00j)  (3.252740452516394640e-03+0.000000000000000000e+00j)  (-0.000000000000000000e+00-2.275779857603096173e-02j)  (-0.000000000000000000e+00-1.429914656366702286e-01j)
 (7.196400000000000574e+00+0.000000000000000000e+00j)  (0.000000000000000000e+00+0.000000000000000000e+00j)  (0.000000000000000000e+00+0.000000000000000000e+00j)  (-2.559244788279126451e-02+0.000000000000000000e+00j)  (-1.279622394139563225e-02+0.000000000000000000e+00j)  (-8.040104625595669019e-02+0.000000000000000000e+00j)  (2.427883397389528006e-03+0.000000000000000000e+00j)  (-0.000000000000000000e+00-1.747202008097400311e-02j)  (-0.000000000000000000e+00-1.097799398595225434e-01j)
 (7.396300000000000985e+00+0.000000000000000000e+00j)  (0.000000000000000000e+00+0.000000000000000000e+00j)  (0.000000000000000000e+00+0.000000000000000000e+00j)  (-4.077267050330136283e-02+0.000000000000000000e+00j)  (-2.038633525165068142e-02+0.000000000000000000e+00j)  (-1.280911221204088235e-01+0.000000000000000000e+00j)  (8.125088449806112858e-04+0.000000000000000000e+00j)  (-0.000000000000000000e+00-6.009559170130096897e-03j)  (-0.000000000000000000e+00-3.775917388038777661e-02j)
 (7.596200000000000507e+00+0.000000000000000000e+00j)  (0.000000000000000000e+00+0.000000000000000000e+00j)  (0.000000000000000000e+00+0.000000000000000000e+00j)  (-4.000465446551270537e-02+0.000000000000000000e+00j)  (-2.000232723275635269e-02+0.000000000000000000e+00j)  (-1.256783285782528403e-01+0.000000000000000000e+00j)  (-9.312989961063473628e-04+0.000000000000000000e+00j)  (0.000000000000000000e+00+7.074333434223038092e-03j)  (0.000000000000000000e+00+4.444934789199949526e-02j)
 (7.796100000000000918e+00+0.000000000000000000e+00j)  (0.000000000000000000e+00+0.000000000000000000e+00j)  (0.000000000000000000e+00+0.000000000000000000e+00j)  (-2.440180359624960840e-02+0.000000000000000000e+00j)  (-1.220090179812480420e-02+0.000000000000000000e+00j)  (-7.666052691231876881e-02+0.000000000000000000e+00j)  (-2.163354537520980128e-03+0.000000000000000000e+00j)  (0.000000000000000000e+00+1.686572830996731567e-02j)  (0.000000000000000000e+00+1.059704963120694371e-01j)
 (7.996000000000000441e+00+0.000000000000000000e+00j)  (0.000000000000000000e+00+0.000000000000000000e+00j)  (0.000000000000000000e+00+0.000000000000000000e+00j)  (-5.002369591109311238e-04+0.000000000000000000e+00j)  (-2.501184795554655619e-04+0.000000000000000000e+00j)  (-1.571540755796999164e-03+0.000000000000000000e+00j)  (-2.490333336869264211e-03+0.000000000000000000e+00j)  (0.000000000000000000e+00+1.991270536160663976e-02j)  (0.000000000000000000e+00+1.251152177542430022e-01j)
 (8.195900000000001739e+00+0.000000000000000000e+00j)  (0.000000000000000000e+00+0.000000000000000000e+00j)  (0.000000000000000000e+00+0.000000000000000000e+00j)  (2.242163258372940199e-02+0.000000000000000000e+00j)  (1.121081629186470099e-02+0.000000000000000000e+00j)  (7.043963620653383162e-02+0.000000000000000000e+00j)  (-1.881488179569351313e-03+0.000000000000000000e+00j)  (0.000000000000000000e+00+1.542048897093244685e-02j)  (0.000000000000000000e+00+9.688978973168761721e-02j)
 (8.395800000000001262e+00+0.000000000000000000e+00j)  (0.000000000000000000e+00+0.000000000000000000e+00j)  (0.000000000000000000e+00+0.000000000000000000e+00j)  (3.589967667667890577e-02+0.000000000000000000e+00j)  (1.794983833833945289e-02+0.000000000000000000e+00j)  (1.127821605137032807e-01+0.000000000000000000e+00j)  (-6.449312027591667246e-04+0.000000000000000000e+00j)  (0.000000000000000000e+00+5.414713392125412687e-03j)  (0.000000000000000000e+00+3.402164762799093217e-02j)
 (8.595700000000000784e+00+0.000000000000000000e+00j)  (0.000000000000000000e+00+0.000000000000000000e+00j)  (0.000000000000000000e+00+0.000000000000000000e+00j)  (3.537022022985176345e-02+0.000000000000000000e+00j)  (1.768511011492588172e-02+0.000000000000000000e+00j)  (1.111188240299553764e-01+0.000000000000000000e+00j)  (7.140958906293818622e-04+0.000000000000000000e+00j)  (-0.000000000000000000e+00-6.138154047082978841e-03j)  (-0.000000000000000000e+00-3.856715932183668594e-02j)
 (8.795600000000000307e+00+0.000000000000000000e+00j)  (0.000000000000000000e+00+0.000000000000000000e+00j)  (0.000000000000000000e+00+0.000000000000000000e+00j)  (2.167442170465120818e-02+0.000000000000000000e+00j)  (1.083721085232560409e-02+0.000000000000000000e+00j)  (6.809220399813940838e-02+0.000000000000000000e+00j)  (1.692074625798984907e-03+0.000000000000000000e+00j)  (-0.000000000000000000e+00-1.488281157867755132e-02j)  (-0.000000000000000000e+00-9.351146304066901283e-02j)
 (8.995500000000001606e+00+0.000000000000000000e+00j)  (0.000000000000000000e+00+0.000000000000000000e+00j)  (0.000000000000000000e+00+0.000000000000000000e+00j)  (5.002334619398884604e-04+0.000000000000000000e+00j)  (2.501167309699442302e-04+0.000000000000000000e+00j)  (1.571529769110142872e-03+0.000000000000000000e+00j)  (1.967629528635303753e-03+0.000000000000000000e+00j)  (-0.000000000000000000e+00-1.769981142483887521e-02j)  (-0.000000000000000000e+00-1.112111950843970021e-01j)
 (9.195400000000001128e+00+0.000000000000000000e+00j)  (0.000000000000000000e+00+0.000000000000000000e+00j)  (0.000000000000000000e+00+0.000000000000000000e+00j)  (-1.994007564861283166e-02+0.000000000000000000e+00j)  (-9.970037824306415830e-03+0.000000000000000000e+00j)  (-6.264359516970681441e-02+0.000000000000000000e+00j)  (1.501074260907189328e-03+0.000000000000000000e+00j)  (-0.000000000000000000e+00-1.380297825874596956e-02j)  (-0.000000000000000000e+00-8.672667019067194227e-02j)
 (9.395300000000000651e+00+0.000000000000000000e+00j)  (0.000000000000000000e+00+0.000000000000000000e+00j)  (0.000000000000000000e+00+0.000000000000000000e+00j)  (-3.206341089161212493e-02+0.000000000000000000e+00j)  (-1.603170544580606247e-02+0.000000000000000000e+00j)  (-1.007301761061196038e-01+0.000000000000000000e+00j)  (5.246085906665311780e-04+0.000000000000000000e+00j)  (-0.000000000000000000e+00-4.928855091889261172e-03j)  (-0.000000000000000000e+00-3.096890989457589533e-02j)
 (9.595200000000001950e+00+0.000000000000000000e+00j)  (0.000000000000000000e+00+0.000000000000000000e+00j)  (0.000000000000000000e+00+0.000000000000000000e+00j)  (-3.170121494500340031e-02+0.000000000000000000e+00j)  (-1.585060747250170016e-02+0.000000000000000000e+00j)  (-9.959230398109364391e-02+0.000000000000000000e+00j)  (-5.641376331789423656e-04+0.000000000000000000e+00j)  (0.000000000000000000e+00+5.413013417878588876e-03j)  (0.000000000000000000e+00+3.401096637478070311e-02j)
 (9.795100000000001472e+00+0.000000000000000000e+00j)  (0.000000000000000000e+00+0.000000000000000000e+00j)  (0.000000000000000000e+00+0.000000000000000000e+00j)  (-1.950360033996743556e-02+0.000000000000000000e+00j)  (-9.751800169983717778e-03+0.000000000000000000e+00j)  (-6.127236754659309143e-02+0.000000000000000000e+00j)  (-1.359208467220220833e-03+0.000000000000000000e+00j)  (0.000000000000000000e+00+1.331358285726878810e-02j)  (0.000000000000000000e+00+8.365170819470925390e-02j)
 (9.995000000000000995e+00+0.000000000000000000e+00j)  (0.000000000000000000e+00+0.000000000000000000e+00j)  (0.000000000000000000e+00+0.000000000000000000e+00j)  (-5.002295533544609237e-04+0.000000000000000000e+00j)  (-2.501147766772304618e-04+0.000000000000000000e+00j)  (-1.571517489926877852e-03+0.000000000000000000e+00j)  (-1.593742569610284276e-03+0.000000000000000000e+00j)  (0.000000000000000000e+00+1.592945698325479165e-02j)  (0.000000000000000000e+00+1.000877300685357740e-01j)
 (1.019490000000000052e+01+0.000000000000000000e+00j)  (0.000000000000000000e+00+0.000000000000000000e+00j)  (0.000000000000000000e+00+0.000000000000000000e+00j)  (1.794505412808566902e-02+0.000000000000000000e+00j)  (8.972527064042834510e-03+0.000000000000000000e+00j)  (5.637605021706512676e-02+0.000000000000000000e+00j)  (-1.225612767776441221e-03+0.000000000000000000e+00j)  (0.000000000000000000e+00+1.249499960620403978e-02j)  (0.000000000000000000e+00+7.850839793891595253e-02j)
 (1.039480000000000182e+01+0.000000000000000000e+00j)  (0.000000000000000000e+00+0.000000000000000000e+00j)  (0.000000000000000000e+00+0.000000000000000000e+00j)  (2.896481702051757062e-02+0.000000000000000000e+00j)  (1.448240851025878531e-02+0.000000000000000000e+00j)  (9.099565636423061210e-02+0.000000000000000000e+00j)  (-4.353257754566202732e-04+0.000000000000000000e+00j)  (0.000000000000000000e+00+4.525124370716477641e-03j)  (0.000000000000000000e+00+2.843219495924604115e-02j)
 (1.059470000000000134e+01+0.000000000000000000e+00j)  (0.000000000000000000e+00+0.000000000000000000e+00j)  (0.000000000000000000e+00+0.000000000000000000e+00j)  (2.872440396785037875e-02+0.000000000000000000e+00j)  (1.436220198392518937e-02+0.000000000000000000e+00j)  (9.024037648414424961e-02+0.000000000000000000e+00j)  (4.563677202752234197e-04+0.000000000000000000e+00j)  (-0.000000000000000000e+00-4.835079085999910257e-03j)  (-0.000000000000000000e+00-3.037969787220594006e-02j)
 (1.079460000000000086e+01+0.000000000000000000e+00j)  (0.000000000000000000e+00+0.000000000000000000e+00j)  (0.000000000000000000e+00+0.000000000000000000e+00j)  (1.773473926436302389e-02+0.000000000000000000e+00j)  (8.867369632181511946e-03+0.000000000000000000e+00j)  (5.571532658625333312e-02+0.000000000000000000e+00j)  (1.115451191074497313e-03+0.000000000000000000e+00j)  (-0.000000000000000000e+00-1.204084942717277042e-02j)  (-0.000000000000000000e+00-7.565488820677369886e-02j)
 (1.099450000000000038e+01+0.000000000000000000e+00j)  (0.000000000000000000e+00+0.000000000000000000e+00j)  (0.000000000000000000e+00+0.000000000000000000e+00j)  (5.002252333602961228e-04+0.000000000000000000e+00j)  (2.501126166801480614e-04+0.000000000000000000e+00j)  (1.571503918264946205e-03+0.000000000000000000e+00j)  (1.317108504078959340e-03+0.000000000000000000e+00j)  (-0.000000000000000000e+00-1.448094944809611741e-02j)  (-0.000000000000000000e+00-9.098648880628787405e-02j)
 (1.119440000000000168e+01+0.000000000000000000e+00j)  (0.000000000000000000e+00+0.000000000000000000e+00j)  (0.000000000000000000e+00+0.000000000000000000e+00j)  (-1.630624612623313152e-02+0.000000000000000000e+00j)  (-8.153123063116565761e-03+0.000000000000000000e+00j)  (-5.122758303780103328e-02+0.000000000000000000e+00j)  (1.019750539848974591e-03+0.000000000000000000e+00j)  (-0.000000000000000000e+00-1.141549544328536447e-02j)  (-0.000000000000000000e+00-7.172567324342611628e-02j)
 (1.139430000000000121e+01+0.000000000000000000e+00j)  (0.000000000000000000e+00+0.000000000000000000e+00j)  (0.000000000000000000e+00+0.000000000000000000e+00j)  (-2.640977091056324194e-02+0.000000000000000000e+00j)  (-1.320488545528162097e-02+0.000000000000000000e+00j)  (-8.296874227561490400e-02+0.000000000000000000e+00j)  (3.672555726859331061e-04+0.000000000000000000e+00j)  (-0.000000000000000000e+00-4.184620171855327718e-03j)  (-0.000000000000000000e+00-2.629274397992871146e-02j)
 (1.159420000000000073e+01+0.000000000000000000e+00j)  (0.000000000000000000e+00+0.000000000000000000e+00j)  (0.000000000000000000e+00+0.000000000000000000e+00j)  (-2.626077149788922857e-02+0.000000000000000000e+00j)  (-1.313038574894461429e-02+0.000000000000000000e+00j)  (-8.250064681536901923e-02+0.000000000000000000e+00j)  (-3.763798396851483806e-04+0.000000000000000000e+00j)  (0.000000000000000000e+00+4.363823137277547150e-03j)  (0.000000000000000000e+00+2.741870941927261260e-02j)
 (1.179410000000000203e+01+0.000000000000000000e+00j)  (0.000000000000000000e+00+0.000000000000000000e+00j)  (0.000000000000000000e+00+0.000000000000000000e+00j)  (-1.626564510038413375e-02+0.000000000000000000e+00j)  (-8.132822550192066874e-03+0.000000000000000000e+00j)  (-5.110003115326561263e-02+0.000000000000000000e+00j)  (-9.316397280966954046e-04+0.000000000000000000e+00j)  (0.000000000000000000e+00+1.098785211714523730e-02j)  (0.000000000000000000e+00+6.903871097990905981e-02j)
 (1.199400000000000155e+01+0.000000000000000000e+00j)  (0.000000000000000000e+00+0.000000000000000000e+00j)  (0.000000000000000000e+00+0.000000000000000000e+00j)  (-5.002205019636968503e-04+0.000000000000000000e+00j)  (-2.501102509818484252e-04+0.000000000000000000e+00j)  (-1.571489054144148715e-03+0.000000000000000000e+00j)  (-1.106705610605702864e-03+0.000000000000000000e+00j)  (0.000000000000000000e+00+1.327382709360480292e-02j)  (0.000000000000000000e+00+8.340191536458001209e-02j)
 (1.219390000000000107e+01+0.000000000000000000e+00j)  (0.000000000000000000e+00+0.000000000000000000e+00j)  (0.000000000000000000e+00+0.000000000000000000e+00j)  (1.493605823769534983e-02+0.000000000000000000e+00j)  (7.468029118847674917e-03+0.000000000000000000e+00j)  (4.692301083313302201e-02+0.000000000000000000e+00j)  (-8.618593526008395608e-04+0.000000000000000000e+00j)  (0.000000000000000000e+00+1.050942675967937723e-02j)  (0.000000000000000000e+00+6.603267580329742759e-02j)
 (1.239380000000000059e+01+0.000000000000000000e+00j)  (0.000000000000000000e+00+0.000000000000000000e+00j)  (0.000000000000000000e+00+0.000000000000000000e+00j)  (2.426676910352717695e-02+0.000000000000000000e+00j)  (1.213338455176358847e-02+0.000000000000000000e+00j)  (7.623630354200074122e-02+0.000000000000000000e+00j)  (-3.141679234948598640e-04+0.000000000000000000e+00j)  (0.000000000000000000e+00+3.893734410210594916e-03j)  (0.000000000000000000e+00+2.446505483629478339e-02j)
 (1.259370000000000189e+01+0.000000000000000000e+00j)  (0.000000000000000000e+00+0.000000000000000000e+00j)  (0.000000000000000000e+00+0.000000000000000000e+00j)  (2.418813214762179781e-02+0.000000000000000000e+00j)  (1.209406607381089890e-02+0.000000000000000000e+00j)  (7.598925825902774767e-02+0.000000000000000000e+00j)  (3.154197627147160886e-04+0.000000000000000000e+00j)  (-0.000000000000000000e+00-3.972301865700320588e-03j)  (-0.000000000000000000e+00-2.495870871825030951e-02j)
 (1.279360000000000142e+01+0.000000000000000000e+00j)  (0.000000000000000000e+00+0.000000000000000000e+00j)  (0.000000000000000000e+00+0.000000000000000000e+00j)  (1.502605990112272465e-02+0.000000000000000000e+00j)  (7.513029950561362323e-03+0.000000000000000000e+00j)  (4.720575939776731900e-02+0.000000000000000000e+00j)  (7.896304621185703393e-04+0.000000000000000000e+00j)  (-0.000000000000000000e+00-1.010221628016014228e-02j)  (-0.000000000000000000e+00-6.347409690145262851e-02j)
 (1.299350000000000094e+01+0.000000000000000000e+00j)  (0.000000000000000000e+00+0.000000000000000000e+00j)  (0.000000000000000000e+00+0.000000000000000000e+00j)  (5.002153591719516552e-04+0.000000000000000000e+00j)  (2.501076795859758276e-04+0.000000000000000000e+00j)  (1.571472897587383082e-03+0.000000000000000000e+00j)  (9.429626850484289962e-04+0.000000000000000000e+00j)  (-0.000000000000000000e+00-1.225238564817676158e-02j)  (-0.000000000000000000e+00-7.698400948252226428e-02j)
 (1.319340000000000224e+01+0.000000000000000000e+00j)  (0.000000000000000000e+00+0.000000000000000000e+00j)  (0.000000000000000000e+00+0.000000000000000000e+00j)  (-1.377344051336682439e-02+0.000000000000000000e+00j)  (-6.886720256683412193e-03+0.000000000000000000e+00j)  (-4.327053953144924248e-02+0.000000000000000000e+00j)  (7.381048731519313519e-04+0.000000000000000000e+00j)  (-0.000000000000000000e+00-9.738112833442691754e-03j)  (-0.000000000000000000e+00-6.118636747474408971e-02j)
 (1.339330000000000176e+01+0.000000000000000000e+00j)  (0.000000000000000000e+00+0.000000000000000000e+00j)  (0.000000000000000000e+00+0.000000000000000000e+00j)  (-2.244356290497252077e-02+0.000000000000000000e+00j)  (-1.122178145248626038e-02+0.000000000000000000e+00j)  (-7.050853234264206626e-02+0.000000000000000000e+00j)  (2.719609539390445288e-04+0.000000000000000000e+00j)  (-0.000000000000000000e+00-3.642454644391804938e-03j)  (-0.000000000000000000e+00-2.288621750371063260e-02j)
 (1.359320000000000128e+01+0.000000000000000000e+00j)  (0.000000000000000000e+00+0.000000000000000000e+00j)  (0.000000000000000000e+00+0.000000000000000000e+00j)  (-2.242023740836240897e-02+0.000000000000000000e+00j)  (-1.121011870418120449e-02+0.000000000000000000e+00j)  (-7.043525313385040620e-02+0.000000000000000000e+00j)  (-2.679219719338386536e-04+0.000000000000000000e+00j)  (0.000000000000000000e+00+3.641916948891055390e-03j)  (0.000000000000000000e+00+2.288283906324059189e-02j)
 (1.379310000000000080e+01+0.000000000000000000e+00j)  (0.000000000000000000e+00+0.000000000000000000e+00j)  (0.000000000000000000e+00+0.000000000000000000e+00j)  (-1.396609034204713759e-02+0.000000000000000000e+00j)  (-6.983045171023568795e-03+0.000000000000000000e+00j)  (-4.387576681794665145e-02+0.000000000000000000e+00j)  (-6.776564592704521859e-04+0.000000000000000000e+00j)  (0.000000000000000000e+00+9.346983308363275567e-03j)  (0.000000000000000000e+00+5.872882818956096790e-02j)
 (1.399300000000000210e+01+0.000000000000000000e+00j)  (0.000000000000000000e+00+0.000000000000000000e+00j)  (0.000000000000000000e+00+0.000000000000000000e+00j)  (-5.002098049923114648e-04+0.000000000000000000e+00j)  (-2.501049024961557324e-04+0.000000000000000000e+00j)  (-1.571455448617428393e-03+0.000000000000000000e+00j)  (-8.130376864467761186e-04+0.000000000000000000e+00j)  (0.000000000000000000e+00+1.137683634644973824e-02j)  (0.000000000000000000e+00+7.148277097419968029e-02j)
 (1.419290000000000163e+01+0.000000000000000000e+00j)  (0.000000000000000000e+00+0.000000000000000000e+00j)  (0.000000000000000000e+00+0.000000000000000000e+00j)  (1.277454017298190574e-02+0.000000000000000000e+00j)  (6.387270086490952868e-03+0.000000000000000000e+00j)  (4.013240156042764684e-02+0.000000000000000000e+00j)  (-6.393038827007436900e-04+0.000000000000000000e+00j)  (0.000000000000000000e+00+9.073576076783386804e-03j)  (0.000000000000000000e+00+5.701095988922157132e-02j)
 (1.439280000000000115e+01+0.000000000000000000e+00j)  (0.000000000000000000e+00+0.000000000000000000e+00j)  (0.000000000000000000e+00+0.000000000000000000e+00j)  (2.087352825793312161e-02+0.000000000000000000e+00j)  (1.043676412896656081e-02+0.000000000000000000e+00j)  (6.557612302962165240e-02+0.000000000000000000e+00j)  (-2.378457500032877029e-04+0.000000000000000000e+00j)  (0.000000000000000000e+00+3.423266310647319396e-03j)  (0.000000000000000000e+00+2.150901658562210869e-02j)
 (1.459270000000000245e+01+0.000000000000000000e+00j)  (0.000000000000000000e+00+0.000000000000000000e+00j)  (0.000000000000000000e+00+0.000000000000000000e+00j)  (2.089446849995926433e-02+0.000000000000000000e+00j)  (1.044723424997963217e-02+0.000000000000000000e+00j)  (6.564190874013538235e-02+0.000000000000000000e+00j)  (2.302125865922727862e-04+0.000000000000000000e+00j)  (-0.000000000000000000e+00-3.359423212365059402e-03j)  (-0.000000000000000000e+00-2.110787856853018826e-02j)
 (1.479260000000000197e+01+0.000000000000000000e+00j)  (0.000000000000000000e+00+0.000000000000000000e+00j)  (0.000000000000000000e+00+0.000000000000000000e+00j)  (1.304932778101106604e-02+0.000000000000000000e+00j)  (6.524663890505533019e-03+0.000000000000000000e+00j)  (4.099567229110956390e-02+0.000000000000000000e+00j)  (5.878161033099873123e-04+0.000000000000000000e+00j)  (-0.000000000000000000e+00-8.695328489823319490e-03j)  (-0.000000000000000000e+00-5.463436020835794188e-02j)
 (1.499250000000000149e+01+0.000000000000000000e+00j)  (0.000000000000000000e+00+0.000000000000000000e+00j)  (0.000000000000000000e+00+0.000000000000000000e+00j)  (5.002038394331850260e-04+0.000000000000000000e+00j)  (2.501019197165925130e-04+0.000000000000000000e+00j)  (1.571436707260702535e-03+0.000000000000000000e+00j)  (7.082208277842951764e-04+0.000000000000000000e+00j)  (-0.000000000000000000e+00-1.061800076055604593e-02j)  (-0.000000000000000000e+00-6.671486637034743095e-02j)
 (1.519240000000000101e+01+0.000000000000000000e+00j)  (0.000000000000000000e+00+0.000000000000000000e+00j)  (0.000000000000000000e+00+0.000000000000000000e+00j)  (-1.190704464168083378e-02+0.000000000000000000e+00j)  (-5.953522320840416888e-03+0.000000000000000000e+00j)  (-3.740708397227021642e-02+0.000000000000000000e+00j)  (5.591664602274044101e-04+0.000000000000000000e+00j)  (-0.000000000000000000e+00-8.495080530358819701e-03j)  (-0.000000000000000000e+00-5.337616517165789942e-02j)
 (1.539230000000000231e+01+0.000000000000000000e+00j)  (0.000000000000000000e+00+0.000000000000000000e+00j)  (0.000000000000000000e+00+0.000000000000000000e+00j)  (-1.950734605542310193e-02+0.000000000000000000e+00j)  (-9.753673027711550966e-03+0.000000000000000000e+00j)  (-6.128413505875104222e-02+0.000000000000000000e+00j)  (2.098729720978496980e-04+0.000000000000000000e+00j)  (-0.000000000000000000e+00-3.230427748421731832e-03j)  (-0.000000000000000000e+00-2.029737616478866080e-02j)
 (1.559220000000000184e+01+0.000000000000000000e+00j)  (0.000000000000000000e+00+0.000000000000000000e+00j)  (0.000000000000000000e+00+0.000000000000000000e+00j)  (-1.956426273985469727e-02+0.000000000000000000e+00j)  (-9.782131369927348635e-03+0.000000000000000000e+00j)  (-6.146294409642803075e-02+0.000000000000000000e+00j)  (-1.997880716221022703e-04+0.000000000000000000e+00j)  (0.000000000000000000e+00+3.115135570346143357e-03j)  (0.000000000000000000e+00+1.957297404547138700e-02j)
 (1.579210000000000136e+01+0.000000000000000000e+00j)  (0.000000000000000000e+00+0.000000000000000000e+00j)  (0.000000000000000000e+00+0.000000000000000000e+00j)  (-1.224858095370102117e-02+0.000000000000000000e+00j)  (-6.124290476850510583e-03+0.000000000000000000e+00j)  (-3.848005194104699156e-02+0.000000000000000000e+00j)  (-5.146440988192607993e-04+0.000000000000000000e+00j)  (0.000000000000000000e+00+8.127311072963648922e-03j)  (0.000000000000000000e+00+5.106540152052315568e-02j)
 (1.599200000000000088e+01+0.000000000000000000e+00j)  (0.000000000000000000e+00+0.000000000000000000e+00j)  (0.000000000000000000e+00+0.000000000000000000e+00j)  (-5.001974625035440032e-04+0.000000000000000000e+00j)  (-2.500987312517720016e-04+0.000000000000000000e+00j)  (-1.571416673545389777e-03+0.000000000000000000e+00j)  (-6.224359098083722622e-04+0.000000000000000000e+00j)  (0.000000000000000000e+00+9.953995069655489913e-03j)  (0.000000000000000000e+00+6.254279556939740248e-02j)
 (1.619190000000000040e+01+0.000000000000000000e+00j)  (0.000000000000000000e+00+0.000000000000000000e+00j)  (0.000000000000000000e+00+0.000000000000000000e+00j)  (1.114661975821786000e-02+0.000000000000000000e+00j)  (5.573309879108929998e-03+0.000000000000000000e+00j)  (3.501813874477605754e-02+0.000000000000000000e+00j)  (-4.932671152035730594e-04+0.000000000000000000e+00j)  (0.000000000000000000e+00+7.986931802664734223e-03j)  (0.000000000000000000e+00+5.018337255194842139e-02j)
 (1.639180000000000348e+01+0.000000000000000000e+00j)  (0.000000000000000000e+00+0.000000000000000000e+00j)  (0.000000000000000000e+00+0.000000000000000000e+00j)  (1.830772624105251808e-02+0.000000000000000000e+00j)  (9.153863120526259042e-03+0.000000000000000000e+00j)  (5.751541826282366432e-02+0.000000000000000000e+00j)  (-1.866470373622886817e-04+0.000000000000000000e+00j)  (0.000000000000000000e+00+3.059480907035164263e-03j)  (0.000000000000000000e+00+1.922328548267981940e-02j)
 (1.659170000000000300e+01+0.000000000000000000e+00j)  (0.000000000000000000e+00+0.000000000000000000e+00j)  (0.000000000000000000e+00+0.000000000000000000e+00j)  (1.839427736911049618e-02+0.000000000000000000e+00j)  (9.197138684555248092e-03+0.000000000000000000e+00j)  (5.778732665089051507e-02+0.000000000000000000e+00j)  (1.748952982012866872e-04+0.000000000000000000e+00j)  (-0.000000000000000000e+00-2.901810319166289211e-03j)  (-0.000000000000000000e+00-1.823261196160773367e-02j)
 (1.679160000000000252e+01+0.000000000000000000e+00j)  (0.000000000000000000e+00+0.000000000000000000e+00j)  (0.000000000000000000e+00+0.000000000000000000e+00j)  (1.154313270642400718e-02+0.000000000000000000e+00j)  (5.771566353212003592e-03+0.000000000000000000e+00j)  (3.626382090991372986e-02+0.000000000000000000e+00j)  (4.542628139946037450e-04+0.000000000000000000e+00j)  (-0.000000000000000000e+00-7.627799467471788053e-03j)  (-0.000000000000000000e+00-4.792687754013100904e-02j)
 (1.699150000000000205e+01+0.000000000000000000e+00j)  (0.000000000000000000e+00+0.000000000000000000e+00j)  (0.000000000000000000e+00+0.000000000000000000e+00j)  (5.001906742125364607e-04+0.000000000000000000e+00j)  (2.500953371062682304e-04+0.000000000000000000e+00j)  (1.571395347500230150e-03+0.000000000000000000e+00j)  (5.513394689862713416e-04+0.000000000000000000e+00j)  (-0.000000000000000000e+00-9.368084587280231870e-03j)  (-0.000000000000000000e+00-5.886141143521468611e-02j)
 (1.719140000000000157e+01+0.000000000000000000e+00j)  (0.000000000000000000e+00+0.000000000000000000e+00j)  (0.000000000000000000e+00+0.000000000000000000e+00j)  (-1.047459046867775523e-02+0.000000000000000000e+00j)  (-5.237295234338877614e-03+0.000000000000000000e+00j)  (-3.290689646575969962e-02+0.000000000000000000e+00j)  (4.384188006629501002e-04+0.000000000000000000e+00j)  (-0.000000000000000000e+00-7.537032969717040974e-03j)  (-0.000000000000000000e+00-4.735657481505423094e-02j)
 (1.739130000000000109e+01+0.000000000000000000e+00j)  (0.000000000000000000e+00+0.000000000000000000e+00j)  (0.000000000000000000e+00+0.000000000000000000e+00j)  (-1.724595118529281476e-02+0.000000000000000000e+00j)  (-8.622975592646407381e-03+0.000000000000000000e+00j)  (-5.417975354788409637e-02+0.000000000000000000e+00j)  (1.671476039891871192e-04+0.000000000000000000e+00j)  (-0.000000000000000000e+00-2.906914125257151031e-03j)  (-0.000000000000000000e+00-1.826468012104853073e-02j)
 (1.759120000000000061e+01+0.000000000000000000e+00j)  (0.000000000000000000e+00+0.000000000000000000e+00j)  (0.000000000000000000e+00+0.000000000000000000e+00j)  (-1.735720207410744800e-02+0.000000000000000000e+00j)  (-8.678601037053724002e-03+0.000000000000000000e+00j)  (-5.452925852288948577e-02+0.000000000000000000e+00j)  (-1.542772934395086133e-04+0.000000000000000000e+00j)  (0.000000000000000000e+00+2.713922724353084147e-03j)  (0.000000000000000000e+00+1.705207938647609195e-02j)
 (1.779110000000000369e+01+0.000000000000000000e+00j)  (0.000000000000000000e+00+0.000000000000000000e+00j)  (0.000000000000000000e+00+0.000000000000000000e+00j)  (-1.091692142570925908e-02+0.000000000000000000e+00j)  (-5.458460712854629540e-03+0.000000000000000000e+00j)  (-3.429652015082521738e-02+0.000000000000000000e+00j)  (-4.038594627541838866e-04+0.000000000000000000e+00j)  (0.000000000000000000e+00+7.185104087805961603e-03j)  (0.000000000000000000e+00+4.514534043505840505e-02j)
 (1.799100000000000321e+01+0.000000000000000000e+00j)  (0.000000000000000000e+00+0.000000000000000000e+00j)  (0.000000000000000000e+00+0.000000000000000000e+00j)  (-5.001834745703618136e-04+0.000000000000000000e+00j)  (-2.500917372851809068e-04+0.000000000000000000e+00j)  (-1.571372729157265516e-03+0.000000000000000000e+00j)  (-4.917599603263497245e-04+0.000000000000000000e+00j)  (0.000000000000000000e+00+8.847253446231358523e-03j)  (0.000000000000000000e+00+5.558893286225483066e-02j)
 (1.819090000000000273e+01+0.000000000000000000e+00j)  (0.000000000000000000e+00+0.000000000000000000e+00j)  (0.000000000000000000e+00+0.000000000000000000e+00j)  (9.876386126659485870e-03+0.000000000000000000e+00j)  (4.938193063329742935e-03+0.000000000000000000e+00j)  (3.102758209952959784e-02+0.000000000000000000e+00j)  (-3.922790990057440762e-04+0.000000000000000000e+00j)  (0.000000000000000000e+00+7.135909862103590948e-03j)  (0.000000000000000000e+00+4.483624399892719575e-02j)
 (1.839080000000000226e+01+0.000000000000000000e+00j)  (0.000000000000000000e+00+0.000000000000000000e+00j)  (0.000000000000000000e+00+0.000000000000000000e+00j)  (1.629954622165588271e-02+0.000000000000000000e+00j)  (8.149773110827941355e-03+0.000000000000000000e+00j)  (5.120653466680138988e-02+0.000000000000000000e+00j)  (-1.506147160298591618e-04+0.000000000000000000e+00j)  (0.000000000000000000e+00+2.769925119561934476e-03j)  (0.000000000000000000e+00+1.740395281321920409e-02j)
 (1.859070000000000178e+01+0.000000000000000000e+00j)  (0.000000000000000000e+00+0.000000000000000000e+00j)  (0.000000000000000000e+00+0.000000000000000000e+00j)  (1.643159972705070943e-02+0.000000000000000000e+00j)  (8.215799863525354713e-03+0.000000000000000000e+00j)  (5.162139298923056063e-02+0.000000000000000000e+00j)  (1.370140148956622045e-04+0.000000000000000000e+00j)  (-0.000000000000000000e+00-2.547186446720787860e-03j)  (-0.000000000000000000e+00-1.600444445668303128e-02j)
 (1.879060000000000130e+01+0.000000000000000000e+00j)  (0.000000000000000000e+00+0.000000000000000000e+00j)  (0.000000000000000000e+00+0.000000000000000000e+00j)  (1.035730286271705110e-02+0.000000000000000000e+00j)  (5.178651431358525549e-03+0.000000000000000000e+00j)  (3.253842658451642361e-02+0.000000000000000000e+00j)  (3.613536257033826823e-04+0.000000000000000000e+00j)  (-0.000000000000000000e+00-6.790051439141983267e-03j)  (-0.000000000000000000e+00-4.266315143741051391e-02j)
 (1.899050000000000082e+01+0.000000000000000000e+00j)  (0.000000000000000000e+00+0.000000000000000000e+00j)  (0.000000000000000000e+00+0.000000000000000000e+00j)  (5.001758635877965979e-04+0.000000000000000000e+00j)  (2.500879317938982990e-04+0.000000000000000000e+00j)  (1.571348818550352472e-03+0.000000000000000000e+00j)  (4.413378248034101206e-04+0.000000000000000000e+00j)  (-0.000000000000000000e+00-8.381225961929160417e-03j)  (-0.000000000000000000e+00-5.266079582014539240e-02j)
 (1.919040000000000390e+01+0.000000000000000000e+00j)  (0.000000000000000000e+00+0.000000000000000000e+00j)  (0.000000000000000000e+00+0.000000000000000000e+00j)  (-9.340471637152509068e-03+0.000000000000000000e+00j)  (-4.670235818576254534e-03+0.000000000000000000e+00j)  (-2.934395707634215172e-02+0.000000000000000000e+00j)  (3.530951371781623771e-04+0.000000000000000000e+00j)  (-0.000000000000000000e+00-6.776036920503808632e-03j)  (-0.000000000000000000e+00-4.257509561981594193e-02j)
 (1.939030000000000342e+01+0.000000000000000000e+00j)  (0.000000000000000000e+00+0.000000000000000000e+00j)  (0.000000000000000000e+00+0.000000000000000000e+00j)  (-1.545067063560089105e-02+0.000000000000000000e+00j)  (-7.725335317800445523e-03+0.000000000000000000e+00j)  (-4.853971336183929980e-02+0.000000000000000000e+00j)  (1.364729458303144097e-04+0.000000000000000000e+00j)  (-0.000000000000000000e+00-2.646251361533546228e-03j)  (-0.000000000000000000e+00-1.662688767389155359e-02j)
 (1.959020000000000294e+01+0.000000000000000000e+00j)  (0.000000000000000000e+00+0.000000000000000000e+00j)  (0.000000000000000000e+00+0.000000000000000000e+00j)  (-1.560040812428018127e-02+0.000000000000000000e+00j)  (-7.800204062140090634e-03+0.000000000000000000e+00j)  (-4.901012755624114398e-02+0.000000000000000000e+00j)  (-1.224196513056994174e-04+0.000000000000000000e+00j)  (0.000000000000000000e+00+2.398225453008912857e-03j)  (0.000000000000000000e+00+1.506849492964970789e-02j)
 (1.979010000000000247e+01+0.000000000000000000e+00j)  (0.000000000000000000e+00+0.000000000000000000e+00j)  (0.000000000000000000e+00+0.000000000000000000e+00j)  (-9.854187162372136932e-03+0.000000000000000000e+00j)  (-4.927093581186068466e-03+0.000000000000000000e+00j)  (-3.095784199640715453e-02+0.000000000000000000e+00j)  (-3.251798525923941304e-04+0.000000000000000000e+00j)  (0.000000000000000000e+00+6.435341800788739811e-03j)  (0.000000000000000000e+00+4.043444504939443240e-02j)
 (1.999000000000000199e+01+0.000000000000000000e+00j)  (0.000000000000000000e+00+0.000000000000000000e+00j)  (0.000000000000000000e+00+0.000000000000000000e+00j)  (-5.001678412758635717e-04+0.000000000000000000e+00j)  (-2.500839206379317859e-04+0.000000000000000000e+00j)  (-1.571323615714118917e-03+0.000000000000000000e+00j)  (-3.982882234496405239e-04+0.000000000000000000e+00j)  (0.000000000000000000e+00+7.961781586758314919e-03j)  (0.000000000000000000e+00+5.002534908489281867e-02j)
 (2.018990000000000151e+01+0.000000000000000000e+00j)  (0.000000000000000000e+00+0.000000000000000000e+00j)  (0.000000000000000000e+00+0.000000000000000000e+00j)  (8.857596082430351306e-03+0.000000000000000000e+00j)  (4.428798041215175653e-03+0.000000000000000000e+00j)  (2.782695878102892442e-02+0.000000000000000000e+00j)  (-3.195340635399015377e-04+0.000000000000000000e+00j)  (0.000000000000000000e+00+6.451360789464258456e-03j)  (0.000000000000000000e+00+4.053509532367632895e-02j)
 (2.038980000000000103e+01+0.000000000000000000e+00j)  (0.000000000000000000e+00+0.000000000000000000e+00j)  (0.000000000000000000e+00+0.000000000000000000e+00j)  (1.468498189199824409e-02+0.000000000000000000e+00j)  (7.342490945999122047e-03+0.000000000000000000e+00j)  (4.613423123000082865e-02+0.000000000000000000e+00j)  (-1.242801131129578254e-04+0.000000000000000000e+00j)  (0.000000000000000000e+00+2.534046650350587487e-03j)  (0.000000000000000000e+00+1.592188468119046241e-02j)
 (2.058970000000000056e+01+0.000000000000000000e+00j)  (0.000000000000000000e+00+0.000000000000000000e+00j)  (0.000000000000000000e+00+0.000000000000000000e+00j)  (1.484987811148051791e-02+0.000000000000000000e+00j)  (7.424939055740258954e-03+0.000000000000000000e+00j)  (4.665226798173106870e-02+0.000000000000000000e+00j)  (1.099746407051742326e-04+0.000000000000000000e+00j)  (-0.000000000000000000e+00-2.264344859727325521e-03j)  (-0.000000000000000000e+00-1.422729835302635575e-02j)
 (2.078960000000000363e+01+0.000000000000000000e+00j)  (0.000000000000000000e+00+0.000000000000000000e+00j)  (0.000000000000000000e+00+0.000000000000000000e+00j)  (9.399424826401671026e-03+0.000000000000000000e+00j)  (4.699712413200835513e-03+0.000000000000000000e+00j)  (2.952916398259301106e-02+0.000000000000000000e+00j)  (2.941419795931138077e-04+0.000000000000000000e+00j)  (-0.000000000000000000e+00-6.115094098949000641e-03j)  (-0.000000000000000000e+00-3.842226939453695367e-02j)
 (2.098950000000000315e+01+0.000000000000000000e+00j)  (0.000000000000000000e+00+0.000000000000000000e+00j)  (0.000000000000000000e+00+0.000000000000000000e+00j)  (5.001594076465640942e-04+0.000000000000000000e+00j)  (2.500797038232820471e-04+0.000000000000000000e+00j)  (1.571297120686268199e-03+0.000000000000000000e+00j)  (3.612408867168371402e-04+0.000000000000000000e+00j)  (-0.000000000000000000e+00-7.582265591743054221e-03j)  (-0.000000000000000000e+00-4.764077976117328528e-02j)
 (2.118940000000000268e+01+0.000000000000000000e+00j)  (0.000000000000000000e+00+0.000000000000000000e+00j)  (0.000000000000000000e+00+0.000000000000000000e+00j)  (-8.420254000993370597e-03+0.000000000000000000e+00j)  (-4.210127000496685298e-03+0.000000000000000000e+00j)  (-2.645300811088083931e-02+0.000000000000000000e+00j)  (2.905677907762265486e-04+0.000000000000000000e+00j)  (-0.000000000000000000e+00-6.156957145873775961e-03j)  (-0.000000000000000000e+00-3.868530267588846799e-02j)
 (2.138930000000000220e+01+0.000000000000000000e+00j)  (0.000000000000000000e+00+0.000000000000000000e+00j)  (0.000000000000000000e+00+0.000000000000000000e+00j)  (-1.399081830349146321e-02+0.000000000000000000e+00j)  (-6.995409151745731607e-03+0.000000000000000000e+00j)  (-4.395345199995839142e-02+0.000000000000000000e+00j)  (1.136918890117955282e-04+0.000000000000000000e+00j)  (-0.000000000000000000e+00-2.431789921639998433e-03j)  (-0.000000000000000000e+00-1.527938670579583567e-02j)
 (2.158920000000000172e+01+0.000000000000000000e+00j)  (0.000000000000000000e+00+0.000000000000000000e+00j)  (0.000000000000000000e+00+0.000000000000000000e+00j)  (-1.416880667411036035e-02+0.000000000000000000e+00j)  (-7.084403337055180175e-03+0.000000000000000000e+00j)  (-4.451261895751914416e-02+0.000000000000000000e+00j)  (-9.927962156837590740e-05+0.000000000000000000e+00j)  (0.000000000000000000e+00+2.143367605963981005e-03j)  (0.000000000000000000e+00+1.346717584967757099e-02j)
 (2.178910000000000124e+01+0.000000000000000000e+00j)  (0.000000000000000000e+00+0.000000000000000000e+00j)  (0.000000000000000000e+00+0.000000000000000000e+00j)  (-8.986361677371721216e-03+0.000000000000000000e+00j)  (-4.493180838685860608e-03+0.000000000000000000e+00j)  (-2.823148782813184737e-02+0.000000000000000000e+00j)  (-2.673133483392328182e-04+0.000000000000000000e+00j)  (0.000000000000000000e+00+5.824517278298377808e-03j)  (0.000000000000000000e+00+3.659652138441799735e-02j)
 (2.198900000000000077e+01+0.000000000000000000e+00j)  (0.000000000000000000e+00+0.000000000000000000e+00j)  (0.000000000000000000e+00+0.000000000000000000e+00j)  (-5.001505627124855358e-04+0.000000000000000000e+00j)  (-2.500752813562427679e-04+0.000000000000000000e+00j)  (-1.571269333506345725e-03+0.000000000000000000e+00j)  (-3.291297102494210162e-04+0.000000000000000000e+00j)  (0.000000000000000000e+00+7.237233198674517844e-03j)  (0.000000000000000000e+00+4.547287729854405242e-02j)
 (2.218890000000000384e+01+0.000000000000000000e+00j)  (0.000000000000000000e+00+0.000000000000000000e+00j)  (0.000000000000000000e+00+0.000000000000000000e+00j)  (8.022292266795504403e-03+0.000000000000000000e+00j)  (4.011146133397752202e-03+0.000000000000000000e+00j)  (2.520277445031496311e-02+0.000000000000000000e+00j)  (-2.653930222836074662e-04+0.000000000000000000e+00j)  (0.000000000000000000e+00+5.888779232148737969e-03j)  (0.000000000000000000e+00+3.700029114866123375e-02j)
 (2.238880000000000337e+01+0.000000000000000000e+00j)  (0.000000000000000000e+00+0.000000000000000000e+00j)  (0.000000000000000000e+00+0.000000000000000000e+00j)  (1.335860062697632328e-02+0.000000000000000000e+00j)  (6.679300313488161639e-03+0.000000000000000000e+00j)  (4.196728159194882540e-02+0.000000000000000000e+00j)  (-1.044369026584569062e-04+0.000000000000000000e+00j)  (0.000000000000000000e+00+2.338216926239660657e-03j)  (0.000000000000000000e+00+1.469145023594764857e-02j)
 (2.258870000000000289e+01+0.000000000000000000e+00j)  (0.000000000000000000e+00+0.000000000000000000e+00j)  (0.000000000000000000e+00+0.000000000000000000e+00j)  (1.354797363214315341e-02+0.000000000000000000e+00j)  (6.773986816071576704e-03+0.000000000000000000e+00j)  (4.256221443376915353e-02+0.000000000000000000e+00j)  (9.002359241317662176e-05+0.000000000000000000e+00j)  (-0.000000000000000000e+00-2.033515921943522889e-03j)  (-0.000000000000000000e+00-1.277695736267129255e-02j)
 (2.278860000000000241e+01+0.000000000000000000e+00j)  (0.000000000000000000e+00+0.000000000000000000e+00j)  (0.000000000000000000e+00+0.000000000000000000e+00j)  (8.609510937449342885e-03+0.000000000000000000e+00j)  (4.304755468724671442e-03+0.000000000000000000e+00j)  (2.704757631209182833e-02+0.000000000000000000e+00j)  (2.439671139365440276e-04+0.000000000000000000e+00j)  (-0.000000000000000000e+00-5.559668972654327988e-03j)  (-0.000000000000000000e+00-3.493243040176390035e-02j)
 (2.298850000000000193e+01+0.000000000000000000e+00j)  (0.000000000000000000e+00+0.000000000000000000e+00j)  (0.000000000000000000e+00+0.000000000000000000e+00j)  (5.001413064866099163e-04+0.000000000000000000e+00j)  (2.500706532433049582e-04+0.000000000000000000e+00j)  (1.571240254215134843e-03+0.000000000000000000e+00j)  (3.011151900878852308e-04+0.000000000000000000e+00j)  (-0.000000000000000000e+00-6.922186547335350097e-03j)  (-0.000000000000000000e+00-4.349338080777365861e-02j)
 (2.318840000000000146e+01+0.000000000000000000e+00j)  (0.000000000000000000e+00+0.000000000000000000e+00j)  (0.000000000000000000e+00+0.000000000000000000e+00j)  (-7.658618637639132316e-03+0.000000000000000000e+00j)  (-3.829309318819566158e-03+0.000000000000000000e+00j)  (-2.406026004865296705e-02+0.000000000000000000e+00j)  (2.433747359078766335e-04+0.000000000000000000e+00j)  (-0.000000000000000000e+00-5.643470726126206295e-03j)  (-0.000000000000000000e+00-3.545897234789429503e-02j)
 (2.338830000000000098e+01+0.000000000000000000e+00j)  (0.000000000000000000e+00+0.000000000000000000e+00j)  (0.000000000000000000e+00+0.000000000000000000e+00j)  (-1.278038709688002032e-02+0.000000000000000000e+00j)  (-6.390193548440010161e-03+0.000000000000000000e+00j)  (-4.015077021359205606e-02+0.000000000000000000e+00j)  (9.629893507034929443e-05+0.000000000000000000e+00j)  (-0.000000000000000000e+00-2.252268383105850407e-03j)  (-0.000000000000000000e+00-1.415141961255580311e-02j)
 (2.358820000000000405e+01+0.000000000000000000e+00j)  (0.000000000000000000e+00+0.000000000000000000e+00j)  (0.000000000000000000e+00+0.000000000000000000e+00j)  (-1.297972154800842125e-02+0.000000000000000000e+00j)  (-6.489860774004210624e-03+0.000000000000000000e+00j)  (-4.077699786086439598e-02+0.000000000000000000e+00j)  (-8.196148493703427800e-05+0.000000000000000000e+00j)  (0.000000000000000000e+00+1.933323898991752597e-03j)  (0.000000000000000000e+00+1.214743231616412927e-02j)
 (2.378810000000000358e+01+0.000000000000000000e+00j)  (0.000000000000000000e+00+0.000000000000000000e+00j)  (0.000000000000000000e+00+0.000000000000000000e+00j)  (-8.264307976387712251e-03+0.000000000000000000e+00j)  (-4.132153988193856126e-03+0.000000000000000000e+00j)  (-2.596308922562316074e-02+0.000000000000000000e+00j)  (-2.235267031865391764e-04+0.000000000000000000e+00j)  (0.000000000000000000e+00+5.317275568071712713e-03j)  (0.000000000000000000e+00+3.340942772353317630e-02j)
 (2.398800000000000310e+01+0.000000000000000000e+00j)  (0.000000000000000000e+00+0.000000000000000000e+00j)  (0.000000000000000000e+00+0.000000000000000000e+00j)  (-5.001316389824524665e-04+0.000000000000000000e+00j)  (-2.500658194912262332e-04+0.000000000000000000e+00j)  (-1.571209882855095297e-03+0.000000000000000000e+00j)  (-2.765289903667716162e-04+0.000000000000000000e+00j)  (0.000000000000000000e+00+6.633377420918118265e-03j)  (0.000000000000000000e+00+4.167873954808953840e-02j)
 (2.418790000000000262e+01+0.000000000000000000e+00j)  (0.000000000000000000e+00+0.000000000000000000e+00j)  (0.000000000000000000e+00+0.000000000000000000e+00j)  (7.324982564296668268e-03+0.000000000000000000e+00j)  (3.662491282148334134e-03+0.000000000000000000e+00j)  (2.301211141166773985e-02+0.000000000000000000e+00j)  (-2.240055784661192377e-04+0.000000000000000000e+00j)  (0.000000000000000000e+00+5.418224531380646213e-03j)  (0.000000000000000000e+00+3.404370876657087513e-02j)
 (2.438780000000000214e+01+0.000000000000000000e+00j)  (0.000000000000000000e+00+0.000000000000000000e+00j)  (0.000000000000000000e+00+0.000000000000000000e+00j)  (1.224953787648702143e-02+0.000000000000000000e+00j)  (6.124768938243510714e-03+0.000000000000000000e+00j)  (3.848305820264153604e-02+0.000000000000000000e+00j)  (-8.910398508442827158e-05+0.000000000000000000e+00j)  (0.000000000000000000e+00+2.173050167442020040e-03j)  (0.000000000000000000e+00+1.365367688383583959e-02j)
 (2.458770000000000167e+01+0.000000000000000000e+00j)  (0.000000000000000000e+00+0.000000000000000000e+00j)  (0.000000000000000000e+00+0.000000000000000000e+00j)  (1.245763809601175415e-02+0.000000000000000000e+00j)  (6.228819048005877074e-03+0.000000000000000000e+00j)  (3.913682432351086454e-02+0.000000000000000000e+00j)  (7.489810137285727936e-05+0.000000000000000000e+00j)  (-0.000000000000000000e+00-1.841572047125403060e-03j)  (-0.000000000000000000e+00-1.157093842861096553e-02j)
 (2.478760000000000119e+01+0.000000000000000000e+00j)  (0.000000000000000000e+00+0.000000000000000000e+00j)  (0.000000000000000000e+00+0.000000000000000000e+00j)  (7.946924394672587322e-03+0.000000000000000000e+00j)  (3.973462197336293661e-03+0.000000000000000000e+00j)  (2.496599929693691169e-02+0.000000000000000000e+00j)  (2.055300303392792311e-04+0.000000000000000000e+00j)  (-0.000000000000000000e+00-5.094596180037917581e-03j)  (-0.000000000000000000e+00-3.201029186442749114e-02j)
 (2.498750000000000426e+01+0.000000000000000000e+00j)  (0.000000000000000000e+00+0.000000000000000000e+00j)  (0.000000000000000000e+00+0.000000000000000000e+00j)  (5.001215602145291355e-04+0.000000000000000000e+00j)  (2.500607801072645677e-04+0.000000000000000000e+00j)  (1.571178219471830364e-03+0.000000000000000000e+00j)  (2.548337095485078306e-04+0.000000000000000000e+00j)  (-0.000000000000000000e+00-6.367657317343340499e-03j)  (-0.000000000000000000e+00-4.000917089748625560e-02j)
 (2.518740000000000379e+01+0.000000000000000000e+00j)  (0.000000000000000000e+00+0.000000000000000000e+00j)  (0.000000000000000000e+00+0.000000000000000000e+00j)  (-7.017808187936593750e-03+0.000000000000000000e+00j)  (-3.508904093968296875e-03+0.000000000000000000e+00j)  (-2.204709464752389880e-02+0.000000000000000000e+00j)  (2.068762499950251314e-04+0.000000000000000000e+00j)  (-0.000000000000000000e+00-5.210674859124696072e-03j)  (-0.000000000000000000e+00-3.273963571534235090e-02j)
 (2.538730000000000331e+01+0.000000000000000000e+00j)  (0.000000000000000000e+00+0.000000000000000000e+00j)  (0.000000000000000000e+00+0.000000000000000000e+00j)  (-1.176045877273072283e-02+0.000000000000000000e+00j)  (-5.880229386365361417e-03+0.000000000000000000e+00j)  (-3.694657088325647293e-02+0.000000000000000000e+00j)  (8.271074144546993411e-05+0.000000000000000000e+00j)  (-0.000000000000000000e+00-2.099802406298578988e-03j)  (-0.000000000000000000e+00-1.319344762723557302e-02j)
 (2.558720000000000283e+01+0.000000000000000000e+00j)  (0.000000000000000000e+00+0.000000000000000000e+00j)  (0.000000000000000000e+00+0.000000000000000000e+00j)  (-1.197631287642118500e-02+0.000000000000000000e+00j)  (-5.988156438210592500e-03+0.000000000000000000e+00j)  (-3.762469654965763799e-02+0.000000000000000000e+00j)  (-6.867643406708825353e-05+0.000000000000000000e+00j)  (0.000000000000000000e+00+1.757237653761400519e-03j)  (0.000000000000000000e+00+1.104104980733635992e-02j)
 (2.578710000000000235e+01+0.000000000000000000e+00j)  (0.000000000000000000e+00+0.000000000000000000e+00j)  (0.000000000000000000e+00+0.000000000000000000e+00j)  (-7.654125343148421474e-03+0.000000000000000000e+00j)  (-3.827062671574210737e-03+0.000000000000000000e+00j)  (-2.404614394769053615e-02+0.000000000000000000e+00j)  (-1.896032718191674286e-04+0.000000000000000000e+00j)  (0.000000000000000000e+00+4.889318530728051920e-03j)  (0.000000000000000000e+00+3.072049435439138526e-02j)
 (2.598700000000000188e+01+0.000000000000000000e+00j)  (0.000000000000000000e+00+0.000000000000000000e+00j)  (0.000000000000000000e+00+0.000000000000000000e+00j)  (-5.001110701981073331e-04+0.000000000000000000e+00j)  (-2.500555350990536665e-04+0.000000000000000000e+00j)  (-1.571145264113303413e-03+0.000000000000000000e+00j)  (-2.355932627661560890e-04+0.000000000000000000e+00j)  (0.000000000000000000e+00+6.122362119504098574e-03j)  (0.000000000000000000e+00+3.846793571450102950e-02j)
 (2.618690000000000140e+01+0.000000000000000000e+00j)  (0.000000000000000000e+00+0.000000000000000000e+00j)  (0.000000000000000000e+00+0.000000000000000000e+00j)  (6.734065582415038956e-03+0.000000000000000000e+00j)  (3.367032791207519478e-03+0.000000000000000000e+00j)  (2.115569096250695738e-02+0.000000000000000000e+00j)  (-1.916536051132022649e-04+0.000000000000000000e+00j)  (0.000000000000000000e+00+5.018813791738917923e-03j)  (0.000000000000000000e+00+3.153413707572422925e-02j)
 (2.638680000000000447e+01+0.000000000000000000e+00j)  (0.000000000000000000e+00+0.000000000000000000e+00j)  (0.000000000000000000e+00+0.000000000000000000e+00j)  (1.130840319762337065e-02+0.000000000000000000e+00j)  (5.654201598811685325e-03+0.000000000000000000e+00j)  (3.552639640948490607e-02+0.000000000000000000e+00j)  (-7.700347319791961756e-05+0.000000000000000000e+00j)  (0.000000000000000000e+00+2.031875246578865660e-03j)  (0.000000000000000000e+00+1.276664869532622738e-02j)
 (2.658670000000000400e+01+0.000000000000000000e+00j)  (0.000000000000000000e+00+0.000000000000000000e+00j)  (0.000000000000000000e+00+0.000000000000000000e+00j)  (1.153114908351955160e-02+0.000000000000000000e+00j)  (5.765574541759775802e-03+0.000000000000000000e+00j)  (3.622617324823369789e-02+0.000000000000000000e+00j)  (6.316905325140491779e-05+0.000000000000000000e+00j)  (-0.000000000000000000e+00-1.679456668079127354e-03j)  (-0.000000000000000000e+00-1.055233746091955617e-02j)
 (2.678660000000000352e+01+0.000000000000000000e+00j)  (0.000000000000000000e+00+0.000000000000000000e+00j)  (0.000000000000000000e+00+0.000000000000000000e+00j)  (7.383158786011641099e-03+0.000000000000000000e+00j)  (3.691579393005820550e-03+0.000000000000000000e+00j)  (2.319487740242110602e-02+0.000000000000000000e+00j)  (1.754413896170772921e-04+0.000000000000000000e+00j)  (-0.000000000000000000e+00-4.699478327116803252e-03j)  (-0.000000000000000000e+00-2.952769317634919982e-02j)
 (2.698650000000000304e+01+0.000000000000000000e+00j)  (0.000000000000000000e+00+0.000000000000000000e+00j)  (0.000000000000000000e+00+0.000000000000000000e+00j)  (5.001001689480064766e-04+0.000000000000000000e+00j)  (2.500500844740032383e-04+0.000000000000000000e+00j)  (1.571111016826071604e-03+0.000000000000000000e+00j)  (2.184507955587128172e-04+0.000000000000000000e+00j)  (-0.000000000000000000e+00-5.895222394345203502e-03j)  (-0.000000000000000000e+00-3.704077473070584853e-02j)
 (2.718640000000000256e+01+0.000000000000000000e+00j)  (0.000000000000000000e+00+0.000000000000000000e+00j)  (0.000000000000000000e+00+0.000000000000000000e+00j)  (-6.471170399001680701e-03+0.000000000000000000e+00j)  (-3.235585199500840350e-03+0.000000000000000000e+00j)  (-2.032978138563140691e-02+0.000000000000000000e+00j)  (1.780642558460063219e-04+0.000000000000000000e+00j)  (-0.000000000000000000e+00-4.840926085131864835e-03j)  (-0.000000000000000000e+00-3.041643565124292972e-02j)
 (2.738630000000000209e+01+0.000000000000000000e+00j)  (0.000000000000000000e+00+0.000000000000000000e+00j)  (0.000000000000000000e+00+0.000000000000000000e+00j)  (-1.088931749579670483e-02+0.000000000000000000e+00j)  (-5.444658747898352413e-03+0.000000000000000000e+00j)  (-3.420979984740173119e-02+0.000000000000000000e+00j)  (7.188666148034552413e-05+0.000000000000000000e+00j)  (-0.000000000000000000e+00-1.968709677299186698e-03j)  (-0.000000000000000000e+00-1.236976771850851510e-02j)
 (2.758620000000000161e+01+0.000000000000000000e+00j)  (0.000000000000000000e+00+0.000000000000000000e+00j)  (0.000000000000000000e+00+0.000000000000000000e+00j)  (-1.111821611538457884e-02+0.000000000000000000e+00j)  (-5.559108057692289419e-03+0.000000000000000000e+00j)  (-3.492890606911584067e-02+0.000000000000000000e+00j)  (-5.827167596837486022e-05+0.000000000000000000e+00j)  (0.000000000000000000e+00+1.607494107598783075e-03j)  (0.000000000000000000e+00+1.010018335824243441e-02j)
 (2.778610000000000468e+01+0.000000000000000000e+00j)  (0.000000000000000000e+00+0.000000000000000000e+00j)  (0.000000000000000000e+00+0.000000000000000000e+00j)  (-7.131668663876018256e-03+0.000000000000000000e+00j)  (-3.565834331938009128e-03+0.000000000000000000e+00j)  (-2.240479788226943519e-02+0.000000000000000000e+00j)  (-1.627934894207758501e-04+0.000000000000000000e+00j)  (0.000000000000000000e+00+4.523396176394619238e-03j)  (0.000000000000000000e+00+2.842133639407499676e-02j)
 (2.798600000000000421e+01+0.000000000000000000e+00j)  (0.000000000000000000e+00+0.000000000000000000e+00j)  (0.000000000000000000e+00+0.000000000000000000e+00j)  (-5.000888564808871756e-04+0.000000000000000000e+00j)  (-2.500444282404435878e-04+0.000000000000000000e+00j)  (-1.571075477662475448e-03+0.000000000000000000e+00j)  (-2.031120172074687427e-04+0.000000000000000000e+00j)  (0.000000000000000000e+00+5.684292913568221584e-03j)  (0.000000000000000000e+00+3.571546571623688410e-02j)
 (2.818590000000000373e+01+0.000000000000000000e+00j)  (0.000000000000000000e+00+0.000000000000000000e+00j)  (0.000000000000000000e+00+0.000000000000000000e+00j)  (6.226904863292406431e-03+0.000000000000000000e+00j)  (3.113452431646203215e-03+0.000000000000000000e+00j)  (1.956239857312197863e-02+0.000000000000000000e+00j)  (-1.658821510886866551e-04+0.000000000000000000e+00j)  (0.000000000000000000e+00+4.675537722370614289e-03j)  (0.000000000000000000e+00+2.937726992036295004e-02j)
 (2.838580000000000325e+01+0.000000000000000000e+00j)  (0.000000000000000000e+00+0.000000000000000000e+00j)  (0.000000000000000000e+00+0.000000000000000000e+00j)  (1.049971894932227173e-02+0.000000000000000000e+00j)  (5.249859474661135866e-03+0.000000000000000000e+00j)  (3.298583991594839643e-02+0.000000000000000000e+00j)  (-6.728090172790991740e-05+0.000000000000000000e+00j)  (0.000000000000000000e+00+1.909822220268105660e-03j)  (0.000000000000000000e+00+1.199976691371365534e-02j)
 (2.858570000000000277e+01+0.000000000000000000e+00j)  (0.000000000000000000e+00+0.000000000000000000e+00j)  (0.000000000000000000e+00+0.000000000000000000e+00j)  (1.073413310469373792e-02+0.000000000000000000e+00j)  (5.367066552346868961e-03+0.000000000000000000e+00j)  (3.372227370436084448e-02+0.000000000000000000e+00j)  (5.389830738193448557e-05+0.000000000000000000e+00j)  (-0.000000000000000000e+00-1.540720845327764581e-03j)  (-0.000000000000000000e+00-9.680634577828722831e-03j)
 (2.878560000000000230e+01+0.000000000000000000e+00j)  (0.000000000000000000e+00+0.000000000000000000e+00j)  (0.000000000000000000e+00+0.000000000000000000e+00j)  (6.897626147867957913e-03+0.000000000000000000e+00j)  (3.448813073933978957e-03+0.000000000000000000e+00j)  (2.166953163335084281e-02+0.000000000000000000e+00j)  (1.514516891789539606e-04+0.000000000000000000e+00j)  (-0.000000000000000000e+00-4.359627744029696828e-03j)  (-0.000000000000000000e+00-2.739234898605988344e-02j)
 (2.898550000000000182e+01+0.000000000000000000e+00j)  (0.000000000000000000e+00+0.000000000000000000e+00j)  (0.000000000000000000e+00+0.000000000000000000e+00j)  (5.000771328133227613e-04+0.000000000000000000e+00j)  (2.500385664066613806e-04+0.000000000000000000e+00j)  (1.571038646674582017e-03+0.000000000000000000e+00j)  (1.893324854240788181e-04+0.000000000000000000e+00j)  (-0.000000000000000000e+00-5.487896756259638166e-03j)  (-0.000000000000000000e+00-3.448147226624906359e-02j)
 (2.918540000000000489e+01+0.000000000000000000e+00j)  (0.000000000000000000e+00+0.000000000000000000e+00j)  (0.000000000000000000e+00+0.000000000000000000e+00j)  (-5.999355005632439446e-03+0.000000000000000000e+00j)  (-2.999677502816219723e-03+0.000000000000000000e+00j)  (-1.884752961197202342e-02+0.000000000000000000e+00j)  (1.549190674089806854e-04+0.000000000000000000e+00j)  (-0.000000000000000000e+00-4.521374949958066082e-03j)  (-0.000000000000000000e+00-2.840863665382635864e-02j)
 (2.938530000000000442e+01+0.000000000000000000e+00j)  (0.000000000000000000e+00+0.000000000000000000e+00j)  (0.000000000000000000e+00+0.000000000000000000e+00j)  (-1.013659867950719023e-02+0.000000000000000000e+00j)  (-5.068299339753595117e-03+0.000000000000000000e+00j)  (-3.184506394392778994e-02+0.000000000000000000e+00j)  (6.311974389478247377e-05+0.000000000000000000e+00j)  (-0.000000000000000000e+00-1.854792610271351755e-03j)  (-0.000000000000000000e+00-1.165400567672223060e-02j)
 (2.958520000000000394e+01+0.000000000000000000e+00j)  (0.000000000000000000e+00+0.000000000000000000e+00j)  (0.000000000000000000e+00+0.000000000000000000e+00j)  (-1.037597605815011870e-02+0.000000000000000000e+00j)  (-5.187988029075059349e-03+0.000000000000000000e+00j)  (-3.259709015810799415e-02+0.000000000000000000e+00j)  (-4.997753029278869763e-05+0.000000000000000000e+00j)  (0.000000000000000000e+00+1.478595229218212202e-03j)  (0.000000000000000000e+00+9.290287819489704765e-03j)
 (2.978510000000000346e+01+0.000000000000000000e+00j)  (0.000000000000000000e+00+0.000000000000000000e+00j)  (0.000000000000000000e+00+0.000000000000000000e+00j)  (-6.679274735177312058e-03+0.000000000000000000e+00j)  (-3.339637367588656029e-03+0.000000000000000000e+00j)  (-2.098356043934095430e-02+0.000000000000000000e+00j)  (-1.412425683002978261e-04+0.000000000000000000e+00j)  (0.000000000000000000e+00+4.206924021081201795e-03j)  (0.000000000000000000e+00+2.643288319767827035e-02j)
 (2.998500000000000298e+01+0.000000000000000000e+00j)  (0.000000000000000000e+00+0.000000000000000000e+00j)  (0.000000000000000000e+00+0.000000000000000000e+00j)  (-5.000649979625182212e-04+0.000000000000000000e+00j)  (-2.500324989812591106e-04+0.000000000000000000e+00j)  (-1.571000523916442262e-03+0.000000000000000000e+00j)  (-1.769078069365801831e-04+0.000000000000000000e+00j)  (0.000000000000000000e+00+5.304580590993356395e-03j)  (0.000000000000000000e+00+3.332966283007946645e-02j)
 (3.018490000000000251e+01+0.000000000000000000e+00j)  (0.000000000000000000e+00+0.000000000000000000e+00j)  (0.000000000000000000e+00+0.000000000000000000e+00j)  (5.786860362316815012e-03+0.000000000000000000e+00j)  (2.893430181158407506e-03+0.000000000000000000e+00j)  (1.817995800160447303e-02+0.000000000000000000e+00j)  (-1.450172565370040395e-04+0.000000000000000000e+00j)  (0.000000000000000000e+00+4.377331386843812989e-03j)  (0.000000000000000000e+00+2.750358425447308949e-02j)
 (3.038480000000000203e+01+0.000000000000000000e+00j)  (0.000000000000000000e+00+0.000000000000000000e+00j)  (0.000000000000000000e+00+0.000000000000000000e+00j)  (9.797343712809613442e-03+0.000000000000000000e+00j)  (4.898671856404806721e-03+0.000000000000000000e+00j)  (3.077926303285682952e-02+0.000000000000000000e+00j)  (-5.934723303814084687e-05+0.000000000000000000e+00j)  (0.000000000000000000e+00+1.803253806417302397e-03j)  (0.000000000000000000e+00+1.133017782159685509e-02j)
 (3.058470000000000510e+01+0.000000000000000000e+00j)  (0.000000000000000000e+00+0.000000000000000000e+00j)  (0.000000000000000000e+00+0.000000000000000000e+00j)  (1.004120320386401276e-02+0.000000000000000000e+00j)  (5.020601601932006379e-03+0.000000000000000000e+00j)  (3.154537021846147427e-02+0.000000000000000000e+00j)  (4.644964313535915914e-05+0.000000000000000000e+00j)  (-0.000000000000000000e+00-1.420648400402019316e-03j)  (-0.000000000000000000e+00-8.926197156074148695e-03j)
 (3.078460000000000463e+01+0.000000000000000000e+00j)  (0.000000000000000000e+00+0.000000000000000000e+00j)  (0.000000000000000000e+00+0.000000000000000000e+00j)  (6.475086040281267594e-03+0.000000000000000000e+00j)  (3.237543020140633797e-03+0.000000000000000000e+00j)  (2.034208273550945287e-02+0.000000000000000000e+00j)  (1.320205358179729713e-04+0.000000000000000000e+00j)  (-0.000000000000000000e+00-4.064199386941970762e-03j)  (-0.000000000000000000e+00-2.553611787348207540e-02j)
 (3.098450000000000415e+01+0.000000000000000000e+00j)  (0.000000000000000000e+00+0.000000000000000000e+00j)  (0.000000000000000000e+00+0.000000000000000000e+00j)  (5.000524519467447471e-04+0.000000000000000000e+00j)  (2.500262259733723735e-04+0.000000000000000000e+00j)  (1.570961109445456229e-03+0.000000000000000000e+00j)  (1.656660140718793455e-04+0.000000000000000000e+00j)  (-0.000000000000000000e+00-5.133078613010146236e-03j)  (-0.000000000000000000e+00-3.225208412186312407e-02j)
 (3.118440000000000367e+01+0.000000000000000000e+00j)  (0.000000000000000000e+00+0.000000000000000000e+00j)  (0.000000000000000000e+00+0.000000000000000000e+00j)  (-5.587973349637650848e-03+0.000000000000000000e+00j)  (-2.793986674818825424e-03+0.000000000000000000e+00j)  (-1.755513602367719458e-02+0.000000000000000000e+00j)  (1.360437080481883838e-04+0.000000000000000000e+00j)  (-0.000000000000000000e+00-4.242441409257925733e-03j)  (-0.000000000000000000e+00-2.665604552921965742e-02j)
 (3.138430000000000319e+01+0.000000000000000000e+00j)  (0.000000000000000000e+00+0.000000000000000000e+00j)  (0.000000000000000000e+00+0.000000000000000000e+00j)  (-9.479673938617051362e-03+0.000000000000000000e+00j)  (-4.739836969308525681e-03+0.000000000000000000e+00j)  (-2.978127400398595040e-02+0.000000000000000000e+00j)  (5.591597826378412982e-05+0.000000000000000000e+00j)  (-0.000000000000000000e+00-1.754883836624080394e-03j)  (-0.000000000000000000e+00-1.102626033808336466e-02j)
 (3.158420000000000272e+01+0.000000000000000000e+00j)  (0.000000000000000000e+00+0.000000000000000000e+00j)  (0.000000000000000000e+00+0.000000000000000000e+00j)  (-9.727594513281947325e-03+0.000000000000000000e+00j)  (-4.863797256640973662e-03+0.000000000000000000e+00j)  (-3.056013946002694368e-02+0.000000000000000000e+00j)  (-4.326443191627080625e-05+0.000000000000000000e+00j)  (0.000000000000000000e+00+1.366472470529880552e-03j)  (0.000000000000000000e+00+8.585799749498735506e-03j)
 (3.178410000000000224e+01+0.000000000000000000e+00j)  (0.000000000000000000e+00+0.000000000000000000e+00j)  (0.000000000000000000e+00+0.000000000000000000e+00j)  (-6.283723927446754551e-03+0.000000000000000000e+00j)  (-3.141861963723377275e-03+0.000000000000000000e+00j)  (-1.974090092765312665e-02+0.000000000000000000e+00j)  (-1.236626407463709422e-04+0.000000000000000000e+00j)  (0.000000000000000000e+00+3.930505739746729087e-03j)  (0.000000000000000000e+00+2.469609591376168214e-02j)
 (3.198400000000000176e+01+0.000000000000000000e+00j)  (0.000000000000000000e+00+0.000000000000000000e+00j)  (0.000000000000000000e+00+0.000000000000000000e+00j)  (-5.000394947844192476e-04+0.000000000000000000e+00j)  (-2.500197473922096238e-04+0.000000000000000000e+00j)  (-1.570920403319483018e-03+0.000000000000000000e+00j)  (-1.554615821403185563e-04+0.000000000000000000e+00j)  (0.000000000000000000e+00+4.972283243175949080e-03j)  (0.000000000000000000e+00+3.124177701665838136e-02j)
 (3.218390000000000128e+01+0.000000000000000000e+00j)  (0.000000000000000000e+00+0.000000000000000000e+00j)  (0.000000000000000000e+00+0.000000000000000000e+00j)  (5.401426207982379553e-03+0.000000000000000000e+00j)  (2.700713103991189776e-03+0.000000000000000000e+00j)  (1.696908089390481919e-02+0.000000000000000000e+00j)  (-1.278856340424267424e-04+0.000000000000000000e+00j)  (0.000000000000000000e+00+4.115858457458057562e-03j)  (0.000000000000000000e+00+2.586070138633130358e-02j)
 (3.238380000000000081e+01+0.000000000000000000e+00j)  (0.000000000000000000e+00+0.000000000000000000e+00j)  (0.000000000000000000e+00+0.000000000000000000e+00j)  (9.181590741510129230e-03+0.000000000000000000e+00j)  (4.590795370755064615e-03+0.000000000000000000e+00j)  (2.884481802179628129e-02+0.000000000000000000e+00j)  (-5.278562413956728965e-05+0.000000000000000000e+00j)  (0.000000000000000000e+00+1.709399095010919172e-03j)  (0.000000000000000000e+00+1.074047127787868851e-02j)
 (3.258370000000000033e+01+0.000000000000000000e+00j)  (0.000000000000000000e+00+0.000000000000000000e+00j)  (0.000000000000000000e+00+0.000000000000000000e+00j)  (9.433202354049390406e-03+0.000000000000000000e+00j)  (4.716601177024695203e-03+0.000000000000000000e+00j)  (2.963527921530751189e-02+0.000000000000000000e+00j)  (4.037942067440254674e-05+0.000000000000000000e+00j)  (-0.000000000000000000e+00-1.315710929428530332e-03j)  (-0.000000000000000000e+00-8.266855580280939655e-03j)
 (3.278360000000000696e+01+0.000000000000000000e+00j)  (0.000000000000000000e+00+0.000000000000000000e+00j)  (0.000000000000000000e+00+0.000000000000000000e+00j)  (6.104015204359366197e-03+0.000000000000000000e+00j)  (3.052007602179683098e-03+0.000000000000000000e+00j)  (1.917632932341578611e-02+0.000000000000000000e+00j)  (1.160644770823066356e-04+0.000000000000000000e+00j)  (-0.000000000000000000e+00-3.805011390875509113e-03j)  (-0.000000000000000000e+00-2.390759166479996048e-02j)
 (3.298350000000000648e+01+0.000000000000000000e+00j)  (0.000000000000000000e+00+0.000000000000000000e+00j)  (0.000000000000000000e+00+0.000000000000000000e+00j)  (5.000261264944493413e-04+0.000000000000000000e+00j)  (2.500130632472246706e-04+0.000000000000000000e+00j)  (1.570878405597923031e-03+0.000000000000000000e+00j)  (1.461706960875074502e-04+0.000000000000000000e+00j)  (-0.000000000000000000e+00-4.821221154402303977e-03j)  (-0.000000000000000000e+00-3.029262592000395854e-02j)
 (3.318340000000000600e+01+0.000000000000000000e+00j)  (0.000000000000000000e+00+0.000000000000000000e+00j)  (0.000000000000000000e+00+0.000000000000000000e+00j)  (-5.226103919892969261e-03+0.000000000000000000e+00j)  (-2.613051959946484631e-03+0.000000000000000000e+00j)  (-1.641828968163257241e-02+0.000000000000000000e+00j)  (1.204468871270138219e-04+0.000000000000000000e+00j)  (-0.000000000000000000e+00-3.996837234290550982e-03j)  (-0.000000000000000000e+00-2.511286898568268477e-02j)
 (3.338330000000000553e+01+0.000000000000000000e+00j)  (0.000000000000000000e+00+0.000000000000000000e+00j)  (0.000000000000000000e+00+0.000000000000000000e+00j)  (-8.901334861264150605e-03+0.000000000000000000e+00j)  (-4.450667430632075303e-03+0.000000000000000000e+00j)  (-2.796436820729017794e-02+0.000000000000000000e+00j)  (4.992163145514907289e-05+0.000000000000000000e+00j)  (-0.000000000000000000e+00-1.666548799356678623e-03j)  (-0.000000000000000000e+00-1.047123492981566310e-02j)
 (3.358320000000000505e+01+0.000000000000000000e+00j)  (0.000000000000000000e+00+0.000000000000000000e+00j)  (0.000000000000000000e+00+0.000000000000000000e+00j)  (-9.156310954862068724e-03+0.000000000000000000e+00j)  (-4.578155477431034362e-03+0.000000000000000000e+00j)  (-2.876539922977841557e-02+0.000000000000000000e+00j)  (-3.775848660752493136e-05+0.000000000000000000e+00j)  (0.000000000000000000e+00+1.268050807437831606e-03j)  (0.000000000000000000e+00+7.967398202050593806e-03j)
 (3.378310000000000457e+01+0.000000000000000000e+00j)  (0.000000000000000000e+00+0.000000000000000000e+00j)  (0.000000000000000000e+00+0.000000000000000000e+00j)  (-5.934925518068257314e-03+0.000000000000000000e+00j)  (-2.967462759034128657e-03+0.000000000000000000e+00j)  (-1.864511840716583449e-02+0.000000000000000000e+00j)  (-1.091369273542938537e-04+0.000000000000000000e+00j)  (0.000000000000000000e+00+3.686983730502844860e-03j)  (0.000000000000000000e+00+2.316600200330565934e-02j)
 (3.398300000000000409e+01+0.000000000000000000e+00j)  (0.000000000000000000e+00+0.000000000000000000e+00j)  (0.000000000000000000e+00+0.000000000000000000e+00j)  (-5.000123470973146314e-04+0.000000000000000000e+00j)  (-2.500061735486573157e-04+0.000000000000000000e+00j)  (-1.570835116345113257e-03+0.000000000000000000e+00j)  (-1.376874769354806633e-04+0.000000000000000000e+00j)  (0.000000000000000000e+00+4.679033528698440039e-03j)  (0.000000000000000000e+00+2.939923471931869120e-02j)
 (3.418290000000000362e+01+0.000000000000000000e+00j)  (0.000000000000000000e+00+0.000000000000000000e+00j)  (0.000000000000000000e+00+0.000000000000000000e+00j)  (5.061021879340507276e-03+0.000000000000000000e+00j)  (2.530510939670253638e-03+0.000000000000000000e+00j)  (1.589966915579334519e-02+0.000000000000000000e+00j)  (-1.136450975397115647e-04+0.000000000000000000e+00j)  (0.000000000000000000e+00+3.884719004690207877e-03j)  (0.000000000000000000e+00+2.440840937279081801e-02j)
 (3.438280000000000314e+01+0.000000000000000000e+00j)  (0.000000000000000000e+00+0.000000000000000000e+00j)  (0.000000000000000000e+00+0.000000000000000000e+00j)  (8.637351602848971840e-03+0.000000000000000000e+00j)  (4.318675801424485920e-03+0.000000000000000000e+00j)  (2.713504034198235132e-02+0.000000000000000000e+00j)  (-4.729429776691064112e-05+0.000000000000000000e+00j)  (0.000000000000000000e+00+1.626110381260135497e-03j)  (0.000000000000000000e+00+1.021715285538587863e-02j)
 (3.458270000000000266e+01+0.000000000000000000e+00j)  (0.000000000000000000e+00+0.000000000000000000e+00j)  (0.000000000000000000e+00+0.000000000000000000e+00j)  (8.895402899533994337e-03+0.000000000000000000e+00j)  (4.447701449766997168e-03+0.000000000000000000e+00j)  (2.794573239989734184e-02+0.000000000000000000e+00j)  (3.537075558673341433e-05+0.000000000000000000e+00j)  (-0.000000000000000000e+00-1.223216229229325902e-03j)  (-0.000000000000000000e+00-7.685694238997316588e-03j)
 (3.478260000000000218e+01+0.000000000000000000e+00j)  (0.000000000000000000e+00+0.000000000000000000e+00j)  (0.000000000000000000e+00+0.000000000000000000e+00j)  (5.775539406801076005e-03+0.000000000000000000e+00j)  (2.887769703400538002e-03+0.000000000000000000e+00j)  (1.814439217092461351e-02+0.000000000000000000e+00j)  (1.028035541006716347e-04+0.000000000000000000e+00j)  (-0.000000000000000000e+00-3.575774900862021578e-03j)  (-0.000000000000000000e+00-2.246725631887779712e-02j)
 (3.498250000000000171e+01+0.000000000000000000e+00j)  (0.000000000000000000e+00+0.000000000000000000e+00j)  (0.000000000000000000e+00+0.000000000000000000e+00j)  (4.999981566128612219e-04+0.000000000000000000e+00j)  (2.499990783064306109e-04+0.000000000000000000e+00j)  (1.570790535623403780e-03+0.000000000000000000e+00j)  (1.299209518681854040e-04+0.000000000000000000e+00j)  (-0.000000000000000000e+00-4.544959698728795634e-03j)  (-0.000000000000000000e+00-2.855682400077612718e-02j)
 (3.518240000000000123e+01+0.000000000000000000e+00j)  (0.000000000000000000e+00+0.000000000000000000e+00j)  (0.000000000000000000e+00+0.000000000000000000e+00j)  (-4.905307367375149642e-03+0.000000000000000000e+00j)  (-2.452653683687574821e-03+0.000000000000000000e+00j)  (-1.541047758894566015e-02+0.000000000000000000e+00j)  (1.074093689949412521e-04+0.000000000000000000e+00j)  (-0.000000000000000000e+00-3.778919383727622101e-03j)  (-0.000000000000000000e+00-2.374365074885353283e-02j)
 (3.538230000000000075e+01+0.000000000000000000e+00j)  (0.000000000000000000e+00+0.000000000000000000e+00j)  (0.000000000000000000e+00+0.000000000000000000e+00j)  (-8.388261943040839150e-03+0.000000000000000000e+00j)  (-4.194130971520419575e-03+0.000000000000000000e+00j)  (-2.635250209664394272e-02+0.000000000000000000e+00j)  (4.487796528498115583e-05+0.000000000000000000e+00j)  (-0.000000000000000000e+00-1.587885631102788986e-03j)  (-0.000000000000000000e+00-9.976979666826627305e-03j)
 (3.558220000000000738e+01+0.000000000000000000e+00j)  (0.000000000000000000e+00+0.000000000000000000e+00j)  (0.000000000000000000e+00+0.000000000000000000e+00j)  (-8.649131268132333183e-03+0.000000000000000000e+00j)  (-4.324565634066166592e-03+0.000000000000000000e+00j)  (-2.717204725189830902e-02+0.000000000000000000e+00j)  (-3.318971506312671545e-05+0.000000000000000000e+00j)  (0.000000000000000000e+00+1.180963079319187654e-03j)  (0.000000000000000000e+00+7.420209868299880440e-03j)
 (3.578210000000000690e+01+0.000000000000000000e+00j)  (0.000000000000000000e+00+0.000000000000000000e+00j)  (0.000000000000000000e+00+0.000000000000000000e+00j)  (-5.625043695051136147e-03+0.000000000000000000e+00j)  (-2.812521847525568074e-03+0.000000000000000000e+00j)  (-1.767159594849423282e-02+0.000000000000000000e+00j)  (-9.699849604993398015e-05+0.000000000000000000e+00j)  (0.000000000000000000e+00+3.470809885508343781e-03j)  (0.000000000000000000e+00+2.180774167663969074e-02j)
 (3.598200000000000642e+01+0.000000000000000000e+00j)  (0.000000000000000000e+00+0.000000000000000000e+00j)  (0.000000000000000000e+00+0.000000000000000000e+00j)  (-4.999835550621079981e-04+0.000000000000000000e+00j)  (-2.499917775310539990e-04+0.000000000000000000e+00j)  (-1.570744663498826197e-03+0.000000000000000000e+00j)  (-1.227926050741349063e-04+0.000000000000000000e+00j)  (0.000000000000000000e+00+4.418323515777523164e-03j)  (0.000000000000000000e+00+2.776114539669938611e-02j)
 (3.618190000000000595e+01+0.000000000000000000e+00j)  (0.000000000000000000e+00+0.000000000000000000e+00j)  (0.000000000000000000e+00+0.000000000000000000e+00j)  (4.758184098109297967e-03+0.000000000000000000e+00j)  (2.379092049054648984e-03+0.000000000000000000e+00j)  (1.494827620704794642e-02+0.000000000000000000e+00j)  (-1.016784120024603579e-04+0.000000000000000000e+00j)  (0.000000000000000000e+00+3.678918135231820305e-03j)  (0.000000000000000000e+00+2.311532437360509784e-02j)
 (3.638180000000000547e+01+0.000000000000000000e+00j)  (0.000000000000000000e+00+0.000000000000000000e+00j)  (0.000000000000000000e+00+0.000000000000000000e+00j)  (8.152838399679170761e-03+0.000000000000000000e+00j)  (4.076419199839585381e-03+0.000000000000000000e+00j)  (2.561289722233684937e-02+0.000000000000000000e+00j)  (-4.265037622175877718e-05+0.000000000000000000e+00j)  (0.000000000000000000e+00+1.551697457624783873e-03j)  (0.000000000000000000e+00+9.749602666935960893e-03j)
 (3.658170000000000499e+01+0.000000000000000000e+00j)  (0.000000000000000000e+00+0.000000000000000000e+00j)  (0.000000000000000000e+00+0.000000000000000000e+00j)  (8.416296345139821430e-03+0.000000000000000000e+00j)  (4.208148172569910715e-03+0.000000000000000000e+00j)  (2.644057476832589043e-02+0.000000000000000000e+00j)  (3.119249684831481201e-05+0.000000000000000000e+00j)  (-0.000000000000000000e+00-1.141074561955998179e-03j)  (-0.000000000000000000e+00-7.169582922078310272e-03j)
 (3.678160000000000451e+01+0.000000000000000000e+00j)  (0.000000000000000000e+00+0.000000000000000000e+00j)  (0.000000000000000000e+00+0.000000000000000000e+00j)  (5.482713595987318694e-03+0.000000000000000000e+00j)  (2.741356797993659347e-03+0.000000000000000000e+00j)  (1.722445275489063732e-02+0.000000000000000000e+00j)  (9.166476043089501918e-05+0.000000000000000000e+00j)  (-0.000000000000000000e+00-3.371576552265008724e-03j)  (-0.000000000000000000e+00-2.118424025522270757e-02j)
 (3.698150000000000404e+01+0.000000000000000000e+00j)  (0.000000000000000000e+00+0.000000000000000000e+00j)  (0.000000000000000000e+00+0.000000000000000000e+00j)  (4.999685424669249442e-04+0.000000000000000000e+00j)  (2.499842712334624721e-04+0.000000000000000000e+00j)  (1.570697500040087917e-03+0.000000000000000000e+00j)  (1.162343855255577657e-04+0.000000000000000000e+00j)  (-0.000000000000000000e+00-4.298521928313415313e-03j)  (-0.000000000000000000e+00-2.700840982256811490e-02j)
 (3.718140000000000356e+01+0.000000000000000000e+00j)  (0.000000000000000000e+00+0.000000000000000000e+00j)  (0.000000000000000000e+00+0.000000000000000000e+00j)  (-4.618959257284122565e-03+0.000000000000000000e+00j)  (-2.309479628642061282e-03+0.000000000000000000e+00j)  (-1.451088846991436566e-02+0.000000000000000000e+00j)  (9.639902222957805156e-05+0.000000000000000000e+00j)  (-0.000000000000000000e+00-3.584250605126834254e-03j)  (-0.000000000000000000e+00-2.252051073938246550e-02j)
 (3.738130000000000308e+01+0.000000000000000000e+00j)  (0.000000000000000000e+00+0.000000000000000000e+00j)  (0.000000000000000000e+00+0.000000000000000000e+00j)  (-7.929984772165960677e-03+0.000000000000000000e+00j)  (-3.964992386082980338e-03+0.000000000000000000e+00j)  (-2.491278190331551110e-02+0.000000000000000000e+00j)  (4.059214502631428159e-05+0.000000000000000000e+00j)  (-0.000000000000000000e+00-1.517387150872161802e-03j)  (-0.000000000000000000e+00-9.534024651663060637e-03j)
 (3.758120000000000260e+01+0.000000000000000000e+00j)  (0.000000000000000000e+00+0.000000000000000000e+00j)  (0.000000000000000000e+00+0.000000000000000000e+00j)  (-8.195826044399303484e-03+0.000000000000000000e+00j)  (-4.097913022199651742e-03+0.000000000000000000e+00j)  (-2.574794689118474825e-02+0.000000000000000000e+00j)  (-2.935929361697761915e-05+0.000000000000000000e+00j)  (0.000000000000000000e+00+1.103357485278359286e-03j)  (0.000000000000000000e+00+6.932599540067604579e-03j)
 (3.778110000000000213e+01+0.000000000000000000e+00j)  (0.000000000000000000e+00+0.000000000000000000e+00j)  (0.000000000000000000e+00+0.000000000000000000e+00j)  (-5.347901019829916745e-03+0.000000000000000000e+00j)  (-2.673950509914958373e-03+0.000000000000000000e+00j)  (-1.680092655602302698e-02+0.000000000000000000e+00j)  (-8.675282842338654266e-05+0.000000000000000000e+00j)  (0.000000000000000000e+00+3.277617285946809230e-03j)  (0.000000000000000000e+00+2.059387677361882579e-02j)
 (3.798100000000000165e+01+0.000000000000000000e+00j)  (0.000000000000000000e+00+0.000000000000000000e+00j)  (0.000000000000000000e+00+0.000000000000000000e+00j)  (-4.999531188494071247e-04+0.000000000000000000e+00j)  (-2.499765594247035623e-04+0.000000000000000000e+00j)  (-1.570649045316602167e-03+0.000000000000000000e+00j)  (-1.101870767999600079e-04+0.000000000000000000e+00j)  (0.000000000000000000e+00+4.185015363939281752e-03j)  (0.000000000000000000e+00+2.629522704502412073e-02j)
 (3.818090000000000117e+01+0.000000000000000000e+00j)  (0.000000000000000000e+00+0.000000000000000000e+00j)  (0.000000000000000000e+00+0.000000000000000000e+00j)  (4.487012576664229681e-03+0.000000000000000000e+00j)  (2.243506288332114840e-03+0.000000000000000000e+00j)  (1.409636574741335302e-02+0.000000000000000000e+00j)  (-9.152483288322080615e-05+0.000000000000000000e+00j)  (0.000000000000000000e+00+3.494500491830965488e-03j)  (0.000000000000000000e+00+2.195659414620415931e-02j)
 (3.838080000000000780e+01+0.000000000000000000e+00j)  (0.000000000000000000e+00+0.000000000000000000e+00j)  (0.000000000000000000e+00+0.000000000000000000e+00j)  (7.718719047513006304e-03+0.000000000000000000e+00j)  (3.859359523756503152e-03+0.000000000000000000e+00j)  (2.424907105479046782e-02+0.000000000000000000e+00j)  (-3.868632388279615432e-05+0.000000000000000000e+00j)  (0.000000000000000000e+00+1.484812059680823068e-03j)  (0.000000000000000000e+00+9.329349317309606343e-03j)
 (3.858070000000000732e+01+0.000000000000000000e+00j)  (0.000000000000000000e+00+0.000000000000000000e+00j)  (0.000000000000000000e+00+0.000000000000000000e+00j)  (7.986759376813310982e-03+0.000000000000000000e+00j)  (3.993379688406655491e-03+0.000000000000000000e+00j)  (2.509114458418609112e-02+0.000000000000000000e+00j)  (2.767288140485131182e-05+0.000000000000000000e+00j)  (-0.000000000000000000e+00-1.067639135616147220e-03j)  (-0.000000000000000000e+00-6.708174530273289596e-03j)
 (3.878060000000000684e+01+0.000000000000000000e+00j)  (0.000000000000000000e+00+0.000000000000000000e+00j)  (0.000000000000000000e+00+0.000000000000000000e+00j)  (5.220024690209872954e-03+0.000000000000000000e+00j)  (2.610012345104936477e-03+0.000000000000000000e+00j)  (1.639919121832067450e-02+0.000000000000000000e+00j)  (8.221950981708303359e-05+0.000000000000000000e+00j)  (-0.000000000000000000e+00-3.188521922412370594e-03j)  (-0.000000000000000000e+00-2.003407409452141741e-02j)
 (3.898050000000000637e+01+0.000000000000000000e+00j)  (0.000000000000000000e+00+0.000000000000000000e+00j)  (0.000000000000000000e+00+0.000000000000000000e+00j)  (4.999372842322708519e-04+0.000000000000000000e+00j)  (2.499686421161354259e-04+0.000000000000000000e+00j)  (1.570599299399734385e-03+0.000000000000000000e+00j)  (1.045989556583789870e-04+0.000000000000000000e+00j)  (-0.000000000000000000e+00-4.077319591041442606e-03j)  (-0.000000000000000000e+00-2.561855454710706970e-02j)
 (3.918040000000000589e+01+0.000000000000000000e+00j)  (0.000000000000000000e+00+0.000000000000000000e+00j)  (0.000000000000000000e+00+0.000000000000000000e+00j)  (-4.361787080717993703e-03+0.000000000000000000e+00j)  (-2.180893540358996852e-03+0.000000000000000000e+00j)  (-1.370295824930651933e-02+0.000000000000000000e+00j)  (8.701528612354387723e-05+0.000000000000000000e+00j)  (-0.000000000000000000e+00-3.409293716434899559e-03j)  (-0.000000000000000000e+00-2.142122418696344732e-02j)
 (3.938030000000000541e+01+0.000000000000000000e+00j)  (0.000000000000000000e+00+0.000000000000000000e+00j)  (0.000000000000000000e+00+0.000000000000000000e+00j)  (-7.518158909527514547e-03+0.000000000000000000e+00j)  (-3.759079454763757273e-03+0.000000000000000000e+00j)  (-2.361899279869228777e-02+0.000000000000000000e+00j)  (3.691804309070080862e-05+0.000000000000000000e+00j)  (-0.000000000000000000e+00-1.453843612324725015e-03j)  (-0.000000000000000000e+00-9.134768823895605960e-03j)
 (3.958020000000000493e+01+0.000000000000000000e+00j)  (0.000000000000000000e+00+0.000000000000000000e+00j)  (0.000000000000000000e+00+0.000000000000000000e+00j)  (-7.788232422937646678e-03+0.000000000000000000e+00j)  (-3.894116211468823339e-03+0.000000000000000000e+00j)  (-2.446745376435074601e-02+0.000000000000000000e+00j)  (-2.611822667532876183e-05+0.000000000000000000e+00j)  (0.000000000000000000e+00+1.033764635454847546e-03j)  (0.000000000000000000e+00+6.495334768571760231e-03j)
 (3.978010000000000446e+01+0.000000000000000000e+00j)  (0.000000000000000000e+00+0.000000000000000000e+00j)  (0.000000000000000000e+00+0.000000000000000000e+00j)  (-5.098561750525429717e-03+0.000000000000000000e+00j)  (-2.549280875262714859e-03+0.000000000000000000e+00j)  (-1.601760413932460519e-02+0.000000000000000000e+00j)  (-7.802699726233429151e-05+0.000000000000000000e+00j)  (0.000000000000000000e+00+3.103921753795385423e-03j)  (0.000000000000000000e+00+1.950251555808225901e-02j)
 (3.998000000000000398e+01+0.000000000000000000e+00j)  (0.000000000000000000e+00+0.000000000000000000e+00j)  (0.000000000000000000e+00+0.000000000000000000e+00j)  (-4.999210386391916318e-04+0.000000000000000000e+00j)  (-2.499605193195958159e-04+0.000000000000000000e+00j)  (-1.570548262363863443e-03+0.000000000000000000e+00j)  (-9.942468237097985926e-05+0.000000000000000000e+00j)  (0.000000000000000000e+00+3.974998801191773935e-03j)  (0.000000000000000000e+00+2.497565406370462829e-02j)
 (4.017990000000000350e+01+0.000000000000000000e+00j)  (0.000000000000000000e+00+0.000000000000000000e+00j)  (0.000000000000000000e+00+0.000000000000000000e+00j)  (4.242781214390373666e-03+0.000000000000000000e+00j)  (2.121390607195186833e-03+0.000000000000000000e+00j)  (1.332909029391757955e-02+0.000000000000000000e+00j)  (-8.283478063180827258e-05+0.000000000000000000e+00j)  (0.000000000000000000e+00+3.328293202307992804e-03j)  (0.000000000000000000e+00+2.091228294672727722e-02j)
 (4.037980000000000302e+01+0.000000000000000000e+00j)  (0.000000000000000000e+00+0.000000000000000000e+00j)  (0.000000000000000000e+00+0.000000000000000000e+00j)  (7.327509400100647337e-03+0.000000000000000000e+00j)  (3.663754700050323668e-03+0.000000000000000000e+00j)  (2.302004970046634541e-02+0.000000000000000000e+00j)  (-3.527421192384482760e-05+0.000000000000000000e+00j)  (0.000000000000000000e+00+1.424365622642469621e-03j)  (0.000000000000000000e+00+8.949553152238868062e-03j)
 (4.057970000000000255e+01+0.000000000000000000e+00j)  (0.000000000000000000e+00+0.000000000000000000e+00j)  (0.000000000000000000e+00+0.000000000000000000e+00j)  (7.599466378590434210e-03+0.000000000000000000e+00j)  (3.799733189295217105e-03+0.000000000000000000e+00j)  (2.387442774618233829e-02+0.000000000000000000e+00j)  (2.468216127717630463e-05+0.000000000000000000e+00j)  (-0.000000000000000000e+00-1.001594699979431154e-03j)  (-0.000000000000000000e+00-6.293205102659708491e-03j)
